nep3 1 C 
cutoff 6 4 45 19
n_max 10 8
basis_size 10 8
l_max 4 2 0
ANN 50 0
 -3.7168022e-07
 -2.9462339e-05
  1.6255665e-06
 -1.5485723e-06
  4.5393544e-06
 -2.3174200e-06
  2.9641581e-06
 -2.4287378e-06
 -4.7965646e-06
  3.2506166e-05
 -4.2852826e-06
  9.4288708e-08
 -3.5524590e-05
 -7.8224421e-06
  4.3080668e-06
  4.8487518e-06
  7.1558397e-06
  9.8545124e-06
 -6.9634816e-06
 -2.7437470e-06
 -3.1938689e-06
 -9.4706330e-08
 -4.4896201e-06
  2.0527455e-05
  8.9522155e-06
  1.3731014e-06
 -6.8366695e-08
 -8.0468189e-06
 -3.3471233e-06
 -1.7644705e-05
 -1.0961006e-05
 -6.9773332e-06
  3.2317832e-06
 -1.8733244e-05
  2.7407489e-06
 -8.0421605e-06
  3.8295125e-06
 -4.0727032e-06
  2.1556716e-05
 -3.6787038e-05
  2.6205924e-05
 -1.8292701e-07
 -1.0334997e-05
 -3.8526232e-06
  5.2112232e-06
 -3.9164652e-07
  2.1404649e-05
 -4.5656739e-06
 -3.0954678e-05
  9.6192196e-07
 -1.4385761e-05
  1.6929639e-06
 -1.3619918e-05
 -2.7867607e-06
  6.0893685e-06
  1.1622764e-05
  1.7971370e-01
  1.2326791e+00
 -5.5560082e-01
 -1.7283155e+00
 -5.3085762e-01
  3.0676427e-01
 -2.0171852e+00
  8.4802818e-01
 -1.1112528e+00
 -1.0707143e-01
 -6.2571293e-01
 -2.4918583e-01
 -1.1768447e-02
 -1.3742554e+00
 -3.4592069e-06
  5.8769560e-01
 -3.5902873e-02
 -6.5572280e-01
  1.5924057e-02
 -1.0084695e-05
  1.9555759e+00
 -5.6851584e-01
  1.0531535e+00
 -1.0853775e+00
 -7.9547317e-04
  3.6784461e-01
 -1.0007545e+00
  1.7080559e-01
 -4.6747817e-05
  2.1852777e+00
 -9.2210251e-01
  9.5727408e-01
  1.6685741e-01
  8.3029938e-01
 -1.5458825e-02
  2.7323657e-01
  1.5555251e-01
  1.6963006e-05
  9.3940431e-01
  1.8515993e-02
  1.0815533e-01
  2.8656182e-01
 -5.2401127e-04
  4.4117451e-02
 -1.2175079e-01
 -1.0994510e-01
 -4.4089829e-06
  2.7916300e-01
  5.1543623e-01
 -1.3621737e-02
  1.9311944e-01
  6.6957512e-04
  8.8412575e-02
  1.7186041e-01
  3.4917396e-01
  6.6504486e-05
  2.2151819e-06
  1.1828402e-05
 -1.7632198e-06
  2.8687729e-05
 -3.2936646e-07
  1.0490845e-05
  4.4681542e-06
  3.1600597e-05
  5.7846933e-07
  2.9877060e-07
  2.9316927e-06
  3.0707837e-05
  4.8866100e-06
 -4.9061793e-05
 -5.8601131e-07
  3.4621571e-06
 -2.7443043e-06
 -1.3072487e-05
  1.7956552e-06
 -1.4215669e-06
 -6.4231070e-05
  9.1096308e-07
  4.0080608e-06
  1.1848870e-05
 -3.8695953e-06
 -5.9110553e-06
  4.2183192e-06
  1.8016266e-05
 -6.1990079e-07
  3.9554504e-07
 -7.9478414e-06
  3.3129113e-06
 -4.5827842e-06
 -3.0586514e-06
 -1.9518831e-05
  1.0929353e-05
  6.5921840e-06
 -3.4651832e-06
 -8.6429378e-07
  2.4032502e-06
  7.9402952e-07
  5.8654464e-06
  7.5627368e-06
  3.4660529e-06
  9.6528693e-06
 -1.7786855e-05
  1.7513683e-05
 -2.2517085e-07
 -1.7541668e-05
  5.4105417e-06
  5.8160904e-06
 -8.9373234e-06
 -2.0527423e-06
  1.1045590e-05
 -1.3966577e-06
  3.6679544e-06
  8.5964001e-07
 -2.4791703e-05
 -7.0527799e-06
  1.3096123e-06
  7.2551607e-06
  4.1267435e-07
  6.8963436e-06
  7.1267351e-07
 -2.2798438e-05
  2.1153946e-06
 -7.1724257e-06
 -5.1770985e-07
  1.7102600e-05
  1.5289124e-05
 -2.7739509e-06
  1.5310650e-05
 -1.9574638e-06
 -9.2244081e-06
 -9.4555762e-06
  9.1124266e-06
  3.5611861e-06
  1.0474025e-06
 -9.6407803e-06
 -8.4131052e-06
  3.9860715e-06
  1.2748060e-05
 -4.0277728e-06
 -7.4769268e-06
 -4.9136902e-06
 -1.1286425e-06
 -3.7134546e-06
 -1.6326479e-05
  8.5989523e-06
  5.3202134e-06
 -5.6862018e-06
 -2.8520561e-05
  3.1952518e-06
  8.7902808e-06
 -1.9622748e-06
  2.5290153e-06
 -5.9594726e-07
  2.8351469e-05
 -1.5535350e-05
  1.9642215e-07
  3.5481223e-06
 -3.2208891e-06
 -1.2830179e-06
  1.7496275e-05
  8.6276814e-06
  6.1651156e-07
  5.3950203e-06
  3.8929934e-06
  9.8115015e-06
  6.8510299e-06
  2.2714239e-06
 -1.4014352e-05
  2.1172309e-06
  1.1014555e-05
  5.1045413e-06
  2.2049583e-06
  5.7587472e-06
  1.0885766e-05
  7.9751617e-06
 -3.3795070e-06
  2.8455815e-06
 -2.2862532e-06
 -3.1135523e-06
  1.9683474e-05
 -7.7323393e-06
 -8.0824935e-07
  2.6718822e-05
  2.5749821e-07
  6.3466414e-06
 -1.4315567e-06
  1.3210874e-05
 -3.8621602e-06
  2.8500021e-05
  6.1093961e-06
 -6.0080697e-06
  5.5672976e-05
 -8.2192664e-06
 -7.8687681e-06
  6.2544750e-06
 -1.0565755e-06
 -5.6279669e-06
  1.0055654e-05
 -1.9713640e-05
 -1.2112182e-06
 -1.1000828e-05
 -6.4464848e-06
  1.1232928e-05
 -7.3406022e-07
  7.5037551e-06
  4.7479334e-06
  5.4748002e-06
  3.0241670e-05
  1.1961390e-05
 -1.5539136e-06
 -4.0749424e-06
  4.0327009e-06
  7.1974937e-05
 -4.9879482e-06
  3.3409422e-06
  1.1056636e-06
 -3.2892189e-05
  1.2166265e-06
 -4.4204676e-06
  1.6912436e-06
  7.7307814e-06
 -1.7606593e-05
 -1.1249144e-05
 -1.7329663e-05
  4.2507219e-01
  1.0201049e+00
  2.2907324e-01
  7.8474218e-04
 -1.5421669e-01
  2.4352536e-05
 -1.6036613e+00
  4.0122387e-01
 -7.3597729e-02
  2.8299284e-05
 -1.4133333e-03
 -6.6596060e-04
  8.2387663e-03
  3.5304317e-01
  3.3022490e-01
  9.5288060e-06
  3.4751880e-04
  3.2884487e-05
  5.7110272e-02
  3.7562839e-07
 -4.9574329e-03
 -5.7301710e-05
 -2.5952214e-01
 -4.1745463e-01
 -1.4574081e-01
 -3.7764176e-04
  4.2500155e-06
 -6.8698406e-05
  8.2629100e-05
  3.7793759e-02
  1.6924930e-01
  1.5509113e-06
  4.4794238e-01
 -1.8220835e-05
 -5.2572450e-05
  3.9269370e-01
  2.6788182e-05
  5.8647574e-06
 -4.1578889e-05
 -4.2647913e-01
 -6.8212203e-06
 -2.1431437e-01
 -1.9033524e-01
 -1.1918529e-06
 -3.1589109e-01
  5.3392857e-02
  1.8879387e-05
  1.1106259e-01
  5.2448886e-06
  7.5598828e-06
 -7.3051035e-02
  2.4605235e-05
  1.8440560e-06
 -3.1240747e-06
 -1.5893379e-07
 -6.6838920e-06
 -1.6357790e-05
 -2.6568505e-06
 -2.1961837e-06
  1.0125261e-06
 -1.8149381e-06
 -1.6364833e-05
 -1.8628444e-06
 -1.3713772e-06
  3.0089293e-06
  1.3635674e-05
 -1.3653684e-05
 -3.8709932e-06
  1.6686312e-06
 -1.3953381e-06
  1.1933792e-05
 -8.3760115e-06
 -2.8778175e-07
 -4.2665438e-06
 -7.8413768e-07
  1.5688020e-06
 -4.2663287e-06
 -1.3875851e-05
 -2.0314062e-06
  1.1483418e-05
 -3.7365819e-05
  3.3895092e-06
 -1.4481273e-06
 -8.6515711e-06
  5.1949182e-06
 -2.2902434e-06
  3.7637237e-06
 -9.5102287e-06
  1.4297534e-06
  4.6141208e-06
  4.8795014e-06
  2.6583490e-05
 -2.0600922e-07
 -1.4283336e-05
  7.4668783e-06
 -2.1260588e-05
 -1.4868754e-06
 -1.2429072e-05
 -4.5410961e-06
 -1.4283311e-05
 -1.1833253e-05
 -6.1223204e-06
 -6.7076185e-06
  6.0163347e-06
  9.2663795e-06
  2.2994574e-05
 -6.9134040e-07
 -9.6665508e-06
 -5.7844136e-06
  1.1915909e-06
 -6.3921620e-06
 -5.7019529e-06
  1.2252705e-06
  3.1224608e-06
  1.0384386e-05
 -7.7970844e-07
  3.1836298e-06
 -1.7099033e-05
 -1.5004598e-05
 -5.5153555e-06
  1.7444592e-07
 -6.1602141e-06
  1.1279633e-05
  5.0061221e-06
 -1.9496361e-05
  4.5941338e-06
  3.3607953e-06
  5.7053544e-06
  8.8966508e-06
  5.0789331e-06
  3.0424685e-06
 -4.0333603e-06
 -6.6856783e-06
  4.3747718e-06
 -1.6660704e-06
 -9.1177594e-07
  2.4834474e-06
  6.6852185e-06
 -5.9616341e-06
  1.7919483e-05
  1.4378076e-06
 -4.8881552e-06
 -4.0427954e-06
  1.1509663e-06
 -3.2389542e-06
  2.3530340e-06
  9.5352698e-06
 -8.3169643e-06
  1.1182890e-05
  2.5327330e-05
 -3.7155144e-07
 -1.1339001e-05
 -1.1147104e-06
 -7.1327404e-06
  1.1767610e-06
  8.8831921e-06
 -2.2758686e-06
  2.0530335e-06
 -9.8927399e-07
 -1.5093359e-06
  1.6471995e-05
  3.7529924e-06
  4.4965732e-06
 -1.4981924e-06
  1.3038485e-05
  1.5000462e-06
 -5.7072798e-06
 -5.0884268e-05
 -4.0566374e-06
  1.9645579e-05
  3.7600219e-06
  3.3396350e-07
 -1.0941951e-05
 -2.3820728e-07
  1.4627935e-05
 -1.4562124e-05
  1.7194934e-05
 -8.6056053e-07
  9.6615240e-06
  1.8710147e-05
 -5.2781193e-06
 -1.1989983e-05
  1.2529307e-05
  1.7829718e-05
  1.2652163e-05
  1.6484539e-05
 -6.2317952e-07
 -1.9085287e-06
 -6.1396690e-06
 -5.1135189e-06
 -2.5327832e-05
  3.9181559e-06
  1.7179873e-05
 -1.2738422e-05
 -1.4974481e-05
 -1.8741277e-05
  9.9194347e-07
  1.3912019e-05
 -1.4019135e-05
 -2.1965536e-06
 -6.2566869e-06
  2.2777378e-06
 -4.7264161e-06
  7.2051052e-06
  7.8732157e-08
  4.2310089e-06
 -7.0845927e-06
  5.8849710e-06
 -9.2407927e-06
 -1.9625493e-06
  1.8893254e-05
 -4.8714764e-06
  1.3484200e-06
 -9.1435886e-06
 -1.0672663e-05
  1.9038346e-06
  3.3432486e-06
  1.0730038e-04
 -2.0172153e-07
 -2.0774267e-05
  3.3108288e-06
  7.3127144e-06
 -9.4074258e-06
 -8.9446939e-07
  2.7673430e-05
  1.2457271e-05
  2.5256311e-06
 -1.2977100e-06
 -5.0248409e-06
  7.6597998e-06
  2.0901168e-06
 -5.8042251e-06
  1.1176169e-05
 -8.7612680e-06
  3.6282154e-06
  1.5817911e-06
 -1.1877682e-05
 -1.1116380e-06
  1.4843074e-05
 -3.8583453e-06
  7.0980332e-06
 -2.2515620e-05
 -1.4737684e-06
  8.7367207e-06
 -1.0885836e-05
  2.9257009e-05
 -1.8370429e-05
 -7.1790305e-06
  2.7033159e-06
  7.7010109e-06
  5.5951324e-07
  3.7437133e-07
 -2.7010708e-05
 -2.0112118e-07
  1.1135955e-05
 -9.0413268e-06
 -3.1856544e-05
  2.9889839e-06
  1.0619890e-05
 -8.0049159e-07
  8.6303380e-06
  2.1896829e-05
  5.2579039e-06
 -1.5486954e-05
  1.3789553e-05
  5.3052327e-06
 -5.2442269e-06
 -1.2963452e-05
 -7.4271202e-06
  6.1397595e-06
 -3.7237210e-06
  4.0392570e-06
  1.8437715e-05
  7.8443554e-06
 -2.4940950e-06
 -1.9005165e-06
 -5.1687680e-06
  5.1070228e-06
 -1.2221557e-05
  6.4133383e-07
  8.2853239e-06
 -5.1333274e-07
  1.0084284e-07
 -1.2775934e-06
 -1.3262841e-05
 -5.8097726e-07
 -1.3862780e-07
  9.2335076e-06
 -5.2496921e-06
 -7.7260775e-06
 -9.7710727e-06
  5.4055081e-06
 -2.3004632e-05
  5.5917786e-07
 -1.3777661e-05
 -8.2898814e-06
  1.6559239e-05
  3.1180650e-06
 -1.6769360e-05
  6.9832727e-06
  3.4519305e-06
  1.4763896e-07
 -7.5403341e-07
 -1.6479443e-07
  1.6758677e-06
  4.3052869e-06
  2.0382937e-05
  4.8469697e-06
  2.0515665e-06
 -5.6389003e-06
  5.5967012e-06
 -2.4388046e-06
 -9.1863812e-06
  6.1584374e-06
  2.3088804e-05
 -2.3494856e-06
  9.7473389e-07
  7.8362582e-06
  6.7471242e-06
 -4.4547160e-06
  2.1170385e-06
 -3.4825819e-06
 -1.1680533e-05
 -9.5900987e-07
 -2.7134586e-06
 -1.0945385e-05
 -4.3464402e-06
  8.0453657e-07
  1.1041953e-08
  8.0300269e-06
 -9.6576341e-06
 -1.7035929e-05
 -1.5562487e-07
  3.6545557e-06
  1.1461012e-06
  1.7008814e-06
  4.2806773e-06
  1.5239472e-06
 -7.5746016e-07
  6.2878621e-06
  1.3770848e-05
 -5.4948141e-06
 -8.1394410e-06
  9.3423350e-06
  4.2640709e-06
  2.0464656e-06
  1.0356165e-05
 -5.8373771e-06
  6.6276748e-06
  5.0582817e-06
 -7.8753665e-06
 -1.9181732e-06
 -1.2472139e-05
 -1.0229935e-05
 -8.9161540e-07
 -1.6887129e-06
 -6.0668881e-06
 -1.5938926e-06
 -2.2394411e-06
 -1.1792397e-06
 -1.5196686e-05
 -2.0124677e-05
 -2.0617331e-06
 -1.2169422e-05
  1.8369825e-05
  1.5311863e-06
 -9.5367814e-06
 -1.0819530e-06
 -9.1092897e-06
  8.3937593e-06
  3.1306151e-06
  5.3671015e-06
 -1.1814822e-05
  9.3502586e-06
 -7.3756751e-06
 -1.0897702e-05
  1.6346620e-06
  5.4681300e-06
  4.3332648e-06
 -3.1954360e-06
 -3.6704480e-06
  7.7262021e-06
 -2.0633793e-06
  7.1064742e-06
  1.1279628e-05
  5.4850966e-06
 -4.4189105e-06
 -2.1288074e-06
  7.8521753e-06
  4.1787907e-06
 -9.8328974e-06
  5.5436345e-07
 -1.8864685e-05
 -2.1371159e-06
  5.0284211e-06
  4.5587522e-06
  5.2671185e-06
  7.1358431e-06
 -3.8704307e-05
 -1.2343869e-06
  7.9532657e-07
  1.6109290e-05
  6.1960568e-06
 -1.6843484e-05
 -3.4144580e-07
  9.8323280e-06
  2.4217973e-06
  2.1571648e-05
 -2.9761377e-06
 -1.4354893e-05
 -1.1852499e-05
 -8.0104437e-06
 -1.1639484e-06
  8.6563887e-06
 -6.5119781e-07
  1.7896360e-05
  4.9440105e-06
  9.5821761e-06
  1.7449929e-05
 -8.6837827e-06
 -1.2347886e-05
 -1.0932968e-05
 -1.0543524e-06
  6.0414100e-06
 -2.9713459e-05
  9.0252670e-06
 -1.1993627e-06
  1.8103800e-06
 -8.5255469e-06
  1.5574497e-06
  2.6365797e-06
  2.4448294e-05
  4.6752884e-06
 -3.2174452e-05
 -2.3709379e-05
 -5.1345603e-05
 -5.1933912e-06
  1.7519747e-06
  1.9984764e-06
  9.8088512e-06
  7.9009451e-06
  2.5045249e-06
 -1.9118272e-05
  4.9767386e-06
  3.4694192e-06
 -6.8706402e-07
 -1.0075331e-05
 -5.7517477e-06
 -4.3078488e-01
 -1.0345659e+00
  1.6357036e+00
 -3.9089692e-01
  2.0640857e+00
  1.4573523e+00
 -4.9175434e-03
 -2.4447608e-01
  1.3328215e+00
 -7.6924962e-01
  1.6964316e+00
 -1.4111603e+00
  3.8973829e-01
  4.4085470e-01
 -6.8156189e-01
  3.6332938e-03
 -5.8866912e-01
 -6.7190148e-02
  1.2616843e-01
 -7.5559734e-07
 -1.5153972e+00
  8.5277790e-01
  1.4559646e+00
  6.7917751e-03
  3.1597144e-06
 -7.5490344e-01
  8.1030682e-02
  1.6719837e+00
  5.1810780e-06
  1.0729342e+00
 -3.3433950e-03
  1.2721472e+00
  6.0589236e-01
 -4.6877852e-01
 -1.9158347e-01
 -1.5500496e-01
  3.3591685e-01
 -5.8340324e-06
  6.5580463e-01
  7.6095349e-01
 -9.7302817e-02
 -3.4392565e-01
  1.4701952e-01
  4.8813820e-01
  1.8190774e+00
 -3.8801208e-02
 -9.9213557e-06
 -2.5111158e+00
 -5.2770931e-01
 -8.4980542e-07
  6.3389212e-01
  7.1544441e-06
  1.0208511e-01
 -1.9000494e-05
  4.4384816e-01
  4.2176316e-06
 -4.6818525e-02
 -9.9309441e-04
 -7.2184885e-03
 -7.4487360e-07
 -4.8610540e-03
  7.4102893e-02
 -2.4091278e-05
 -1.9680697e-02
  3.4302407e-06
  8.4967050e-06
 -7.1928895e-05
  5.6282543e-02
 -1.6019905e-04
  1.2862542e-05
  1.0597429e-01
  1.6096860e-04
 -3.4291832e-06
 -1.8651084e-05
 -5.3728488e-03
  2.3885274e-05
 -6.7347951e-02
 -1.4110813e-01
  3.7925577e-06
 -1.0012703e-03
 -7.7398727e-06
 -3.2186724e-04
 -4.4133323e-03
 -7.8464009e-06
 -5.3768840e-06
 -2.1712575e-03
 -1.0411028e-05
 -1.3361464e-01
 -4.7185612e-03
  9.5890064e-05
 -4.9706323e-05
  9.8303462e-06
 -1.0139844e-01
 -2.6821358e-06
  9.7764405e-06
 -3.1433010e-05
 -1.4067155e-05
  4.5430404e-03
  6.1968390e-06
 -1.0696300e-02
  2.0671964e-03
 -2.4117543e-03
  8.7251665e-06
  4.4215340e-05
  1.4174937e-01
 -2.9832220e-03
 -2.1239757e-05
  6.0317097e-06
 -1.1657927e-04
  5.4789140e-05
 -5.1231691e-06
  1.0633132e-05
 -4.4587262e-07
  1.0965357e-05
  1.8793235e-05
 -7.4286581e-06
  1.7830533e-06
 -1.0410806e-05
  4.2998900e-06
 -8.3798795e-06
 -1.3487579e-06
  6.0544776e-06
 -1.0883210e-05
 -1.2567297e-05
 -2.5091023e-05
 -9.2049613e-06
 -7.8856356e-06
  1.8594465e-06
 -5.2772311e-06
  4.0540131e-06
  2.4616827e-05
 -1.0237394e-05
  1.2457420e-05
  1.0930584e-05
  2.7007211e-06
  8.2295182e-06
 -9.8489681e-07
 -4.1251278e-06
 -1.6736992e-06
  8.7956287e-06
  2.2607384e-05
 -1.1399117e-05
  1.3148302e-05
 -2.2054810e-06
 -1.6629765e-06
 -3.4332729e-06
 -1.0226127e-06
  2.2531136e-05
 -1.1899617e-05
  1.2132094e-06
  5.5306136e-06
 -3.3909251e-05
  1.1187522e-05
  2.5691266e-05
 -1.0216640e-05
 -3.4348213e-06
 -7.5511084e-06
  1.3197286e-05
  9.8184046e-07
 -2.8407585e-05
 -3.5618450e-06
 -1.9637284e-07
  1.3319484e-05
 -1.5068439e-06
  3.7908867e-06
  5.8544133e-06
  1.2432118e-07
 -5.3021827e-06
 -6.8674755e-01
  5.2108582e-02
 -1.2075974e-01
  7.5577921e-01
 -4.6258278e-02
  7.6842892e-01
 -6.8292499e-01
 -5.4406881e-01
  9.3316787e-01
 -3.8002571e-01
  4.1758016e-01
  7.0807517e-01
 -1.3147101e+00
 -1.3151386e-01
  7.0636712e-02
 -8.3295578e-01
 -5.8766771e-02
  4.3944821e-01
 -5.4418463e-01
  2.8218490e-06
  9.9448103e-01
 -1.6641788e-01
 -2.0991540e+00
  1.4289602e+00
 -1.5858923e+00
 -1.6903216e-01
  6.5688998e-01
 -1.3757524e-01
  7.8996709e-06
  2.2841551e+00
  4.7503731e-01
 -6.5644139e-01
  4.3886706e-01
  8.0024656e-05
 -1.2599488e-02
 -2.6009698e+00
 -3.9773706e-01
  8.8050028e-06
 -4.5836933e-02
 -7.3106790e-01
  4.7350511e-01
  4.4910657e-01
 -1.9291748e-04
  6.2011516e-01
 -1.2632742e+00
 -1.2369601e+00
  4.8541347e-05
  7.1321404e-01
 -5.7552442e-02
 -3.4255409e-05
 -8.9611042e-01
  3.0894593e-05
  8.8363513e-03
 -2.5861210e-01
 -4.9018249e-01
 -1.1939101e-06
 -3.1743809e-06
 -9.2602913e-06
 -7.0726965e-06
 -4.3395039e-06
  3.7559744e-06
  1.3078062e-05
  3.1844108e-06
 -1.1980337e-06
 -1.0820536e-05
 -8.1718117e-06
  2.3020935e-07
 -1.6722717e-06
  1.3111946e-06
  1.0986378e-05
 -3.3195704e-06
  2.0907328e-07
  5.0379849e-06
  2.5235927e-06
 -3.7246095e-06
  1.6422335e-05
  2.6693169e-05
 -1.4337669e-05
  2.6108223e-06
 -1.5909494e-06
  6.3950517e-07
 -3.9334154e-06
 -5.6536243e-07
  4.1371586e-06
 -7.2289931e-06
  1.7612707e-06
 -7.0009837e-06
  3.3364654e-07
 -1.4177792e-07
  4.5889597e-06
 -1.4821253e-05
 -1.4908107e-05
  2.1427630e-05
 -3.5990759e-06
 -8.9285495e-06
 -9.4209236e-06
  5.6151148e-06
  1.0095550e-05
 -6.5714568e-07
  3.4911347e-05
 -7.7011664e-06
  5.0554768e-06
 -9.8890896e-06
 -5.1482689e-06
 -5.2618698e-06
 -2.2817169e-06
  5.4330872e-06
 -7.9522824e-06
  7.0214255e-06
  2.9626278e-06
 -2.4621982e-06
 -2.5923022e-05
 -1.4600310e-01
 -4.2800835e-01
 -1.0656089e+00
 -3.1200477e-01
 -2.8387460e-01
  1.1619579e+00
 -2.8383544e-01
  1.3222829e+00
  9.3783134e-01
  1.1099721e-02
  5.6229131e-03
 -8.9233828e-01
  4.2315394e-01
 -2.2558121e-01
 -8.0389065e-01
 -1.5210801e-01
 -6.9045229e-03
 -1.2104208e+00
  7.8050077e-01
 -4.8802048e-07
 -1.1191339e+00
 -6.0181767e-01
 -3.8815948e-01
 -1.3711734e+00
 -2.1815887e-02
  5.9645557e-01
 -1.2401063e+00
 -8.9230371e-01
 -2.3770792e-05
 -2.6732000e-02
 -9.7764897e-01
 -7.8019893e-01
 -6.9461977e-01
  1.0549216e+00
  1.6541224e+00
  9.5800176e-02
 -9.1969781e-03
  8.0291320e-05
  1.5305845e-01
 -1.6159276e+00
  8.2063305e-01
  3.2855996e-01
 -3.0788511e-01
  4.8620945e-01
 -5.7888424e-01
 -3.4798905e-02
  3.7114132e-05
  1.1786838e+00
  8.1381810e-01
 -6.4708704e-01
  9.9260527e-01
  1.0500095e-01
  3.1421947e-01
  2.7881944e-01
  3.7888968e-01
  7.5056250e-06
 -5.8017258e-06
  7.5049468e-07
  6.6428402e-07
  7.1251702e-06
 -5.6211218e-07
  1.2273021e-06
  4.4812305e-07
 -3.1840179e-06
 -4.7885533e-06
 -6.5657678e-06
 -2.7028996e-06
  3.4279465e-06
  2.9464541e-06
  2.3723260e-06
  7.4323875e-06
  8.6367272e-06
 -4.2919710e-06
 -6.2490330e-06
  6.8963204e-06
 -6.3140460e-06
 -5.8316189e-05
 -3.7466257e-06
  2.1807695e-05
  1.2419696e-05
  2.1516937e-05
  6.7692167e-06
 -9.3911886e-08
  3.6297406e-06
 -2.7596777e-06
  3.1784803e-06
  1.0896736e-06
  1.0095000e-06
 -1.5883181e-06
  1.3771533e-05
 -2.1757673e-06
  1.6716906e-05
  1.3155894e-06
  2.9570624e-06
  1.5473988e-05
  7.1518816e-06
 -1.6793469e-05
 -7.9181860e-05
  8.3589930e-06
 -7.2144949e-06
  1.0255191e-06
 -2.1635205e-06
  1.6977026e-05
  1.1557221e-05
  1.4095588e-05
 -2.7548274e-06
  5.1902418e-07
 -2.2852191e-06
  8.9693258e-06
  1.2945049e-05
 -7.1876826e-07
  1.4048795e-05
  1.8210794e-05
 -3.7873617e-06
 -3.3388797e-06
 -7.2432154e-06
 -5.2908385e-06
 -1.9909996e-05
  1.8975714e-05
 -2.1420341e-05
  1.4813822e-06
 -2.0084341e-05
  6.0573184e-06
 -2.5195345e-06
 -6.8989777e-07
  3.7143227e-06
  4.5379784e-07
 -5.9370650e-06
  7.6647229e-06
 -6.2176605e-06
 -2.3543482e-06
  3.3188058e-05
  5.5234691e-06
 -1.0699203e-05
 -1.5579262e-05
  4.8308143e-06
 -2.2856942e-05
 -5.4806796e-06
  3.9857450e-06
  1.0663392e-05
 -3.8063914e-05
  7.2360322e-06
  3.0973640e-06
 -6.3297612e-06
  1.0118588e-07
 -7.2755465e-06
  1.8723377e-06
 -2.9218024e-06
  3.3201795e-06
 -1.2954843e-05
 -1.8133671e-05
  6.4496598e-06
 -5.3544277e-06
 -1.6828307e-06
  4.0740397e-06
  6.5202034e-06
 -1.5310696e-06
  6.8928989e-06
 -3.5551527e-06
  3.5994015e-06
 -7.4086597e-06
 -5.3686526e-06
  2.1325777e-05
  3.0610579e-06
 -1.5810133e-07
 -7.1997392e-06
 -7.4986028e-06
 -1.8373536e-05
 -7.5201001e-06
 -1.3653728e-05
  4.6496439e-06
  5.9854693e-07
  3.9001970e-06
  3.0946551e-06
  6.8658705e-06
  5.8905275e-06
  1.4965902e-06
 -6.3298266e-06
  5.5755827e-06
 -7.3616161e-06
 -3.3800677e-06
  2.0736677e-06
 -1.4586227e-05
 -6.1894480e-06
  4.3275440e-06
 -4.7953222e-06
  5.8518012e-06
 -1.3482668e-06
  2.0608762e-05
  1.0941242e-05
  1.8161525e-06
 -5.8303449e-06
 -2.8915392e-06
 -1.3264532e-05
  3.6727392e-06
 -4.4379348e-08
 -6.2087388e-06
  1.5401840e-05
  3.9532229e-06
 -2.2209208e-06
  7.2514385e-06
  7.1255649e-06
 -1.3210137e-05
 -5.4331770e-07
 -3.7962650e-06
 -1.4625259e-06
 -5.8258174e-06
  3.0467745e-06
 -6.8846348e-06
 -1.3598210e-05
  5.6800909e-06
 -6.9657824e-07
  1.1591405e-06
 -5.4203251e-06
  7.2735611e-06
 -6.4684136e-06
  8.5507027e-06
 -9.8165572e-08
  5.6181007e-06
  6.0468155e-06
  1.9807516e-05
 -5.6423642e-06
 -2.0543719e-06
  6.5184208e-06
 -2.0808673e-05
  5.1753946e-06
  1.2706997e-06
 -4.9015684e-06
  7.4451127e-06
 -3.1504072e-08
 -1.6463619e-06
 -2.9311998e-06
  5.4411476e-06
 -4.5935626e-06
  3.4495588e-06
 -1.3609022e-05
 -1.8698664e-05
  7.5334242e-06
  5.3655867e-06
 -1.0795146e-06
  9.2552830e-07
  6.5416907e-06
  4.8417633e-06
  4.8511083e-06
 -1.4969830e-06
 -5.6150980e-06
  7.5191323e-08
 -7.2762032e-07
 -5.7702241e-06
  1.8057344e-05
 -3.7345202e-07
  5.8460550e-06
  1.6597611e-06
  2.5175757e-05
 -4.7536569e-06
  7.8622338e-07
 -2.5954530e-06
 -8.2961361e-07
 -5.7017396e-06
 -2.0745806e-06
  1.5857207e-05
  7.2953080e-06
 -5.9014060e-06
 -6.2429308e-06
 -7.3264659e-06
 -3.8123169e-06
 -2.2387892e-06
 -1.1598879e-06
 -1.0433581e-06
 -4.2266433e-06
  5.9782360e-06
  8.2911311e-06
 -2.6101814e-06
  7.5222038e-06
 -4.1925273e-06
 -6.8546515e-06
  7.7570739e-06
 -1.3004962e-05
  4.4386875e-06
 -4.1119321e-08
  4.0981913e-06
 -1.9394351e-05
 -2.0514778e-06
  2.7092967e-06
 -1.9723084e-06
 -1.3725393e-06
 -1.2873673e-07
 -2.2217814e-06
 -1.7825414e-06
 -3.5969508e-06
  6.7729206e-06
  7.0654901e-06
  3.4427146e-06
 -7.5328117e-06
 -6.4769733e-06
 -7.5072635e-06
  4.3558121e-06
  4.9233663e-06
 -4.1042758e-06
 -1.5411777e-06
  7.3000747e-06
  4.0608893e-06
 -6.1943861e-06
  1.2037344e-05
  6.8208428e-06
 -4.5264228e-06
  7.2005791e-06
 -2.2672070e-06
 -4.8181651e-06
  3.8752538e-07
  8.0751424e-06
 -4.8475758e-06
 -6.6466550e-06
  3.5757530e-05
 -4.0764598e-06
 -1.8668582e-06
  4.0193272e-06
 -4.3633408e-06
  3.6093421e-05
  1.0609939e-06
  6.0439429e-06
 -2.9154080e-06
 -1.5361604e-06
 -1.7324954e-05
 -2.0158384e-06
  2.5719335e-06
  4.4504732e-06
  5.2009329e-07
 -7.5074581e-06
 -1.6217708e-05
  2.4735043e-06
 -6.0292691e-06
  2.7809863e-06
  1.6724787e-06
  2.1212765e-05
 -2.1124981e-05
 -6.3455117e-01
  3.9979380e-01
  9.3827018e-04
 -3.2547066e-01
 -8.4616080e-02
  1.3140849e+00
 -9.1354199e-02
 -1.3238304e+00
  5.9923047e-01
 -6.8025786e-01
  4.7900578e-01
 -9.4144505e-01
  1.0701708e-04
 -4.1770231e-02
 -3.3515045e-01
 -1.2372303e+00
  9.5103741e-01
 -7.9289573e-01
  1.2796381e+00
 -1.6324965e-06
  2.0665858e-02
 -3.5605356e-02
  2.6258978e-01
 -1.6384737e-01
  3.7658981e-05
  3.9115664e-01
 -1.7601469e-01
  9.6074593e-01
 -7.9683392e-05
  7.8657842e-01
  5.0737715e-01
  5.2870464e-01
  6.5327847e-01
  1.0038409e+00
  5.2489102e-01
  3.5639720e+00
 -1.5685378e-01
  1.9649624e-05
  4.3594337e-01
 -2.7772948e-01
  5.6099635e-01
  1.9811562e+00
  1.2879558e-01
  3.4975976e-01
 -8.3160454e-01
 -1.3735887e-02
  6.1024493e-06
  1.5869762e-01
  5.1762301e-01
 -2.2202749e-03
  4.2666674e-01
  6.8262157e-06
  6.8820937e-06
  9.8755106e-02
  9.2747509e-02
 -1.8434907e-06
 -3.1367086e-05
 -5.4986640e-07
  7.0336059e-06
  1.0757335e-06
  2.1930820e-05
  2.6545169e-07
 -1.3288785e-05
  7.2032287e-07
  7.1945728e-06
 -2.1484362e-05
  4.0970717e-06
 -5.4543370e-06
 -3.2774315e-06
 -7.5197863e-06
  6.1864571e-06
  3.1500867e-06
  1.0617927e-05
 -1.0860691e-05
  2.9050686e-06
  1.5097078e-06
  1.3104727e-05
 -3.9991504e-05
 -4.7555968e-06
  8.3970017e-06
 -1.4672331e-05
  6.8769332e-06
 -1.7787592e-05
  6.2143577e-06
  9.0647891e-06
  1.6366630e-06
 -5.3187587e-06
 -9.8012924e-06
  1.8416675e-06
 -4.2499772e-07
  4.1808712e-06
  2.0288582e-05
  1.4719531e-05
 -5.4657980e-06
  9.6899146e-07
  4.7878639e-06
  4.1010348e-06
 -7.2450125e-06
 -4.1934572e-06
 -1.9873147e-05
 -1.5591600e-05
  7.1015884e-06
  3.5657440e-06
  4.5499573e-06
  6.4939372e-06
  7.9759429e-06
 -2.1033164e-05
  6.4880051e-06
 -1.9636952e-06
  1.7064107e-06
 -3.1237355e-06
 -2.6786336e-06
 -1.9328874e-05
  1.1451466e-05
  7.3137544e-06
  7.0537835e-06
  3.2637695e-06
  4.1871031e-06
 -3.6248828e-06
 -2.7989438e-06
  4.9873706e-06
  3.2876555e-06
  2.2374866e-06
 -6.9988846e-06
  5.1873003e-06
 -2.2611557e-05
  1.0774973e-05
 -1.9254635e-06
  3.9641955e-06
  1.5952868e-06
 -1.3250034e-05
 -5.9679855e-06
 -4.6767682e-06
  6.9343178e-06
  6.4238170e-06
  1.5741005e-05
 -6.7091869e-06
  4.7762210e-06
 -1.0563705e-05
  1.4642445e-06
  5.8891619e-06
  6.4950732e-06
  5.1599454e-06
  7.4268664e-06
 -5.6305817e-06
 -7.1744939e-06
  1.5234268e-06
  5.1660350e-06
 -4.1457752e-06
 -6.9735070e-06
 -1.0047112e-06
  1.3027320e-05
  4.2120050e-06
  3.2555486e-06
 -6.1197384e-06
  1.5290485e-05
 -2.2120805e-05
  3.7005721e-05
  5.7151565e-06
 -7.1275913e-06
 -5.3153195e-07
 -1.8349418e-06
 -7.2506800e-06
  5.5044570e-06
 -2.1981103e-05
  1.8983108e-05
 -4.2868351e-06
 -1.8107530e-05
  2.6117230e-04
  5.4023540e-01
  5.0769534e-02
  1.4176019e-01
 -4.2401078e-01
  2.2259890e-01
 -5.6819886e-01
  1.0941014e+00
  6.8724737e-02
 -4.8617128e-01
 -5.3008953e-03
 -3.7523206e-02
 -4.7348595e-01
 -2.5369234e-06
  5.6011188e-01
 -4.1643072e-02
 -6.2640530e-01
  1.0987753e-06
 -5.3534340e-02
 -5.9654535e-06
 -3.0525357e-01
 -8.0953193e-01
  2.3504359e-05
 -1.4458740e-01
 -8.4488027e-02
  1.3162832e-01
 -1.7348511e-05
 -6.3006992e-06
  1.5401529e-05
 -1.2178656e-01
  4.1937432e-03
 -3.7288811e-02
  2.0082365e-01
  1.1181074e-01
  1.3578025e-04
  7.1104872e-01
 -2.6187727e-01
  2.7011080e-05
 -4.3786839e-01
 -3.8108516e-01
 -3.7227333e-01
 -1.2829261e-01
 -3.7389135e-01
  5.5362821e-02
 -2.8098635e-02
 -1.0101072e+00
  4.8264485e-07
  3.7173721e-01
  1.3731295e-05
 -2.7555670e-04
 -2.8298840e-02
  1.5398116e-05
 -7.4682152e-06
  3.8682748e-02
  1.2855413e-05
 -4.4592407e-06
 -8.7270796e-02
 -4.3134165e-01
 -2.0673127e-01
  1.9761354e-05
 -2.2660293e-04
  1.2350842e-01
  2.6707819e-01
 -4.0406715e-02
 -5.4207569e-01
  4.4154585e-06
 -4.1625872e-06
  1.0481304e-05
 -5.0917437e-04
 -1.5530011e-05
  1.0079263e-02
  9.5924290e-05
 -2.1354578e-04
 -3.9406805e-06
 -6.8432782e-03
 -2.1595919e-05
 -1.6052399e-02
 -8.8009909e-02
  6.9606194e-06
 -1.8692021e-01
 -1.2696488e-06
 -2.6715058e-01
 -5.1878447e-05
 -4.8257087e-05
 -6.3443867e-06
 -8.4508647e-05
  6.4569022e-06
 -1.9415696e-01
 -1.8554806e-03
  8.0899066e-05
 -7.4448471e-05
 -1.1588191e-02
 -4.0289205e-02
 -2.7409690e-06
 -8.8024363e-03
  2.3292223e-06
  2.9121445e-06
 -5.5939022e-02
  7.8473141e-07
 -3.5756943e-03
  3.7714981e-05
 -4.3066178e-04
 -9.1785279e-07
 -4.0903142e-06
  5.9557095e-02
 -7.1417970e-05
  1.5275193e-06
  1.9288318e-05
 -4.2065476e-06
  5.0603918e-05
 -1.9502739e-05
 -4.7789922e-06
  3.3488498e-06
 -4.5431507e-06
  6.8097265e-06
  2.1597230e-05
  1.1655485e-06
  3.2906602e-05
  1.4475581e-05
  3.8034268e-06
 -8.2707693e-06
 -4.9379196e-06
 -3.6927246e-05
 -1.5879164e-05
  2.7345586e-06
  3.5010796e-06
 -4.9442165e-06
 -1.2158829e-05
 -7.3479137e-06
  2.9568168e-06
  7.3865904e-06
  7.2644307e-06
 -6.0273237e-06
 -6.5973472e-06
  1.7844188e-06
  7.3582341e-06
 -1.8634642e-05
  5.0517461e-05
 -3.3771081e-05
 -2.9243765e-06
  6.9746307e-07
  4.3297509e-06
  1.4372057e-05
  1.4562184e-05
 -1.5025087e-06
  1.0962972e-06
 -5.0583922e-06
  5.4795892e-06
  9.0312751e-06
 -5.5880191e-06
 -2.2689985e-05
 -5.7353591e-06
 -3.6649246e-05
  3.6439988e-06
  1.0424419e-05
  2.1718536e-06
 -5.4908578e-06
  1.1178419e-06
 -6.5456597e-06
 -5.3402340e-07
 -1.8039947e-06
 -5.4912121e-06
  1.9665298e-05
  1.2319314e-06
 -1.4845474e-05
  6.1396249e-06
  3.2789844e-06
 -1.9254425e-05
  1.7097844e-05
 -1.3312230e-05
 -4.7874760e-06
  2.0602165e-05
 -8.2020470e-06
  4.1628259e-06
 -4.4733547e-06
  3.5756417e-05
 -1.9120193e-06
  9.9924500e-06
  1.7496730e-05
 -4.0884688e-06
 -6.4215405e-06
 -3.5020075e-06
  2.2916196e-05
  2.9800884e-05
  4.4963344e-06
 -5.7366901e-06
  2.1658323e-06
  4.9399291e-06
  6.9065009e-06
 -1.7073896e-06
  9.1377751e-07
 -4.7007375e-06
  6.6114635e-06
  1.5072049e-05
 -3.7116663e-06
 -2.2239997e-06
  2.5839907e-05
  6.6178272e-06
 -4.1872254e-06
  2.1687249e-05
  5.7738566e-06
 -2.5047545e-06
  5.5112400e-06
 -3.7640970e-05
 -1.4022394e-05
  8.6298587e-06
 -1.8165543e-06
  2.6014911e-07
 -7.4689556e-06
 -1.8617861e-06
  1.4855854e-05
  2.4296520e-05
 -2.9540823e-05
 -5.7071516e-06
 -6.3720695e-06
  1.5033946e-06
  1.9459610e-06
 -1.1420932e-06
  2.3874077e-06
 -8.0285517e-06
  5.9989129e-06
  3.8075425e-05
 -2.8366399e-06
 -6.7979277e-06
  2.3387127e-01
 -3.9676607e-01
 -1.0039675e+00
 -3.3465311e-02
  8.4451802e-02
  5.6997687e-01
 -2.8625262e-01
  2.0047197e-01
  1.9600096e+00
  9.3970352e-01
  1.4547169e-02
 -9.2306638e-01
 -1.3345891e-01
 -7.4840218e-01
 -1.0474319e-01
 -4.4432643e-01
  6.5535331e-01
 -9.9924153e-01
  5.3204447e-01
  4.1899789e-06
 -4.0601256e-01
 -1.4170530e-01
  8.4174162e-01
  1.5134265e-01
 -5.8412668e-03
  4.6750331e-05
 -4.2336151e-01
  3.2036224e-01
  1.9273190e-05
 -6.2270886e-01
  1.8801299e+00
 -2.2300097e-01
  7.0085132e-01
 -3.5921389e-01
 -1.9252886e-01
  1.3421330e+00
  5.0926602e-01
 -4.9505681e-05
  9.8942691e-01
  5.7407234e-02
 -1.9189988e-03
 -1.4061490e+00
  1.0370826e-01
  4.2107838e-01
  1.3208756e+00
  6.7459786e-01
  1.1160372e-05
 -1.7493585e+00
  7.2362377e-06
  1.8018713e-05
 -1.8515605e-01
 -4.2782963e-06
 -1.2322165e-02
 -3.1545806e-05
  2.2560693e-05
  6.3106872e-06
  5.8314013e-06
  2.5069551e-06
  3.2954608e-06
  5.5684673e-06
 -6.6030730e-06
  5.0127915e-06
 -9.4988297e-07
 -5.1437651e-06
 -1.8660319e-05
  1.6634360e-06
  5.4095140e-06
 -1.4773782e-05
  2.0541427e-05
 -1.4263743e-05
  4.4415187e-06
 -1.8868542e-06
 -1.1218099e-06
  4.6343763e-07
 -1.4452742e-06
  2.4952603e-06
  1.6107697e-05
 -1.2058636e-05
 -7.6070633e-06
 -4.8909228e-06
  3.3542469e-06
 -6.9732782e-06
  1.3266880e-06
 -1.4682125e-06
  7.1341219e-06
 -1.9207439e-05
  5.9541748e-08
 -7.2833091e-06
 -5.4133156e-06
 -3.5516521e-06
  7.6785136e-06
  6.2161075e-06
  1.5009880e-06
 -2.7662995e-06
  2.8216250e-06
 -2.9291584e-06
  5.8593091e-06
 -4.0603977e-06
 -8.2779006e-06
  6.7281435e-06
  3.7853213e-05
 -1.6322073e-06
  5.1755387e-06
 -1.0927416e-05
 -3.2938840e-06
  1.6998911e-05
 -5.9731692e-06
 -3.4164214e-06
 -1.1148201e-06
 -2.2400276e-05
 -1.3197556e-06
 -2.1444744e-06
 -1.0384501e-07
  2.8886078e-07
 -4.1256853e-06
  4.3107780e-06
 -3.3900699e-06
 -6.5759664e-06
 -4.2533575e-06
  2.2995784e-05
  2.1056512e-05
 -4.8205407e-06
 -2.1955104e-05
 -5.6625377e-06
  7.5642015e-06
  1.2225912e-05
  3.5607361e-06
  6.6920757e-06
 -3.2697910e-06
  8.4530684e-06
 -1.8974877e-06
  4.0481291e-06
 -7.1840977e-06
 -1.7667879e-05
 -3.9939364e-06
  6.3533066e-06
  6.9611851e-06
 -4.0279665e-06
  1.2331116e-06
  2.1841472e-06
 -6.3201433e-06
 -6.9287644e-06
  2.8366712e-06
  1.6783591e-06
 -3.0018422e-05
 -1.3475043e-05
  3.2950957e-06
  1.7770312e-06
 -6.2735035e-06
 -1.3904159e-05
  3.9448141e-06
  4.2727497e-06
  3.5430346e-06
 -3.9200886e-06
  1.7400900e-05
  7.1523425e-07
 -1.3239719e-06
  2.2958026e-05
  3.1700285e-06
 -3.9158922e-06
 -4.0636234e-05
 -7.2589351e-06
 -1.1233386e-05
 -5.3795325e-06
  2.0106656e-06
  7.5259964e-06
 -1.9774898e-05
 -2.7297392e-07
 -8.2811534e-01
  5.1596409e-01
 -8.8324487e-01
 -5.3633827e-01
  3.2202920e-01
 -6.0424989e-01
  9.1422963e-01
  5.5529356e-01
 -1.4260843e+00
 -7.5839795e-02
  1.4534713e-01
  1.6838597e-01
 -2.8719071e-01
 -4.8610070e-01
  1.8341241e-02
 -2.6694595e-04
  2.2392167e-02
 -1.8948980e-05
 -1.0953429e-01
  7.5555204e-06
 -2.6767361e-01
  1.5554276e-01
  2.9475877e-01
 -1.2883489e+00
  6.6994518e-02
  1.4577081e+00
 -3.1067953e-05
 -6.4106680e-02
  3.3393833e-05
 -4.9097812e-01
 -8.9661235e-01
 -5.5691128e-04
 -9.1830516e-01
 -4.5785555e-06
  6.2979674e-01
 -1.0385410e-01
 -1.0235529e+00
 -3.7023681e-06
 -4.8893649e-02
  5.6204516e-01
  2.9046198e-03
  4.6341605e-02
  1.4275566e-04
 -9.5594348e-03
  2.0055510e-02
 -1.3257186e+00
  1.9275556e-05
 -2.5927375e-06
  2.1091188e-05
 -1.3136122e-04
  2.0726420e-05
  5.6880726e-06
  1.6514704e-01
  7.7170663e-02
  1.5419029e-06
 -1.5063815e-05
 -2.4073908e-05
  3.3450524e-05
  2.0528860e-05
 -6.7036572e-06
  6.1465803e-06
 -1.3183561e-05
 -4.4670073e-06
 -5.9940298e-06
  3.9023785e-08
 -2.2363433e-06
 -1.9592555e-06
  1.1873362e-06
 -2.7432929e-05
 -1.7221715e-06
  2.6899213e-06
  7.6120305e-06
  2.0398003e-05
 -2.1297774e-06
  3.4925699e-06
  6.4518477e-05
 -2.2647018e-06
 -4.3407413e-06
 -2.7045135e-06
  1.2714681e-06
 -4.9117871e-06
 -1.4767106e-06
  8.2338975e-06
 -8.7404504e-07
  4.7152212e-06
  1.0929705e-06
  6.0050574e-05
 -1.7912118e-05
 -6.1238957e-06
  4.7721019e-06
  1.1500016e-06
  1.0927339e-06
  2.1955975e-05
  1.5441492e-06
  6.7579685e-06
  2.8288059e-06
 -1.1702822e-06
  7.4647510e-06
  2.0698767e-06
  5.4957513e-06
  4.1095538e-07
 -8.1228586e-07
 -4.5680158e-06
 -6.0569078e-06
 -1.6376546e-06
 -7.3835236e-06
 -7.8995708e-07
  5.8087626e-06
 -7.5631024e-06
  2.0148229e-07
 -6.4225005e-06
  5.6371750e-06
  1.0346796e-05
  2.3473729e-06
 -2.6634798e-06
 -3.7285915e-06
 -2.9964208e-06
  5.1786611e-07
 -5.3713466e-06
  6.0458206e-06
 -3.7144295e-05
 -2.1231926e-05
  3.0071283e-06
 -5.8014884e-06
 -1.2357122e-05
  6.9391540e-06
  4.1591129e-06
 -7.4266059e-06
  1.5361818e-06
 -2.3065190e-06
  2.9133507e-06
  5.3845577e-07
 -2.3234588e-06
  2.9124220e-05
  2.8903457e-06
 -1.9096040e-05
 -2.1996171e-05
 -6.2010008e-06
 -3.4044765e-06
 -1.3178921e-05
 -8.1115677e-06
 -1.9900094e-06
  1.1835903e-05
  4.9269797e-06
 -4.1362950e-06
  1.6543957e-08
  9.1383290e-06
  5.0874467e-05
 -3.2728098e-05
 -1.0299073e-05
  5.6115059e-06
 -4.3844302e-06
  1.8902922e-05
  1.8797289e-06
  3.3705405e-06
  3.7317572e-05
  2.5990660e-06
  6.4470805e-06
 -1.2075330e-06
 -5.4845632e-06
  2.0758829e-05
 -1.3263569e-06
 -3.4091788e-06
 -5.2361552e-06
 -3.0618248e-06
  2.1896807e-05
  6.8132053e-06
  5.2013911e-06
 -5.9504050e-06
 -2.8370907e-05
  7.8849240e-05
  7.6203382e-06
  1.5640706e-05
 -5.0901108e-06
  8.5694573e-06
  1.8664192e-05
  2.7096203e-05
 -2.2440801e-05
 -7.3447386e-06
 -3.2909543e-06
  4.8316674e-06
 -6.5369736e-06
  3.3307398e-07
 -8.1911385e-06
 -4.5855759e-06
  2.6575583e-06
 -1.9455449e-06
 -2.0896085e-05
 -5.4614347e-06
  2.9980229e-06
  2.5724181e-05
 -5.6874887e-06
 -3.9105789e-06
  1.5965070e-05
  1.4125441e-06
 -1.0463322e-05
 -1.0761386e-06
 -2.4548010e-06
 -6.6392463e-06
  4.5978154e-06
  3.3580389e-05
 -3.4509565e-05
  5.9503259e-06
 -7.0483202e-06
 -1.9696492e-06
  1.4504120e-06
  1.9223931e-05
 -6.9324242e-06
  1.0907196e-06
 -1.5505615e-05
 -2.2251928e-05
 -3.4350667e-06
 -6.1590144e-06
  3.0962362e-06
  6.9368107e-06
 -5.6717286e-06
 -3.7882726e-06
 -5.3101276e-06
  1.5218069e-06
  1.0438985e-06
  6.5337522e-06
 -6.7599885e-06
  1.3651436e-06
  3.5162234e-08
  1.7155777e-05
  1.1166389e-05
 -1.6505131e-05
 -1.1959693e-05
 -8.5431229e-06
  3.6813283e-06
 -6.1749829e-06
  7.0148681e-06
  6.0280190e-06
 -3.9355933e-07
 -3.5365674e-06
  2.9937537e-06
  8.9628011e-06
  9.7992270e-06
  4.8338592e-07
 -4.2417100e-06
 -8.6907885e-06
 -2.3965654e-07
 -4.2189049e-06
 -4.9647902e-06
  9.4824218e-06
  4.0798786e-06
  2.7735960e-06
 -6.2394379e-06
 -1.0677991e-06
 -4.0172372e-07
  1.0997853e-05
 -5.7292023e-06
 -1.8171564e-05
  7.1462223e-06
  6.3437888e-06
 -3.6965616e-06
 -5.9876413e-05
  1.5702162e-05
  9.0901904e-06
  5.7689722e-06
  6.5639179e-06
  1.0173183e-05
  6.2856152e-06
 -4.4252323e-07
  6.7195856e-06
  3.1680802e-06
 -5.6502977e-06
 -5.9460672e-06
 -1.6921316e-05
 -4.4288495e-06
 -2.5779125e-06
  2.1317232e-05
  5.4752259e-06
  2.3456860e-05
 -2.9087418e-05
  2.6454532e-06
 -1.6599120e-05
  3.6775716e-06
  5.4548245e-06
  6.5684577e-07
 -1.9412351e-01
  1.2794169e+00
 -7.9825431e-01
 -4.5872015e-01
  2.7028424e-01
  3.7275298e-04
 -9.5527805e-02
 -1.3476872e-01
 -5.6029435e-02
 -9.9703744e-02
 -6.8676573e-01
  2.6310813e-02
 -4.8862135e-01
  4.6687475e-01
 -1.2583009e-02
  3.4783880e-06
  1.1905511e-01
  8.0808081e-07
  1.0097501e-01
 -2.2540467e-05
  9.3197918e-01
  1.1071293e-01
  4.2605120e-01
  7.1907181e-01
 -7.1999870e-02
  1.1093833e-01
 -5.3165923e-06
  4.7239840e-01
 -2.5192417e-08
 -4.2228961e-01
  9.4678289e-01
  6.0927072e-03
 -1.6556138e+00
 -9.0916944e-01
  5.2176119e-06
  4.5014086e-01
  1.4531330e-02
  1.8236417e-05
 -5.6429172e-01
  7.2471148e-01
 -1.5456198e-01
  1.3004237e-01
 -1.6438690e-01
  5.4628134e-01
 -3.6951438e-01
  4.7589642e-01
  2.0817730e-05
  1.2534467e+00
 -5.9287827e-02
 -1.0997002e-04
 -1.5104619e+00
  2.1211292e-05
 -5.4736249e-02
  1.4447332e-04
  1.2284939e-04
 -6.7707774e-06
  1.8867053e-05
 -3.5708435e-05
  4.8369766e-06
 -7.4069171e-06
  8.4183057e-06
 -1.4285396e-05
 -5.1425206e-07
 -5.1692768e-06
  2.2986146e-06
 -1.7425004e-05
  1.4533622e-06
 -4.7375461e-06
 -4.2111287e-06
 -7.3906372e-06
 -5.5902933e-06
 -9.9315448e-06
 -1.0601011e-05
 -4.7619102e-07
  1.5781867e-05
  2.1566326e-05
  9.2239452e-06
  4.4193843e-07
  1.8788112e-06
 -3.9915990e-06
  5.9499203e-06
  2.2875925e-06
  6.8585896e-06
 -1.7884340e-05
  1.9717241e-05
  7.4357393e-07
  6.7233987e-06
 -6.2275235e-06
  1.6236720e-06
 -8.0796535e-06
  4.3208202e-05
 -6.9450534e-06
 -3.6413439e-06
 -5.3069103e-05
 -2.9693216e-05
  2.5591107e-05
  1.7521817e-06
  4.0325594e-06
  6.9974435e-06
  4.2783895e-06
  1.0239825e-05
 -4.1138055e-06
 -1.7324660e-07
  4.9075884e-06
  1.0756166e-05
  2.5690033e-06
 -4.5547895e-06
 -6.4642400e-06
 -5.8896712e-06
 -3.5339076e-07
 -3.5793815e-07
  6.0614684e-06
 -7.0924634e-06
 -7.4561040e-06
 -2.6450000e-06
  6.2771878e-06
  2.3513532e-05
  6.5259978e-06
  1.3089501e-05
 -8.8397144e-07
 -8.0047139e-06
  1.2165753e-05
  2.8041520e-06
 -6.3254806e-06
 -1.4754778e-05
  6.6957118e-06
 -2.0350983e-06
 -2.7810594e-05
 -2.4149833e-06
  7.2522876e-06
  2.2131883e-07
 -5.2959240e-06
  4.8817692e-06
 -4.4737781e-06
 -4.9536834e-06
  6.5099521e-06
  3.7968734e-06
 -7.8623571e-06
 -7.3928468e-06
  5.6397635e-06
  3.3939618e-06
 -9.5074324e-07
 -6.9515813e-06
 -1.0063334e-06
  3.8867415e-06
  2.1813464e-06
  6.9446360e-06
 -5.1901366e-06
  9.2669161e-06
 -4.1273224e-06
 -3.1818208e-06
 -3.5189130e-06
 -4.7553985e-06
 -2.2986299e-06
  1.2906830e-06
  2.6816456e-06
 -3.7289524e-06
  3.7750954e-07
 -7.0541628e-06
 -4.5929156e-07
 -1.9697977e-06
 -4.9551240e-06
 -1.0219683e-05
 -1.8684947e-05
  6.1386063e-06
 -2.2300030e-05
  2.7283031e-06
  4.9266669e-06
 -5.8957380e-06
  4.3779244e-07
  1.0798044e-06
 -1.4248137e-05
  2.8467305e-06
  1.9581867e-05
  1.2777096e-05
 -8.1294575e-06
 -6.4998189e-06
  1.4584111e-05
  8.5993934e-06
 -4.0009585e-05
 -1.3679089e-06
  3.2606092e-06
  5.0147369e-06
 -4.9232535e-06
 -1.7904983e-06
  5.5150981e-06
  1.1063222e-05
  5.4031821e-06
 -5.8940930e-07
 -8.4878448e-06
 -1.0784931e-06
 -2.3447042e-08
  4.6871314e-06
 -6.9691059e-06
  6.4844708e-06
  6.2375152e-06
  1.8439390e-05
  1.6351005e-05
 -2.2307358e-05
  9.9044955e-06
 -2.2454759e-07
  9.1374102e-07
 -8.2821280e-06
 -2.9356654e-06
  3.4426112e-06
 -4.4283906e-06
 -1.0196508e-05
  2.2344918e-07
 -7.5457701e-06
 -3.0229153e-06
 -5.9611766e-06
  5.3718318e-06
 -2.5429056e-06
 -6.9484395e-06
 -1.8470599e-06
 -4.9285013e-06
 -1.4149342e-06
 -6.8348572e-07
 -3.5686348e-06
 -1.1406776e-06
  5.9220083e-06
  6.1938167e-06
  1.5955251e-05
  1.3438104e-06
 -8.8801420e-07
  1.6941352e-05
 -7.2366142e-06
 -4.6713035e-06
  7.5075554e-06
  4.9276910e-06
 -3.5508417e-06
 -5.9563822e-06
  1.0299985e-06
 -9.7015736e-06
  2.2522709e-05
 -1.2263566e-06
 -8.2869828e-06
  2.6225841e-06
  2.2157448e-05
 -4.7762511e-05
 -5.7528823e-06
  7.1228792e-06
  6.5265508e-06
  4.6039781e-06
 -4.5142915e-06
  3.1430382e-06
 -3.1275952e-06
 -6.3350967e-06
 -1.1550256e-05
 -1.0512504e-06
  7.3897554e-06
  2.5247898e-06
 -2.6705934e-06
  4.1299782e-06
 -7.0753163e-06
  3.7375969e-06
 -5.3485005e-06
  3.4681520e-06
 -5.7984653e-06
 -7.4109840e-07
  5.9663412e-06
  6.2724225e-06
  3.0234933e-06
  7.2786092e-06
 -1.8077302e-05
  5.8872711e-06
  2.0166721e-05
  7.2512207e-06
  2.3383462e-05
  7.7683471e-06
  7.3536762e-06
  5.4833172e-06
 -1.2160561e-05
 -4.2214228e-06
 -2.3113667e-07
  3.0046801e-06
  1.3545827e-05
  2.8377637e-05
 -7.4539034e-06
 -5.0600884e-06
 -1.0585536e-05
  2.0585570e-05
  3.0540868e-06
 -1.0491319e-05
  1.9602645e-05
  2.3092696e-06
  7.1772997e-06
  7.3877209e-06
 -5.2095569e-08
 -7.3216297e-06
 -1.4387095e-07
  2.9059817e-07
 -6.1098212e-06
  1.1138079e-06
 -1.8796055e-06
 -2.4528636e-06
  7.6706910e-06
  1.9386689e-06
 -3.0382275e-06
 -5.8970568e-06
  1.1353426e-05
 -2.8830624e-07
  1.2708249e-06
  4.9141418e-06
  6.9299317e-06
 -2.2083519e-05
 -1.0979879e-06
  4.9545934e-06
  1.5099857e-07
  5.6470599e-06
 -1.0114320e-07
 -4.3258469e-06
 -5.0778144e-06
 -1.5727068e-05
  7.9891151e-06
 -1.6261132e-05
  6.6487664e-06
 -6.3546195e-06
  3.3424891e-05
 -1.9165727e-05
 -5.6398017e-06
 -1.5680913e-06
  1.3173695e-05
 -3.3395665e-07
 -9.7024440e-07
 -2.5862864e-06
 -1.3490617e-05
 -5.5088444e-06
 -7.5800363e-06
 -6.7016949e-06
 -4.6627324e-06
  9.2678147e-07
 -5.5936766e-06
 -7.1697254e-06
  1.1062801e-06
 -7.4112004e-06
  4.1406684e-06
 -5.9576687e-06
 -7.0234387e-06
  7.4650220e-06
  4.5272523e-06
 -1.8985202e-05
  2.3897608e-06
 -7.0035239e-06
  2.2286570e-06
  3.5730736e-06
 -4.2157044e-05
  6.6303974e-06
 -2.0531161e-05
  4.1052222e-06
  2.1162242e-07
 -3.8974804e-06
  2.6839803e-06
  8.9344070e-07
  5.1162333e-06
 -4.2001719e-07
 -2.1425872e-06
  1.2308113e-05
 -4.4721824e-06
 -3.6355480e-06
 -8.2033439e-06
  4.7320073e-06
  4.6681412e-06
 -2.2740884e-05
 -6.4644014e-06
  2.4738324e-06
 -2.0173995e-06
  5.2252935e-06
 -7.8472753e-05
 -5.2332193e-06
 -5.7802247e-08
  2.2687651e-05
 -1.1561781e-05
 -3.3311123e-06
  2.2538377e-06
  2.9618718e-06
  4.0993436e-06
 -7.1954628e-06
  7.2590751e-07
 -3.2332794e-06
 -3.7962675e-06
 -1.7895007e-05
  6.0894613e-06
  5.1796987e-06
 -1.3810931e-06
 -1.4292825e-05
  1.3677342e-05
 -6.2588656e-06
 -1.6415065e-08
 -7.5896032e-06
 -2.3820226e-06
 -4.3311152e-06
 -1.7748170e-01
  1.0946738e+00
  6.3661343e-01
  1.9083983e-03
  6.7470255e-06
  1.0752555e+00
  6.7991489e-01
 -1.9287903e+00
  2.9000375e+00
  1.3436192e+00
  3.0311126e-02
  2.3145971e-01
  2.2798890e-01
  4.6530809e-06
  9.3769997e-01
  3.0588683e-01
 -2.6615784e-01
 -4.7099078e-05
 -9.7725677e-01
 -2.0192871e-05
  2.3974523e-02
 -2.4693781e-01
 -1.8121893e-05
  1.3017067e+00
  3.3492995e-06
  6.3634142e-03
  1.9656317e-02
 -5.3299140e-02
 -7.9014544e-06
  6.1886585e-01
  1.1292129e+00
 -7.2163582e-01
 -1.0865293e+00
 -5.1364847e-03
  3.8598344e-01
  3.9537528e-01
  8.1488830e-01
 -6.5241352e-06
 -4.0923083e-01
 -2.2554778e-01
 -6.8586069e-01
 -4.5539045e-01
 -2.2538744e-01
 -4.4968474e-01
  4.0007284e-01
 -3.7275532e-01
  1.4440461e-05
  6.3147902e-01
  1.1256666e-04
 -2.5092587e-01
 -5.2571011e-01
  8.7258159e-06
 -6.5232557e-01
  3.6807396e-05
  7.0314505e-05
  1.5280294e-06
  9.5890855e-06
  4.2016248e-07
  1.4247981e-05
  1.1580229e-05
  1.3869472e-05
 -1.5093168e-05
 -5.5887831e-06
  7.5352124e-05
  1.9676222e-06
 -8.0540749e-06
  2.0426291e-06
  1.4373829e-05
  1.1561594e-05
 -8.6638884e-06
 -1.1382777e-05
  3.9993665e-07
 -1.0351058e-05
 -6.6751244e-07
 -6.1519136e-06
 -1.3997583e-05
 -2.4281528e-06
 -1.1147352e-05
  1.0934919e-05
 -1.0885537e-05
 -9.5537625e-06
 -1.3099278e-05
  9.0446138e-06
 -1.0156465e-05
 -8.9198602e-06
  6.3047332e-06
  6.0733755e-06
  9.4183488e-06
  1.0222521e-05
 -1.1689090e-05
  4.3990885e-06
 -6.7040233e-08
  9.1537868e-06
 -3.4834313e-06
  8.0248410e-06
  1.3820771e-05
  1.5210897e-05
 -1.2516363e-05
 -1.4658032e-05
 -1.5224961e-05
 -3.6510214e-06
 -1.0701775e-05
 -1.3130842e-05
 -1.1252065e-05
  3.2226339e-06
 -1.2072493e-05
  8.8453171e-06
 -1.2265214e-05
  1.3687596e-05
  1.1496112e-06
 -7.8055809e-06
  8.1391745e-06
  1.1105871e-05
 -7.0253896e-07
  5.2461237e-06
  6.4712918e-07
  1.3642398e-05
 -1.5227299e-05
 -1.1451441e-05
 -1.4407672e-05
  3.6905844e-06
  1.4990973e-05
 -1.1931843e-05
 -4.1806737e-07
  9.2446571e-06
  4.2368814e-05
 -1.4595218e-05
  1.1647948e-05
  4.8383276e-06
  1.4095962e-05
 -3.4325426e-06
  9.8231487e-07
 -1.0948499e-05
  6.6949287e-06
 -1.3470189e-05
 -4.3463756e-06
 -9.6288250e-06
 -4.6876278e-07
 -1.3300051e-05
  1.3403062e-05
  9.4731968e-06
  4.8407123e-06
 -6.5526610e-06
 -1.2039174e-05
  1.2587924e-05
  3.1967122e-06
  2.5012635e-06
 -1.0520891e-05
  7.0298852e-06
 -4.4161233e-08
  1.3420548e-05
 -4.9039163e-06
 -9.9406243e-06
  5.6004706e-06
  1.1723974e-05
 -1.4774357e-05
  7.3812116e-06
 -1.3595974e-05
 -1.4916731e-05
 -1.4365322e-05
  1.4442331e-05
 -1.4867214e-05
 -9.3508588e-06
  5.7041768e-07
 -8.6783793e-06
 -3.1245258e-06
 -1.1846194e-05
  5.3134183e-05
  1.3329275e-01
 -4.8076677e-01
  2.5214344e-01
  1.7143846e-01
  3.5244070e-06
 -6.1227626e-01
 -1.7415509e+00
  4.6945435e-01
 -2.3439939e+00
  7.5539833e-01
  1.3146424e-01
 -1.3668084e-01
 -7.4653349e-06
  4.8270714e-01
  1.7197298e-01
 -1.9776817e-04
 -5.5897516e-01
 -1.4451060e-05
  1.5727766e-02
  1.0500572e-05
  2.0450601e-01
 -3.1445760e-02
 -9.0228432e-01
  2.4733292e-01
  6.8504751e-06
  4.6154600e-01
  4.1765898e-06
 -1.9474316e-01
  7.7356572e-06
 -4.8423123e-01
  9.8976530e-02
 -2.8394815e-01
 -6.5973878e-01
  4.1824091e-02
 -4.8073652e-01
 -6.0834128e-01
  7.7613753e-01
  2.0709213e-06
  5.4279202e-01
 -5.3467631e-01
  1.7766889e-02
  1.4315428e+00
  6.5274558e-06
 -6.9400244e-03
 -5.0887186e-02
 -8.0031663e-02
  8.8848692e-06
  7.8316383e-02
  1.0815687e-01
 -1.4021720e-02
  2.3698287e-01
  1.0814466e-05
 -3.7543490e-05
  1.4591809e-05
 -8.3965588e-06
  8.2601573e-06
  1.1062040e-05
 -1.5359729e-02
 -4.4210392e-06
 -1.0945873e-05
 -6.9391467e-06
 -1.5094537e+00
  1.2785707e-05
 -6.5851864e-06
 -1.3328078e-07
  4.8283723e-06
 -3.2674303e-05
  1.5226551e-05
 -8.8039505e-06
 -5.4667767e-02
 -4.2542955e-03
 -6.7656856e-06
 -7.8650868e-01
  1.4173076e-05
  1.7690494e+00
  1.4974100e-05
 -6.5588047e-06
  1.3575396e-05
 -6.1520054e-06
  1.4245427e-05
 -9.6885645e-01
 -2.7214228e-06
 -3.1167963e-06
 -4.0161926e-01
 -2.6223283e-02
 -7.2993862e-06
  1.1842854e-05
  6.7787635e-01
  9.8879063e-06
  3.4148732e-06
  8.2029961e-02
  4.7091271e-06
  1.2778338e-05
  3.1521296e-07
 -1.3444008e-05
 -1.7194697e-01
  1.4780186e-05
  1.4836833e-05
 -2.9015428e-06
 -1.2509940e-05
 -4.3292799e-05
  4.3845455e-05
 -1.4021592e+00
 -3.3430963e-06
 -1.2934227e-05
 -5.6502658e-01
  1.3562471e-02
 -1.2975504e+00
 -2.4115725e-06
 -1.2505327e-05
 -7.5984658e-06
  4.7119722e-01
  8.1680791e-06
  6.2954700e-06
  9.0221074e-06
  9.0990025e-06
 -1.1324923e-05
 -1.4921643e-05
  8.7188209e-06
 -2.1819847e+00
 -4.7015783e-01
  1.5255972e-05
  1.5067347e+00
 -9.0154099e-06
 -9.1878384e-01
  2.4273766e-06
 -5.8790806e-06
  8.1097915e-06
  1.3707582e-05
  3.8597441e-06
 -5.5723017e-01
 -4.0484010e-05
 -2.1365149e-06
 -6.7039889e-01
 -3.8529113e-01
  1.1874410e-05
  7.2132816e-06
 -1.7557830e+00
 -1.1983834e-05
 -3.0191482e-06
 -5.2797991e-01
  4.6583996e-06
  1.0988942e-05
  9.7328871e-02
  4.5152130e-05
 -1.5193250e+00
 -1.1915462e-05
 -7.5699325e-05
  6.6490347e-06
 -2.6656242e-06
 -2.2532811e-06
  7.6543374e-06
 -7.2376710e-01
  8.0872715e-06
 -3.1911768e-05
  7.0530874e-01
  4.5106339e+00
 -5.3136104e-01
 -1.0001502e-01
 -1.0001064e-01
  3.9589223e-01
 -7.2770482e-01
  4.0302253e-01
  2.9728835e+00
 -1.5442170e-01
  4.7321635e-01
 -6.0093087e-01
 -1.5869586e+00
  1.2295785e-01
  1.0000132e-01
  1.7682567e+00
 -1.8644680e+00
  9.2680568e-01
 -9.4042253e-01
 -1.0001256e-01
 -2.4558845e-01
 -1.1034638e+00
 -9.7487384e-01
 -1.0000036e-01
  1.8140963e-01
 -2.5320879e-01
  2.4270967e-01
  1.7365865e+00
  7.9813826e-01
  1.1512388e-01
 -3.8233635e-01
  8.2493061e-01
  7.7507663e-01
 -2.5304368e+00
 -1.3423802e+00
  2.4728471e-01
 -1.7726579e+00
 -5.7392597e-01
  1.0200229e+00
 -5.9398174e-01
  1.0876911e-01
 -4.4786608e-01
  9.5888644e-01
  2.2658819e-01
 -6.0768229e-01
 -6.8298310e-01
 -5.8593255e-01
 -1.4378475e-01
 -5.5697215e-01
  6.8695509e-01
  1.9412961e+00
  2.8086218e-01
  6.6959476e-01
  5.3145862e-01
 -2.2713704e+00
  1.3713583e-01
 -4.6570536e-01
 -1.4738329e-01
  6.5906304e-01
  5.7184017e-01
 -2.3711890e-01
 -1.8092283e+00
  1.3288386e+00
 -8.0100846e-01
 -1.8667744e+00
  7.6053208e-01
  2.4689636e-01
 -1.1411398e-01
  3.8980192e-01
  8.4891629e-01
 -1.4810500e+00
  1.6906388e+00
  4.5679310e-01
  7.5434554e-01
  1.4826305e-01
  7.2227389e-01
 -2.0929744e+00
  1.1102781e+00
 -6.4017749e-01
 -6.2116349e-01
 -1.3822769e+00
 -6.8388796e-01
  1.3568490e+00
  1.7311292e+00
 -1.1967425e+00
  4.3171367e-01
  1.5674452e+00
  1.7470846e+00
  1.0858865e+00
  1.2303581e+00
  5.1069629e-01
  1.3759704e+00
 -7.4622887e-01
 -1.5033662e+00
  9.8426968e-01
  1.7179634e-01
 -1.0989916e-01
 -1.6398736e+00
  1.8019059e+00
  1.4011283e+00
  6.2741214e-01
 -2.5759656e+00
  2.0749609e-01
 -1.0003088e-01
  3.8144675e-01
 -1.7060775e-01
  1.9194051e+00
  1.7899859e+00
  8.1873918e-01
  9.7084105e-01
  1.0337957e+00
 -6.2806612e-01
  5.8277887e-01
  6.1820853e-01
 -1.0932494e+00
 -2.9492805e+00
 -1.0001067e-01
 -1.0658092e+00
 -4.9902847e-01
  2.7295688e-01
  1.7624539e+00
  6.2561762e-01
  9.6971405e-01
 -1.0456338e+00
 -2.6221735e+00
  1.0079714e+00
 -3.0151448e-01
 -1.6916760e+00
  1.0000079e-01
 -1.5767921e+00
  1.0000012e-01
  3.1992146e-01
 -1.1747380e+00
 -1.0303149e-01
  1.0000177e-01
 -3.4751430e-01
  1.2827910e+00
 -4.1335664e+00
  6.6314977e-01
  8.9375103e-01
  1.0000198e-01
  3.0021450e-01
  9.9825448e-01
 -1.5037400e-01
  1.4679613e+00
 -2.7651691e+00
  3.0463389e-01
  1.0000291e-01
 -1.5865443e+00
 -1.6196647e+00
  1.1904421e+00
 -1.0000052e-01
  2.8599305e+00
  7.6627994e-01
  1.7478757e+00
 -2.8263032e-01
 -1.0000046e-01
  7.8799623e-01
 -3.2896641e-01
  5.5460429e-01
 -1.0000218e-01
 -9.2056364e-01
 -4.6960938e-01
  8.3265626e-01
  1.1714576e+00
 -1.3467768e+00
  2.2430775e+00
 -8.0214965e-01
 -2.8732899e-01
 -1.0041732e-01
 -1.0010286e-01
  1.0800055e+00
 -5.2399248e-01
 -5.1501316e-01
  1.2456768e+00
  1.9727640e-01
  2.8019686e+00
 -6.4142418e-01
 -6.5810031e-01
  2.6437492e+00
 -1.2111204e+00
 -3.5021430e-01
  1.9441093e+00
  7.0474565e-01
 -1.6595644e+00
 -1.0623268e-01
 -8.1450677e-01
  8.3464038e-01
 -1.8468822e+00
 -1.1333289e+00
  2.4318907e+00
  1.0000309e-01
 -2.4127915e+00
 -5.7228053e-01
  1.2566741e+00
 -1.0000006e-01
  1.0001885e-01
 -1.0000349e-01
 -1.0000429e-01
 -1.0000075e-01
 -1.0000698e-01
 -1.0002090e-01
 -1.0001862e-01
 -1.0000043e-01
  5.1986344e-02
  5.1986344e-02
  5.1986344e-02
  5.1986344e-02
  5.1986344e-02
  5.1986344e-02
  5.1986344e-02
  5.1986344e-02
  5.1986344e-02
  5.1986344e-02
  5.1986344e-02
  7.4563459e-02
  7.4563459e-02
  7.4563459e-02
  7.4563459e-02
  7.4563459e-02
  7.4563459e-02
  7.4563459e-02
  7.4563459e-02
  7.4563459e-02
  1.8383712e-02
  1.8383712e-02
  1.8383712e-02
  1.8383712e-02
  1.8383712e-02
  1.8383712e-02
  1.8383712e-02
  1.8383712e-02
  1.8383712e-02
  2.0026557e-02
  2.0026557e-02
  2.0026557e-02
  2.0026557e-02
  2.0026557e-02
  2.0026557e-02
  2.0026557e-02
  2.0026557e-02
  2.0026557e-02
  1.5631650e-02
  1.5631650e-02
  1.5631650e-02
  1.5631650e-02
  1.5631650e-02
  1.5631650e-02
  1.5631650e-02
  1.5631650e-02
  1.5631650e-02
  6.8536308e-03
  6.8536308e-03
  6.8536308e-03
  6.8536308e-03
  6.8536308e-03
  6.8536308e-03
  6.8536308e-03
  6.8536308e-03
  6.8536308e-03
