nep3 4 Zn H C O 
cutoff 6 4
n_max 12 8
basis_size 12 8
l_max 4 2 0
ANN 80 0
 -6.8512756e-01
 -1.4561175e+00
  1.4471716e-05
 -1.8579435e+00
 -1.0376690e-01
 -8.4696800e-01
  2.6697907e-01
 -7.4820387e-01
  2.7987094e+00
  2.1147409e-03
  1.2199718e+00
 -2.0870063e+00
 -7.2060875e-03
  5.1694330e-02
  1.9977033e-05
 -3.5914445e-01
  5.0759745e-01
 -2.3397452e-01
 -1.6828167e-03
  2.2790344e+00
  8.5957599e-01
 -1.3861249e-01
  5.1051354e-01
 -1.9432480e-03
 -7.4426848e-01
  5.6267971e-01
  4.8253161e-05
 -3.8983971e-01
  8.5570055e-01
  2.4681567e-01
 -6.8838061e-05
  9.2497337e-01
  9.0719320e-02
  4.7466104e-04
 -3.7056718e-05
  2.8961841e-03
 -7.4288338e-01
  1.0605747e-01
  3.6027592e-01
 -4.6727598e-02
  5.0164331e-02
 -6.6085523e-01
 -9.2760557e-01
  2.4477023e-01
  1.6905829e-01
 -8.9918655e-01
  1.2652212e-01
 -1.6703123e-01
 -2.2228570e-01
  1.3420756e-05
  6.0728588e-04
  2.7243543e-01
  3.6988148e-04
 -1.1936232e-01
 -6.2422347e-05
 -8.2903340e-02
  4.9651853e-06
 -1.4873431e-05
 -5.4603039e-05
  6.6492335e-05
 -7.3809474e-07
  2.8574072e-05
  3.5985973e-05
  3.5278375e-05
 -4.0346898e-05
 -9.5602200e-06
 -1.5637401e-05
  9.8980408e-06
  1.9342453e-05
  1.6653203e-05
 -3.9636657e-06
 -5.3141439e-06
 -2.4626079e-05
  1.0740069e-05
 -9.2282324e-05
 -1.9678289e-05
  2.7733198e-05
 -6.2602985e-06
  2.9335373e-05
 -6.3937246e-06
 -2.8475233e-06
 -5.7581965e-06
 -9.4807574e-06
  1.0784754e-05
 -2.8259627e-05
 -1.1286866e-05
  2.0516874e-05
 -9.0386573e-05
  2.8651531e-05
 -2.3698050e-05
  8.5536914e-05
 -2.5165526e-05
 -8.2932478e-05
 -1.1787086e-04
  8.2347156e-05
  4.4683653e-05
 -4.6046913e-05
  5.3951735e-06
  3.8535170e-05
  2.6922029e-05
  1.5095718e-05
 -2.9686289e-06
 -3.0971671e-05
  1.7448077e-05
 -1.2396669e-04
  1.5169217e-06
  5.8353744e-06
 -1.4588498e-05
 -3.7627649e-06
 -3.2189306e-05
 -8.6128794e-06
  2.5824298e-05
  4.3155873e-05
  2.6190868e-05
  7.4103547e-05
  1.5559506e-05
 -7.2978699e-05
 -3.4822704e-06
  2.2202994e-05
 -1.6000104e-05
 -1.4312565e-04
 -2.0934682e-05
 -1.9148245e-06
 -6.3536550e-05
 -4.3523505e-07
 -1.9623883e-05
 -9.0682210e-05
  8.1327133e-05
 -3.8555467e-05
  3.8425696e-06
 -1.7411223e-05
  7.2215567e-05
 -8.2177066e-06
 -5.4247099e-05
  1.2429125e-05
 -6.7499641e-05
  1.5809601e-05
 -1.2308895e-05
 -2.5688370e-05
 -7.6501958e-05
  1.1734106e-05
  3.7759222e-05
  1.9355217e-05
 -1.0506000e-05
  1.7571181e-05
 -2.2189715e-05
  1.8033224e-05
  9.2810960e-06
 -3.7181617e-05
  1.3117591e-05
 -1.7426668e-04
  2.8298464e-05
  2.5860278e-05
 -5.4228667e-06
 -1.1784696e-05
  4.3523716e-05
  4.2117958e-06
  4.2721884e-05
  6.2125095e-05
 -8.2920480e-05
 -3.5072870e-05
 -2.5991403e-06
 -2.2745297e-05
 -1.9067402e-05
  2.7183021e-05
 -4.5684301e-06
  1.3018600e-05
 -3.7807538e-05
  1.0066092e-05
 -8.9765417e-06
 -4.4731314e-05
  4.0384068e-05
 -4.2589298e-05
 -4.2071093e-05
 -5.2845295e-05
 -6.0268525e-05
 -4.2617947e-05
  3.6792557e-05
 -1.9699844e-05
  1.5444743e-05
 -2.1346337e-05
  1.2224502e-05
 -6.8693544e-07
 -2.2284348e-06
  7.3268643e-06
 -1.8454490e-05
  4.3964814e-05
 -4.9308634e-05
  1.1191265e-04
 -7.1968248e-06
 -2.0142536e-05
 -7.5946409e-06
  3.3719727e-05
  1.7031536e-05
 -1.2775658e-05
 -6.4762921e-06
 -3.4709392e-05
 -2.8152361e-05
  7.8785233e-05
  2.4554243e-05
 -6.8028479e-05
  4.3189902e-07
 -2.9982690e-05
  7.7822224e-06
 -2.1260723e-05
  3.7785732e-05
 -3.9418710e-06
  2.0680553e-05
 -2.2682078e-05
  4.2705375e-05
 -2.6023736e-06
 -3.8519760e-05
 -2.6491189e-05
  3.1526521e-05
 -3.6607169e-05
 -1.4476079e-05
 -1.6617545e-05
  4.4051965e-05
 -6.8745074e-05
  2.9556959e-05
  5.4274715e-05
 -7.5030625e-06
  4.8013593e-05
  7.7585137e-06
  4.8934646e-05
 -4.3150168e-05
 -3.8044345e-06
  1.8702438e-05
 -1.5570411e-05
 -5.8044848e-06
 -2.6816868e-05
  4.0174355e-06
  1.1823587e-05
 -9.9421059e-06
 -6.1240331e-05
 -4.8892653e-06
  1.2774937e-05
 -4.2465836e-05
 -1.2183635e-05
 -1.0731513e-04
 -3.3729910e-05
 -5.1607276e-06
 -1.7889395e-05
  1.0806607e-06
  7.6425371e-05
 -4.1692001e-06
  2.3928842e-06
 -4.7885431e-05
 -3.8914066e-05
 -6.4782369e-05
 -4.3038774e-05
 -2.3882072e-05
 -6.9607536e-06
  1.3380889e-06
 -1.4715281e-05
 -1.3035581e-04
  2.2118849e-05
  5.9904141e-07
 -2.5537454e-05
  5.9324570e-06
  4.7010453e-05
 -7.8943704e-06
 -1.3787550e-04
  3.5367470e-05
 -1.8757241e-06
 -1.4311748e-04
 -8.6604763e-05
 -1.2751307e-06
  2.2380009e-05
  9.5595806e-06
  1.1190985e-05
 -1.1942684e-04
 -4.5637855e-05
  1.8879089e-06
  8.8631896e-05
  7.6372216e-06
  9.8585297e-06
  2.1577494e-04
 -5.1829637e-05
  3.8810708e-06
 -3.9387858e-05
 -3.5781246e-05
  5.5626811e-07
  2.0600502e-05
 -8.8733732e-06
 -2.5404137e-05
  5.1300540e-06
 -7.3287338e-05
  1.0880563e-05
  3.1342282e-05
 -7.1745139e-06
  2.8364022e-05
 -8.3517858e-05
  4.5769055e-05
  2.5196056e-05
 -1.2095693e-05
 -3.0475250e-05
  8.9181747e-05
 -6.1724102e-05
  1.6536476e-04
 -1.2381849e-04
 -7.8292287e-06
 -2.7472195e-05
  3.8079959e-06
  8.8559937e-05
  5.0995470e-05
 -3.5990581e-06
 -4.2861775e-06
  2.6077889e-05
  5.3374333e-05
  5.8722522e-05
 -6.3542229e-06
  1.2573944e-06
  9.0125563e-05
 -7.8761341e-06
  1.1480683e-05
  6.7949943e-05
  2.0025362e-05
  6.0931023e-05
 -4.6870564e-06
  1.2030378e-05
 -5.3986329e-05
  1.0927910e-05
  4.4696848e-05
 -3.0286785e-05
  2.9069761e-05
  3.1947642e-05
  1.7593273e-05
  8.3613595e-06
 -7.7089433e-05
 -1.0981284e-04
 -1.9686539e-05
  3.4861587e-05
  8.6672502e-05
 -1.1668509e-05
 -3.0259664e-05
  1.2790551e-05
  5.6909844e-06
 -4.7877431e-04
  1.2773347e-05
  1.7620187e-05
  3.1351716e-05
 -1.1469897e-05
  4.8532911e-08
  1.4178158e-05
 -2.7714454e-05
 -1.2758692e-05
 -3.0218167e-05
 -5.7235506e-05
  1.2990153e-04
  9.4789275e-06
 -1.0759150e-05
  3.3224991e-05
 -3.9312865e-05
  5.2206848e-05
  5.5116339e-05
  4.6726782e-06
 -6.3235339e-06
 -5.6967096e-06
  2.0016771e-05
  1.5760041e-05
  3.6486650e-05
  4.4806045e-05
 -6.0832321e-05
  1.0136122e-04
  3.1775239e-06
  3.3578126e-05
  3.2775952e-06
  2.0378623e-06
 -9.3010240e-06
  5.4956941e-05
  3.1222050e-06
 -1.6022728e-05
 -2.7712069e-05
  1.2640274e-06
 -1.7218406e-05
  2.9692110e-05
 -2.2127355e-05
  6.3725161e-06
  1.0031018e-05
  3.6979450e-06
  2.3142024e-05
  9.7781049e-06
 -1.7694425e-05
  2.2422662e-05
 -1.5336538e-05
 -2.2944245e-05
  1.8407669e-05
 -3.6507321e-05
 -2.9658127e-05
  9.9999479e-06
  1.5300360e-04
  3.1858624e-05
 -8.1074104e-06
  2.6367343e-05
 -7.0155534e-07
 -1.4987689e-05
  7.8819285e-06
 -1.3382402e-05
 -8.1876242e-06
  7.5255019e-07
  1.6386832e-06
  1.1395704e-04
  1.4572593e-04
  1.5716359e-05
  1.1570389e-04
 -1.6593483e-05
 -7.7426695e-05
  5.1549447e-05
  9.0947768e-05
  3.8216340e-06
  1.0319468e-04
  3.1473493e-05
  2.5157678e-05
 -6.4737915e-06
  1.7335324e-05
  2.2352175e-05
 -1.2120396e-05
  2.5130599e-05
  2.7525997e-05
 -1.0159471e-04
  1.5748123e-05
  2.7709060e-05
 -6.5380933e-05
  5.1709671e-05
  1.7536624e-06
 -1.5522787e-06
 -3.2554151e-05
 -5.4879674e-05
 -3.6315294e-05
  5.3304166e-06
 -2.6060789e-05
  3.2651446e-06
 -1.2591852e-04
 -2.5965683e-05
  2.1580834e-05
 -2.8998556e-06
  1.9761697e-05
 -3.4431680e-05
  5.5412849e-05
 -6.4407673e-06
  8.6046803e-06
  5.8500864e-05
 -8.2992401e-06
  7.1580916e-06
  7.5279263e-06
 -2.0469683e-05
 -8.3677496e-06
 -3.1711024e-06
 -3.8437043e-05
 -4.2242304e-05
  9.4972369e-05
  2.1745047e-05
  1.0950062e-04
 -7.0280203e-07
 -3.1113483e-05
  5.7889432e-05
 -6.2823652e-05
  1.1856086e-04
  9.6911735e-06
 -1.3293282e-04
 -4.6488967e-06
 -3.1441111e-06
  1.4974339e-05
 -2.4347493e-05
 -3.7128302e-06
 -1.4758391e-05
  7.1866989e-06
  3.3380722e-05
 -1.8930884e-06
  1.7811788e-05
 -2.5125988e-05
  5.4144628e-05
  4.0787796e-05
 -1.7006448e-06
 -1.4058183e-05
  1.8563513e-04
  2.7326780e-06
 -8.2818449e-05
 -5.5225182e-06
  2.7019170e-05
  4.5323504e-06
  1.1681094e-05
  2.5108178e-05
 -3.9149440e-05
  1.0881668e-04
  5.6322962e-05
 -1.2802261e-05
  2.8509083e-05
 -3.0913539e-05
 -2.2740905e-06
 -2.9974177e-05
  1.4715493e-05
 -1.1179354e-05
 -2.7675533e-06
 -9.2998071e-06
  6.4607975e-06
 -5.4213189e-05
 -1.1850213e-05
 -4.7959500e-05
 -9.6071490e-06
 -3.2149575e-05
  1.3841472e-04
 -5.6308486e-06
 -1.4927049e-05
 -5.9550102e-06
 -1.2026526e-05
  1.0274348e-05
 -4.1368194e-06
  7.1677081e-05
  1.6315611e-05
  2.7848964e-05
  1.2852413e-06
  3.3144366e-05
  2.1031208e-05
 -1.7324928e-06
  7.0280448e-06
 -5.0017015e-06
  9.5232135e-06
 -6.5644972e-06
 -3.1552911e-05
 -1.2156823e-04
 -1.1513915e-05
  4.8487957e-05
 -2.3983104e-05
 -1.8895249e-05
  3.7322021e-05
  1.3892326e-05
 -1.8001001e-04
  1.3151576e-05
 -2.5287565e-05
 -5.4670782e-05
  2.3561601e-05
 -1.6520391e-05
 -4.6304118e-05
 -5.1546976e-05
  3.1587667e-06
  2.7658363e-05
 -4.7799636e-05
  2.8777238e-05
 -7.4335562e-06
  4.8692302e-05
 -3.4244247e-05
  1.0878892e-04
  2.1859583e-05
 -1.9044659e-05
 -1.8381066e-05
 -5.5359134e-05
 -2.0862046e-05
  2.2150922e-05
 -1.1328983e-05
  2.7662130e-05
  1.4397961e-05
  1.8524837e-05
  4.4384433e-06
 -6.6966004e-06
 -8.7979148e-05
 -1.6537548e-05
  2.4348443e-05
  1.1526663e-07
  5.9942045e-06
  2.3039090e-06
  3.4147502e-05
 -2.3653743e-05
  4.3610122e-05
  1.0299947e-05
  4.5665667e-05
 -1.1352608e-06
 -4.8837497e-05
  6.4915776e-06
 -5.3684348e-06
  1.7367893e-05
 -9.2700275e-06
  5.2333021e-06
  1.6397405e-05
  3.2955035e-05
 -8.9659748e-05
  5.4839737e-05
  1.5374320e-05
 -8.7083041e-05
 -5.7544305e-05
  1.2473188e-06
 -6.6571538e-06
  1.0967842e-06
  7.0342830e-06
 -9.8932487e-06
  5.7462107e-06
  1.7376224e-04
 -1.3901181e-05
 -2.9998306e-05
 -2.8072274e-05
 -5.3473709e-06
 -7.2949217e-05
 -7.2512885e-05
 -4.5380537e-05
 -2.9028438e-06
  4.4186381e-05
 -3.7720849e-05
 -3.8679078e-05
  3.8585775e-05
  2.5204527e-05
 -4.3950827e-06
  1.9560839e-05
  4.9628320e-06
  3.1022875e-05
  7.1274872e-06
  5.2332973e-05
  3.8444767e-05
  1.2861663e-05
  4.2455009e-05
  4.8003909e-05
  1.3674797e-05
  4.8139878e-05
  5.4119831e-05
  4.9832168e-05
 -6.4041313e-05
 -4.0893548e-05
  7.1023162e-05
  9.9515246e-06
  2.5390262e-05
  1.3875650e-05
 -1.7660317e-05
  8.3151472e-06
 -3.0848925e-05
 -2.2368940e-05
  1.8988374e-05
 -2.3090459e-05
  7.2393079e-05
  2.0730346e-05
  1.5548698e-04
  1.9477540e-05
  4.1194289e-07
 -1.5095758e-05
  1.4945692e-05
  5.7521862e-05
 -4.6400015e-05
  6.6451066e-05
 -7.5971438e-06
  3.8990569e-05
  8.7888562e-05
 -1.0224006e-05
 -6.9410662e-06
  1.9009224e-07
 -1.8254409e-06
  2.0216816e-05
  2.7774669e-05
 -4.2896822e-06
 -5.0901010e-05
  6.8249356e-06
 -1.4749421e-06
  3.3061217e-05
 -4.7089652e-05
 -2.5155110e-05
 -3.0706680e-05
  1.2469578e-05
 -2.3148525e-05
 -1.5378315e-05
 -3.3602583e-07
  3.4793247e-05
  1.7574412e-05
  5.0765237e-05
  1.1383927e-06
 -2.1835887e-05
  2.8065904e-05
  1.2079904e-05
 -4.7687381e-06
 -2.0103787e-05
  3.8412134e-05
  9.3406816e-06
  8.9542504e-05
  3.9579147e-05
 -1.9927106e-06
  2.6687458e-05
  1.6649925e-05
 -1.5875747e-05
 -1.4984229e-05
  2.2872537e-05
  2.6226102e-05
 -2.4173631e-05
 -6.3295265e-05
 -3.8762981e-05
 -2.4430794e-05
  8.6296357e-05
  3.2234902e-06
 -8.3488383e-05
  5.2586125e-05
  1.4729744e-05
  5.6715953e-06
 -4.7009977e-05
  2.9219536e-05
  4.2217842e-05
  4.8620066e-05
  2.5113055e-05
 -2.5492616e-05
 -1.5837648e-05
  1.1649955e-04
  2.5995862e-04
 -2.3411117e-06
 -1.0357444e-05
 -2.9818748e-05
  5.5998690e-02
  5.5297878e-06
 -2.2577584e-05
  6.6531924e-05
  1.4539992e-05
 -2.2672120e-05
  2.6482199e-05
 -1.8029912e-05
  6.3365469e-06
  3.5372144e-05
  1.8841776e-05
  6.7285029e-05
  7.7386394e-05
  3.8433656e-05
  3.6921466e-04
 -1.9790001e-05
 -8.0150079e-05
 -5.2448504e-05
 -3.8653616e-06
  3.1121068e-05
  4.0416597e-04
  3.8422273e-05
 -7.8687817e-02
 -1.0672610e-04
 -4.7470585e-05
  1.9760488e-05
 -1.4824291e-04
  3.5975862e-02
  1.9978068e-05
 -2.0688993e-04
 -3.8402118e-06
  5.1053790e-05
  4.9987822e-05
 -2.1151280e-05
 -9.8281314e-05
 -7.2635003e-06
  2.0427224e-05
 -3.0699139e-06
  6.1598739e-06
  3.0116300e-05
 -8.5914089e-06
 -1.4882824e-01
  4.7139787e-05
 -3.6119614e-05
 -9.1574795e-05
 -3.0372570e-05
  2.4843148e-05
 -2.2061120e-05
  1.1992686e-05
 -2.1940272e-05
  5.1713207e-05
 -1.6762437e-04
 -7.2412025e-05
 -7.2081770e-05
 -7.4009877e-05
  2.4116342e-05
  5.3253432e-05
 -2.0416990e-05
 -2.2579610e-05
 -6.5354916e-06
 -1.0758366e-04
 -3.3033655e-06
  8.9462646e-06
 -3.4012210e-06
  6.4203023e-06
  7.1254317e-07
  5.6602450e-05
 -2.4263441e-05
  2.9963121e-06
  1.1095761e-05
  1.3794106e-05
 -6.0898317e-05
 -1.0655279e-05
  3.5115001e-05
  7.6119170e-05
 -1.6364169e-05
 -4.3671054e-05
 -7.8763069e-06
  8.8328179e-06
  4.6632907e-05
  1.3863248e-05
  8.0493794e-07
  6.7795640e-06
  4.6718313e-05
  8.8005636e-06
 -3.4917892e-05
  3.8640774e-05
  2.9534305e-05
  2.4642844e-05
 -1.1812997e-04
 -3.3597087e-05
  6.2298368e-06
 -4.9520113e-06
  9.8430311e-05
 -9.1493976e-06
 -5.7597149e-06
  6.5033582e-06
 -4.7637604e-05
  2.9350515e-05
 -5.4119235e-05
 -5.6886474e-06
  9.2413457e-06
 -1.3329012e-05
 -5.5920391e-05
 -1.1611887e-06
  1.3643010e-05
 -1.7934281e-05
 -7.1884206e-06
 -1.0780752e-05
  4.9862632e-05
 -5.1588024e-05
  1.1161707e-05
 -5.9596001e-05
  4.1718813e-05
  8.2311148e-05
 -1.3584005e-04
 -1.4266795e-04
 -3.3013864e-06
  1.4345675e-05
 -8.7286215e-05
  4.4924218e-07
 -2.6371930e-05
 -5.1020838e-06
  2.8953005e-05
  2.6396016e-05
 -2.7105614e-05
  6.1345156e-05
 -1.0332279e-02
  1.4107776e-05
  1.2545015e-06
 -2.4491665e-05
  1.0957292e-04
  3.0475348e-05
 -3.6841011e-05
 -2.7969778e-05
 -1.7137929e-05
  2.7128752e-05
  1.5458780e-05
  1.5869923e-06
 -4.6279902e-06
  8.8253810e-06
  8.4867497e-06
 -4.0297982e-05
 -3.4307297e-05
 -3.9593022e-05
  1.1590883e-05
 -1.9814666e-05
 -4.9671042e-05
 -7.8604404e-05
  1.0725988e-05
  1.4872801e-04
 -9.5137184e-06
 -4.5233759e-05
  9.1579495e-06
 -1.3391943e-05
 -2.2852109e-07
 -3.7436744e-06
  3.4960030e-05
 -7.6137178e-05
  6.1496910e-05
 -4.6493908e-05
  5.2402007e-05
 -1.8525867e-05
 -1.4400990e-04
 -5.9693761e-05
  7.3657495e-05
  2.2801547e-05
  3.7462556e-05
  2.1901677e-05
  1.7417980e-05
  2.7922344e-01
  9.7919369e-01
  6.0076815e-01
  1.7213506e+00
  1.6974232e-01
 -4.2848548e-01
  2.1114922e-04
  7.9659775e-02
 -3.8519135e-01
  1.1176399e-01
 -1.1065177e+00
 -1.5328805e-01
 -1.6596138e+00
  1.4124353e-02
  7.5387496e-01
  1.3645369e-01
 -1.5032114e-01
 -6.5346682e-01
 -9.3254459e-01
 -5.7706666e-01
 -4.1364607e-01
 -2.0834275e-01
  1.2830344e+00
  7.0131850e-01
  1.2802191e-01
  8.5891753e-01
 -1.1111211e+00
 -1.6572373e-01
 -4.7597548e-01
 -5.6171495e-01
  9.6023470e-01
  8.7856865e-01
  7.5589371e-01
  6.4816594e-01
  1.1233424e+00
 -1.6718833e+00
 -8.2339577e-02
  3.3281684e-02
  6.8554944e-01
  3.2844398e-02
 -2.0555325e-01
  7.8753871e-01
  6.4797777e-01
  1.8623312e-01
  1.3229741e-01
 -2.3100619e-01
 -4.5825991e-01
  1.6218095e-01
  3.9800814e-01
 -1.1941564e-04
  6.9621837e-01
 -1.0451909e-01
 -4.1533218e-05
  2.8778723e-01
 -5.0882512e-01
 -4.7158861e-01
 -2.1369085e+00
  1.1410054e-01
 -1.4323459e+00
 -3.6329305e-01
 -2.5535679e-05
  6.8657217e-04
 -1.6047343e-05
 -9.6372008e-02
  2.2766925e-04
  3.4367824e-01
 -5.7414232e-05
 -2.3147611e-02
 -3.8683378e-05
 -3.4902722e-01
  4.5375389e-05
  7.6911084e-02
  6.1778039e-01
  3.0297115e-05
  3.6919549e-01
 -2.3952998e-02
  9.2453644e-02
  1.1021093e-01
 -1.3571936e-05
  4.1857354e-02
  7.2499001e-01
  1.7615683e-05
 -1.1070581e-05
  1.7213207e-02
 -5.6028686e-02
 -1.0097774e-01
 -2.6945377e-04
 -7.5218505e-03
 -2.1041393e-02
 -7.9036564e-01
  1.1232683e-05
  1.1103190e+00
  6.1098057e-01
  1.5187310e-01
 -4.7784504e-03
 -7.2807479e-03
  6.1350673e-01
  3.8215965e-02
  3.3063725e-01
  2.1255128e-04
 -4.4341169e-02
  7.7963114e-04
  2.7603798e-02
  1.9176491e-02
 -2.4108386e-01
 -2.9999119e-01
 -1.9304539e-04
  1.9499449e-01
  5.0245315e-05
 -2.5824709e-05
 -1.4507405e-05
  5.7737052e-05
 -1.8883680e-06
 -2.1888739e-01
  6.1055827e-05
 -1.1147098e-05
  9.0623729e-02
 -3.2346699e-01
 -7.4933517e-01
  9.9962944e-01
 -3.0263385e-01
  1.5113298e+00
 -9.0162620e-02
 -7.5805938e-01
 -1.4921787e+00
  2.7017250e-06
 -1.4009513e+00
  7.5456184e-01
  7.0941836e-01
 -1.0573846e+00
 -2.1130782e-01
 -1.5244819e-01
  2.8792316e-02
 -3.3902913e-01
  1.7266723e+00
 -1.2616025e+00
 -7.5974584e-02
 -8.4890109e-01
 -2.9438688e-05
 -8.2804829e-01
 -1.7905463e-01
 -1.0065498e-05
 -5.8696020e-01
  1.0696508e+00
  1.5276975e-05
 -2.7545732e-02
 -4.5892152e-01
  1.8215255e+00
 -2.7634246e+00
  7.2607383e-02
  1.0714305e-04
 -4.7776294e-01
  1.8542999e+00
 -3.8349506e-01
  6.3034790e-03
 -3.1059822e-01
 -8.1696820e-01
 -2.3594502e-01
 -1.2749361e+00
 -5.3681397e-01
 -1.0673987e+00
  5.0247371e-01
 -8.8341214e-02
 -8.2910468e-05
  9.7004199e-01
  9.7804426e-05
 -4.4521166e-05
  1.2417740e-01
 -3.6466643e-06
 -5.8962914e-06
 -7.5928760e-01
 -2.5192672e-05
 -4.8469398e-03
  5.6378222e-01
  3.3185052e-06
  1.6500049e-05
 -1.4505153e-05
 -3.5805111e-05
  5.2628820e-07
 -1.7633973e-05
 -4.6564124e-05
  5.0808189e-06
 -4.6280329e-05
 -1.1806742e-04
 -8.1959670e-06
 -1.8581783e-05
 -9.8904748e-06
 -3.8948641e-05
  4.3832999e-05
 -1.5754216e-05
 -1.0317109e-05
 -2.8787663e-05
 -8.8639514e-05
  3.8298538e-05
  2.8527880e-05
 -3.9017337e-05
  2.5526456e-06
  1.5547846e-05
 -6.0830967e-06
 -5.6984964e-06
  1.9084231e-05
 -4.4978202e-05
  3.2655029e-05
  4.3391410e-06
  2.8618646e-05
 -2.1023105e-05
 -6.1591069e-05
  1.6390033e-05
 -2.3350700e-05
 -5.4985576e-06
  1.7293467e-05
 -5.0447085e-05
 -4.7545218e-05
 -7.3065283e-05
  4.9303642e-05
 -1.8559191e-06
 -6.9280883e-05
 -2.3852799e-05
  3.8430328e-05
 -3.1359239e-05
 -4.8823140e-06
  8.1334292e-07
 -5.7628258e-05
 -4.8630223e-05
 -1.7392710e-04
 -1.1251114e-04
  5.5975174e-06
  9.9745157e-05
 -1.8354960e-05
  2.1348482e-05
  1.7697441e-05
  7.1558236e-05
 -1.5289406e-06
 -4.0174426e-05
  8.3086117e-05
  7.4537006e-06
  4.0013736e-05
 -1.8104558e-05
  3.5085563e-05
  8.8591105e-07
  1.2655680e-05
 -1.5841966e-05
  3.2431159e-05
  6.5082645e-06
 -4.6748255e-07
  3.5223995e-05
 -1.1887354e-05
  4.2176252e-05
 -1.6285703e-05
 -9.1698093e-05
 -3.4826257e-06
 -1.1560239e-05
  1.2353901e-05
  9.9910776e-06
 -4.9825685e-05
 -8.7220098e-05
 -1.7121107e-05
  1.0445505e-04
  1.9037809e-05
 -8.6071079e-05
  3.8685990e-05
 -1.9129098e-05
  1.4906100e-05
 -4.9197970e-05
  4.0281710e-05
  4.7812980e-05
 -7.5733979e-06
 -2.3211038e-05
  6.4200358e-05
 -4.2653512e-05
 -2.5616742e-05
  1.0210967e-05
 -3.0402247e-05
  1.8210520e-05
 -1.1150564e-07
  4.0584688e-05
 -8.3697314e-06
  9.2769615e-06
  1.4503294e-05
 -4.0679570e-06
 -5.4195275e-06
  2.4480800e-05
 -2.7408782e-05
  4.8530106e-05
 -2.4590569e-05
  4.6508016e-05
  2.4546800e-05
 -1.8929128e-04
 -5.9496848e-05
 -1.9475156e-05
  9.5625446e-06
  1.2111582e-07
 -3.3855569e-05
 -4.2930416e-05
  3.8429453e-06
  8.1851147e-05
  7.6055067e-06
  1.0942237e-04
 -5.1469688e-05
 -5.7653928e-05
  2.5907192e-01
  3.3001095e-05
  3.6636997e-05
 -3.7183581e-05
 -2.9055727e-06
  7.3597912e-05
 -1.0832224e-05
 -6.5517976e-05
 -2.6882521e-05
 -3.8177197e-05
 -6.9778122e-05
 -7.9343823e-05
  9.5298412e-05
  1.1583127e-05
 -1.2084924e-05
  1.1468142e-05
 -6.2368163e-05
  1.0998473e-06
  2.3849876e-05
 -1.7434022e-05
  2.6855561e-05
  8.6983528e-07
 -5.5811295e-05
  1.5426718e-05
  5.2886233e-05
 -2.0048237e-05
 -3.6007618e-06
 -3.3675598e-05
 -1.3430938e-05
 -1.6498027e-05
  4.7445887e-05
  4.4456236e-05
  4.3916010e-05
  1.2536761e-05
 -4.5060324e-06
 -3.9178773e-05
  3.9135084e-05
  1.5403502e-04
  1.2708177e-05
  7.2562234e-06
  1.8814157e-05
 -2.1971435e-05
 -1.4120774e-05
  3.2228149e-06
 -7.9036545e-06
 -4.2365828e-05
  9.4145789e-06
  2.1561438e-05
  1.6676177e-05
 -3.4315613e-05
  1.0734160e-05
  9.3238586e-06
  1.9553465e-06
  1.1755963e-04
  6.3404041e-06
  3.0155281e-05
 -4.3297401e-05
 -1.3179114e-04
  1.3142428e-05
  4.3116175e-05
 -4.7772569e-06
 -4.9084789e-05
  6.6186062e-06
  9.2588190e-05
  1.7657952e-05
 -1.4693596e-06
  3.6814505e-05
 -2.2561560e-05
 -3.8269081e-05
 -4.4711487e-06
  9.2214250e-06
  3.5633038e-05
  2.0801921e-05
 -6.4648375e-05
  7.0350934e-06
  5.4648546e-05
  1.2158304e-05
  3.4655743e-05
 -9.1434558e-06
  6.9505826e-05
 -5.3385251e-05
 -7.3285664e-05
  2.9020499e-05
 -6.0056103e-05
  1.1173885e-05
 -3.2207481e-06
 -2.4486540e-05
  2.5221053e-07
  1.7239039e-05
 -2.5729165e-05
  2.6033149e-05
  3.5318470e-05
 -1.1960659e-05
 -9.6243100e-05
  1.4916634e-05
  5.9016194e-05
 -5.7609614e-06
  2.3341170e-04
  5.2539763e-05
 -8.0921006e-07
 -3.1066320e-05
 -1.4819182e-05
 -2.9457680e-05
  4.3826007e-05
  4.7321893e-05
 -1.7471530e-05
 -2.4342065e-05
  1.7780689e-05
  1.8872908e-05
  2.8354827e-05
 -1.7256883e-05
  9.4115210e-05
 -1.6904220e-05
 -2.2588634e-05
 -2.4698320e-05
  8.4757248e-06
  6.3849300e-05
  2.3363773e-05
 -5.1346551e-06
  2.9186581e-06
  2.0249561e-05
 -1.5544852e-05
  4.3207619e-05
 -2.3871276e-05
  3.3741308e-05
 -8.4244864e-05
  2.8364573e-05
  3.8812600e-06
 -7.8724188e-05
 -2.9572166e-05
  3.3965829e-05
  2.9017858e-05
 -1.4282106e-05
  7.7796731e-06
  1.1915399e-05
 -3.4019493e-05
  1.1008838e-05
  1.1724548e-05
  2.5579320e-05
  7.3044313e-05
  5.7877924e-06
  3.8505482e-06
  4.5829638e-05
  8.3144041e-06
 -3.3608692e-05
 -5.7051057e-06
 -8.6079053e-05
  2.3730658e-05
  3.2229668e-06
  2.9666262e-05
 -4.2564323e-05
  6.2296622e-06
 -5.0992825e-05
  1.3109591e-05
  8.4210869e-06
 -2.2511185e-05
 -5.2668274e-05
  3.9210172e-05
  1.9811712e-05
  1.1026892e-05
  1.8838793e-05
 -9.0693993e-07
 -3.7948997e-05
 -8.2773739e-05
 -1.2881327e-05
  1.1682346e-05
  4.7789690e-05
  7.3214364e-06
 -3.7957484e-06
 -4.9301649e-05
 -1.8143412e-05
  3.1210591e-05
 -9.7943011e-06
 -2.4008837e-05
  2.7047798e-05
  4.2930260e-05
  6.6790068e-05
  5.2278951e-06
  3.8317197e-05
  1.6334065e-05
 -2.5561389e-05
 -4.7470003e-06
 -1.7649803e-05
  1.9984313e-05
  2.2089325e-05
 -2.9639479e-05
 -4.2212858e-05
 -2.7128997e-05
  6.1478920e-07
  4.6389559e-06
  3.8332772e-05
 -4.7262984e-06
 -3.6209312e-05
 -6.7695240e-05
  8.0067213e-05
  1.0114639e-04
 -6.7210342e-05
 -2.8135332e-08
  2.0659954e-05
 -9.0023663e-05
 -6.4918822e-07
  2.3420918e-05
  4.9575727e-05
 -1.0729992e-05
  1.1283197e-04
 -9.3820039e-05
 -8.2271268e-05
 -4.8626636e-05
  1.0953782e-04
  3.1306286e-06
  5.2137078e-05
  6.2726904e-05
 -1.1828328e-05
  1.4577526e-05
 -7.0288502e-06
  1.3963807e-05
  3.4305704e-05
  4.5742294e-05
  3.6594614e-05
  2.5066943e-06
 -4.9278213e-05
 -2.7493563e-05
 -6.7591034e-02
  2.4285309e-03
  4.9707338e-01
 -2.1455185e-01
  3.1271794e-01
 -5.6317168e-01
  5.6564637e-02
 -3.6263266e-01
 -4.2389207e-02
  2.7057564e-01
  5.2722357e-03
 -6.2663317e-01
  1.0384239e+00
 -1.6350488e-01
  6.0029179e-01
 -3.5133135e-01
 -1.7341631e-02
  7.5041026e-01
 -2.5954369e-01
 -1.7226292e-01
 -2.5612456e-01
 -1.2580620e-02
 -4.7977880e-04
 -1.8450156e-01
 -4.9019908e-03
  8.3693471e-05
  9.1203466e-02
  2.8769617e-04
 -2.8363630e-01
 -1.2016909e+00
 -2.4767408e-01
  7.7791041e-01
  1.8419842e-01
 -6.1197704e-01
 -2.4353850e-01
  1.8419516e-01
  9.4371818e-02
  1.8610987e-01
  6.2649444e-02
 -6.9107175e-01
 -3.5594469e-01
  1.2775312e-01
 -4.6483278e-02
  2.2139592e-02
  1.4795682e-03
 -3.5131611e-02
 -2.2056314e-01
  1.6921349e-01
  6.5767639e-03
 -6.1938983e-01
 -5.4510260e-01
 -3.4628186e-01
 -4.1144334e-02
 -5.8140649e-05
  1.4681631e-04
  2.6628754e-01
 -9.5017655e-03
  6.7723113e-01
  2.0042185e-05
  5.2693555e-05
  3.5240038e-05
  6.6918728e-06
  2.1726404e-05
  6.0380840e-05
 -1.2803966e-05
  2.8023194e-05
  1.1316652e-05
 -6.5991248e-05
  7.6691922e-06
 -2.3460872e-05
  1.9166977e-05
 -6.0941284e-06
  1.6760763e-05
  3.5655589e-06
 -1.4317686e-04
  3.0978143e-05
  1.5391031e-05
 -5.6417688e-05
  1.0846526e-04
 -5.5052024e-06
  6.5950808e-06
 -1.2364009e-04
 -8.8784475e-07
 -3.2230306e-05
  3.3013339e-06
  6.9580979e-05
 -1.8504525e-06
  7.7540637e-05
  6.1101018e-05
  7.0578644e-05
 -1.1454008e-04
  1.5421057e-05
  1.3332432e-05
  4.6535075e-05
  6.0818707e-05
 -2.8545332e-05
 -7.7533577e-06
 -3.0253985e-05
  4.7156263e-05
  5.2995510e-05
 -4.5033066e-05
  4.4016851e-06
 -4.5980312e-05
  6.2667198e-07
 -8.4824183e-05
  2.5681795e-05
  6.9477617e-05
  1.0146962e-05
  2.5522264e-05
  6.8438512e-06
  1.2820608e-05
 -2.3154053e-06
  1.4026545e-05
  9.6646225e-05
  9.7544525e-06
  6.3274560e-06
  2.9679533e-05
  1.7623449e-04
  6.6214692e-05
 -1.7856594e-04
 -3.5047919e-01
  7.1013485e-05
 -2.0927295e-05
 -2.2954318e-05
  2.2967057e-02
  1.3752220e-02
  8.0248010e-06
 -2.2827232e-01
  2.2659273e-05
 -4.7739646e-05
 -5.1392973e-03
 -1.9238327e-05
 -1.7265393e-06
 -3.9223619e-03
  5.2593648e-02
  1.7228675e-01
  9.3731744e-04
 -2.7815171e-05
 -3.1959349e-01
 -6.9945194e-02
 -2.1067185e-02
 -1.0401695e-01
  4.2052604e-02
  4.6022166e-02
 -1.1518992e-05
 -1.4234431e-01
  1.1528114e-01
 -2.2116654e-02
  2.5706864e-05
 -9.6749485e-04
 -2.0546117e-01
 -1.1793628e-03
  1.4445658e-01
 -5.7950020e-02
  1.3124759e-04
  4.1366488e-02
 -9.3503899e-05
 -3.0673214e-04
 -2.7709080e-02
  2.2326790e-06
  2.2264766e-02
  7.0172101e-02
 -6.0827842e-06
  2.0223758e-03
  9.5941586e-04
 -1.1082835e-04
 -6.9314547e-02
  4.5286279e-06
 -1.2507150e-04
 -1.7614911e-05
  1.2180272e-05
  2.4250980e-01
  4.2412435e-06
  1.7313319e-01
 -3.0818520e+00
 -6.7741181e-05
 -3.7234864e-04
 -7.9648301e-02
  9.2843372e-01
 -2.7957255e-01
  8.4783614e-01
 -5.9445962e-02
 -8.6301461e-02
  5.7633584e-03
  1.0448903e-03
 -2.2251123e-01
 -5.9818481e-03
  2.2474166e-02
  2.9354864e-01
 -4.7616909e-06
  6.1261135e-01
 -1.3962521e-01
 -6.4868504e-01
 -2.0547824e-03
  1.4605968e-01
 -5.5649009e-02
  1.0785783e-01
  3.7134040e-02
  3.6672023e-01
  7.4960589e-01
  8.1715232e-01
  1.4912771e+00
  2.4188693e-01
  4.8891526e-01
  2.9532513e-01
  1.0891191e-01
  2.9714743e-03
 -2.8666042e-04
 -2.2532657e-05
  4.7566727e-01
  1.6059448e+00
  1.3196025e+00
 -1.3925456e+00
 -2.7996328e-01
  9.9910206e-01
 -3.1859017e-05
 -9.9493608e-02
  2.6286292e-01
  1.8302388e-01
 -4.5091090e-01
 -3.0322353e-04
 -3.4981585e-01
  3.8097063e-01
  5.7656044e-01
  6.3052365e-05
 -8.4108971e-05
  5.3842778e-05
 -9.2134273e-05
  2.8241470e-01
 -4.6867888e-05
  6.4585176e-05
  4.9250093e-06
  1.6066828e-01
  8.8960940e-01
 -1.5288810e-01
  1.0865116e-01
  8.7154728e-01
 -6.3960917e-02
  1.2811717e-01
 -1.1392019e+00
  7.3390856e-02
 -4.7652212e-01
  1.3714926e-01
 -1.9826867e-01
 -5.5094332e-01
 -6.0169645e-02
  1.1042013e+00
 -1.0147748e-01
 -2.9982585e-01
 -8.5617602e-01
 -1.5980020e-01
  3.7079219e-02
  1.9887145e-01
  1.6838601e-01
  3.4109756e-01
 -3.5219464e-02
 -4.3819010e-01
  2.5622931e-01
 -2.8835595e-01
  2.0834212e-01
 -1.6990485e-02
  1.7924438e-01
  8.6843342e-01
  1.9153990e-01
  4.3546274e-01
 -4.1405165e-01
  2.7755341e-01
  2.3324572e-01
  2.2763780e-01
  2.7719110e-02
 -6.7239493e-02
  1.0189786e-01
 -6.8591893e-02
  2.5359026e-04
 -2.8612274e-01
  6.6889542e-01
  7.3488319e-01
  8.4750339e-02
  3.4811718e-03
  6.4701781e-02
  1.4881758e-01
  7.3441464e-01
  4.6637142e-01
 -2.8411521e-05
  7.4775666e-02
 -4.1250274e-01
  1.4921194e-01
 -1.3184417e-02
 -2.8435312e-05
 -8.5092062e-01
  7.2358686e-01
 -2.5817150e-01
 -1.4048856e-05
 -8.4585845e-05
 -1.3717149e-04
  2.3898654e-05
 -1.8073075e-05
  1.0423520e-01
 -2.8041296e-02
 -1.4288914e-01
 -9.3129212e-03
  5.3943634e-01
  2.4799767e-04
  1.7750748e-01
  1.4386335e-01
 -4.5527171e-02
  2.0628076e-02
  3.7975237e-02
  1.1088870e+00
 -3.8218865e-01
  5.7391054e-04
 -1.9786398e-01
  5.0023532e-01
  1.1584083e-06
  1.3648630e-02
  3.1621563e-01
 -4.0924186e-01
 -4.8627722e-01
  2.6752683e-04
 -2.9945884e-05
 -3.7463244e-02
  6.7573957e-02
  9.8373033e-02
  1.2235347e-02
  6.5405154e-01
  1.8522339e-01
  2.0817350e-01
  2.3604095e-01
 -2.7540800e-05
 -5.0758241e-05
 -5.3699398e-03
  3.2072309e-02
 -5.1682284e-05
  1.6321319e-04
 -5.3002775e-01
  1.3861911e-01
  9.2633782e-06
 -4.0539134e-02
  3.2953018e-01
 -4.8656500e-05
  3.0705016e-04
 -3.0967002e-04
  1.0988161e-04
  3.7457903e-05
  4.3871591e-05
 -2.0811644e-01
  2.7262569e-05
  2.0362457e-05
 -1.2734310e-01
 -2.3578304e-01
  3.3580000e-05
 -2.5623233e+00
  1.5904337e-05
  3.6785015e-01
 -3.1635169e-05
  9.9189752e-01
  5.1977634e-01
  8.8836307e-05
 -6.3891304e-01
 -3.2425016e-01
 -6.5466225e-02
 -7.0709706e-04
  5.2080935e-01
  1.4594510e-04
 -1.0374538e-05
 -1.2511187e-02
  3.3290687e-01
 -6.2589802e-02
 -1.6205589e-04
  2.0979929e-01
  9.3628310e-02
 -2.4409499e-05
  6.4422302e-02
  3.4310015e-05
 -1.7629488e-01
  4.1312014e-05
 -5.1132603e-05
  3.1169819e-02
  3.2434739e-02
  1.9559561e-01
  4.7818480e-06
 -2.5391728e-01
 -1.9748352e-04
  6.5881850e-06
  1.1279548e+00
 -1.3854091e-04
  7.2407939e-02
  9.4181126e-01
 -1.0817661e+00
  6.5055048e-01
 -1.1155187e-01
  3.0151086e-02
 -3.2828602e-01
 -2.3157711e-01
 -9.1585316e-02
 -5.1065224e-05
 -2.3655427e-01
  2.5535956e-05
 -4.8039845e-05
 -2.0889707e-05
  4.1760246e-05
  2.7312967e-01
  5.0275543e-05
 -4.1565712e-05
 -1.2030362e-04
  2.5310241e-05
 -1.8563710e-01
 -3.4670243e-01
  1.3884234e-01
 -5.9342816e-02
 -2.3957844e+00
  1.1181468e+00
 -2.3009964e-06
  2.4159214e-01
 -6.3038424e-02
  4.4594222e-01
 -2.6798645e-01
 -5.7564147e-02
  4.3754908e-01
 -2.2711238e-01
  1.6230339e-01
 -3.1426389e-02
 -3.7980849e-06
  3.5360894e-01
  5.9927696e-01
  1.1206549e+00
  2.3454736e-01
  6.5596402e-01
  5.1112407e-01
  5.8480963e-04
 -5.1193569e-02
  1.3543852e-03
  3.8413946e-05
 -8.9606094e-01
  1.2425012e-06
 -8.3583005e-02
  1.1141811e-01
  6.4040428e-01
  6.6522114e-02
  1.0053509e-01
  2.4015033e-05
  1.0087914e+00
  3.6726344e-01
  4.1878757e-01
  5.7274932e-01
 -3.5115466e-01
 -1.6672193e-01
 -1.0757425e-03
  1.1131380e-01
  3.0682242e-01
  2.5025204e-02
 -5.2109355e-01
 -4.1720420e-02
 -1.6926648e-02
 -2.5005797e-01
 -3.0810541e-01
 -4.3154532e-06
 -1.6882548e-05
 -3.1618049e-06
 -2.3317785e-05
 -1.1573950e-04
  2.2215030e-05
  8.5037626e-02
  2.0347827e-04
  1.1249512e-01
 -2.4354824e-05
 -8.3528971e-03
 -4.5748430e-01
 -1.8869209e-01
 -9.4583459e-02
  2.1614879e-03
 -2.4346190e-02
 -2.1520190e-01
  6.0454953e-05
  2.8437591e-05
 -1.0866503e-01
  7.5204305e-05
 -9.8665111e-02
 -6.4624563e-02
 -1.0245906e-01
 -7.4016206e-02
  1.4557494e-02
  3.8978532e-01
  2.9882142e-01
  7.3969103e-02
  9.6625189e-04
 -8.7758955e-05
 -3.8098386e-01
 -3.2335764e-01
 -6.4170104e-05
  7.3105254e-04
 -2.6964328e-01
 -2.2212155e-02
 -3.4583274e-01
  3.2025170e-01
  9.0986282e-02
  1.5817718e-04
  2.6701646e-02
 -2.0168245e-05
  2.8549315e-02
  4.7022128e-05
 -3.4299919e-05
 -8.6242306e-01
  8.2355000e-02
 -2.3529662e-02
 -2.3207636e-04
  2.4330838e-01
  6.6800858e-03
  1.3746779e-02
  1.1159825e-01
 -1.6336877e-05
 -5.0269961e-01
  9.3368083e-02
 -6.4773296e-05
 -2.0659061e-01
 -5.2138267e-04
 -3.2649565e-05
  3.6313522e-06
 -4.4025910e-06
  1.1036875e-01
 -5.6166420e-05
  5.8463025e-01
  3.5102808e-01
  1.6048393e-01
  3.1699126e-03
 -4.3458242e-02
 -8.2190603e-04
  4.1939002e-02
 -1.6133407e-01
 -1.5922074e-04
 -2.8125674e-01
  5.5564982e-03
  1.7589564e+00
  5.8805086e-02
  3.0140704e-01
 -5.7027498e-03
 -1.9069634e-02
  4.9285227e-01
  3.2888827e-01
 -1.6572319e-01
  3.0482975e-01
 -6.5179959e-02
 -2.1568324e-01
  3.4199852e-02
 -2.4986833e-01
 -4.7727865e-01
 -4.6556696e-02
 -3.8167655e-01
  2.4072604e-01
 -5.3734827e-01
 -6.5787171e-04
  3.4975383e-04
  5.2294649e-02
  7.6154195e-02
  4.2397305e-01
  1.0740668e-01
 -1.1412812e+00
 -8.3067371e-03
 -1.4096898e-01
 -3.9972957e-02
  8.2102038e-02
  3.9496771e-01
 -6.2993586e-02
 -2.8695241e-01
 -3.2552448e-01
 -1.7866218e-01
  2.5738906e-02
 -3.5564628e-01
 -3.3859617e-01
 -1.7123516e-01
  1.3808263e-03
 -7.6215833e-01
 -3.5217425e-05
 -1.8926227e-04
 -1.0357890e-06
  2.5345868e-01
  4.2787388e-01
  1.4814650e-01
 -2.5715875e-05
  6.7203991e-02
 -2.6402151e-06
  9.3383627e-05
 -1.0094578e-04
  9.0591902e-06
 -2.3278144e-05
  3.6234658e-06
 -5.6411418e-06
  1.6968643e-06
  1.0868663e-05
 -2.3621164e-05
 -1.2300217e-05
 -6.7052156e-06
 -1.6599370e-05
 -5.1662540e-05
 -1.0537747e-04
 -1.8075195e-06
 -6.2128524e-06
 -2.0781918e-07
 -7.6273194e-05
  1.9390743e-06
  1.2685683e-05
  1.7147795e-07
  1.2812938e-05
  6.9997313e-06
 -2.9090585e-05
 -5.4907728e-06
 -7.5475964e-06
  5.6861474e-05
 -1.8393170e-05
 -2.1428055e-05
  1.8105289e-05
  3.5943503e-05
 -8.7010005e-05
 -2.4918965e-05
 -1.2297508e-05
  5.7799098e-05
  3.6922025e-05
  9.1529932e-05
  9.8507953e-06
  1.7378907e-05
  8.0903396e-07
 -2.7970331e-05
  2.9831126e-05
  4.7336898e-06
 -2.3397508e-05
 -1.2577856e-04
  2.5478989e-06
 -2.6486363e-05
  2.3029066e-05
  1.8643234e-06
  5.6180506e-06
 -2.1794571e-05
 -5.5319975e-05
  7.1253198e-05
  1.6820424e-06
  4.3288087e-06
 -7.1198338e-05
 -3.8803995e-05
 -4.3010917e-01
  1.0653437e-01
  1.5702492e-02
 -8.6170072e-03
 -3.6692494e-01
  8.9640617e-01
 -6.7614800e-01
  7.0640363e-04
 -1.5162929e-02
  1.5914286e-02
 -7.9299442e-02
  7.3854870e-01
  1.8493968e-01
 -6.4334267e-01
  5.7462888e-04
 -6.7726814e-04
 -5.5101901e-01
 -3.6965605e-02
  1.0050818e+00
 -1.0271785e-01
 -9.9943161e-02
  1.8542049e-02
 -2.1734768e-01
  8.4611289e-03
 -3.4926159e-03
 -1.0890216e-01
  1.5698448e-01
 -1.4086691e+00
 -1.4204638e-03
 -5.4484212e-01
 -9.4755918e-02
  4.1175699e-03
  4.0056877e-02
  2.7850562e-01
 -7.7949351e-01
 -1.0364118e-01
  1.0639498e-01
 -2.7765712e-01
  3.3441570e-03
  2.4250720e-02
  7.7625442e-01
  6.1374044e-01
 -1.8237019e-01
 -5.2116930e-01
  3.7575498e-01
 -1.5811369e-01
 -9.0245855e-01
 -4.8592746e-01
 -3.6980820e-01
 -1.1441840e+00
 -3.0269388e-02
 -2.7113846e-01
 -7.2121686e-05
 -7.6056972e-02
 -1.6403177e-01
  5.1735240e-01
  9.2430321e-07
  7.4787393e-02
  3.4065250e-02
 -3.9945073e-05
  1.3599783e-05
 -7.0714714e-06
  1.2618693e-05
 -3.3027300e-05
  1.7022965e-05
  2.6876007e-05
 -5.1829968e-05
 -2.2305019e-05
 -7.3356772e-05
  2.9444271e-05
 -5.4180407e-05
  1.4144865e-05
  3.2293476e-05
  5.2659747e-05
  4.4733530e-05
 -2.9619645e-05
  9.1145421e-06
  2.7727530e-05
  1.4057282e-05
  3.6994852e-06
 -1.7739401e-05
 -4.3895881e-05
  2.6829357e-05
 -4.4326687e-05
 -2.0873331e-05
 -1.9664854e-05
 -1.7349375e-06
  1.8873603e-05
  2.0830175e-06
  8.6820583e-06
  4.1220763e-05
 -1.0393644e-05
 -9.7762320e-05
  5.6045690e-05
  2.3229388e-06
  4.4487433e-06
 -8.9412943e-06
  1.6368176e-05
  8.3683562e-07
  4.0091829e-05
  1.0956855e-05
 -7.3539031e-06
  7.9449719e-06
  1.6655924e-04
 -5.1978546e-05
 -1.2317928e-06
  4.4572960e-05
  1.7521696e-05
 -1.0976555e-06
  1.5903557e-05
 -1.4699258e-04
 -1.6334858e-05
  1.1378832e-05
 -3.3779332e-05
 -5.1438400e-07
  6.5380984e-05
  2.0803766e-01
  9.2762101e-01
  5.7117081e-01
  3.1295601e-01
  1.5732793e+00
 -3.0338243e-01
  5.9093293e-02
 -4.6569917e-01
 -7.9544814e-05
  5.7119858e-03
  3.2579240e-01
 -2.1708946e+00
 -6.1237282e-01
  8.3687586e-01
  2.8219375e-01
 -5.6853139e-01
 -6.3494526e-02
  1.2681125e+00
 -1.5014456e-01
 -4.3690431e-01
  1.4392369e+00
  6.5862650e-01
 -5.8031040e-01
 -3.8987797e-02
 -6.4297348e-01
  2.9890196e-02
 -4.0051001e-01
 -1.7184217e+00
 -4.3424273e-01
  1.1779679e+00
 -1.0984138e+00
 -1.4013057e+00
 -1.7122297e-01
 -6.8839061e-01
  5.8173567e-01
 -5.6095761e-01
 -3.7042502e-01
  2.9634696e-02
 -1.6433777e+00
 -1.0342083e+00
  9.2703767e-02
  8.9813197e-01
 -7.6385611e-01
  6.6367872e-02
 -5.2349615e-01
 -7.8637958e-01
  7.8001183e-01
 -8.5765028e-01
 -2.7766150e-01
 -1.2574939e-01
  5.1937994e-02
 -1.0693966e+00
  1.9448498e-05
 -2.1914375e-06
  3.2421070e-01
 -3.6345231e-05
 -2.9868907e-01
 -5.2779969e-02
  8.5557543e-02
 -6.0217837e-05
  1.9364052e-08
 -6.4596868e-05
  1.0945723e-01
 -7.2214483e-05
  2.0765210e-05
  1.1526658e-04
 -1.6489634e-03
 -1.1892343e-01
 -1.3678541e-04
  2.4893883e-01
 -1.1987132e-01
  1.4487249e-01
  5.0693624e-02
  7.2930197e-06
  2.1356644e-02
  1.0856300e-03
  1.4877231e-01
 -2.0337462e-02
 -2.8325015e-04
 -1.2358841e-02
  2.5424263e-01
  1.8429855e-01
  8.6336205e-04
  1.8474385e-01
 -9.9073671e-02
 -1.3228534e-01
 -1.2936729e-05
  2.7237549e-01
 -1.1133426e-01
 -4.2712836e-05
  5.6281856e-06
  2.9547231e-02
  2.3151836e-01
  1.2952881e-03
  2.3200886e-05
  9.2987586e-03
 -1.1307665e-05
 -9.0769672e-06
 -2.7174491e-03
  7.3361536e-04
  4.2084674e-05
 -5.6556120e-05
 -1.8983189e-02
 -4.2041098e-03
  5.4697815e-05
 -3.7888854e-05
 -6.7267274e-03
  1.1714138e-01
  4.6275981e-02
  2.3175601e-06
 -1.7220120e-05
  9.0878257e-06
 -6.6125845e-05
 -2.8980902e-01
 -3.4669661e-06
 -2.6178572e-01
 -6.9972098e-01
 -1.4042837e-04
  3.5651907e-02
 -1.5507036e-01
  1.5357833e-05
  3.2271484e-01
 -5.0718081e-05
  7.0894923e-05
  1.5154380e-01
  6.3429630e-01
 -1.3565043e+00
  4.4749955e-05
 -5.5871350e-03
  6.7451001e-05
 -5.4721946e-01
  7.6443630e-06
  4.0682018e-02
  1.0657785e+00
 -1.2181003e+00
  8.3041495e-01
  1.1801320e-01
  1.3876142e-01
  1.3001853e-01
 -1.0956447e-05
  4.8700258e-08
 -9.4044583e-05
 -3.7810885e-05
  4.4638864e-04
  3.9677963e-02
 -3.2642353e-01
  3.4824883e-05
  1.8497560e+00
 -2.4816425e-01
 -1.2662371e-04
  1.1999369e-04
  7.4086507e-05
 -1.3857026e+00
  3.1927266e-05
  7.3227888e-01
  1.2278675e-04
  1.1534490e-01
  9.3760490e-02
 -2.1556642e-02
 -1.5794369e-06
 -5.3916615e-01
  4.7280249e-01
  5.7741418e-02
  2.9687157e-02
 -8.7829131e-01
 -1.5523887e-04
  4.3886535e-05
 -6.2868767e-06
 -4.8427242e-05
  1.6802629e-04
 -5.8387517e-04
  1.0263260e-03
  5.3731485e-05
 -4.2055049e-06
 -2.7665514e-01
 -1.3201311e-01
 -8.0385362e-06
 -7.3639596e-05
  4.8983584e-05
 -1.3738247e-05
  7.9755155e-05
  6.4538399e-05
  3.9681596e-01
  1.9268597e-05
 -4.4009763e-01
  3.0358084e-05
  6.6973182e-05
 -7.5422555e-05
  2.0766544e-01
  5.5959317e-05
 -8.0254380e-05
 -3.7639660e-01
  2.7610087e-01
 -1.8746294e-05
 -7.4870593e-05
 -4.1244075e-05
  6.2471128e-01
  4.1809119e-05
 -9.1146085e-06
  1.0113179e-05
  3.9172643e-05
  5.5865294e-06
  4.8949980e-05
  1.0512111e-04
  4.6984132e-05
 -6.5868294e-01
 -1.1280925e-05
  1.5211977e-01
 -1.6099608e-05
  1.3636129e-01
 -7.5604362e-08
 -7.8323676e-05
 -9.4696814e-05
 -1.0114911e-05
  3.6722901e-01
 -2.0655007e-06
  3.7620243e-02
 -7.9765559e-06
 -4.6778419e-05
  4.8572904e-01
  1.3259201e-05
  1.5148224e-05
 -1.3345762e-05
 -2.4971581e-05
  1.8646540e-05
  3.1315489e-05
  8.6717257e-05
 -9.7431703e-06
 -2.4605870e-06
 -9.6464908e-07
  4.1350173e-05
  8.5439824e-06
 -1.1906698e+00
  2.7136800e+00
  1.5826883e-02
  1.5028827e+00
  1.4965972e-02
  7.7574909e-02
 -1.2895755e+00
 -1.2354648e+00
  2.5603211e-01
 -1.8390504e+00
 -2.0420329e-01
 -1.4030154e+00
  9.1630203e-01
 -1.1571106e+00
 -2.0930562e-02
 -1.9447983e-04
 -1.0014719e+00
  1.5927108e-01
 -2.1386273e+00
 -7.6481700e-01
  4.3217924e-01
  2.8948551e-01
 -8.9189440e-01
 -2.2853215e-01
 -1.4414722e-01
 -1.0196666e-02
 -8.0961786e-02
  2.1836202e-01
  1.6478361e+00
  5.0547197e-02
  1.4420444e-01
  6.5386309e-03
  2.9942140e-01
 -6.1490204e-02
  3.5169061e-05
  4.0985164e-01
 -2.4718390e-01
 -7.5908947e-01
 -3.9903393e-01
 -7.8891450e-01
 -1.7141318e-01
  3.2010230e-01
  3.3646750e-01
 -7.9218671e-02
  1.6614048e-01
 -2.3883465e-01
 -6.4849007e-01
 -8.8398397e-02
  2.0835073e-01
 -1.7539562e-01
 -1.4555781e-01
 -6.7049392e-02
 -3.3573224e-03
  2.4394317e-01
 -1.2183806e-03
  1.6677197e-05
  3.8627878e-01
 -1.6302416e-03
  3.1674463e-02
  8.1796430e-02
 -8.2065839e-01
  1.6742556e+00
 -4.5246705e-01
 -1.1481107e+00
 -9.2404443e-01
 -8.0838954e-01
 -1.5846948e-01
  1.0531483e+00
  4.4283647e-02
  1.3494145e+00
 -4.8265070e-01
  7.7621096e-01
  5.2424461e-01
  4.8593840e-01
  1.2690423e+00
 -1.8154116e+00
  9.2085600e-02
 -1.4119091e+00
  2.2820676e-02
  5.1595855e-01
  2.7272815e-01
  2.0576065e+00
 -4.5145819e-01
  2.5175285e+00
 -2.8816977e+00
 -1.0264509e+00
  3.9547825e-01
  3.8518560e-01
  1.0798614e+00
 -5.0806344e-01
  2.1982031e+00
  2.5595990e-01
  1.5740198e+00
 -9.2763114e-01
  7.1348912e-01
 -5.6288022e-01
 -2.7288399e+00
  4.4955257e-01
  3.0790696e-01
  6.7107052e-01
 -1.0113431e+00
  1.2234671e-01
 -2.2466244e-01
  1.3671795e-01
  6.4646018e-01
 -1.0499150e+00
 -1.3853841e+00
  6.1469072e-01
  4.1127652e-01
  1.3695650e+00
  2.4046804e-01
 -6.0086433e-05
 -7.1304947e-02
 -2.4526227e-05
 -8.4376567e-05
 -6.4856941e-01
 -4.7036582e-01
  8.0398959e-01
  2.2182836e-01
 -1.0232172e-01
 -2.5693167e-02
  1.1594610e+00
 -4.6798538e-02
  1.0021460e+00
  1.7540122e+00
 -2.6712567e-01
 -2.0720969e-01
 -2.8889352e-01
 -5.2803367e-01
  1.9082674e+00
 -2.7017405e-02
  1.1627653e-04
 -2.8942928e-01
 -2.3284311e+00
 -1.0089425e+00
  4.7622734e-01
 -7.7111548e-01
  9.7147387e-01
  3.1147846e-03
  1.8908367e+00
 -4.9524719e-01
 -1.9372658e+00
  2.6631454e-01
 -7.0171875e-01
 -2.3484419e-05
  1.0593075e+00
  4.3312651e-01
 -1.5908207e+00
  4.7967362e-01
  2.0245929e-01
 -6.0552818e-04
  8.4487629e-06
 -8.1989372e-01
 -1.0840070e-03
  6.2529665e-01
 -1.7507483e+00
 -4.3115139e-01
  2.3232935e-01
  2.2474375e-01
 -1.1154939e-01
 -1.6210835e-02
  5.9911400e-01
  4.4141826e-01
  6.9342047e-01
  6.3146062e-02
  1.4411508e-01
  1.0264843e-01
 -5.9859496e-05
  2.7738211e-05
 -2.0259203e-01
 -8.9527703e-06
  1.7185759e-05
  5.1280367e-05
 -1.0262409e+00
 -2.3231097e-02
 -2.2396573e-01
  7.5592212e-02
 -1.2584487e-01
 -7.8831339e-01
  5.9776885e-06
 -6.0108441e-06
  7.2927788e-02
 -3.0996554e-05
  4.6904184e-05
  1.5104815e-04
 -3.1994450e-01
  8.8227160e-02
  4.3601736e-05
  3.3643669e-01
 -2.4453380e-05
 -2.0425592e-05
 -1.0061810e-02
  1.1632428e-01
 -8.2124294e-05
  1.0905058e-04
  3.7714514e-01
 -1.7874146e-02
 -3.4155792e-01
 -2.1660794e-01
 -2.0649717e-03
  2.6487428e-01
  2.4749194e-01
  5.3096983e-08
 -9.9401414e-01
  1.5570188e-01
 -4.0146807e-01
 -4.3029746e-01
  1.5418397e-01
 -3.1510150e-01
 -6.2826613e-05
 -2.6451331e-01
 -6.5315884e-01
  1.5937982e-01
  2.5540692e-01
 -9.3556190e-01
  6.5491718e-01
 -6.4158493e-01
  1.9642373e-03
  1.0824943e-01
  3.8538579e-02
 -1.8620764e-01
 -1.1191209e-01
 -1.2945491e-01
 -2.4605727e-01
 -5.7445254e-02
 -6.2365355e-03
 -7.2186567e-06
 -1.1539469e-05
 -9.9029555e-04
  1.3468948e-01
  7.1591407e-02
  4.1670445e-01
  8.6452877e-05
  6.5240674e-05
  5.0675884e-05
 -5.4596756e-05
  6.1335981e-05
  1.8757114e-06
  2.3256422e-05
 -4.1455351e-06
 -1.2116129e-05
 -4.6700137e-05
 -5.1912895e-05
  6.1821570e-06
 -1.5132314e-06
  3.2835887e-06
 -1.0293033e-05
 -8.4356667e-05
  2.8270174e-06
 -1.6970735e-06
 -6.3864092e-05
  8.4803241e-06
 -3.5907626e-05
  7.3202682e-05
  2.7691742e-05
 -1.5580916e-05
  1.3471745e-05
  2.9997627e-05
 -7.9856682e-06
  3.3206659e-05
 -1.5410891e-05
 -5.4593726e-05
 -4.8917074e-05
  2.1901483e-06
  1.0612219e-04
 -1.5607226e-05
  4.2826210e-05
  3.2948996e-05
 -6.4725855e-06
  1.3854221e-05
  1.2611590e-06
  5.3371350e-05
 -9.8701035e-05
  3.0722160e-07
  1.3505065e-04
 -1.4147115e-05
 -1.2556282e-05
  3.5458375e-05
 -1.7092509e-05
  1.3399326e-06
 -8.0931633e-05
  1.6541117e-06
  1.7438151e-05
 -6.9527967e-05
 -2.4210798e-05
  3.2779194e-06
 -1.6446418e-05
  4.7906142e-06
  1.0780139e-05
  2.9472656e-06
 -1.2685827e-05
  2.1238655e-05
 -6.4464228e-05
  6.3603533e-05
  1.0721955e-05
  1.6237489e-05
 -6.8180059e-05
  1.7144042e-05
 -9.3617955e-06
  7.6070035e-05
  1.0409234e-05
 -8.4336179e-06
 -1.8161774e-05
  1.0867340e-05
  4.2871206e-06
 -3.2827440e-05
 -1.5699752e-06
 -2.0092582e-05
  4.8799451e-05
 -6.8506401e-05
 -8.5327456e-06
  5.7626035e-05
 -1.2059395e-04
  1.9479052e-05
  2.3761462e-05
 -1.0124585e-04
  1.1227125e-05
 -2.4767714e-05
  2.0756042e-05
  5.3465340e-07
  3.1292548e-05
  3.3208875e-05
  1.9179453e-05
 -3.8156300e-06
  4.4242293e-05
 -7.4273128e-05
 -2.3198427e-05
 -2.4757499e-05
  2.3520242e-06
 -1.1381737e-05
  1.1653140e-06
  1.1764570e-05
  1.6377622e-05
  2.5735792e-06
  1.7677298e-06
  2.9320825e-05
 -3.9291077e-05
  4.2820768e-05
  2.0470370e-05
 -8.2522129e-06
 -7.9709549e-05
 -1.0711032e-05
 -6.6630084e-05
 -1.6020866e-05
  9.7703587e-06
  9.3434930e-05
 -4.8644863e-05
 -1.4089977e-05
  4.1139829e-01
 -1.6687037e-01
 -2.1445947e-05
 -6.6101360e-01
 -1.8926354e-05
  5.6129411e-05
 -3.3132495e-05
  4.9496564e-05
  7.0362614e-05
 -2.2539113e-02
 -2.3484792e-05
  3.7435028e-01
  1.4761355e-05
 -8.9724845e-06
 -1.7749009e-05
  1.5144558e-06
  1.8444242e-01
  1.8779396e-01
 -3.5769576e-01
  2.7555424e-01
 -1.4583739e-04
 -1.8812153e-04
  2.0543559e-02
  3.5256665e-02
  1.7285044e-03
  2.3050122e-04
 -8.0925136e-05
 -3.1075615e-05
  1.0078566e-04
 -4.1261479e-05
 -3.4244272e-01
 -4.2159835e-01
 -5.3016520e-06
  1.6400552e-05
  3.3969645e-06
  4.3393936e-04
 -7.3293972e-01
 -5.6186313e-06
  8.6538763e-05
 -2.3311371e-02
 -2.8796328e-05
 -6.0158786e-03
  2.9937166e-01
  2.8485647e-06
  3.5238078e-05
  1.3300735e-01
  1.4037795e-04
 -3.5731729e-05
 -1.8165651e-01
  8.4239455e-06
 -2.8368262e-05
 -1.2840515e-05
  2.3018005e-05
  1.8452960e-05
  1.9775989e-06
  5.7907155e-06
 -9.7231105e-06
 -1.7010958e-03
 -2.2777305e-05
  1.8672443e-05
  4.7667554e-06
 -2.4575676e-05
  1.6802527e-05
 -2.0734198e-05
 -5.3547894e-05
  5.0408795e-05
 -3.8470491e-05
  3.9642509e-05
 -2.3572498e-05
 -5.4411230e-06
  2.8240054e-06
 -2.7649930e-05
  1.7111843e-05
  6.0361650e-05
  6.5529284e-06
 -7.6998040e-05
  4.6187772e-05
  3.9200750e-05
  1.6040476e-05
  3.9639715e-05
  1.6964870e-05
 -8.8131437e-06
 -5.9766717e-07
 -1.0509857e-06
  3.1867310e-06
  1.1499427e-05
 -3.2817967e-05
 -1.2645843e-05
  7.5045464e-05
 -3.6668942e-05
  2.0809682e-06
  1.3053593e-06
  2.0975358e-05
  1.2452854e-04
 -1.2725420e-05
  7.1786577e-05
  3.4450459e-05
  1.0385444e-05
  7.2445051e-05
  1.8986269e-05
  2.9881652e-05
 -3.0344567e-05
 -1.5709375e-05
  2.8530001e-06
  2.4518145e-05
  1.5444357e-05
  2.7828928e-05
 -1.7533896e-05
  3.5112829e-05
 -3.2440330e-05
 -2.0767933e-05
  3.3615986e-05
  9.4980322e-05
 -1.5505248e-05
  2.3789920e-05
  5.2345731e-05
  4.3567362e-01
 -1.8666758e-01
 -1.0487558e+00
 -9.3386613e-02
  2.0707685e-01
 -3.9034165e-02
  7.2703831e-04
 -6.5870965e-01
 -4.4581416e-01
  3.3684470e-02
 -6.7362392e-01
  9.7190124e-01
 -1.5474989e+00
 -3.4407860e-01
 -1.2264396e-01
 -4.1584656e-01
  4.6394369e-01
  2.6481345e-01
 -6.1057322e-02
 -2.9023054e-01
 -2.9510775e-04
 -1.7172331e-01
  4.7215617e-01
  5.3727217e-05
 -1.9727361e-04
 -3.6869474e-06
  1.6135771e-02
 -8.3419308e-04
 -9.9231750e-01
  5.2023499e-04
 -1.1183672e-02
  5.0772998e-02
 -4.0483315e-05
 -3.9379692e-01
 -5.4746806e-06
 -2.4089837e-01
 -7.0935853e-02
  1.4661050e-01
  6.6833669e-01
 -9.4293839e-01
  3.3218461e-01
 -4.6762609e-05
  1.7193044e-02
 -3.6047289e-01
  1.0564587e-01
 -4.6083051e-01
 -8.3532788e-02
 -1.6466413e-01
 -8.0392495e-02
  1.2157757e-05
 -4.0759909e-01
 -4.1593271e-01
 -9.7082127e-03
  1.4606883e-05
  1.7622456e-01
  2.6160866e-01
 -1.3206937e-04
 -7.3847157e-05
  3.0771318e-01
 -7.2618854e-01
 -6.1785561e-01
 -7.0918472e-06
 -1.2100409e+00
  6.8413712e-02
 -1.4329633e+00
 -2.1210520e+00
  7.2455233e-01
  2.0715237e+00
 -1.0068176e+00
  1.2429111e+00
 -2.7863911e-01
  3.7798941e-01
 -1.4942204e+00
 -6.6202378e-01
 -3.9492396e-01
 -1.7028381e+00
  1.3784137e+00
 -1.9355464e+00
 -3.2477295e-01
  7.2751231e-02
  1.8564984e+00
 -5.1158434e-01
  6.8617183e-01
 -1.4605202e-01
 -1.0760893e+00
  4.1277137e-01
 -1.8771114e+00
 -2.7879973e-05
 -6.4037167e-02
 -4.9443442e-02
 -2.9750568e-01
 -6.2893564e-01
  8.1241363e-01
 -1.1226183e-02
  1.3942124e+00
  4.6724281e-01
  2.8892919e-01
 -1.3137268e+00
  4.5829752e-01
 -7.0741564e-01
 -1.5764964e+00
  3.7374386e-01
  1.4661653e-01
 -1.2493295e-01
  9.5737767e-01
  9.4470090e-01
 -7.4659359e-01
 -2.9916760e-01
 -4.7952810e-04
 -3.9094946e-01
 -4.0841619e-03
 -1.9757480e-04
  1.9970736e-01
  6.8409014e-01
 -5.8875823e-01
 -8.1341915e-02
  1.1685177e-04
  5.3882762e-04
  1.8645787e-06
  9.9904591e-06
  2.5968644e-05
 -9.1231241e-06
 -2.4047060e-05
  4.5604441e-01
 -5.9031129e-02
  2.6050100e-06
  1.2426263e-04
  1.7140086e-05
  2.1140937e-05
 -5.9437549e-05
  8.8502466e-06
  1.6780099e-05
 -2.7011163e-05
 -1.8141473e-02
  7.4354321e-01
 -2.5909573e-02
  9.4166080e-06
  2.6303685e-05
 -3.5037556e-01
  1.7871289e-06
 -1.1888514e-04
 -1.5875794e-05
 -3.2816850e-05
  6.9087222e-02
 -1.4180799e-04
 -3.1239924e-05
  7.1375810e-02
 -1.0939242e-01
 -4.4296144e-06
  1.2410499e-04
 -3.8495555e-06
 -2.5118732e-01
  3.8970273e-05
 -3.2288142e-02
  3.3760345e-05
  1.7834936e-06
  1.5767380e-06
 -8.1808153e-05
 -7.2329691e-05
 -1.3099998e-05
 -4.8212896e-05
  3.1389844e-02
 -5.6470144e-06
  4.0714529e-01
  8.9209415e-03
 -1.7286694e-04
 -6.2034087e-07
 -5.5155469e-06
  5.3471631e-05
  7.7177778e-05
 -3.0326359e-05
  7.8995567e-05
  6.5877066e-06
  6.0448006e-02
  5.7796977e-05
 -8.8350025e-06
  8.3840023e-06
  4.4809171e-06
 -7.0839320e-05
  4.1487303e-07
  6.1399742e-06
  8.4036774e-06
  5.1291472e-06
  2.4927649e-05
  5.7974830e-07
  5.5908527e-05
  1.5819205e-05
  4.8712800e-06
 -1.1198154e-05
  8.7615808e-06
 -3.6951424e-06
  2.5603254e-05
  2.9791510e-05
  1.9069936e-05
  1.2268451e-05
 -4.0944786e-05
  6.2418432e-05
  2.3721212e-05
 -1.9005738e-06
  5.3293852e-06
  7.5580765e-06
  3.1425476e-05
 -2.2286982e-05
 -1.0158977e-04
 -3.6657957e-06
 -7.2311213e-06
  1.8580839e-05
 -2.8019020e-05
 -2.8306164e-07
 -5.9139238e-05
 -2.9941430e-05
 -1.2900415e-05
 -1.8032964e-05
 -1.0648859e-05
 -2.5992555e-05
  6.5921442e-05
 -3.5485617e-05
  3.8582832e-05
 -1.3713643e-04
  1.0830729e-05
 -6.3932675e-05
 -7.7547775e-05
  3.7411351e-06
 -3.8428789e-05
  3.5032641e-05
 -8.0247046e-06
  8.1194412e-06
  1.5476991e-05
 -1.2052301e-04
  5.2813237e-05
 -9.7639731e-06
 -8.8499393e-05
  2.0449758e+00
 -4.6037894e-06
 -2.6389574e-05
 -7.6138540e-06
 -1.6260913e-04
  9.1439736e-01
  1.8653564e-01
 -4.8057881e-01
  1.0086213e-01
 -3.1046630e-04
 -2.8849584e-01
 -9.9806678e-01
  6.0991926e-05
  2.8769695e-03
 -6.8299541e-06
 -1.9914027e-01
  8.8397466e-02
  1.1676920e-04
 -2.2813089e-01
 -3.2852914e-02
  5.9621793e-01
 -3.8508776e-01
  2.7771336e-01
 -8.1279766e-05
 -3.2515004e-06
  1.3459479e-02
 -1.2963979e-01
 -1.3919729e-01
 -1.6527753e-06
  8.1784315e-02
  1.8681588e-02
  4.2882153e-01
 -1.7387683e-05
 -2.6247879e-03
  1.5686171e-01
  1.0868695e-05
 -5.7524759e-02
  3.4371458e-04
  1.2850523e-04
  2.8065935e-01
  6.8987757e-03
  2.8755094e-04
 -4.2018727e-03
 -1.5632663e-04
 -3.6834146e-05
  2.5994140e-01
 -3.7683443e-05
 -8.9959568e-01
  1.0173452e+00
 -2.0684953e-05
  1.7400489e-05
  5.8653567e-02
  3.2786891e-06
  1.4356282e-04
  4.7968155e-05
 -3.1833482e-01
  1.0024087e-05
  4.5659982e-02
 -1.8468181e-05
  1.2654549e-05
 -1.1460058e-05
 -1.6349120e-05
  2.4543788e-05
  4.7446438e-06
  2.3337284e-06
  2.6061753e-05
 -4.1531439e-05
  4.6229878e-05
  1.9759920e-05
 -1.1212451e-05
 -5.5891735e-05
  2.7058446e-05
  3.4504323e-05
  1.8711198e-05
 -2.1885093e-05
  1.1265496e-06
 -3.7085247e-05
 -2.3912437e-05
 -5.7227790e-06
  1.6356131e-06
 -1.6538790e-05
  5.3255586e-05
 -2.0169027e-05
  1.6059585e-05
 -7.0276983e-06
 -2.7293325e-05
 -4.2557716e-05
  2.0602922e-05
 -1.7471833e-05
 -1.9929194e-05
  1.0314991e-05
 -9.4608176e-06
 -1.2463909e-05
 -8.0850441e-05
 -1.0268173e-04
 -1.0461397e-04
  1.5344728e-04
 -1.0340224e-05
 -6.0184517e-05
 -1.3996960e-04
  3.4056680e-05
 -1.9584691e-05
  1.3918098e-05
  3.3388438e-05
  1.5272550e-05
  1.6981850e-05
 -1.3735604e-05
  1.6076574e-05
 -1.8492356e-05
  5.3332565e-06
  4.9834071e-06
 -1.5396221e-05
 -8.2444103e-08
  2.6630529e-05
  1.6317324e-05
 -2.9764205e-05
  1.7369002e-05
  1.2970290e-05
 -2.8265204e-05
 -1.2408910e-05
 -3.4543370e-06
 -8.8669067e-06
 -3.8657156e-05
 -8.1595288e-05
 -1.4571934e-04
 -2.2742584e-05
 -1.1672873e-05
 -1.3421784e-05
 -3.3062647e-06
  1.9899559e-04
  1.9769725e-05
 -3.3865643e-05
 -4.6736874e-05
 -1.7486553e-05
  8.0364889e-06
  1.0953228e-04
 -3.9152575e-05
 -3.0909578e-06
 -4.1070587e-05
 -1.0720791e-05
  2.1418831e-05
 -5.7401057e-06
  4.6772795e-05
  3.1542036e-06
 -8.0651571e-06
  2.5077812e-05
  3.9553921e-05
 -3.4596505e-05
 -7.6685857e-05
 -3.2615590e-05
 -3.1168216e-05
  7.2687203e-07
  2.3133314e-04
 -6.5008382e-05
 -6.0489227e-05
  3.7559152e-05
  7.8074430e-05
 -1.1971953e-05
 -7.1004739e-05
  7.0393886e-05
  1.5624400e-05
 -1.0207429e-04
  4.9970560e-05
 -6.6178354e-06
  5.5976925e-06
 -8.1854807e-05
  2.9248158e-06
 -1.4398669e-05
  2.3462688e-05
  8.8150791e-06
 -1.1635847e-04
  7.3904986e-05
 -5.4117199e-06
 -5.0624230e-06
 -1.9734345e-05
 -8.9699126e-05
  1.6802665e-05
  1.8564424e-05
 -4.3187501e-05
  6.4936376e-06
 -3.6457506e-05
 -6.3772248e-05
  4.2315369e-05
 -1.6472404e-05
  4.9581300e-05
  2.0679323e-05
 -1.5021377e-04
  2.4913659e-05
 -6.8547139e-05
 -5.7699181e-06
 -1.1908285e-05
  7.5873186e-06
 -5.4510333e-06
 -7.5919066e-05
 -1.3352834e-05
  4.5765963e-05
 -1.6167198e-05
  2.7796015e-05
  8.4837971e-05
 -2.7044605e-05
 -2.3246490e-05
  4.4425000e-05
  2.3183880e-05
  6.1658429e-05
  1.6374375e-05
  8.5302536e-06
  2.8470293e-05
  3.5326360e-05
 -5.3329791e-06
  6.8013214e-06
 -3.3161305e-06
  9.2785313e-06
 -9.4033840e-06
  3.6735662e-05
 -3.9396833e-05
  1.7612017e-06
  5.0209630e-05
 -4.2877386e-05
  4.1265821e-06
  5.4294822e-05
 -2.8027800e-05
  3.2404314e-05
  8.9048690e-06
 -5.7350881e-06
 -1.3946659e-05
  3.0214951e-05
  1.1550599e-04
  2.0194209e-05
 -1.2008482e-05
  7.5151065e-06
 -1.7378919e-05
  1.2494233e-05
  7.0544731e-05
  5.3116064e-06
 -4.1120284e-06
  7.2314258e-05
  2.9495814e-05
  4.7030981e-06
  5.8683061e-05
 -1.5518048e-05
  3.2462143e-05
 -5.7413428e-05
  1.9620593e-06
  6.3262749e-05
  4.7582644e-06
 -6.4385213e-06
 -8.6941191e-06
 -1.2208912e-05
 -1.4037008e-05
  6.5497989e-05
  2.4402645e-05
  2.9522498e-04
 -6.4913591e-05
 -9.7382117e-06
  3.8416467e-05
  4.3023050e-05
 -5.0132898e-05
 -5.5096563e-05
  5.7851612e-06
  7.4245087e-05
 -2.5272318e-05
  9.2586037e-05
  1.3477461e-05
 -7.5996973e-06
 -8.1795752e-06
 -5.9435019e-06
 -3.1895845e-05
 -4.4202116e-05
  1.6930135e-04
  3.2832191e-05
  4.8143167e-05
 -6.6707316e-03
 -5.3714648e-06
 -1.0901042e-05
  4.0888423e-05
 -3.6582080e-06
 -4.7746806e-05
  1.1359674e-05
  1.3518368e-05
  1.0422487e-05
 -1.5870211e-05
  3.5606186e-05
  2.7485983e-05
  9.0455083e-05
 -3.7378082e-05
  3.7144550e-06
  4.3863922e-05
  3.8295049e-05
  2.9176292e-05
  5.4550110e-05
  5.6312033e-06
  8.2518862e-05
 -3.3069449e-05
 -7.1780414e-05
 -2.6569414e-05
 -2.3904768e-05
 -7.4188006e-06
  5.8084184e-05
  5.4649036e-06
 -7.0628841e-05
  2.7245522e-05
  4.4895519e-06
  1.4012000e-05
  3.8063088e-05
 -1.2204120e-05
 -1.5428661e-05
  1.6339149e-05
 -1.7823151e-05
  1.5850681e-05
 -3.4647739e-05
  1.2045664e-05
 -4.6654448e-05
  4.8488632e-06
  1.3561769e-04
 -4.1034236e-06
  5.2064344e-05
  1.1467061e-04
  1.0060025e-04
  6.0771905e-05
  3.7185328e-05
 -2.1096996e-05
  4.7243440e-05
  7.2124681e-07
  1.3155084e-05
  1.3721561e-05
 -9.6358905e-05
  4.3498289e-06
 -2.4743433e-05
 -1.8650157e-05
 -7.1824339e-05
 -3.6508109e-06
 -1.0740939e-05
 -7.4527117e-05
  1.6687964e-05
 -4.3830987e-05
  1.1434191e-05
  3.9085193e-05
 -5.9409405e-05
 -7.4388281e-06
 -3.4328248e-05
  1.7414697e-05
 -1.3105371e-05
 -7.4556316e-05
 -7.2311610e-05
 -1.1372715e-05
  4.0014191e-05
  9.3060575e-05
  8.4292864e-05
 -6.0719013e-01
  8.0392438e-01
  6.0409111e-05
 -5.0964314e-01
 -7.7688128e-02
 -2.4842948e-05
 -6.8093716e-05
  1.4481833e-05
  1.8218555e-01
  2.6292291e-06
  3.0876672e-01
 -5.3852737e-01
  6.9305534e-05
 -5.1186103e-01
  1.1295739e-05
  1.9185585e-05
 -2.1389391e-01
 -6.6196181e-02
  5.5968952e-01
 -7.6125586e-01
  1.7454013e-05
  5.3167489e-04
 -2.2753598e-01
 -5.1808205e-05
  4.0263467e-06
 -6.3416541e-05
 -2.4232239e-05
  2.1704070e-01
 -2.2941986e-06
  2.2383090e-05
  4.2226437e-02
 -3.2616030e-02
 -5.3994827e-06
 -5.7720878e-05
 -8.6766318e-05
 -1.7907150e-01
  1.1792036e+00
 -1.0986724e-01
  6.7776673e-05
  7.8272249e-05
 -6.0215914e-01
  2.8549668e-05
 -8.9234285e-02
 -4.4314584e-05
  3.3541548e-04
 -1.2067449e-04
 -2.8657132e-05
 -1.4311853e-01
  4.1396983e-05
 -2.5850819e-05
 -4.7554615e-05
  3.4853379e-05
 -5.5248420e-05
  3.6239293e-05
 -1.9290840e-04
 -1.2559426e-05
  6.5328259e-06
  1.0243413e-04
 -2.5495902e-01
  1.2220540e-04
  3.8480844e-06
  4.8326415e-01
 -5.4288030e-05
  5.8355968e-06
  9.5413649e-05
  5.7215508e-05
  1.7315780e-01
  2.9287967e-01
 -1.5586539e-01
 -2.4191682e-01
 -5.2205462e-05
 -1.5323130e-05
  2.1058459e-05
  4.9359780e-05
 -8.0310856e-05
 -1.5975178e-04
  1.1528678e+00
 -1.0276430e-01
  6.5522752e-04
  3.7654798e-05
 -9.3031868e-02
 -5.0998482e-05
 -4.1488574e-06
  1.6973750e-06
  2.3621391e-05
  2.7492958e-01
 -4.7438913e-05
  1.2488038e-05
  1.1909683e-03
 -2.1992730e-05
 -2.2112545e-04
 -7.2172152e-06
 -1.8931890e-04
 -7.6971868e-05
  8.2945815e-05
 -1.3955720e-02
 -3.8306980e-06
  2.4834776e-04
 -2.1845445e-02
  8.6523360e-06
 -4.4915963e-05
  5.6024106e-05
  4.2699255e-02
  8.3946168e-01
 -1.6098800e-01
  1.0516191e-03
 -4.9380749e-02
  1.4996830e-04
 -3.9911578e-05
 -1.7021070e-05
 -9.9077715e-06
  6.7752694e-06
 -1.0853075e-05
  1.4407795e-04
 -4.0637289e-05
  1.0319107e-04
  4.5984429e-01
 -1.2436495e+00
  1.1536219e+00
 -6.7787087e-01
 -8.9639705e-01
 -4.8807490e-01
 -3.0378348e-01
  1.9658454e-01
 -1.1365968e+00
  3.3629811e-01
 -1.0789162e+00
 -3.9552113e-05
  1.7559975e-01
 -1.7936363e+00
 -9.4568008e-01
 -6.9480830e-06
 -2.9445812e-01
  4.3395311e-02
  2.6230973e-01
  1.2891494e-01
 -2.1692371e-05
  3.1546410e-02
 -2.8863931e-01
 -7.8926384e-01
 -7.2127366e-01
 -8.4430432e-01
  9.2668599e-01
  8.2438847e-04
  8.0174005e-01
 -2.0108698e-01
  9.2143625e-02
 -1.1675012e+00
 -1.3763802e-01
 -1.1478682e+00
 -2.3658812e-01
  2.1438620e+00
  1.1879722e+00
 -6.3034604e-05
  6.5961081e-01
 -3.3028540e-04
 -4.6627768e-04
  1.2913583e-01
  2.5913358e-01
 -3.0812336e-04
 -6.1401802e-01
  1.4091179e+00
  2.2160240e-01
 -6.4001316e-01
  1.7779061e+00
  3.6350781e-01
  2.4919267e-05
 -3.5739550e-01
 -3.7511568e-06
 -3.2772452e-05
 -8.8451321e-05
  2.0305054e-01
  5.5623709e-06
 -6.9000671e-05
  5.3706644e-06
 -1.0574629e-05
  7.5795870e-05
  1.4508554e-05
  1.3392513e-05
  3.6287493e-05
 -2.9411489e-05
  3.0769635e-05
 -2.1443202e-06
 -6.3387456e-06
 -2.6115507e-05
 -2.8299615e-05
 -1.3066627e-04
 -1.5884418e-05
  2.1200238e-05
 -2.3393764e-05
  3.2637152e-05
  4.3872868e-05
 -9.1695307e-05
  7.0840819e-05
  3.5761564e-06
  8.1227545e-06
 -6.0857343e-05
  1.6620750e-05
 -3.1803620e-06
  2.1442878e-05
  2.7603387e-06
 -9.7187149e-06
 -6.7578662e-07
  1.3603990e-04
 -3.3795895e-06
  9.7912725e-06
 -6.3710388e-05
 -6.4898952e-05
 -1.5535312e-05
 -1.4294828e-05
 -1.3188177e-04
 -3.4000790e-05
 -1.2937918e-05
  2.6330204e-05
  2.1392830e-06
  1.5066465e-06
 -5.2227092e-06
 -1.0547625e-05
  5.1333980e-05
 -1.3850115e-05
 -7.0111503e-07
  9.0093396e-05
 -1.0387582e-05
  1.5061539e-04
 -2.5074431e-05
  6.8922400e-06
  2.1429116e-05
 -2.7215869e-05
 -9.2265300e-06
 -1.0076854e-05
  4.3639611e-05
  1.4651728e-06
  6.8064684e-01
 -1.4792393e-02
 -1.5089256e-01
  6.7260748e-01
 -2.6384553e-01
 -4.2720640e-01
  1.5292098e-01
 -4.0704113e-01
  4.5882818e-01
  7.9331547e-01
  1.0576505e-01
  4.1896474e-01
  8.3825507e-06
  7.7127004e-01
  2.1511523e-01
 -6.6569313e-02
  3.9852467e-01
  3.7570187e-01
 -6.9809127e-01
  3.7040308e-01
 -3.7363046e-05
  9.2455971e-01
 -2.0538923e-01
  2.4498272e-01
  1.4893258e+00
  1.9296055e-01
  6.1094499e-05
 -1.9892262e+00
  3.4136665e-01
  1.1947066e-01
 -1.2517158e+00
 -1.2844014e+00
  1.7482571e-01
  4.7671512e-01
  1.3002150e-01
  4.7430128e-04
 -9.7114187e-01
  8.5846156e-01
 -2.7536390e+00
 -1.0694931e-01
  8.5704088e-01
  5.9882689e-01
 -1.3205631e-01
 -2.4419765e-05
  3.9203824e-05
  3.1878538e-02
  2.5312078e-01
 -7.3592478e-01
 -2.1436395e-02
  4.9361747e-06
 -3.5702706e-06
  4.9889531e-02
 -2.8246459e-05
 -2.4901690e-05
  1.8127850e-04
 -5.1521172e-05
 -3.6169596e-02
 -4.8607701e-05
 -2.5609786e-05
 -2.6203383e-05
  4.0995685e-05
  7.1652958e-06
  5.3285312e-05
 -2.9655312e-05
 -1.1616537e-05
 -1.2637197e-05
 -2.4702646e-05
  2.6241136e-05
  3.5440196e-06
 -1.0106025e-05
 -2.2814878e-05
  1.3682033e-05
  8.7253720e-06
  4.0455685e-05
  1.6794647e-05
 -9.7978547e-05
  3.6814552e-05
 -3.0277963e-05
 -2.5386307e-06
  2.4554682e-05
 -1.4536469e-05
  1.8799437e-06
  2.8947428e-05
 -2.7136924e-05
  3.5477649e-05
  1.1071519e-05
  7.1179944e-05
 -5.6172121e-07
  2.2910452e-05
 -7.8951452e-06
  5.8816462e-05
 -2.2212267e-05
  3.1193646e-05
 -8.6143064e-06
  2.1283564e-05
  1.5315540e-05
 -1.8715127e-05
  2.4652159e-05
  9.6470292e-05
  7.3579281e-07
  2.8974117e-05
 -2.3029341e-05
  1.1582317e-04
  1.1955120e-05
 -4.4788336e-05
 -2.3483970e-05
 -1.0478332e-05
 -1.1090588e-06
 -8.1110433e-05
  3.3054745e-05
 -1.0896131e-05
  7.3959789e-05
 -2.7405513e-05
 -2.3164057e-05
  2.5860612e-05
  1.5872291e-05
  2.6706553e-05
 -1.5507110e-05
  2.0318763e-05
 -1.6736831e-05
  7.6500555e-06
  7.4500613e-06
 -2.0329837e-05
  9.6213735e-05
 -2.7351391e-05
  1.4897929e-04
  7.4863477e-05
  4.1131978e-05
 -1.0224096e-05
 -3.0856252e-05
 -3.7256621e-05
  1.5634889e-05
  1.3190323e-05
 -3.3997540e-06
  1.7265571e-05
 -7.3249398e-06
 -2.7450835e-05
 -8.8124179e-05
 -2.0509797e-04
  5.3766496e-05
 -5.8089940e-06
 -7.8907724e-06
  2.8470240e-06
 -1.1166235e-05
 -1.8495154e-04
  5.0341077e-05
 -2.9901999e-05
 -2.9411347e-05
 -9.1694083e-06
  2.0122470e-05
  4.6885061e-06
 -8.1752565e-05
 -1.6638967e-05
  1.8263636e-05
 -7.1032744e-05
 -1.1000636e-05
  1.1711993e-05
  5.5332919e-05
  5.1558018e-06
 -1.2182069e-05
  4.5059405e-05
 -6.2232270e-05
 -5.0201663e-05
 -1.0886565e-04
  2.4278102e-06
  2.3541194e-05
  5.9259492e-06
  5.9424237e-06
 -1.4945685e-05
  2.3883429e-05
  3.8205999e-05
  1.1743914e-07
 -4.2989679e-05
  3.0837920e-05
  3.8463172e-02
  1.3939592e+00
  1.1237012e+00
 -4.9819216e-01
 -8.2070309e-01
  1.3543797e-01
 -4.7186735e-01
  6.3110727e-01
 -6.7847270e-01
  5.5141687e-01
  1.0229547e-03
 -1.0325093e-02
  2.9743716e-01
 -5.7588041e-01
 -2.2658846e+00
 -1.3604902e-01
  2.3570344e-01
 -9.9658817e-01
 -5.0393295e-01
  6.0162312e-01
 -1.0121350e+00
 -5.1642489e-01
 -2.2355634e-01
 -5.8547217e-01
 -1.1104752e-03
 -3.1630310e-01
 -3.4066129e-01
  2.0684383e+00
 -3.5809287e-01
 -3.0384781e-06
 -6.6191828e-01
  1.3611451e-01
 -1.7109429e+00
  2.1792379e-01
 -9.5141464e-01
 -4.3499944e-01
  2.3709297e+00
  3.5297936e-01
  2.5251020e-06
 -1.7754275e-02
 -6.1930086e-02
 -3.6316940e-01
  7.2328275e-01
 -1.5784006e+00
  1.1781237e-01
  6.1937118e-01
  9.5792182e-02
  2.0076837e-03
  1.4980377e-01
 -2.0474427e+00
 -6.2441919e-05
 -1.2023665e+00
 -9.0327067e-06
 -2.3358108e-01
  7.4626341e-02
  2.2823624e-01
 -2.7861091e-01
  4.7009015e-01
  1.0852321e-05
 -7.6815973e-05
  2.7320277e-05
 -2.3485522e-05
 -2.3927225e-05
  2.0078311e-05
 -1.0152599e-05
 -1.2387021e-05
 -2.5538120e-05
 -2.7164273e-05
 -2.1050586e-05
  2.0484884e-05
 -2.5081121e-05
 -1.3684560e-05
  2.0304204e-05
 -1.9128279e-06
 -1.4282852e-05
  6.7333622e-06
 -5.6835465e-06
 -2.0696221e-02
 -7.9636964e-05
  6.5679276e-05
 -3.1486223e-05
 -9.4052666e-06
 -2.6991484e-07
 -2.0407098e-05
  4.5488819e-06
  8.3261431e-05
 -2.0706539e-05
 -1.4333103e-05
 -4.5782381e-06
 -5.0214080e-06
 -1.8878020e-05
  7.3344431e-06
 -7.5694525e-06
 -1.7215434e-05
  8.8928813e-05
 -4.3605814e-07
 -4.7989462e-05
  3.2883572e-06
 -1.2253702e-04
  7.8055346e-06
  2.0062458e-05
  6.6960711e-05
  8.3465166e-06
  2.6468268e-05
 -2.0515832e-05
  1.0455072e-04
  2.0250020e-05
 -1.4418976e-05
 -2.0224483e-05
  5.0293424e-05
 -3.7238124e-08
 -7.3668423e-05
  6.2308805e-05
 -2.9574535e-06
  3.0838080e-05
 -5.6969024e-05
 -7.6980041e-06
  5.5668814e-05
 -4.9945371e-05
  2.0910607e-05
  8.5093161e-05
  4.5731489e-05
  7.6786499e-05
 -2.3003016e-05
  2.3437447e-06
 -1.6843649e-05
 -2.9419010e-05
 -2.1389013e-05
 -1.3168655e-04
 -2.9325565e-06
  2.0634155e-07
  8.5827332e-06
  6.7681767e-06
 -4.9243514e-05
 -1.6243801e-05
 -2.0271568e-06
 -9.7792145e-06
 -5.5307908e-05
  1.8706744e-06
 -5.7356570e-05
 -2.5950456e-05
 -2.6195054e-05
 -8.6988557e-06
  6.0987718e-06
  1.1444361e-05
 -1.4199964e-05
 -1.3931503e-05
  2.0013395e-05
  3.5234887e-06
 -9.0402427e-05
  6.5357388e-05
  1.6133436e-05
 -9.5026611e-05
 -7.1175018e-05
  2.2816946e-06
  1.0569890e-05
  1.5155188e-05
 -6.9781481e-06
  5.0334038e-05
 -7.3848541e-06
 -4.6196137e-06
 -2.0347909e-05
 -5.5902970e-06
  2.0641668e-05
 -2.1189529e-05
 -2.9739713e-05
 -8.4414183e-05
  2.5733657e-06
  1.7112565e-05
  4.2065181e-05
  2.6978571e-05
 -4.0302861e-05
  1.2518090e-04
 -1.2293505e-05
  7.9867736e-05
  2.9341163e-06
 -1.2406414e-05
 -5.5109638e-05
  6.7460969e-05
 -5.8952728e-06
 -6.8408321e-05
 -5.3119606e-05
  2.4790670e-05
 -4.4992714e-05
 -2.9803170e-05
 -2.0107764e-05
 -8.7936769e-06
 -1.5180189e-05
  1.9264777e-05
 -9.4634677e-05
 -8.9757004e-06
 -1.7022428e-05
 -1.4632638e-05
  5.0913201e-05
  1.0261574e-05
 -2.9000239e-05
  2.2967615e-05
 -2.2839233e-05
  3.6176680e-06
  1.0467140e-04
 -5.1152085e-05
  1.9275500e-05
  4.0126117e-05
 -1.9631800e-05
 -6.2344116e-05
 -2.0931049e-05
  1.5388461e-05
 -1.0535017e-05
  1.7920644e-05
 -1.4403833e-05
  5.8046600e-05
 -9.9775243e-06
  2.3240316e-05
 -1.3222754e-05
 -2.4352805e-05
  2.6327307e-05
 -9.6966614e-05
 -1.0902388e-06
 -2.2397593e-05
  8.4014937e-05
 -1.5721424e-05
 -1.5962791e-05
 -2.6700251e-05
 -7.1806717e-05
  2.2179798e-05
  1.3647882e-05
 -8.9513396e-06
 -6.8759837e-05
  2.3681589e-05
 -8.4158182e-06
  2.4594163e-05
 -1.5624746e-06
  8.9979083e-05
  5.4991833e-05
  6.8469759e-05
  4.0012663e-05
 -1.4228778e-04
  3.7246271e-05
  3.6537047e-05
  7.4341682e-05
 -3.9371125e-06
  1.5450903e-05
 -1.7873488e-05
 -8.3985891e-05
 -5.7466088e-05
  2.4651541e-05
  1.5431400e-05
  4.4297292e-05
  8.2885854e-06
 -6.6212946e-05
 -2.3701119e-05
 -2.5225441e-05
  2.4811292e-05
  1.8585122e-05
 -8.9656960e-06
  2.2917118e-05
 -2.5273739e-05
  2.2630866e-05
  2.2830682e-05
 -8.2627477e-05
 -1.2984295e-05
  7.0021015e-05
  8.2809238e-05
  5.4449292e-06
  3.8479548e-06
  9.8647952e-06
  6.9043090e-05
 -7.3615127e-05
  2.0271898e-05
  4.0160601e-05
 -2.6730369e-05
  8.0230508e-05
 -6.7029200e-06
 -1.5030014e-07
 -1.8076360e-05
  1.4357148e-05
 -8.5411284e-06
 -4.9766288e-05
  3.3288911e-06
  6.8190275e-05
  5.8413076e-05
  2.2885031e-05
  1.4392711e-05
 -1.7398115e-05
  5.6427675e-06
  3.3750472e-05
 -2.0103860e-05
  3.2988191e-05
  1.3236150e-05
 -5.0461829e-05
  2.9370287e-05
 -7.8684599e-05
 -1.7172300e-05
 -9.8544397e-06
 -4.5686833e-05
 -3.2491036e-05
  2.6234560e-05
  4.0634150e-06
 -2.4630006e-05
  2.2113712e-05
 -1.0183823e-05
 -2.7399776e-05
  2.7062968e-05
  4.3887976e-05
  1.2245993e-04
  9.8199362e-06
  3.1166885e-05
 -1.9693602e-05
 -2.6727281e-05
 -8.7115288e-05
  2.8578144e-05
 -1.3712001e-05
 -3.2094325e-05
 -1.6646154e-05
 -2.6645241e-05
 -7.9951906e-06
  1.3004977e-05
  2.5720432e-05
  9.7778911e-06
  2.2625130e-05
 -7.7876521e-06
 -3.7721285e-05
 -7.3393749e-06
  5.8700953e-06
  5.4391112e-05
 -3.0288606e-05
  1.0876858e-05
 -2.4646180e-05
  1.9833087e-06
 -3.0106163e-05
  7.5933945e-05
  7.1036200e-05
 -1.8938226e-05
  1.9361096e-06
 -2.4364381e-05
  1.7343295e-05
 -2.1857359e-05
 -1.0142165e-05
 -7.2426468e-05
 -1.1058148e-08
 -5.4065174e-05
  2.3340881e-05
  6.3424773e-06
 -6.4147266e-06
  2.8000350e-05
 -3.8890652e-05
 -1.8234354e-05
  2.0218502e-05
  5.6538135e-01
  7.5019628e-01
 -7.8718078e-01
 -3.6555436e-01
  4.6828982e-01
  2.8456791e-04
 -3.6036930e-05
 -5.6401932e-01
  1.2389727e+00
  1.0142549e-04
  6.9662768e-01
 -2.8817526e-01
  3.8282803e-01
 -3.5280320e-01
  2.6514825e-01
  6.9805956e-01
 -5.3643268e-01
 -1.1916652e+00
  1.0372341e+00
  9.1903955e-02
 -7.1491671e-01
  9.7649837e-01
  3.1185573e-01
  1.4821147e+00
  1.8510105e-01
  4.8330436e-05
 -4.2846385e-01
  1.7408681e+00
 -1.0199066e+00
  1.1109304e+00
  6.8784453e-04
 -2.6049949e-02
 -1.7835143e-01
 -2.5384533e-04
  1.3298965e-05
 -4.8744196e-01
  8.4124345e-01
  1.0542030e-01
 -5.8312738e-01
 -3.9158463e-01
 -3.8405679e-02
 -6.5846753e-01
  5.0889678e-02
 -1.0777544e-01
 -2.5655130e-01
  2.1823803e-01
  6.5563090e-02
 -1.2325716e+00
 -1.7372769e-01
 -1.4529501e-04
 -2.9582370e-05
  8.9193702e-05
 -8.5360836e-05
 -2.6138539e-05
  1.9902538e-05
  4.3934586e-05
 -3.6844042e-01
 -3.9349905e-01
  2.4245428e-01
 -1.8652709e-01
  4.0248761e-01
 -1.0171018e+00
 -7.3161530e-01
  3.6502622e-02
 -7.1441883e-01
  6.7732561e-01
  2.0752219e-02
  9.4811949e-06
  2.6478980e-02
 -1.0091475e-01
  3.6122108e-01
 -3.4354776e-01
  7.8474142e-02
  2.1333061e-01
 -9.8973550e-02
 -1.8436428e+00
 -1.5821907e-01
 -7.5343746e-01
 -1.2381248e-01
 -4.5958810e-02
  9.9628098e-02
 -5.1368666e-01
  1.6744982e-01
  2.5248262e-05
  4.0901527e-02
  7.7734518e-01
 -4.8999209e-06
 -7.0449436e-01
  6.4259665e-03
  1.1678765e-01
 -2.0720075e-01
  4.8287496e-01
  2.7739814e-05
  3.1227121e-01
 -7.4448057e-02
 -1.0734509e-01
 -7.1802579e-02
  7.3493876e-02
  5.2145209e-02
 -7.3961264e-01
 -3.2278880e-01
  2.1331087e-05
  5.2195013e-01
  2.6976174e-01
 -3.8972822e-01
 -1.7223002e-01
  1.8494712e-01
 -7.7603734e-03
 -1.6473912e-05
 -7.9082586e-02
 -2.0643904e-05
  3.8123349e-04
  1.9535846e-05
  8.4362561e-01
  1.2702841e-01
 -1.0507856e-04
 -1.9703559e-05
  1.7273402e-05
 -2.7447019e-05
  7.0849469e-06
 -8.5505126e-06
 -2.3852692e-05
  1.4861787e-04
 -3.8013454e-06
  1.4364343e-05
 -1.1095414e-05
  9.0935628e-06
  7.6452736e-05
 -9.0939771e-05
 -4.5756147e-05
  2.3922326e-05
 -6.3601292e-05
  6.3795989e-05
  4.3943506e-05
 -2.3589053e-05
 -2.0380914e-05
 -2.2831200e-05
  3.0094403e-05
 -2.7328471e-05
 -2.4921790e-05
 -1.5270702e-05
  3.7483132e-05
 -7.3019975e-05
 -1.6961216e-05
 -2.3640045e-05
  1.1765768e-04
 -7.9904403e-06
  7.8829173e-05
 -7.4953437e-05
  1.7553537e-05
  9.5648045e-07
  2.8139939e-06
 -2.0265929e-06
  2.2961189e-05
 -7.8079329e-06
 -2.7903593e-07
 -5.6396284e-06
  2.9534149e-05
 -3.0265697e-05
  3.6280489e-05
 -6.3895845e-05
 -2.2509346e-05
  6.6371169e-05
 -2.5452473e-06
 -5.0393297e-05
  1.3614219e-05
  7.7754721e-06
  4.0140705e-05
  1.7825221e-05
 -1.6047823e-05
 -1.3507693e-05
  2.8761344e-05
 -3.6423405e-06
  4.6231835e-06
 -7.0043973e-07
 -1.5549644e-05
  2.6664477e-05
  1.4184110e-05
  8.5434418e-05
 -1.7486505e-05
  1.3914794e-05
 -1.2029639e-05
 -9.9098310e-05
 -3.3426812e-05
 -1.6459846e-05
  1.0577634e-05
 -3.8225653e-06
  5.8466165e-05
 -2.0350020e-05
 -2.6656466e-05
  9.8130886e-06
  5.0675590e-07
 -2.3759869e-05
  2.2962491e-05
  7.7327968e-06
  1.2045521e-05
 -5.9705806e-05
 -1.1945996e-06
  5.4591728e-05
  7.8161589e-05
 -1.0140944e-06
 -2.3238459e-05
  7.9701036e-05
 -4.2375112e-05
 -2.3182136e-05
 -8.2423230e-06
  1.6144908e-05
  1.8362518e-05
  4.6291927e-05
  1.8226014e-05
  7.7797654e-07
  7.3693111e-05
 -4.4113458e-05
  2.6283486e-05
  1.1773569e-04
 -3.8704478e-05
  1.6979506e-05
 -2.8099312e-05
 -4.0146788e-06
 -2.4735413e-05
  2.0313961e-05
  7.5951116e-06
 -1.1945230e-05
 -2.7059144e-05
 -9.2075361e-06
  8.4044405e-05
  1.5010976e-05
  4.7158217e-05
  4.3167320e-06
 -3.7867655e-06
 -1.0415582e-05
 -2.7437145e-05
 -1.1570478e-05
  6.9632268e-05
  2.3240389e-05
 -8.4750980e-05
 -1.3357391e-04
 -7.2821756e-05
  1.4379171e-05
  2.4413741e-05
 -1.2602916e-04
 -2.3246946e-06
  4.4355556e-06
  1.0797512e-04
 -1.6964363e-05
 -4.1007970e-05
 -2.6946027e-05
  4.1267947e-05
 -1.0920499e-05
 -3.9535087e-05
 -1.2684802e-05
 -7.4238801e-07
 -2.0967152e-06
  1.2750165e-04
  1.1727569e-05
 -1.1160637e-07
  3.7268414e-06
  1.3779902e-05
  9.9425715e-06
  1.4985908e-05
  4.7608180e-05
  1.4773282e-05
 -2.5288715e-05
  7.2416401e-06
  1.5782412e-06
  7.6031982e-05
  8.5142801e-08
  7.2151459e-05
  2.5292820e-05
 -4.3073913e-05
  2.4411975e-05
 -6.0132355e-05
  4.5470402e-05
 -9.6174308e-06
  6.1221849e-06
  1.4268929e-05
 -8.7866574e-06
 -8.6372966e-06
 -7.9210640e-06
  3.0506412e-06
 -6.7528140e-06
 -8.8277120e-06
  8.8285349e-05
  1.0796518e-04
 -2.4201234e-05
 -6.3019426e-05
 -2.0473743e-05
  4.8082566e-05
  8.5961838e-05
 -4.8136922e-06
 -1.6755106e-01
 -6.5390683e-05
 -2.8773684e-07
  3.4569204e-02
  7.7096745e-02
 -7.3822612e-06
 -4.6265002e-05
  3.0169362e-01
  6.3483465e-05
 -1.1251392e-01
 -2.5282823e-02
  7.9047645e-04
  8.4960629e-05
  1.1446500e-05
  1.5369236e-05
  1.7134218e-05
 -4.0522655e-03
  1.0576084e-03
  2.4481808e-01
 -6.8514352e-03
  1.1178798e-01
  3.4059882e-02
  9.3583010e-02
 -1.4792631e-05
 -6.4522635e-07
 -1.6311726e-05
 -2.0199057e-01
  6.3144022e-01
  9.7090468e-02
  6.8979480e-06
 -4.5723474e-04
  4.9829870e-01
 -1.7981741e-01
  4.8731049e-03
  9.8943837e-02
  1.3680550e-02
 -7.6473212e-01
  1.0039911e-02
 -1.1518755e-01
 -4.5378694e-01
  7.8389351e-04
  1.4764123e-01
  4.3879252e-02
  4.9557668e-05
 -3.8804081e-01
 -3.7572235e-02
  1.0656600e-01
  1.3731987e-05
  1.9916171e-01
  8.1822545e-05
  4.9505342e-04
  1.7038097e-03
  2.3691546e-05
 -4.5816421e-05
  8.8841713e-05
 -5.7301350e-04
 -1.3378143e-05
 -2.9192889e-01
 -1.7827024e-05
 -2.4196306e-05
 -5.8265036e-06
  5.7435172e-06
  5.9480254e-07
  2.3623634e-05
  2.9237950e-05
 -6.3203239e-05
  1.0203320e-07
 -1.3441163e-05
  1.9924423e-06
  1.1890797e-06
 -1.6954808e-05
 -9.3179711e-05
 -7.8456314e-06
  1.4702028e-06
 -2.8409564e-05
  9.3303843e-06
  1.5287028e-06
 -2.4182234e-05
 -2.1628659e-05
 -1.0828576e-04
 -1.0018487e-04
  1.9368566e-05
  8.5508746e-06
 -2.7400003e-05
  4.2815445e-05
 -2.7147449e-05
  3.8622616e-06
  1.3778801e-04
  5.6123381e-06
 -5.6758163e-06
  1.3764698e-05
  7.2804782e-05
  2.8178209e-05
 -2.0401547e-05
 -1.6828903e-05
 -7.5202261e-05
 -5.7458001e-05
 -4.6774814e-05
 -3.0061716e-05
  6.6872499e-06
 -1.0386690e-05
 -6.0854081e-06
 -9.3667086e-06
  5.2664927e-06
 -5.9574220e-05
  2.5317579e-05
 -7.5109324e-06
  3.2074262e-05
  3.1820429e-05
  7.9582342e-06
 -1.3107531e-04
  1.6474205e-05
 -2.3131104e-05
  8.9307170e-05
 -4.8637644e-06
  2.4239571e-05
  1.3753196e+00
 -7.1452796e-02
 -1.2906353e-01
 -3.2119126e+00
 -9.1139460e-01
 -1.9137936e+00
  5.8543822e-07
  1.8946816e+00
  1.3099598e+00
 -2.2431682e-01
  1.0785370e+00
 -2.6604600e+00
 -1.7851135e+00
 -8.3774871e-01
  7.0235771e-01
 -1.1689438e+00
 -6.4503795e-01
  2.3177825e-01
 -1.2056246e+00
 -1.5062323e+00
 -8.5464507e-01
 -1.8961782e+00
 -5.1121094e-04
 -1.5172346e-02
 -1.6929553e+00
 -1.1174033e+00
  1.4907197e+00
 -1.6441600e+00
 -1.0556258e+00
 -6.8633835e-04
 -9.7347260e-01
 -1.1326166e+00
  5.2591258e-01
 -1.1826879e+00
 -1.5524861e+00
  1.1659687e+00
 -6.3277179e-01
 -1.3924607e+00
  1.3690763e+00
 -1.9112995e+00
 -5.0777656e-01
  1.0033585e+00
 -1.3870972e+00
 -1.1108354e+00
  6.8742174e-01
 -1.0689188e+00
 -1.5292111e-01
 -3.9409336e-02
 -8.3334982e-01
 -5.4240125e-05
  1.9777519e-06
  1.0290663e-01
 -6.5469634e-05
 -2.0528904e-01
  2.5659851e-05
  7.2088886e-05
  3.2061985e-07
  1.1710074e-05
  1.3161404e+00
  4.3507902e-05
  1.1173137e-05
  1.4284155e-05
 -3.6631081e-05
 -2.6946747e-05
 -5.3463700e-06
  5.9936978e-05
  1.8143901e-05
  2.1324333e-05
 -7.4044633e-06
  2.2636732e-05
 -2.9074627e-05
  1.2119589e-05
 -1.3496784e-05
  2.8679817e+00
  1.3674119e-01
 -1.1949329e+00
  1.0682788e-05
 -5.4913730e-06
 -2.7535932e-06
  5.9432201e-05
  2.9111881e-05
 -4.7722478e-05
 -7.0876598e-01
 -1.1269062e-05
  6.4662792e-02
  3.5028646e+00
 -1.4370718e+00
  7.1536231e-01
 -3.5253277e-01
  5.7096499e-01
 -7.1129662e-01
  9.5810279e-02
  1.4906244e-04
 -4.9264467e-01
 -5.0713694e-05
 -1.5651184e-01
  1.4087870e-05
  5.8290893e-01
  8.7783374e-02
  6.5200704e-01
  4.1412038e-01
  6.6790885e-01
  1.1767913e-01
 -4.5364544e-05
 -4.2806259e-06
 -9.0711337e-01
 -1.4376674e-05
  4.2126203e-01
  1.6735237e+00
  2.2716621e-01
  6.5033491e-05
  8.7439325e-03
  2.3398723e-05
 -7.6043812e-05
 -3.1937270e-05
 -2.5001291e-05
  2.3620440e-05
  5.2032495e-01
  1.1796204e+00
 -5.9514578e-02
 -1.7918956e-05
 -1.9304981e+00
 -1.6037491e-05
 -7.4901791e-06
  2.2943626e-01
  3.9483450e-05
  2.0184050e-05
 -2.8684293e-05
 -6.5854045e-05
  8.7150773e-05
 -1.0954430e+00
  4.7358611e-01
  9.4309144e-08
  1.2451997e-05
 -3.0939169e-05
 -5.1381642e-01
  1.8238286e-05
 -5.3950202e-01
  3.5236201e-01
  1.0827091e-04
 -4.7271798e-05
  4.9384722e-05
 -1.9612566e-05
  9.9599732e-05
  7.7051554e-06
 -1.9145651e-02
  2.2323980e-05
 -5.6269462e-05
  4.1112257e-03
  1.1630361e-05
  1.2460134e-01
  5.0072185e-07
  1.4016077e-04
  2.1101995e+00
  3.1077918e-01
 -1.7586172e+00
 -1.5349937e-05
  1.7259139e-05
  3.9238729e-02
  2.6638054e-05
  1.4722115e-05
 -1.4853501e-04
 -6.5044475e-01
 -8.9395282e-05
 -3.3120614e-01
  4.2482573e-01
  1.1997193e+00
  2.9675883e-01
  2.6398948e-01
 -3.7049884e-01
 -4.5807627e-01
 -7.7923715e-01
  6.3193002e-06
 -5.4361564e-01
 -2.8318787e-05
  9.8978800e-01
  3.1663099e-01
 -2.0645601e-01
  1.1013571e-01
 -1.3339243e+00
  9.7061729e-01
  4.9110326e-01
 -4.2698625e-01
  6.2093008e-05
 -6.0437687e-05
  1.5567644e-01
  6.6819935e-05
 -8.5997725e-01
 -6.9825840e-01
 -1.5126324e-01
 -2.4784788e-07
  2.7326456e-01
  7.3594936e-05
 -6.0711018e-06
 -1.9725760e-05
  3.7703235e-03
  8.1389357e-05
 -1.4353588e-01
 -1.1331537e-01
 -3.8279903e-01
  8.3562809e-05
  2.1214271e-01
  1.1032878e-05
 -5.1758940e-05
 -3.4611288e-01
  3.4171371e-03
  6.6498369e-06
  1.4938822e-05
 -1.4178784e-05
 -2.5438529e-04
  4.1620725e-01
 -5.8809018e-01
 -1.1213197e-05
 -1.9181934e-05
 -2.2168105e-02
  4.3112808e-01
 -1.2681419e-05
  1.2777370e+00
  3.0979288e+00
 -1.0005789e-01
  1.0004967e-01
 -4.3955666e-01
 -1.0497066e+00
  1.0000555e-01
  1.0000287e-01
  1.0002991e-01
 -1.0000335e-01
 -2.1856368e-01
  2.7168012e-01
 -2.1970720e+00
 -1.4215853e+00
 -1.0000098e-01
 -1.0007689e-01
 -4.3531367e-01
 -2.9535618e-01
  1.0002842e-01
  1.0000287e-01
  1.0000591e-01
 -4.3537575e-01
 -1.0007643e-01
 -1.0079581e-01
 -1.0005853e-01
  1.0002648e-01
 -1.0007431e-01
  1.0000123e-01
 -5.1858264e-01
  1.0000189e-01
  1.0000161e-01
 -1.0001857e-01
 -1.0000435e-01
 -1.0000083e-01
 -1.0000573e-01
 -1.0000428e-01
 -1.0660551e-01
  1.0000981e-01
 -1.0000122e-01
  1.0010957e-01
  1.0000034e-01
 -1.0000325e-01
 -1.0000277e-01
 -1.0012636e-01
  1.0000588e-01
 -1.0007993e-01
 -1.0000489e-01
 -1.0000020e-01
 -1.0000253e-01
 -1.0004394e-01
  1.0002327e-01
 -1.0000245e-01
 -2.6956788e-01
 -3.0627057e-01
  1.0005797e-01
  1.0000025e-01
  1.0066039e-01
  1.0000373e-01
 -1.0030223e-01
 -3.9219522e-01
 -1.0000398e-01
 -4.9154496e-01
  1.0000135e-01
 -1.0018344e-01
 -1.0003848e-01
 -1.0004706e-01
  1.0000077e-01
 -1.0011065e-01
  1.0000008e-01
 -1.1782403e+00
  1.0000084e-01
 -1.0000022e-01
 -1.0000106e-01
  1.0000106e-01
 -1.0011774e-01
  1.0000034e-01
 -2.3984251e+00
  1.0042267e-01
  1.0000105e-01
 -1.0000608e-01
  1.0000489e-01
 -1.0000195e-01
 -1.0006265e-01
  1.0010517e-01
 -1.0009917e-01
 -1.0006332e-01
  1.0002359e-01
  1.0001901e-01
  1.0009912e-01
  1.0000484e-01
 -1.0000188e-01
  1.0000006e-01
  1.0000242e-01
  1.0000238e-01
 -1.0015089e-01
 -1.0192113e-01
 -1.0138481e-01
 -1.0000086e-01
  1.0012635e-01
  1.0000295e-01
 -2.1737237e-01
 -6.1307502e-01
 -1.0000505e-01
  1.0022260e-01
 -1.0000443e-01
  1.0000382e-01
  1.0001197e-01
 -1.3220000e-01
  4.1546664e-01
 -9.1680121e-01
  1.0001922e-01
 -1.0001841e-01
  1.0000101e-01
 -3.0127937e-01
  1.0000078e-01
 -1.0000118e-01
  1.0000249e-01
 -1.2317077e+00
  1.0004383e-01
  1.0000458e-01
 -1.0000746e-01
 -1.0003528e-01
 -1.3947622e-01
  1.0000170e-01
  1.0000024e-01
  1.0008164e-01
  1.0000995e-01
 -1.0061611e-01
 -4.0183204e-01
 -1.0021512e-01
 -1.0000565e-01
  1.0009716e-01
 -1.0098020e-01
  1.0010928e-01
  1.0000044e-01
  1.0000016e-01
 -1.0000104e-01
 -1.0073372e-01
 -1.1326440e-01
 -1.0000127e-01
  1.0009132e-01
  1.0000087e-01
  1.0000497e-01
 -1.0000508e-01
 -1.2089847e-01
 -1.0000194e-01
 -1.0000577e-01
 -1.0018387e-01
 -3.9468133e-01
 -4.2759085e-01
 -1.0000003e-01
 -1.0003984e-01
  1.0000124e-01
  1.0000463e-01
  1.0005889e-01
  1.0000006e-01
 -1.3875066e+00
 -1.5406297e-01
  1.0000272e-01
 -1.8650678e-01
  1.0005141e-01
 -1.0195960e-01
  1.0000144e-01
 -1.0004885e-01
  1.0000055e-01
 -3.5996220e-01
 -1.0002684e-01
 -1.0006191e-01
  1.0000081e-01
  1.0005926e-01
 -5.6001550e-01
 -7.7360499e-01
  3.7249127e-01
 -1.0000063e-01
  1.0000427e-01
 -1.0000283e-01
 -1.0271091e+00
  1.0000656e-01
 -1.0005654e-01
  1.0018804e-01
 -1.0000359e-01
 -5.5587089e-01
 -1.0000105e-01
 -1.0108012e-01
 -1.0000100e-01
  1.0000515e-01
 -1.0000612e-01
 -1.9598511e-01
 -5.8852243e-01
  1.0002688e-01
  1.0174600e-01
 -1.0008812e-01
 -9.1661817e-01
 -1.0012648e-01
  1.0000019e-01
 -1.0000111e-01
 -3.5531250e-01
 -1.1361498e-01
  1.0000273e-01
 -1.0000376e-01
 -1.0003906e-01
 -1.0002913e-01
 -1.0000035e-01
 -1.0000173e-01
 -1.7577102e+00
 -3.3462119e-01
  2.7017167e-01
 -2.8007317e-01
 -4.5460251e-01
  1.0304499e-01
  1.0004926e-01
 -1.0000599e-01
 -1.0012361e-01
 -1.0000602e-01
  1.0018310e-01
 -1.0003617e-01
 -4.0211403e-01
 -1.0000036e-01
  1.0004552e-01
  6.0595113e-01
 -1.5770297e+00
 -1.0000485e-01
 -3.0671853e-01
  1.0000081e-01
 -8.9571714e-01
  1.0000483e-01
 -1.0007718e-01
 -1.0030211e-01
 -1.0000183e-01
  1.0000055e-01
  1.0018255e-01
 -1.0010555e-01
 -1.0001541e-01
  1.0005305e-01
  1.0003167e-01
  1.0000162e-01
  1.0192300e+00
  1.0000588e-01
 -1.0000356e-01
 -1.0000098e-01
 -1.0001276e-01
 -1.0003392e-01
  1.0008914e-01
  1.0000036e-01
  1.0000568e-01
 -1.0000525e-01
  1.0000017e-01
  1.0072411e-01
 -1.0000028e-01
 -1.0000566e-01
 -1.0000470e-01
 -1.0000197e-01
 -1.0066288e-01
  1.0011067e-01
 -1.0001185e-01
 -1.0000460e-01
 -1.0001125e-01
 -1.0011762e-01
  1.0000213e-01
 -1.0000244e-01
 -1.0031107e-01
 -1.0000667e-01
  1.0000697e-01
 -1.0000572e-01
 -2.8561342e-01
 -1.0000158e-01
 -1.0000034e-01
  1.0000295e-01
  7.9014826e-01
  1.8395998e-01
 -1.0000382e-01
 -1.0004979e-01
 -5.3662831e-01
 -4.7540280e-01
 -1.0000437e-01
 -1.0001229e-01
 -1.0000357e-01
 -1.0013784e-01
 -1.0000021e-01
 -1.0010983e-01
 -1.0006706e-01
  1.0000076e-01
 -1.0006660e-01
  2.4461883e-01
  1.5931658e+00
 -2.9825851e-01
 -4.7400022e-01
 -1.0000858e-01
 -2.8307405e-01
 -1.0006145e-01
  1.0008257e-01
  1.0000107e-01
  1.0006689e-01
 -1.0001864e-01
  1.0000418e-01
  1.0001297e-01
 -1.0000271e-01
 -1.0029940e-01
  1.4418036e-01
  1.0000117e-01
  8.2448137e-01
  1.0000359e-01
  1.0000334e-01
 -1.0000519e-01
  1.0003798e-01
 -1.0000668e-01
 -1.0000237e-01
 -1.0000220e-01
 -1.0000145e-01
  1.0002425e-01
  1.0040158e-01
 -1.0005555e-01
  1.0000078e-01
 -1.0000505e-01
 -1.0012575e-01
 -1.3646840e-01
 -5.5573082e-01
 -1.0054260e-01
 -1.0007675e-01
 -1.0017694e-01
 -1.0000243e-01
  1.0000479e-01
 -1.0000477e-01
  1.0000513e-01
 -1.0000069e-01
 -1.0000532e-01
 -1.0002720e-01
 -1.0000025e-01
 -1.0016540e-01
 -1.0000216e-01
  1.0005249e-01
 -1.0000124e-01
 -1.0000037e-01
  1.5834501e-01
 -1.0048670e-01
 -1.5131137e-01
 -1.0010052e-01
 -1.0024874e-01
  1.0000198e-01
  1.0000162e-01
 -1.0000830e-01
  1.0000509e-01
  1.0003982e-01
  1.0001441e-01
 -1.0000454e-01
  1.0000473e-01
  2.4593547e-01
 -1.0000456e-01
  1.0000148e-01
  1.0000729e-01
 -1.5033585e-01
 -1.0077170e-01
 -7.7173102e-01
 -4.1524693e-01
 -1.0001585e-01
  1.0008605e-01
 -1.0000338e-01
 -1.0001146e-01
 -1.0000030e-01
 -1.0000073e-01
 -2.2722620e-01
 -1.0000853e-01
 -4.8621094e-01
 -5.8802414e-01
 -1.1536342e+00
 -5.4351193e-01
 -1.0004407e-01
  1.0003115e-01
 -2.9653078e-01
 -1.0000802e-01
 -1.0011476e-01
  1.0000066e-01
 -1.0004341e-01
  3.2571825e-01
  1.0004877e-01
 -1.0006809e-01
 -1.0003710e-01
 -1.0016670e-01
  1.0763109e-01
 -1.0000236e-01
 -2.6667508e-01
 -1.0000186e-01
 -1.0000652e-01
 -1.0006099e-01
 -1.0005969e-01
  1.0002522e-01
 -1.0009137e-01
 -1.0003579e-01
 -1.0000396e-01
 -1.0003109e-01
  1.0000205e-01
 -1.0003693e-01
 -1.0011319e-01
  3.1539580e-01
  1.0000087e-01
 -1.0000252e-01
 -1.0000274e-01
 -6.1209798e-01
 -1.5512729e-01
 -2.9769677e-01
  1.0000072e-01
 -7.2769159e-01
  1.0018178e-01
 -1.0010900e-01
  1.0006489e-01
  1.0000027e-01
 -1.0006044e-01
 -1.0000366e-01
 -1.0000174e-01
 -1.0016795e-01
 -1.1008386e-01
  1.4415005e-01
 -1.7168738e+00
 -5.0729698e-01
 -2.7109990e-01
 -1.0045618e-01
  1.0000148e-01
  1.0000423e-01
  1.0009882e-01
  1.0000095e-01
  1.0019407e-01
 -1.0000209e-01
 -1.0000474e-01
  1.0003250e-01
 -1.0000273e-01
 -1.0000234e-01
 -1.0017061e-01
 -1.0012297e-01
 -5.6824327e-01
  1.0000032e-01
  1.0000574e-01
 -1.0000236e-01
 -1.0000204e-01
  6.6979963e-01
  1.0000031e-01
  1.0000880e-01
  1.0000163e-01
  1.0000551e-01
 -1.0000129e-01
  1.0008106e-01
  1.0000100e-01
 -1.0000394e-01
 -1.0001325e-01
 -1.0000558e-01
 -1.0004504e-01
 -1.0190689e-01
 -1.0000150e-01
  1.0001086e-01
 -1.0035994e-01
  1.0008486e-01
  1.0000009e-01
  1.0017635e-01
  1.0005619e-01
  1.0000199e-01
  1.0004146e-01
  1.0000204e-01
 -1.0000451e-01
  1.0000089e-01
  1.0009293e-01
  1.0006183e-01
  1.0000366e-01
 -1.0003281e-01
  1.0005010e-01
 -1.0000400e-01
  1.0000171e-01
  1.0005579e-01
  1.0000240e-01
  1.0000316e-01
  1.0000010e-01
  1.3553038e-01
 -1.0046475e-01
 -1.0070008e-01
  1.0010655e-01
 -1.0000598e-01
 -1.0004906e-01
 -2.6312804e-01
  4.4709337e-01
  1.0000342e-01
 -1.0000447e-01
 -1.0000133e-01
 -1.0000526e-01
 -1.0000728e-01
  1.0000538e-01
  1.0000381e-01
  1.0005388e-01
  2.9497477e-01
 -1.0005905e-01
  1.0008360e-01
 -1.0000649e-01
 -1.0000309e-01
 -1.0000218e-01
  1.0000567e-01
  3.8183737e-01
 -8.8666660e-01
 -1.0013464e-01
  1.0000192e-01
 -1.0000371e-01
 -1.0002039e-01
  1.0000545e-01
  1.0000218e-01
  1.0001101e-01
  1.0000281e-01
 -1.0000577e-01
  1.0000426e-01
  1.0000094e-01
  1.0000474e-01
 -1.0000030e-01
  1.0003825e-01
  1.0020461e-01
  1.0000303e-01
 -1.0000027e-01
  1.0003947e-01
  1.0009310e-01
 -1.0006551e-01
  1.0001670e-01
 -1.0000058e-01
  1.0018399e-01
  1.0005186e-01
  1.0033465e-01
 -1.0000208e-01
  1.0000149e-01
  1.0008506e-01
 -1.0006703e-01
 -1.0000282e-01
 -1.0000384e-01
  5.2929562e-01
  1.0003499e-01
 -1.0000348e-01
  1.0000914e-01
 -1.0091141e-01
  1.0001292e-01
  1.0000505e-01
  1.0002666e-01
  3.9659896e-01
 -1.0000435e-01
 -1.0017563e-01
  1.0002115e-01
 -1.0000082e-01
 -1.0002323e-01
  5.5202574e-01
  5.7303137e-01
 -2.8643799e-01
 -1.0004352e-01
 -1.0000486e-01
 -1.0001715e-01
  3.4189183e-01
  1.0023513e-01
  1.0000005e-01
  1.0006408e-01
 -1.0000446e-01
 -1.0000560e-01
  1.0010229e-01
 -1.0000162e-01
 -1.0008942e-01
 -1.0000417e-01
  1.0000053e-01
 -4.1340655e-01
 -3.7721345e-01
 -1.0005730e-01
  1.0000279e-01
 -1.0005861e-01
 -1.7379794e-01
  1.1922415e-01
  1.0006201e-01
  1.0004069e-01
  1.0000237e-01
  1.0000091e-01
  1.0015191e-01
  1.0007888e-01
 -1.0005777e-01
 -1.1088297e-01
 -3.6526501e-01
  1.5116041e+00
  1.0000330e-01
  1.0000197e-01
 -1.0000585e-01
 -1.0011628e-01
 -1.0000033e-01
  1.0000050e-01
 -1.0000249e-01
 -1.0000136e-01
  1.0077798e-01
 -1.0006219e-01
 -1.0000264e-01
 -1.4697230e-01
 -1.0009549e-01
 -1.0012480e-01
 -1.0000006e-01
 -1.0001425e-01
  1.0000463e-01
 -1.0008082e-01
 -1.0000346e-01
  1.1764416e-01
  2.8125790e-01
  1.0000066e-01
  1.0005236e-01
  1.0003664e-01
  1.0000113e-01
 -1.0000557e-01
  1.0011656e-01
  1.0000519e-01
  1.0000289e-01
 -1.0000119e-01
  1.6006497e+00
 -3.8125911e-01
  1.0000449e-01
 -1.0036015e-01
 -1.0000384e-01
 -3.0702958e-01
 -1.0121616e-01
  1.0971773e-01
  1.0007339e-01
  1.0000537e-01
  1.0017995e-01
 -1.0000329e-01
 -1.0003286e-01
  1.0079096e-01
  1.0000409e-01
 -1.7299490e-01
  2.0391202e-01
 -1.6791113e-01
  1.0000198e-01
  1.0009222e-01
  1.3487554e-01
  1.0005192e-01
 -1.0000075e-01
 -5.2156168e-01
  1.0005395e-01
  1.2770824e-01
 -1.0060576e-01
  1.0000237e-01
  1.0002242e-01
 -1.0001634e-01
  1.0000628e-01
  1.0047476e-01
  2.4317842e+00
  1.7490447e-01
 -8.3839428e-01
  1.1467558e+00
  1.0007998e-01
 -1.0248114e-01
 -1.5952234e+00
 -1.0015555e-01
 -1.0001416e-01
 -1.0001236e-01
  1.0000189e-01
  1.0000078e-01
  1.0000347e-01
  1.0001292e-01
  1.0000087e-01
  1.0001550e-01
 -1.0000321e-01
  1.0000102e-01
  1.0001222e-01
  3.3463717e-01
  1.0000248e-01
  1.0942200e-01
 -1.0000188e-01
  1.0006392e-01
  1.0000058e-01
 -1.0000015e-01
  1.0006339e-01
  1.0001959e-01
  1.0000131e-01
 -1.0004281e-01
  1.0000130e-01
 -1.0003633e-01
  1.0000272e-01
  1.0000014e-01
 -1.0004200e-01
 -1.0000318e-01
  1.0000569e-01
  1.0004022e-01
  3.3198181e-01
  1.0000525e-01
  1.0121948e-01
  1.1572466e-01
 -1.0002977e-01
  1.0000501e-01
 -1.0000278e-01
 -1.0000155e-01
 -1.0002024e-01
 -1.0000210e-01
 -7.9448998e-01
  1.8091707e+00
 -1.0000045e-01
  3.9303067e-01
 -1.0012329e-01
  1.0000271e-01
 -2.0949504e-01
 -2.1629721e-01
  1.0035928e-01
 -1.0002512e-01
  1.0498363e-01
  1.0000568e-01
 -1.0000080e-01
  1.0060479e-01
  1.0005572e-01
 -1.0000059e-01
  4.6098736e-01
  5.5737467e+00
 -3.7148732e-01
  1.7964851e+00
 -1.0201178e-01
 -3.0587602e-01
 -4.6916479e-01
 -1.0000030e-01
 -1.0000284e-01
 -1.0001438e-01
 -1.0000178e-01
  1.0000318e-01
 -1.0000331e-01
 -1.0000173e-01
  1.0000440e-01
 -1.0000448e-01
 -1.0000288e-01
 -2.7827420e+00
 -4.8800099e-01
  1.0000008e-01
 -1.0003374e-01
  1.4927511e+00
  1.8284714e-01
  1.0000199e-01
  1.0017075e-01
 -1.0004942e-01
  1.0000255e-01
  1.0000365e-01
 -1.0004756e-01
  1.0041430e-01
 -1.0000014e-01
  1.0000227e-01
 -5.4412127e-01
 -1.9471080e+00
 -1.0000646e-01
  1.7806542e-01
 -1.0000365e-01
  5.9048116e-01
 -2.1022081e+00
  1.0004003e-01
  1.0000238e-01
  1.0000025e-01
  1.1817881e-01
  1.0005909e-01
  1.0003320e-01
  1.0372415e-01
 -1.0000107e-01
  1.0006546e-01
  1.0000075e-01
 -1.0000070e-01
  1.0000110e-01
 -1.0000219e-01
  1.0003474e-01
 -4.4058326e-01
 -3.3897075e-01
 -1.0000180e-01
 -1.0002960e-01
  1.0059954e-01
  2.7087003e-01
  1.0001844e-01
  1.0000097e-01
 -1.0007118e-01
  1.0000448e-01
 -1.0000414e-01
  5.4656827e-01
  1.7121272e+00
  6.5385163e-01
  9.1543722e-01
  1.0000552e-01
 -1.0000068e-01
 -1.0773675e+00
 -3.9655346e-01
  1.0001120e-01
 -1.0056130e-01
  1.0000096e-01
  1.0061334e-01
 -1.0000534e-01
 -1.0000081e-01
 -1.0000532e-01
 -2.5448725e-01
 -1.0000093e-01
 -6.9950241e-01
  1.0001004e-01
 -1.0000311e-01
 -1.0000051e-01
 -5.3951073e-01
 -1.3849637e-01
  1.0000093e-01
 -1.0000324e-01
  1.1988156e-01
  1.0002879e-01
  1.0000528e-01
  1.0004845e-01
  3.0937478e-01
 -1.0000395e-01
  1.0078501e-01
 -1.2757871e-01
 -1.0000156e-01
 -1.4748394e-01
 -1.0000333e-01
  1.0000038e-01
 -1.0000142e-01
 -7.7821535e-01
 -1.0018070e-01
  1.0000562e-01
  1.0000002e-01
 -1.0000162e-01
  1.0000716e-01
  1.0000462e-01
  1.0000198e-01
  1.0000031e-01
 -1.0000151e-01
  1.2533903e-01
 -3.0122006e+00
 -7.5891274e-01
 -1.0000257e-01
 -5.6816435e-01
  7.2893637e-01
  3.9869463e-01
  1.0000359e-01
 -1.0004322e-01
 -1.0001426e-01
  4.2245325e-01
 -1.0000353e-01
  1.0001511e-01
 -1.0000498e-01
  1.0002933e-01
  1.0000069e-01
  2.2969630e-01
  4.1268736e-01
  1.0000064e-01
  9.0023100e-01
  1.0000400e-01
 -5.0166404e-01
  2.2157857e-01
  1.0006021e-01
  1.0002387e-01
  2.6543909e-01
  3.3867297e-01
 -1.0004604e-01
 -1.0004430e-01
 -1.4184847e+00
 -1.0000048e-01
 -1.0000414e-01
 -4.1451401e-01
 -4.4612771e-01
 -1.1105005e-01
 -1.0017080e-01
 -1.0001381e-01
  8.5963070e-01
 -5.4212898e-01
  1.0000280e-01
  1.0000290e-01
  1.0000540e-01
  1.0000464e-01
  1.0000112e-01
 -1.0091468e-01
  1.0000835e-01
  1.0000282e-01
  1.0006759e-01
  1.0000060e-01
  1.0000323e-01
 -1.0000268e-01
 -1.0017194e-01
 -1.0018597e-01
  1.0000148e-01
 -1.0001049e-01
  1.0139623e-01
 -1.0000195e-01
 -1.0012441e-01
  1.0005528e-01
 -1.0000902e-01
  1.0001150e-01
  1.0000480e-01
  1.0000619e-01
 -1.0000160e-01
  1.0012519e-01
  1.0000032e-01
 -1.0005259e-01
  1.0033089e-01
  1.0005334e-01
 -1.0005128e-01
 -1.0017949e-01
  1.0000020e-01
  1.0000248e-01
  5.5937827e-01
  8.3622056e-01
  1.0005903e-01
  1.0004394e-01
 -5.0285357e-01
  1.0000178e-01
  1.0198958e-01
 -1.0000788e-01
  1.1940451e+00
 -1.8638334e-01
 -1.0000094e-01
 -1.0042510e-01
 -4.0103090e-01
 -4.6431613e-01
  1.0000032e-01
  1.0006737e-01
  1.1387751e-01
 -1.0024112e-01
  1.0004088e-01
  1.0000076e-01
  1.0002934e-01
  1.0010558e-01
  2.6530907e-01
 -1.0000435e-01
  1.0996930e-01
 -1.0000519e-01
 -7.8218985e-01
 -1.0006611e-01
 -1.0000025e-01
  1.0000464e-01
 -1.0001925e-01
  1.0000084e-01
 -1.0000105e-01
  1.5904257e-01
 -1.0000291e-01
  1.0000142e-01
  1.0004185e-01
 -1.0000542e-01
 -1.0000940e-01
  6.3648546e-01
  1.5270752e-01
 -4.4228339e-01
  1.0016425e-01
  1.0609593e-01
  1.1622410e-01
 -1.0014066e-01
  1.0004172e-01
  1.0010546e-01
  1.2776247e-01
  4.3495119e-01
  1.0001338e-01
  1.0000429e-01
 -1.5974885e-01
  1.0000267e-01
  1.0000771e-01
  1.0003643e-01
 -1.1274815e-01
  1.0012469e-01
  1.9698153e-01
  1.0000270e-01
  1.0010257e-01
 -7.7456367e-01
  1.0017859e-01
 -1.0000008e-01
 -1.0000042e-01
 -1.0000487e-01
 -1.0000537e-01
 -1.0000231e-01
 -1.2349024e-01
  1.0010338e-01
  5.7008314e-01
  1.0000091e-01
 -1.7763683e-01
 -1.0001073e-01
 -2.0626238e-01
 -1.7959379e-01
 -4.3266430e-01
  3.2325277e-01
 -1.0000042e-01
 -1.0006282e-01
  1.0001775e-01
  1.0018671e-01
 -1.0000283e-01
  1.0023852e-01
  1.0007219e-01
  1.0000474e-01
 -1.0006199e-01
  3.0868432e-01
  9.8527181e-01
  1.0003296e-01
 -3.1273195e-01
 -1.0000176e-01
 -1.0078537e-01
 -5.4195678e-01
  1.0000072e-01
  1.0000870e-01
 -1.0006427e-01
  8.0670953e-01
 -1.0007532e-01
  1.0072631e-01
 -1.2189824e-01
 -1.0225160e-01
  1.0000216e-01
  5.1082081e-01
 -2.1113446e+00
 -7.7727795e-01
  4.0881965e-01
  2.4656045e-01
 -1.0002583e-01
 -1.0018734e-01
  1.0080457e-01
  1.0127619e-01
 -1.0000031e-01
  2.9866433e-01
 -1.0000271e-01
 -1.0281020e-01
 -8.7287933e-01
 -1.0000396e-01
 -1.0000034e-01
  2.4644870e-01
 -5.5035865e-01
  1.0000020e-01
  1.0001589e-01
  1.0000430e-01
  1.0000087e-01
 -1.0000201e-01
  4.7328892e-01
  1.0000008e-01
  1.0008318e-01
  1.0046256e-01
  1.0000038e-01
  1.0041344e-01
 -7.2573972e-01
  1.7873722e-01
  1.0003705e-01
  2.1060467e+00
  1.2262008e+00
  1.0031498e-01
 -3.4215713e-01
 -1.8791859e-01
 -1.0173068e+00
  1.0000452e-01
  1.0000402e-01
 -1.0000274e-01
  1.0000120e-01
  2.7469718e-01
  1.0017008e-01
 -1.0000060e-01
 -4.0126666e-01
  1.0000034e-01
  1.0000598e-01
  1.0705053e+00
  1.9593224e-01
 -1.0011695e-01
 -1.0003553e-01
 -1.0005789e-01
  1.0000495e-01
 -3.3339095e-01
 -4.7305131e-01
 -1.0000257e-01
 -2.2292571e-01
  1.4150047e-01
  1.0010339e-01
  1.0000896e-01
 -1.0000151e-01
 -1.0001563e-01
 -1.0005862e-01
 -2.0176142e-01
  3.1954905e-01
  9.7375774e-01
  8.8377577e-01
 -1.0000464e-01
  1.5238549e-01
 -1.5087736e-01
 -1.0007976e-01
 -1.0000008e-01
 -1.0018610e-01
 -1.0001153e-01
  1.0010014e-01
  1.0000668e-01
 -1.0000110e-01
 -1.0000206e-01
 -1.0002636e-01
  1.0000547e-01
  7.6340479e-01
  1.0029028e-01
  1.0000733e-01
  1.0003156e-01
 -1.0000201e-01
  1.0005336e-01
  1.0000027e-01
  1.0003088e-01
  2.6115215e-01
 -1.0000031e-01
  1.0000072e-01
 -1.0000566e-01
 -1.0000281e-01
 -1.0000025e-01
  1.0000033e-01
  1.0005681e-01
 -1.0000107e-01
  1.0001564e-01
  1.0006633e-01
 -1.0006419e-01
  1.0006402e-01
  2.0932508e-01
 -2.9002744e-01
 -1.0000329e-01
 -2.0156229e-01
 -1.0002902e-01
  1.0000318e-01
  1.0005138e-01
 -1.0000422e-01
  1.0000343e-01
  1.0000132e-01
  1.0484987e+00
  1.0181300e-01
  3.2555211e-01
  4.6397448e-01
  1.0041942e-01
 -1.0014416e-01
  3.5804278e-01
 -1.1885750e-01
 -1.0037311e-01
 -6.5872169e-01
  4.8003739e-01
  1.0000571e-01
  1.0000444e-01
  1.0000418e-01
  1.0027135e-01
 -1.0042562e-01
  1.0018352e-01
  4.8066106e-01
 -1.0000009e-01
  3.8639548e-01
  1.0055174e-01
  1.0000332e-01
  1.0016507e-01
  1.0000341e-01
  1.0016631e-01
 -1.0004038e-01
 -1.8239173e-01
  1.0010382e-01
  1.0000332e-01
 -1.0054636e-01
 -1.0000837e-01
  1.0006322e-01
  1.0005277e-01
  1.5470858e-01
  1.0004724e-01
  1.0027545e-01
  1.0000405e-01
  3.6566564e-01
  1.0006167e-01
  1.0000139e-01
 -1.0000066e-01
 -1.5437049e-01
  1.0001055e-01
  1.0000129e-01
 -1.0000130e-01
  1.0006936e-01
 -1.0000221e-01
  1.0000342e-01
  1.0000437e-01
  1.0004627e-01
  6.2609768e-01
  3.0896321e-01
  1.0104965e-01
  1.0000014e-01
  1.1714854e+00
 -7.7157617e-01
 -1.0000334e-01
 -5.9145737e-01
  1.0000640e-01
  1.0000594e-01
  1.0000322e-01
 -1.0000028e-01
 -1.0000200e-01
 -1.0009449e-01
 -2.2859633e-01
 -2.1381485e+00
  2.9350388e-01
  1.0003936e-01
  1.0093319e-01
 -1.1456792e-01
 -1.0000852e-01
 -1.0000047e-01
 -1.0000236e-01
 -1.0000055e-01
 -1.0393916e+00
  1.0009843e-01
  1.0000334e-01
 -1.0000280e-01
  1.0000556e-01
  1.0000050e-01
  2.9309580e-01
  1.0037135e-01
 -3.1762907e-01
  2.8064767e-01
 -1.0000188e-01
  4.9604887e-01
 -2.7108103e-01
 -1.1387746e-01
 -1.0002416e-01
  1.0088105e-01
  1.0000311e-01
  1.0001238e-01
 -1.0000373e-01
  1.0699631e-01
  1.0000110e-01
  1.0000408e-01
 -4.3862912e-01
 -7.2233438e-01
  4.3184614e-01
  8.7970555e-01
  1.0020145e-01
 -1.0000256e-01
  9.5101225e-01
 -1.7944226e-01
 -1.0004465e-01
 -1.0610499e-01
  1.0000223e-01
  1.0000500e-01
 -1.0000373e-01
 -1.0000145e-01
  1.0213796e-01
  1.0000008e-01
  1.0007347e-01
  1.5261726e+00
  6.7898363e-01
  1.0691470e-01
 -1.0011782e-01
  1.0405806e-01
 -1.0002601e-01
 -1.0848434e-01
  1.1339580e-01
  1.0000490e-01
 -5.9919888e-01
  1.0006133e-01
  1.0000093e-01
  1.0005710e-01
  1.0001352e-01
  1.0000039e-01
 -5.8740520e-01
 -3.8478404e-01
 -1.0026862e-01
 -1.0000343e-01
  1.0000166e-01
 -1.9838160e-01
  5.1444501e-01
 -1.0000476e-01
 -1.0012124e-01
  1.0872553e-01
  2.0843646e-01
 -1.0000555e-01
 -1.0000058e-01
  1.0182201e-01
  1.0000012e-01
  1.0000129e-01
  1.3030586e+00
  2.6448965e-01
  1.0000201e-01
 -1.0009349e-01
 -1.0003356e-01
  1.0000035e-01
 -1.0000091e-01
  1.0000411e-01
  1.0004468e-01
  2.7521443e-01
  1.5842862e-01
 -1.0000316e-01
 -1.0000284e-01
 -1.0000005e-01
 -1.0000060e-01
 -1.0002585e-01
 -1.0000511e-01
  1.0731330e+00
 -5.2901590e-01
 -1.0508160e-01
  2.0805222e-01
 -1.0000125e-01
 -1.0003158e-01
  1.0001291e-01
  1.0000191e-01
  1.0005221e-01
  1.0000371e-01
 -1.0000224e-01
 -1.0000438e-01
 -1.0000116e-01
 -1.0017855e-01
  1.0005747e-01
  1.0017730e-01
  1.0003602e-01
 -1.0000335e-01
 -1.0013451e-01
  1.0000359e-01
  1.0000279e-01
 -1.0000366e-01
 -1.0018249e-01
 -1.0000246e-01
 -1.0000292e-01
  1.0010475e-01
 -1.0000888e-01
 -1.0000046e-01
  1.0000051e-01
 -1.0029504e-01
 -1.0072161e-01
  1.0000569e-01
  1.0005354e-01
  1.0001245e-01
  1.0054549e-01
 -1.0000376e-01
 -1.0004767e-01
 -1.0000066e-01
  1.0000949e-01
  1.0008514e-01
  1.0003959e-01
  1.0232159e-01
  1.0000035e-01
 -1.0004686e-01
 -1.0005540e-01
 -1.0019194e-01
  1.0003477e-01
 -1.3540770e-01
  1.0000113e-01
  1.0000271e-01
  1.0000250e-01
  1.0013650e-01
 -1.0000033e-01
  1.0002001e-01
 -1.0000020e-01
  1.0000019e-01
  1.0011568e-01
 -1.0000193e-01
  1.0000031e-01
 -1.0000340e-01
 -1.0562061e-01
 -1.0000537e-01
  2.4606946e-01
  1.0000329e-01
 -1.8058604e-01
 -1.0006572e-01
 -4.0385738e-01
  1.0000055e-01
  1.0000061e-01
  1.0000516e-01
 -1.0000425e-01
 -1.0003952e-01
  1.0000352e-01
  1.0014316e-01
 -1.0000412e-01
  1.0000041e-01
  1.0000287e-01
  1.0000585e-01
 -1.4943428e-01
  8.1775147e-01
  1.1382542e+00
 -5.8681577e-01
 -1.0000566e-01
  1.0409072e-01
  1.0493485e-01
  1.0000603e-01
  1.0003558e-01
  1.0000069e-01
  1.0001113e-01
 -1.0000201e-01
  1.0000084e-01
  1.0002191e-01
  1.0001179e-01
  1.0000154e-01
  1.0004553e-01
 -1.0003038e-01
 -1.0008117e-01
  2.5820619e-01
  1.8133128e-01
  1.0011641e-01
 -1.0128711e-01
 -1.0001041e-01
  1.0000227e-01
 -1.0001726e-01
  1.0040160e-01
  1.0128287e-01
  1.0000067e-01
  1.0004547e-01
 -1.0012116e-01
 -1.0002173e-01
  3.6487612e-01
 -2.1083720e-01
 -5.2432573e-01
 -5.7378554e-01
 -1.0000439e-01
  1.0000426e-01
  1.0000352e-01
  1.0006692e-01
  1.0013525e-01
 -1.0000395e-01
  1.0077080e-01
  1.0000142e-01
 -1.0000515e-01
 -1.0000404e-01
 -1.0000398e-01
 -1.0000424e-01
 -1.0012481e-01
  4.4753230e-01
  3.8697150e-01
  1.0000220e-01
 -1.5854642e-01
 -1.0000028e-01
  1.0001054e-01
 -1.0000101e-01
  1.0000146e-01
  1.0000119e-01
 -1.0000812e-01
  2.9060695e-01
  1.0000385e-01
  1.0003679e-01
 -1.0003094e-01
  1.0000221e-01
  1.0000094e-01
 -1.0000293e-01
 -3.6784935e-01
  1.0003569e-01
  1.0077941e-01
  1.0062186e-01
  2.0875937e-01
  1.0000069e-01
  1.0004167e-01
 -1.0000907e-01
  3.9129505e-01
  1.0000037e-01
  1.0182774e-01
  1.0000248e-01
  1.0002045e-01
 -1.0000918e-01
 -1.0000416e-01
  1.0056965e-01
 -1.5941054e-01
 -5.6579101e-01
  2.7651325e-01
  1.0005029e-01
  1.0003624e-01
  1.0003565e-01
 -1.0000090e-01
 -1.0740003e-01
  1.0023379e-01
  1.0000096e-01
  1.0000264e-01
 -1.0003181e-01
  1.0044407e-01
 -1.0012157e-01
 -1.0000172e-01
 -6.2471080e-01
  1.2998933e+00
  1.8502456e-01
 -2.1773532e-01
 -1.0001301e-01
 -4.5095447e-01
  1.0009683e-01
 -1.7110470e-01
  1.0002962e-01
  1.0000040e-01
  3.6183006e-01
