nep3 4 Zn H C N 
cutoff 6 3
n_max 12 8
basis_size 12 8
l_max 4 2 0
ANN 80 0
  1.7170109e-01
 -1.5748867e-01
 -1.6753573e-03
  1.4755915e-02
  6.9920915e-01
 -3.4212321e-02
  8.0991788e-03
 -1.4262457e-01
 -2.0589909e-01
  1.2709014e-01
 -2.9357299e-01
  5.2424693e-01
 -2.7100325e-03
  1.1775855e-02
 -1.1602887e-02
  4.3667349e-01
 -8.4920913e-02
 -5.6862634e-01
  8.1932031e-02
  4.5438269e-03
 -3.3219039e-01
  8.2316640e-04
  1.8083811e-02
  3.4895208e-01
  1.2750897e-03
 -6.9015674e-02
  1.9622751e-02
 -6.9494605e-02
  2.2601442e-01
  1.5124880e-01
  8.6110689e-02
  2.0555742e-02
  1.3604618e-02
  3.1215996e-02
 -8.4510677e-02
  9.3796648e-02
  2.1664005e-02
  5.1319906e-03
  9.4409727e-02
  4.9926463e-01
  1.3000999e-01
  5.5709109e-03
  9.2174634e-02
  2.6021150e-01
  2.0920245e-01
  4.3194649e-01
  6.6616118e-02
  2.3238057e-02
  9.6599022e-03
 -1.2888792e-01
  3.5458437e-01
 -9.7965850e-03
 -2.1846795e-02
  5.2802231e-02
  7.5044581e-03
  6.4584363e-01
  2.5323151e-02
 -1.1093687e-02
  3.9055012e-03
 -2.8644407e-03
 -1.9509124e-03
 -6.0991943e-03
  4.5300182e-03
 -3.3543371e-03
 -3.4049558e-03
  8.2535213e-03
 -8.4847696e-03
 -8.7221269e-04
  8.6749764e-03
 -1.7779639e-02
  4.7912565e-03
  2.9906910e-03
  2.6324163e-03
  2.7812175e-03
 -4.7417758e-03
  1.8758851e-03
  1.2528783e-02
 -1.1041073e-02
  1.2452416e-02
  3.2245889e-03
  6.4298976e-03
  1.2210734e-02
  1.9609155e-03
 -6.6578202e-03
 -2.2884724e-03
 -1.3212293e-03
  1.1270788e-02
  2.2151051e-03
 -1.8278977e-02
  3.6157919e-03
 -1.3028292e-03
  4.5304676e-04
  1.4162563e-03
  1.2101566e-03
  4.8443228e-03
 -1.0890886e-05
 -4.9460977e-03
  4.0000463e-03
  6.2615657e-03
 -1.9240902e-03
 -6.1163921e-03
  2.9183490e-02
 -2.1540476e-03
 -4.2083226e-03
  1.5102339e-02
  9.5002796e-04
  1.3279701e-02
 -5.8061881e-03
  6.1849183e-03
  9.5965769e-03
 -4.0393788e-03
  1.2185059e-02
  1.1436133e-02
  4.2115138e-03
  8.1961052e-03
 -4.6969964e-03
 -2.3856851e-01
  2.2248016e-01
 -9.7014564e-01
 -1.7700702e-01
 -4.3957055e-02
  4.5740142e-01
  4.9442623e-02
  3.5039681e-01
  1.5216479e-01
 -4.8924705e-01
  1.1111512e+00
 -9.3930942e-01
  1.8211381e-01
  4.3394250e-01
 -7.5629193e-01
  2.6960349e-01
 -9.5222957e-02
 -1.2286948e-01
 -1.4724945e-01
  1.2789734e-02
 -1.6269119e-02
 -1.2769377e+00
  1.4667968e-01
 -6.9654316e-02
  4.0977576e-01
  7.2798014e-01
  2.2983760e-02
 -1.2063278e-01
 -6.4057952e-01
  1.3507566e-01
 -7.4973428e-01
  3.1312829e-01
 -3.3274855e-02
  6.6370332e-01
  2.2727299e-01
  2.5621176e-01
 -6.9225490e-01
 -2.3993288e-01
  4.3266946e-01
 -1.5021399e+00
  2.7011567e-01
 -4.4958431e-01
 -4.4462460e-01
  7.7912867e-01
  5.2839607e-01
  5.3167737e-01
  8.3547868e-02
 -1.4448892e+00
 -5.5247098e-01
  5.6748962e-01
 -5.2730525e-01
  2.1030076e-02
  6.4257956e-01
 -1.1044365e+00
  9.4012566e-02
  1.3874586e-01
 -8.0885243e-01
  6.7018896e-02
 -3.2075140e-01
  5.3323925e-01
 -3.9810807e-02
 -3.7274536e-02
 -5.6134339e-02
  1.5898457e-01
  2.9591473e-03
  5.2425009e-01
  7.1222179e-02
 -1.6737929e-01
  1.0096701e-01
 -4.0512329e-01
  3.5534123e-01
 -3.3455074e-02
  3.7864398e-03
 -1.3455547e-01
  1.0100780e-01
  1.7848772e-01
  1.5781840e-02
  1.3750406e-01
  1.8621652e-01
  1.9334482e-01
 -3.2332956e-03
 -5.5142587e-01
  1.9278025e-02
  7.9920009e-02
  8.7704040e-02
  1.9289677e-01
 -3.4591651e-01
 -1.3078655e-01
 -4.8681539e-01
 -1.4524043e-01
 -2.1475300e-03
  1.6266789e-01
  2.9604459e-02
 -1.7158028e-02
  2.1571035e-03
  8.7150140e-03
 -4.5298496e-03
 -3.5235015e-01
 -5.0986048e-02
 -8.0411853e-03
 -1.1709412e-02
 -3.4292612e-02
  2.7309409e-01
 -1.0952153e-01
 -5.9639227e-02
  2.2378922e-01
 -2.0155478e-02
  2.2906479e-01
 -8.5323775e-01
  5.9317504e-03
  2.9819056e-01
 -2.9581523e-01
  1.5114333e-01
  4.7638690e-01
 -5.3711585e-03
  7.4923616e-03
  1.0404883e-02
 -1.1187997e-02
  5.1031443e-03
 -3.8989822e-03
  5.8376361e-03
 -1.4099069e-02
 -2.3536675e-05
 -2.6818090e-03
 -4.0099300e-03
 -5.7319654e-03
 -1.1516851e-03
 -4.3104994e-03
 -6.7138900e-03
  2.8354181e-03
 -9.1031408e-03
 -1.7451723e-03
 -9.6444413e-03
  3.7422306e-03
  5.5471840e-03
  6.0364720e-03
  1.8550029e-02
 -4.5264899e-03
  3.4230067e-03
  6.7279860e-03
  4.4435840e-03
 -1.0202213e-03
 -1.7847723e-04
 -1.0098320e-03
 -1.1379150e-03
  6.2280674e-03
  2.9159195e-03
  1.0138060e-02
  2.7535493e-03
 -2.2969436e-02
  4.8628040e-02
 -1.2863507e-02
 -7.4181356e-03
  1.0513406e-02
  8.8375956e-03
  8.5915194e-04
 -7.9916725e-03
 -2.5608342e-03
 -1.3330078e-02
  1.0849918e-04
 -4.9300781e-03
 -6.0432253e-04
 -8.2605891e-03
  2.9370195e-04
 -3.1727811e-03
  8.8286987e-03
  3.4307435e-03
  1.1573980e-02
 -2.5315816e-02
  7.4938743e-04
 -1.9443303e-02
 -3.4537431e-02
  5.6084776e-03
  3.6398019e-03
  4.7278660e-03
  4.0549389e-04
  2.3384641e-03
  2.0249330e-03
  7.5540150e-04
 -6.1847256e-03
  1.6727686e-02
  6.3359072e-03
  2.5651860e-04
  5.4163497e-04
  1.6102795e-02
 -5.9751873e-03
  9.3079224e-04
 -3.4548203e-03
 -9.3112411e-03
  1.9175283e-03
 -6.7185769e-03
  1.0082894e-02
  9.6385898e-03
 -8.2667191e-03
 -2.7120495e-03
 -1.3818612e-02
  8.9411298e-03
  2.2223350e-02
  6.0278741e-03
 -9.7859288e-03
 -2.8752605e-03
  3.2428822e-03
  1.9376524e-02
 -3.1678323e-03
  6.6031283e-04
 -8.9698788e-03
  1.8085610e-03
  2.1964055e-03
  2.6337509e-03
  5.2177776e-03
  6.1194850e-03
 -1.1418534e-02
  4.2334758e-03
 -5.2464590e-04
 -9.7021228e-03
 -1.6568184e-03
 -5.7365061e-03
 -1.4355423e-02
 -9.0422798e-03
  4.7111358e-03
 -1.0194346e-02
  1.5796050e-03
 -4.7665183e-03
  1.7651467e-02
  3.9668935e-03
 -3.1272805e-04
 -2.7061941e-03
 -5.4505230e-03
 -2.9209778e-03
  9.1998810e-03
 -7.0051779e-04
  7.3021292e-03
  8.2188137e-03
  2.3158544e-04
  1.1610357e-02
 -6.1251137e-02
  3.2199216e-03
 -5.9934314e-03
  2.1777265e-03
  2.2617278e-01
 -2.5321899e-02
  2.2378695e-01
 -6.4477377e-02
  2.5904003e-01
 -7.0465595e-01
  2.6436597e-01
  1.1356206e-02
 -3.3302805e-03
  2.2535177e-02
 -3.2790978e-02
  9.2072301e-03
  1.0560340e-01
 -2.0665346e-02
  9.6201971e-02
  3.3876601e-01
  4.6080470e-01
  2.1737313e-01
 -4.1825615e-02
  5.4411300e-02
  7.8879111e-02
  3.6876944e-01
  2.0918104e-01
  3.8445234e-02
  3.1648254e-01
  5.2308178e-01
  1.4891167e-01
  1.2721787e-03
  3.5950163e-01
  4.2974293e-02
  3.6636147e-01
  3.8380560e-04
  4.1277876e-01
  2.1962692e-01
 -1.6311139e-01
  4.5493028e-01
  9.0893470e-03
 -2.2647698e-01
 -1.0624814e-01
 -1.2735583e-01
  1.4245884e-01
  2.3862721e-02
 -5.5977386e-01
  9.7460449e-01
 -6.4747319e-02
 -2.5562784e-01
 -3.2477010e-02
  4.2859102e-03
 -9.2155325e-01
  9.3731299e-02
 -3.3386827e-01
  1.7630180e-02
  7.6760761e-03
 -2.0928793e-03
  1.4881007e-03
  1.7262274e+00
 -3.6889759e-01
  1.3212593e-03
 -2.9524905e-05
 -6.5980509e-02
  3.8668902e-03
  6.5477204e-01
  1.1959291e-01
 -1.5423111e-02
  1.6457515e-02
  1.1272249e-03
  2.0124391e-02
  3.9160443e-03
 -1.1015826e-01
 -6.8352497e-01
  8.7547966e-04
 -1.1182132e-01
  2.0370365e-04
  1.1290759e-02
  3.9972596e-02
  1.2938235e-02
  1.0686311e-03
 -1.3685361e-02
  2.1711905e-02
  7.1700141e-02
 -6.2032708e-04
  2.1271946e-02
  2.0056073e-01
  6.2103523e-04
  2.1072282e-03
  7.3543666e-03
  7.0604030e-03
 -7.6064439e-03
  1.7273125e-03
 -3.6932756e-03
  1.0058670e-01
  1.2133929e-01
  3.2666258e-03
  7.2325515e-03
  1.0874814e-03
  2.5081381e-03
 -1.3130669e-03
  8.0495089e-02
  2.1137166e-01
 -9.3776634e-04
 -2.1255319e-03
  2.6674666e-03
  7.9151941e-03
  9.3196076e-04
  1.0759252e-02
  2.4051540e-02
 -2.4992784e-02
 -4.5670441e-04
 -9.4258832e-04
  1.0188777e-01
  1.5809209e+00
  9.5139928e-03
  1.4791528e+00
  1.4597261e-01
 -3.9466712e-01
 -1.5192940e+00
  1.5307869e-02
 -2.3902263e-02
  1.6896952e+00
  4.6532560e-02
  2.3741141e-01
  1.4951924e+00
 -3.6796707e-01
  5.7049459e-03
 -1.3651265e+00
  5.1307803e-01
 -3.9052160e+00
  5.2052885e-01
 -1.7564263e-02
  1.9540083e-02
 -1.6556805e+00
 -1.0839691e+00
  5.7332804e-03
 -9.0695411e-01
  2.5630450e-01
  2.2623086e+00
  3.7465894e-01
 -9.2968827e-01
  7.7255553e-01
  5.6536075e-02
  2.4705024e-01
 -7.6736957e-02
  3.0191224e+00
  8.2484972e-01
  8.7650132e-01
 -3.4368816e-01
  5.9994525e-01
  3.7150946e-01
 -5.7608392e-02
  1.4832453e+00
 -4.5892563e-01
  1.2183666e+00
 -9.9655771e-01
 -4.9406642e-01
  6.3612771e-01
  2.2045313e-01
  2.7405664e-01
 -4.9004826e-01
 -1.4889655e-03
 -1.5243337e-02
 -8.9437056e-01
 -1.4860532e-02
 -4.8644590e-01
  1.2893797e-01
  3.7430520e-03
  5.0619060e-01
  1.9271143e-01
  8.1964768e-03
 -1.3333105e-03
 -5.4152962e-03
  9.7259559e-04
 -8.6457413e-03
  2.0056581e-03
 -1.6176868e-02
  1.6736582e-02
 -1.0913126e-02
 -1.4430772e-03
  3.6359527e-03
  1.7057071e-02
  4.8522563e-03
 -2.1209945e-03
  4.9391855e-03
 -2.4712512e-02
  4.9763131e-03
 -9.8602027e-03
 -3.5030292e-03
  6.1244559e-03
  3.2288805e-03
 -8.9983009e-03
  2.4482685e-03
 -5.2573031e-01
 -5.9113051e-03
 -5.1361606e-03
  2.5853922e-03
 -2.5025658e-02
 -2.6727544e-02
 -2.7300321e-02
  1.3283512e-05
  3.1607244e-03
  3.9026216e-03
 -1.4307701e-03
 -2.8595096e-04
  3.1914716e-03
 -1.4585884e-03
  2.6899643e-02
  9.6850023e-03
 -1.7475404e-02
  2.9935650e-04
  3.4384090e-03
  4.4079581e-03
 -4.8428453e-03
  9.4856624e-04
 -1.4519950e-02
  7.6194666e-04
  5.1786988e-03
  3.6628754e-03
  2.4646496e-02
 -3.5009638e-03
  8.9664357e-03
 -6.4225652e-04
  3.7169550e-05
 -4.2066677e-03
  1.5662668e-02
  1.3310456e-02
  3.9182897e-03
  2.0946734e-02
  5.9183547e-03
 -6.4908392e-03
  2.2307662e-03
 -6.9890069e-03
  5.3278757e-03
 -2.5273554e-02
  3.3733607e-03
  1.7686342e-03
 -1.1247231e-02
 -8.7186403e-04
  2.1776557e-03
  4.3348698e-03
 -1.1615973e-04
  2.2031993e-02
  2.6814609e-03
 -1.1428422e-04
 -3.3907336e-03
  5.3315819e-04
 -5.7509714e-03
 -2.5165260e-03
 -2.1021846e-03
  1.0172454e-02
 -3.0896631e-03
 -1.2199133e-02
 -5.3839986e-03
 -6.0294010e-03
  4.8769359e-03
 -9.7387601e-03
  5.0651128e-03
 -2.0501453e-03
 -1.1147602e-02
  1.7565904e-03
  1.1736965e-03
  1.2301378e-01
 -7.4069146e-03
 -1.7079504e-03
  1.5998452e-03
 -1.4493328e-03
 -9.6929353e-03
 -2.2742555e-02
 -2.7274131e-03
 -5.4972904e-04
 -3.9337743e-03
  4.5085228e-03
 -1.0985630e-02
 -2.1900702e-03
  3.2218753e-03
  8.0784606e-03
 -3.8390746e-05
 -2.1882323e-03
 -1.8616981e-03
 -1.8246412e-02
 -3.0654119e-03
 -3.5957715e-03
 -5.0325593e-04
  6.3679283e-03
 -7.1484521e-03
 -1.1393878e+00
 -1.0984480e+00
 -4.6564573e-01
  2.8580889e-01
  4.4942909e-04
 -1.1735015e+00
 -2.4217735e-01
 -4.6117161e-03
 -2.1859708e-01
 -6.0040915e-01
 -9.7948819e-01
  1.2814831e+00
 -2.8710086e+00
  5.2353626e-01
  1.7879815e-01
 -7.3894531e-01
  2.0670569e+00
 -4.2036372e-01
  9.9421777e-02
 -2.3303542e-03
  8.5894805e-01
  2.0481304e-03
 -8.9510405e-01
  3.9185268e-01
 -1.5939002e+00
  2.3880506e+00
 -6.1721307e-01
  3.8134548e-01
  8.8667172e-01
 -7.3584968e-01
 -1.1637712e-01
 -1.4883621e+00
 -1.8309904e+00
  8.4172106e-01
  1.5946263e-01
  2.1452003e+00
  1.2685096e-01
  1.1306643e+00
 -6.5812147e-01
 -3.1657768e-03
 -4.9309786e-02
 -2.6526231e-01
  1.5969591e+00
 -1.3620430e+00
 -8.7100178e-02
  1.2514364e+00
  9.5949990e-01
 -2.2706458e-01
 -1.9143188e-01
 -2.8753683e-01
  6.6027641e-01
 -3.0852640e-01
 -1.2974224e+00
  7.4161524e-01
  6.1955340e-03
 -6.9565290e-01
  1.4539953e+00
 -6.1849356e-02
 -2.1060148e-02
  1.1528166e-03
  1.5347328e-03
 -1.5625088e-02
  3.1989694e-03
 -1.2312121e-02
 -1.0019490e-02
 -5.4174424e-03
  4.0269480e-03
  9.4866622e-03
  2.4519698e-03
 -1.7381683e-03
  1.5441837e-02
  1.9655291e-02
  6.4179585e-03
  1.5824759e-02
  3.0124333e-02
  4.4743852e-03
  5.2344978e-01
 -1.5457384e-02
 -6.4054737e-04
  1.3109278e-02
  9.8752789e-06
 -5.8036498e-03
  1.1074194e-03
  3.8922110e-03
  1.5055609e-03
  1.6756136e-03
 -2.2143677e-03
 -3.8849276e-03
 -8.5525382e-03
  3.4283972e-03
  2.3286195e-02
  4.4031590e-03
 -2.4060165e-03
  4.1330568e-03
 -9.3825255e-04
 -1.5392496e-03
  8.2850931e-03
 -4.9497853e-03
  4.2643171e-02
 -4.8415926e-03
  6.0882913e-03
 -2.1821281e-03
  2.7486132e-03
 -3.6664412e-03
  1.1326127e-03
  3.4019101e-02
 -8.8204360e-03
 -9.3955901e-03
 -7.0862020e-03
 -1.6130071e-02
  9.3577662e-04
  2.6997533e-03
 -3.3156516e-03
 -2.8274560e-03
  1.9391298e-02
  7.2320155e-04
  2.5498455e-03
 -9.6984312e-02
 -1.3152442e+00
 -5.4291934e-02
 -8.3315206e-01
 -6.2590390e-03
 -9.0446073e-01
 -1.6001327e-01
 -1.7509039e-02
  3.6061216e-02
  9.1018450e-01
  8.6442135e-02
 -5.5893207e-01
  3.2840762e-01
 -2.2342831e-02
  3.8631514e-01
 -1.7564930e-01
  2.4987381e+00
  3.9728859e-01
  1.1086131e-03
 -1.8137438e+00
 -7.7785426e-01
  1.1078066e+00
  3.2234356e-01
  6.3214803e-01
 -1.2341805e+00
 -1.1212435e+00
  7.8849673e-02
 -8.6393517e-01
  1.0012934e+00
  7.2148454e-01
  8.8628292e-02
  7.4930364e-01
 -1.3710997e-01
  7.4648626e-02
  1.2492128e-01
  4.7831500e-01
 -8.3120811e-01
  5.9185665e-02
  4.0124458e-01
 -5.6067085e-01
  1.4903703e+00
  3.6148232e-01
 -7.9508764e-01
 -3.2444409e-01
 -1.5556742e-01
  1.4893918e-01
  8.4680039e-01
 -8.9717597e-01
 -2.0307196e-02
  3.0897546e-01
 -4.6630070e-01
 -1.3207002e-02
 -1.9285358e-02
  1.9935699e-02
  4.5637367e-04
  2.5943515e-01
  2.7934884e-04
 -4.6367906e-03
 -3.7264647e-03
  1.1592512e-03
  1.0125783e-03
 -1.7737048e-03
  3.8565411e-03
 -1.5656286e-03
  8.2555208e-03
 -1.6268125e-02
 -3.3905455e-01
 -7.0937672e-03
  4.0205161e-04
 -6.4547053e-03
 -1.6366398e-02
 -4.8559513e-03
  1.7316598e-02
 -2.2933793e-03
 -3.0268107e-03
  3.7809103e-03
 -3.2699082e-02
  1.5469460e-03
 -1.1998635e-03
 -2.3041943e-03
  1.3185622e-03
 -7.6745772e-03
  7.8057731e-03
 -7.8269010e-03
 -2.1448084e-03
  5.7751308e-03
  1.6550750e-02
  7.1709175e-03
  7.1464139e-03
  2.8714929e-03
  7.0579620e-03
 -4.8001036e-03
  5.1781856e-03
  6.3091847e-03
  5.8825263e-03
 -3.7375058e-03
 -6.3070231e-03
  5.6813164e-03
  1.6813146e-02
  1.5183378e-03
 -3.9757602e-03
  4.7585317e-03
 -1.6095504e-02
 -9.7267451e-03
  1.9486900e-03
 -2.3159466e-03
 -1.0616127e-02
 -3.4078453e-03
 -7.4270982e-03
 -3.1270697e-03
 -1.9020109e-03
 -1.1004815e-02
 -1.3063304e-02
  5.5851429e-03
  5.3382772e-03
 -2.1169000e+00
 -6.6473871e-01
 -1.6753964e-01
  1.2695472e-01
 -4.1204426e-01
  3.4239597e+00
  2.0534428e-02
 -2.1322578e-02
 -6.1557943e-01
 -1.8269886e-01
 -1.0805854e+00
  8.9584947e-01
  2.8288361e-01
 -1.2911658e+00
 -1.5649918e-02
 -6.6731811e-01
 -9.3972760e-01
  1.1259381e+00
 -1.1977953e+00
 -1.2960805e-03
  9.1955966e-01
  1.0707850e+00
  8.7820339e-01
 -1.8705959e+00
  4.3024421e+00
 -5.0194758e-01
  2.0330157e+00
 -1.6029679e+00
  4.4641726e-02
  2.2726946e+00
  6.0678083e-01
 -5.0494820e-01
  5.1799375e-01
 -8.5560262e-01
 -1.2720840e-02
 -1.3159021e+00
  7.4443883e-01
 -9.8764789e-01
 -9.7073174e-01
  1.6872251e-01
 -6.3329923e-01
  1.2522801e+00
 -8.0914897e-01
 -1.3716190e-01
 -2.4614830e-01
  1.2606164e+00
 -8.1508577e-02
 -1.4975314e+00
 -2.0210612e+00
  8.3011552e-04
 -2.0017180e-01
 -1.4343417e+00
  2.3994291e-02
 -1.3811505e+00
  2.8517805e-02
  3.0415210e-01
 -3.6117103e+00
  7.3075376e-02
  1.5684327e-01
 -1.0657065e-01
 -7.2199653e-04
 -6.0544205e-03
  5.8992893e-01
 -7.0011085e-01
  1.4716833e-02
  5.6203841e-03
 -1.1388706e-01
  1.6686468e-01
  1.2220153e+00
  4.6940160e-01
 -1.8836491e-01
  7.4956870e-01
  2.1587638e-04
  6.0730022e-01
 -2.4229938e-02
  5.1859986e-02
  3.3122328e-01
  1.5781212e-03
 -2.7608901e-01
 -2.8080324e-02
  2.5599679e-02
  3.7905663e-01
  1.4991662e-02
 -1.1448903e-01
 -8.9161526e-03
 -2.3359396e-02
  4.4860214e-01
  6.0271256e-02
  5.7745729e-02
  3.9409736e-01
 -1.0681630e-03
  1.4909375e-02
  6.3197901e-03
  9.3564866e-03
  1.0140041e-02
  3.7362032e-02
  2.9775226e-01
  3.5050705e-01
  1.3427256e-01
  1.1855351e-01
 -1.7574935e-03
 -2.6328692e-01
 -1.5495700e-01
  1.8916650e-02
  5.1283443e-01
  5.6163001e-01
  5.7603076e-02
 -1.9399950e-03
  1.2984607e-02
  5.0894879e-02
 -8.4271707e-02
  3.2054104e-02
  2.4945308e-03
 -1.8195771e-02
  1.5230421e-03
  2.0228218e-02
 -5.9255284e-01
  6.2988520e-01
 -2.7607021e-01
  7.3524410e-01
 -8.8531536e-01
  9.3115509e-01
 -7.2663391e-01
 -1.1380278e-04
 -1.0120165e-01
 -1.3811634e+00
 -1.7482499e+00
 -2.0803718e-01
  5.1886415e-01
 -1.6291817e-03
  2.2749726e-01
  1.5772328e+00
  3.8129437e-01
 -3.8521223e+00
  1.7205091e-01
 -6.9218581e-03
 -1.0597082e+00
  4.9906269e-02
 -4.9271137e-01
 -1.3536335e+00
 -1.5525701e+00
  6.5899521e-01
 -2.2279422e+00
  9.5566237e-01
  7.5279683e-02
 -4.2367700e-02
 -4.0714255e-01
 -2.7824017e-01
 -3.0684009e-01
  2.3552594e+00
  7.3516440e-01
 -2.3677754e-01
  8.0642420e-01
 -8.8015877e-02
  7.5315458e-01
 -9.2154831e-02
 -7.3603064e-01
  3.4034833e-02
  2.8720489e-01
 -3.8260659e-03
  1.6658745e+00
  5.8848214e-01
  3.7515813e-01
  1.0006464e-01
 -2.5246519e-01
  4.7772918e-03
 -2.7829129e-02
 -9.1184837e-01
  3.1113839e-02
 -7.6112421e-03
  4.6452504e-02
  3.1085315e-01
  7.3462528e-01
  4.4811447e-03
 -9.0281240e-04
  3.2688249e-02
  2.6437166e-04
 -3.2752610e-03
  1.0668121e-01
 -5.4857820e-02
 -3.8027985e-03
 -1.1450022e-02
  3.0883860e-03
 -9.4220368e-03
  3.0977894e-02
  2.6891789e-01
 -4.5675030e-03
 -4.2138857e-01
 -9.1837980e-03
  1.4083678e-02
 -2.9427928e-01
  1.9343354e-01
  2.3411058e-02
 -1.8960680e-04
 -4.1172877e-01
 -8.7228818e-03
 -1.8742231e-03
  7.5276978e-02
 -1.5380133e-03
 -1.1460547e-01
 -7.3419129e-03
 -1.1772522e-01
  3.3174846e-02
  2.2421342e-01
  6.8515691e-04
  3.4402302e-03
  8.0784224e-02
  5.5763973e-03
  3.0581688e-03
 -4.0979516e-03
  9.6724993e-03
  5.6863655e-03
 -2.4532063e-02
  1.4765401e-02
  1.2828436e-03
 -5.4181349e-01
  3.7505499e-03
 -7.3073022e-02
 -1.7246516e-01
  2.2506043e-03
  1.3205175e-01
  1.1103648e-01
 -6.0319533e-03
 -7.6730672e-04
 -6.6665681e-03
 -1.5759682e-02
 -1.7576788e-02
 -6.6881529e-03
  5.3542354e-03
  3.6649187e-03
 -2.3679989e-03
  1.5117966e-03
  1.2586657e-03
 -1.2184060e-02
 -3.2924791e-03
 -1.0165409e-02
 -6.8177562e-04
 -7.0586009e-04
 -5.8706868e-03
  2.1725348e-03
 -6.8399482e-03
  4.7295177e-03
 -2.3013595e-03
  1.4383344e-03
  5.0423639e-03
  4.8846500e-03
  5.5218432e-03
  1.9962441e-03
  3.8475315e-03
 -3.3595799e-03
  4.5472044e-03
  5.6197955e-03
 -4.9273451e-03
 -2.1116370e-03
  4.7595007e-03
  3.5796303e-02
 -8.7321103e-03
 -1.4268632e-02
  2.8451334e-03
  2.9097775e-03
  9.1314483e-03
 -4.2383573e-03
 -4.5701852e-03
 -1.2473257e-03
 -8.1153195e-03
  8.5116839e-03
  8.2755527e-03
 -1.0023034e-02
  6.8483630e-04
 -4.4803508e-03
 -2.5204086e-04
  3.7471405e-03
 -6.9247019e-03
 -2.5075919e-03
  1.4060546e-03
 -1.2482704e-02
 -7.3859526e-05
  8.1532402e-03
  8.7841816e-04
 -5.0618611e-03
  2.4969750e-03
  1.2325633e-03
  1.8930138e-03
  2.5752743e-03
 -7.1157375e-04
 -1.2496799e-02
 -1.1788791e-02
  7.8751184e-03
  5.6077895e-04
 -9.1847521e-04
  6.0189790e-01
  2.5782990e-01
 -9.5693654e-01
  1.0118940e+00
 -9.5432824e-01
  3.6770329e-01
  8.8046008e-01
  8.6592294e-02
  1.5919228e+00
 -3.7764609e-01
 -1.5476905e-01
  9.9243891e-01
  7.7733690e-01
 -1.0574785e+00
  4.6582773e-02
 -1.4468589e+00
 -7.0537245e-01
  3.1836214e+00
  1.8785194e-03
 -2.6580000e-03
 -1.2318741e+00
  6.6276830e-01
 -1.6983604e+00
 -2.6418015e-01
 -1.0608927e+00
  2.1868790e-02
  5.3047884e-01
 -3.7423408e+00
 -1.2146455e+00
 -1.1706507e-02
 -3.2551184e-01
  6.8572998e-01
 -1.1495172e+00
  1.8983246e+00
  1.4678946e-02
  6.1447275e-01
 -1.0203432e+00
 -9.6842515e-01
 -1.1792053e-01
  1.2167867e-01
 -2.2398610e-01
 -1.1448414e+00
 -5.2787721e-01
  1.9239608e+00
 -1.6288612e+00
 -1.0620952e+00
 -1.0128522e+00
  2.6116581e+00
 -5.0585485e-01
  2.8258070e-02
 -5.2215558e-01
 -1.8074112e+00
 -5.0691150e-02
 -1.5643828e+00
 -5.2655095e-01
  7.4583167e-01
 -5.8511299e-01
  4.8498809e-01
  6.7541772e-03
  5.8487882e-03
 -9.0729780e-03
  1.7566480e-02
 -4.6220911e-03
  1.0284473e-04
  9.1468208e-03
 -1.7990528e-03
  2.3258985e-03
  4.8972424e-03
 -4.4064810e-03
 -8.5274223e-03
  3.1405380e-03
 -7.5006876e-03
  1.1510635e-04
 -6.7507839e-03
  4.7015948e-03
 -7.1801259e-03
  8.7592297e-04
 -4.8771841e-03
  8.8901017e-03
 -2.1788778e-03
 -7.9499073e-03
  3.6173605e-03
 -6.8420442e-03
 -8.8596012e-04
  4.2379028e-01
 -9.2410110e-03
 -1.7762730e-02
 -1.7071651e-02
  9.4402558e-04
  1.6222928e-02
 -4.7384859e-03
 -1.7713401e-03
 -1.8106725e-02
 -9.1318088e-04
  1.1583953e-03
 -5.4558050e-03
  1.0738097e-03
  4.9466244e-03
  5.7150936e-03
  1.1322381e-02
  6.1249668e-03
  2.6781741e-03
 -1.7077583e-03
  6.4838696e-03
 -2.5417516e-03
 -2.5975155e-03
 -8.0354596e-03
  6.3909870e-03
 -4.5662732e-03
 -5.8587912e-02
  2.0616243e-03
  1.2394655e-02
  5.4508871e-03
 -2.1467648e-02
  1.4269849e-02
 -5.5237571e-03
 -4.2005047e-01
 -3.3749256e-01
  3.9174536e-01
 -5.0861770e-01
  1.8720333e-01
  8.4559649e-02
 -5.0286093e-05
  5.1118538e-02
 -1.4677829e-01
  1.3026285e+00
  4.8714268e-01
 -1.0277010e+00
 -1.4724897e-02
  6.4240880e-02
  3.6954248e-01
 -2.6292205e-01
 -8.3430875e-03
  6.1916161e-01
 -1.4304684e-02
 -1.1892849e-01
  6.4851564e-01
  5.7598501e-02
  7.5613880e-01
 -1.1548340e+00
  7.0269428e-02
  7.8319567e-01
  1.6455142e-01
 -1.1271971e+00
  2.8196138e-01
  3.2660712e-02
 -1.2210331e-02
  1.8314770e-01
 -8.6448121e-01
  8.2335871e-01
 -4.9200436e-01
 -1.7666652e+00
  1.0951384e+00
 -1.1601057e-01
 -1.4663483e-01
  1.4395399e-01
 -4.6713445e-01
  7.2247982e-02
 -7.8195155e-01
 -5.9964217e-02
 -3.5772786e-01
 -8.9859843e-02
 -3.7216642e-01
  1.3300076e-01
  1.8790327e-01
 -1.0159985e+00
  8.7132579e-01
  9.5432356e-02
  2.1486212e-02
 -4.0819743e-01
  5.8669591e-01
 -2.7734744e-03
 -5.7456094e-01
 -4.4513423e-02
 -3.4576375e-03
 -6.1419741e-03
  5.4985667e-03
 -7.9195378e-03
  1.6650065e-03
 -2.5528357e-03
  1.4129523e-02
 -8.9921048e-03
  1.3686276e-02
  1.1671685e-03
  5.9248786e-03
  4.6711476e-03
 -2.7559150e-02
 -5.7237071e-04
  9.4955871e-03
 -2.2942494e-03
 -1.7851692e-02
 -1.1821271e-02
  2.1288916e-02
  4.3889941e-03
 -8.8114977e-01
 -1.0493539e-02
  2.1155290e-03
  1.2526837e-02
 -1.6383111e-02
 -1.9968711e-02
 -3.7298100e-03
 -1.3918018e-03
  8.0225589e-03
  1.1705074e-02
  9.2836432e-03
  1.7110515e-02
  2.5791107e-03
  1.5883055e-03
 -1.0311862e-03
  2.2390269e-02
  1.7535478e-02
 -3.6564218e-03
  5.7110665e-03
 -8.4437302e-04
  2.0014737e-02
  1.5376509e-03
 -9.4468016e-03
  4.8718560e-03
  1.4313102e-03
 -2.9960397e-04
 -3.1205069e-02
 -1.1037572e-02
 -1.5576980e-03
  6.2315259e-03
  1.8203069e-02
  1.9651495e-03
  6.9799076e-04
  1.1996431e-02
 -5.3612876e-04
  5.8867512e-03
  4.6038050e-03
  9.4789900e-03
 -1.4159456e+00
 -3.2661667e-01
  3.6388382e-02
  5.4395661e-02
  6.2892979e-01
  7.4090888e-03
 -2.5474504e-02
 -2.9091588e-01
 -1.5671616e-02
 -1.3793850e-01
  2.6077738e+00
 -7.7828920e-01
 -7.1716949e-02
  6.1828989e-01
  1.6381288e-01
 -4.7957402e-02
  1.4668548e-01
 -4.0594209e-02
 -7.6569450e-01
  2.9996864e-02
  1.0848651e+00
  1.2469027e-01
 -3.5852576e-03
 -3.1076714e-01
 -1.2290000e+00
  2.2376886e-02
  3.0253882e+00
 -1.1812799e+00
 -8.4712219e-01
  3.6098382e-01
 -1.7431803e-02
 -1.4010498e-01
  1.1129977e-01
  9.2001253e-01
  2.8174019e-01
 -2.2962654e-01
  1.2455710e+00
 -1.2280052e+00
 -4.5934865e-01
  8.7611985e-01
 -2.7400333e-01
 -1.8287282e-03
  3.3069864e-01
  1.0586611e+00
 -4.2902356e-01
  1.2037779e-01
  3.8354594e-02
  1.0290719e+00
  7.6038861e-01
 -1.0551950e-02
 -3.9911428e-03
  5.6065500e-02
 -2.9836376e-03
  3.1225558e-05
  3.1535428e-03
  1.1164866e-02
  2.0102233e-01
 -1.3224000e-02
 -1.1629957e-02
  4.2517004e-03
  7.5980155e-03
 -1.1821380e-03
 -7.5557823e-03
  6.8617207e-03
 -8.0335676e-04
  1.7296081e-02
  5.4064882e-03
 -8.8612055e-03
  7.8506343e-04
 -9.9861082e-03
  3.6046351e-03
 -8.5029360e-03
  8.1932964e-03
 -1.2922450e-04
  4.4946158e-03
  4.5102071e-03
  1.0794297e-02
 -7.7508306e-03
  5.7883933e-03
  1.0019403e-02
 -2.0346381e-02
 -4.3970360e-03
  2.0894145e-03
  1.0378323e-02
  5.2012866e-03
 -6.8098810e-03
  5.2310047e-03
 -1.2861790e-02
  5.1737530e-03
 -6.8379599e-03
 -3.6137102e-03
 -9.3102828e-03
 -8.5698757e-03
  7.5346790e-03
 -8.4533327e-04
  1.5985869e-02
  1.0376122e-02
 -2.2754441e-03
 -6.0969751e-02
 -2.0182775e-02
 -2.0382931e-03
  9.5397234e-03
  6.7525627e-03
  1.3099806e-03
  9.5389755e-03
 -1.6748404e-02
 -2.7700765e-03
  1.1847187e-03
 -7.6009338e-03
 -2.1555151e-03
 -1.2641065e-03
 -3.9317389e-03
 -1.9713095e-04
  9.3059149e-05
 -3.8158737e-02
 -8.1607755e-03
 -6.4419454e-01
 -6.3053781e-01
 -6.9346654e-01
 -5.5959964e-01
  3.6424018e-02
  2.0962188e+00
  1.0016367e+00
  2.8046550e-02
  1.4227798e+00
  8.6366618e-01
  1.1184295e+00
 -1.2257161e+00
  2.7125832e-01
 -2.2422172e-01
  1.4597549e-02
  1.8937299e-01
  6.6959983e-01
 -5.3483929e-02
  7.5630233e-02
  7.8945421e-02
  1.5950420e+00
 -1.0665047e-02
 -1.3068894e+00
 -2.1443455e-01
 -6.3398027e-01
 -7.7155769e-01
 -8.8900633e-02
  9.6487546e-01
  1.5440816e-01
 -1.2935044e-01
  1.0943145e+00
  2.1167319e-01
  2.1180096e+00
  1.8346530e-01
  6.6689447e-02
  6.4661819e-01
 -4.9494505e-01
  6.8025523e-01
  1.1090091e+00
 -3.6188567e-01
 -3.4709182e-01
  5.8032626e-01
 -2.3872219e-01
 -1.2520108e+00
  6.2647755e-03
  4.3464936e-02
  1.0364449e-01
  9.4608617e-01
  3.0419779e-01
  6.0527506e-03
 -3.1039100e-03
  8.7133300e-01
  2.4818363e-02
 -9.3113520e-04
  8.1051793e-03
  1.8263063e-01
 -9.0067321e-01
  2.6341202e-03
  1.0229956e-02
 -9.1291778e-03
 -2.8707448e-04
  1.0325301e-02
  1.7740505e-03
  8.6778810e-04
  4.7427774e-03
 -7.6356581e-03
 -6.4327556e-04
 -7.5789029e-04
  2.4780161e-03
 -7.4099586e-04
 -1.4004746e-02
  5.2956687e-03
 -1.9830887e-03
 -2.9231247e-03
 -9.3760376e-04
  1.0019894e-02
 -1.3344798e-02
 -5.9543760e-05
  2.7730068e-02
 -7.8101642e-03
  1.5308675e-02
 -1.9062246e-04
 -8.2251872e-04
  5.3948136e-03
 -1.3490380e-03
 -2.0937908e-03
 -7.0019942e-03
  2.5055318e-03
  3.3813927e-03
 -2.1504730e-03
 -4.8666429e-03
 -7.0282705e-03
 -5.2282140e-03
  1.9686031e-03
  2.1757381e-03
 -3.7018920e-03
 -3.1549903e-04
  6.3247150e-03
  5.4611498e-04
  4.0910519e-03
 -4.3695979e-03
 -3.5690414e-03
 -1.1004111e-02
 -1.3455361e-01
  1.9913483e-03
 -1.3097725e-04
 -1.3684838e-02
 -1.1231261e-02
  1.3972864e-03
 -1.1055602e-02
  1.9806207e-03
 -5.6647523e-03
  1.3805271e-02
  1.3333792e-04
  5.1858264e-04
  8.7328320e-03
 -2.8848909e-03
  4.1859895e-03
  3.5318104e-03
  1.3320414e-02
  4.2734295e-04
 -1.0048360e-02
  7.1839364e-03
  1.6594665e-02
 -5.9873825e-03
  1.0288493e-02
  1.6780561e-03
 -2.2080587e-04
 -1.5586382e-03
 -4.4776066e-03
  4.7564507e-03
  5.0666067e-03
 -3.3626282e-03
  5.2797478e-03
  4.9188808e-02
 -9.2673469e-03
 -7.0939008e-03
 -9.5060602e-04
 -1.1162668e-02
 -4.3027187e-03
 -1.4943104e-02
  4.5135235e-03
  1.3557719e-03
  1.1634810e-02
  4.2280648e-03
  5.1792245e-03
 -6.6883867e-03
 -6.8772985e-03
  2.8270374e-03
  1.2730335e-02
  6.4816559e-04
 -6.1633717e-03
 -2.0135412e-02
 -1.0742720e-03
 -6.7516919e-03
  2.0093247e-03
 -2.4415473e-02
 -1.1406817e-02
 -1.9169664e-02
 -1.9230327e-02
  2.0114196e-02
 -2.7044949e-03
 -7.7286186e-03
  1.4911647e-02
 -2.7225516e-04
  3.8091950e-03
  1.1569075e-02
  7.6450314e-04
  5.5525517e-01
  5.5742788e-04
 -8.1751505e-03
 -9.2020235e-04
  1.3605430e-02
  1.0953244e-02
  3.0255048e-03
 -2.3316182e-03
  6.4039333e-03
  1.8281791e-03
  1.0407827e-02
  1.0621060e-02
  6.0785264e-03
  1.4388854e-02
 -2.9049700e-03
  1.6528317e-03
 -4.0262812e-03
 -1.0417802e-02
  1.3414704e-02
 -3.4877800e-03
  1.1017525e-02
 -4.4948319e-03
  1.2530223e-01
  1.2830312e-03
 -8.4336186e-03
 -2.3790332e-03
  6.2456424e-03
 -1.8657887e-03
 -3.1918557e-03
 -1.0769743e-02
 -5.5263112e-03
 -7.8634527e-03
  1.4079484e-02
  7.8321947e-03
 -5.2365148e-03
 -1.1628665e-02
 -1.0033592e-02
 -2.2254647e-03
  6.4142812e-03
 -5.9666922e-03
  1.0281482e-03
 -1.2955242e-02
 -9.3319692e-04
 -2.4841265e-03
 -1.7958556e-03
 -6.1650984e-03
  1.2416636e-03
 -5.3865678e-04
 -1.5596016e-02
 -1.9878040e-03
  5.4124737e-04
 -1.8998062e-03
  9.3569160e-03
 -2.3865502e-01
 -1.9234253e-02
  3.3298567e-02
  4.4483054e-04
 -7.5024101e-03
  7.3823156e-03
 -4.3970924e-03
 -3.4456125e-03
  2.1357877e-02
 -1.2158286e-03
  3.5669927e-02
 -1.9426355e-02
 -1.8130895e-03
  1.7886697e-03
  1.4003088e-02
  3.8419387e-03
  6.9950605e-03
 -2.1984770e-03
  1.8989900e-03
 -4.6044840e-03
 -4.2222915e-03
  8.5086785e-03
  5.8930239e-04
  4.2781467e-05
 -4.6355468e-03
 -2.1125609e-04
 -1.6257077e-02
 -2.0759590e-03
 -1.8876616e-03
  1.8016405e-03
 -1.0279799e-03
 -1.7753048e-02
  3.2202096e-04
 -4.4802302e-03
 -2.7362257e-02
 -6.4289086e-03
  3.4276915e-03
 -6.9498341e-04
 -4.1590179e-03
  8.6234622e-03
  8.3058272e-03
 -9.6238201e-04
  8.1612244e-03
  1.2976969e-02
  4.9706954e-03
 -2.3260516e-04
  6.4705382e-04
 -4.9571827e-02
  4.4167018e-03
 -4.9012993e-03
 -1.0787391e-03
  7.1565839e-03
  6.0243909e-03
 -5.4184869e-03
  2.7178135e-04
  2.0200539e-02
  2.6673921e-03
 -6.3830065e-03
 -2.3772875e-03
 -2.5590216e-03
  3.3973955e-02
  4.5816214e-03
  5.6922585e-03
  1.6124765e-03
 -7.2840173e-03
 -2.4865142e-03
 -4.9890345e-03
 -2.8042190e-03
 -4.0150653e-03
 -4.1011244e-01
 -2.5380412e-01
 -2.5957817e-01
 -1.4169632e+00
  1.3947656e+00
 -4.1999067e-03
  2.6242074e-01
 -1.4669926e+00
 -1.1555909e+00
 -2.5727493e-01
 -7.2932208e-01
 -2.4469408e-01
 -9.0773934e-01
  1.1762944e+00
 -3.4982023e-01
  8.5925117e-02
  1.5217228e-01
  1.4696971e+00
  1.4724535e-01
 -3.0362949e-01
  1.0338697e+00
 -6.5665698e-01
  1.2802635e+00
  6.6615945e-01
 -1.1202199e+00
 -2.6624043e+00
 -1.6732419e+00
 -7.9558861e-01
  4.1481826e-01
 -7.2297025e-01
 -5.9091351e-03
  6.9552249e-01
 -2.8348398e+00
  9.2022139e-01
  5.8336174e-01
 -3.5954621e-01
  3.3563492e-04
  1.1367052e-01
  9.0948600e-01
  3.7044735e-04
  1.1150498e+00
 -1.3665064e-01
  7.5640553e-01
  1.3692302e+00
  3.3279884e-01
 -4.7399798e-01
  9.9237479e-02
 -2.4479629e-01
 -2.5191477e-01
 -1.0310301e+00
 -2.2916455e-04
 -2.0048897e+00
 -1.6420723e+00
  7.9231977e-01
  2.5275843e-03
 -3.7083986e-01
  2.6942381e-01
  7.1633267e-03
 -1.3024289e-02
  1.4604977e-02
  5.4595284e-03
 -1.4447579e-02
 -6.5161567e-03
 -3.7109852e-04
 -1.3346910e-02
  6.3485024e-04
  8.3540566e-04
  7.8645744e-04
  1.1688765e-02
 -1.7994286e-03
 -1.9889805e-03
  1.5430396e-02
  3.8236771e-03
 -1.7308004e-03
  1.7850451e-02
  3.2415621e-03
  3.4388523e-03
  7.1407361e-03
 -9.6545112e-04
 -1.2942750e-02
  2.3768021e-01
  1.8355465e-02
  7.1396297e-03
 -2.8264567e-03
 -1.5036192e-03
  1.0354728e-02
  1.1778111e-02
 -4.3527433e-03
 -5.5345874e-03
  2.0029636e-03
 -4.0317522e-03
  6.7695812e-03
 -8.2939491e-03
 -7.1140556e-03
 -1.2946956e-02
  4.3671480e-03
  3.9015065e-03
  1.5289286e-03
  5.7590276e-04
 -1.6861919e-02
  4.8101060e-03
  1.9767126e-03
 -8.2646227e-03
  3.4246403e-03
  5.8557228e-03
 -7.1843560e-03
  1.3004456e-03
  3.6095358e-03
 -9.8915007e-03
  2.0906141e-02
  1.0425220e-02
 -3.5329885e-03
  1.7767436e-03
 -9.3222130e-03
 -1.7857929e-03
  6.4470991e-03
  2.1990354e-04
 -2.4106624e-02
  2.0566717e-01
  2.0808294e-02
  1.1274536e-01
  3.9020958e-03
 -8.4149642e-03
  9.3546687e-03
  4.6914050e-01
  7.3370010e-01
  6.3888335e-01
 -3.4777891e-02
  5.9383130e-01
  1.7953025e-01
  9.2547506e-02
  5.2087933e-01
  2.8540131e-01
  1.6939443e-02
  3.4321350e-01
  2.1454891e-02
 -6.0986865e-02
  3.3681485e-01
  4.5540482e-01
  2.4477391e-01
 -4.2054918e-02
 -8.1090128e-01
  3.2214350e-01
 -2.8538197e-01
  4.4962343e-02
 -7.0128717e-02
  5.7773143e-01
  3.1329602e-01
  1.2597053e+00
  6.7610264e-01
  1.0323648e-02
  9.1575541e-02
  3.2500395e-01
  3.4348714e-01
  1.2423647e-01
  1.1023220e+00
  1.3519479e-01
 -1.6820821e-01
 -2.1335852e-01
 -1.2382489e-01
  8.8402979e-02
  9.1034763e-02
  2.4872236e-01
 -9.7126985e-01
  7.5350098e-02
 -1.4057197e-01
  2.7385071e-01
 -2.2876451e-03
 -2.9721004e-01
 -1.6480137e-02
 -5.5684824e-04
 -3.8590053e-01
  5.7462393e-03
 -6.2444396e-02
 -1.1837177e-03
 -2.2934236e-02
 -4.6561202e-03
 -1.0755691e-03
  3.6666758e-02
 -2.7756004e-03
  2.8733632e-02
 -7.0757762e-04
 -2.4780370e-03
 -5.2140290e-03
  3.6278658e-03
  6.6167018e-03
 -2.1935543e-02
 -9.9833142e-03
  6.6478481e-03
 -7.8100872e-01
  5.2042441e-03
  8.9682220e-03
  4.8770220e-03
 -2.6751230e-03
  1.4123068e-02
  1.1599867e-04
 -5.8678580e-03
  7.3742587e-03
 -1.4849308e-02
 -1.1726385e-03
 -9.2667388e-04
 -2.2014715e-02
  1.0324438e-02
  1.7754741e-02
 -1.3255572e-04
 -1.7288981e-03
  2.8070645e-02
 -1.4672882e-04
  9.3531786e-03
  2.1968670e-03
  4.4899969e-03
  5.1936363e-03
  6.5206196e-03
  1.4433853e-02
  1.2095039e-02
 -1.7813995e-04
 -7.6558371e-04
 -4.5087757e-03
 -1.8935725e-02
  1.1546215e-01
  1.5831369e-03
 -2.7358872e-03
  7.1269278e-03
  2.1317294e-03
  1.7030787e-02
  5.5366270e-03
  2.5080675e-03
 -9.1894884e-03
  3.2571671e-03
 -1.9670879e-02
  1.8631176e-03
 -6.4450095e-04
  1.4642467e+00
  2.7550352e-01
  1.3385621e+00
  1.7688518e-02
  1.0686193e+00
 -1.6654286e+00
  1.8978572e-02
  6.7305773e-01
 -3.8880008e-01
  5.3694916e-01
  2.6213494e-01
 -2.9046601e-01
 -8.1297792e-02
  2.4392657e+00
 -1.3049712e-03
 -1.8432042e-02
  7.5077772e-01
  1.3057626e+00
 -6.7028511e-01
 -6.7192936e-01
 -9.7741532e-01
 -2.5742885e-01
 -9.3084556e-01
 -6.9348586e-01
  3.8687301e-01
  7.9485160e-01
  9.2069632e-01
 -1.2304900e+00
  1.6481011e+00
  2.2181582e-01
 -4.1117868e-01
 -6.2739886e-02
 -1.0208445e+00
 -2.5478623e+00
  5.8655773e-04
 -1.9041972e+00
  7.4628785e-02
  1.8876160e+00
 -3.5782215e-01
 -2.2653858e-03
  6.1834162e-01
  2.4592354e+00
 -2.3818450e+00
 -2.8883002e+00
 -3.1729352e-02
  5.7937481e-02
 -1.5265940e-01
 -9.1292614e-01
  7.2162116e-01
 -4.9767807e-02
  5.8829237e-02
 -2.1022128e-01
 -4.7326993e-02
 -5.4290094e-03
  5.2716129e-02
 -2.7426765e-03
 -1.1955785e+00
 -5.0130039e-02
  9.8059613e-01
  5.8966625e-01
  5.9926873e-01
 -2.4959715e-03
  6.9729811e-01
 -2.4806671e-03
  1.7343423e-01
 -5.9329778e-01
  1.2115139e-01
 -6.1992455e-01
  4.0900999e-01
 -7.6181009e-02
  8.6113769e-01
 -1.0670065e-01
 -3.3486530e-01
  1.4291331e+00
  4.0631950e-01
 -4.7403723e-01
  3.9359534e-01
 -6.6035575e-01
 -1.7775780e+00
  5.1396699e-03
  1.7711214e+00
  1.3844084e+00
  8.5105814e-02
  1.0188926e+00
  7.6862442e-01
 -1.3820156e+00
  1.1837062e+00
 -2.3133245e-01
  1.0455868e+00
 -8.9058205e-03
 -6.4377242e-01
 -4.6819630e-01
 -1.0031542e+00
  1.5239252e-01
  2.2495973e+00
  7.1120888e-01
 -7.2760242e-01
  1.9133143e+00
 -3.2416847e-01
  1.4533029e+00
  3.7034866e-01
 -7.0348018e-01
  1.3699682e+00
 -6.0990089e-01
  2.1976055e-01
 -2.1626000e-01
 -4.3610044e-02
 -3.2381788e-01
  2.1020526e-01
 -1.4586293e+00
 -5.3005123e-01
  4.4189584e-01
 -2.4367280e-01
 -2.8060359e-01
 -3.4868401e-01
 -8.7290481e-03
  5.8253545e-01
  1.1212837e-01
  8.4177202e-01
  1.7772778e-04
  1.0719532e+00
 -6.1653817e-01
  7.7065332e-03
  1.0073282e-02
  7.7806634e-01
  7.8363073e-01
  1.2232038e+00
 -2.8638334e+00
 -4.8477501e-03
 -7.7271903e-01
 -2.4833984e-03
  1.1667217e-01
 -9.8785036e-04
 -7.6702297e-01
  1.5948408e+00
 -3.3392113e-01
 -5.5321568e-01
  2.2861594e-01
  6.6547883e-01
  4.0845019e-01
  1.1536682e-02
  2.4833824e-01
  1.4052638e-01
 -2.5252628e+00
  3.3218315e-01
  2.0440974e+00
  4.1093194e-01
 -5.7452917e-01
  2.9788727e-01
 -2.8368348e-01
 -1.4815539e-03
  1.1301879e+00
  7.1904719e-01
  1.5266950e-01
 -2.3461355e-01
  1.1497157e+00
  1.5863052e-01
  2.7827706e-02
 -4.1478243e-01
  1.0755292e-01
 -1.7058454e+00
  1.1337062e-01
  4.8454902e-03
  1.0662563e-02
 -3.7581038e-03
 -7.6196464e-03
  1.7787120e-03
  1.5170699e-01
  5.6342828e-01
 -1.8076025e-02
  3.9482113e-02
 -8.8238227e-04
  2.3062117e+00
  3.1236620e-03
 -1.5559569e-03
  1.2468045e-03
 -8.2526794e-03
  2.4342962e-02
  1.4825744e-03
  8.0946367e-03
 -7.1789399e-03
 -4.6220645e-03
  5.3974299e-04
  8.8875433e-03
  5.7408614e-03
  7.1635854e-01
  2.7946748e-03
 -1.9360872e-02
 -3.6099011e-03
 -2.5027932e-03
  1.3205226e-03
 -6.5347864e-03
  1.2196321e-02
 -7.9789162e-03
 -7.8453794e-03
 -9.1657275e-03
  1.7327681e-02
  3.7770130e-02
 -1.4606213e-02
  5.8651539e-03
 -4.9683708e-04
 -7.6363017e-03
 -8.9341896e-03
  4.8406754e-04
  1.4884172e-03
 -1.8254481e-04
  8.8759679e-03
  4.3746148e-04
 -1.8627071e-03
 -3.5306648e-03
 -4.6729469e-03
  1.8093963e-03
  1.0819110e-03
  5.7886979e-03
  1.6472084e-02
 -5.4468955e-03
 -1.3555737e-03
 -1.2009975e-02
 -2.5260895e-03
  1.8720820e-03
  2.6866794e-02
  4.0780790e-03
 -5.4098135e-03
 -3.7161668e-04
 -1.3002416e-03
 -6.1811199e-03
  1.1266465e-02
  4.2475434e-03
  3.5349294e-04
 -4.0595946e-03
 -8.8374317e-04
 -2.9104317e-03
 -1.9028145e-03
 -2.4134929e-03
 -1.2036518e-03
 -2.2512024e-02
 -4.0511452e-03
 -3.3253548e-03
  4.7723865e-03
  7.2502543e-04
  9.7054699e-03
  3.2190711e-04
 -1.4297091e-02
 -1.0104405e-03
  2.9616109e-03
  6.3385502e-03
  5.0276704e-04
 -2.6761419e-01
 -6.7834943e-03
 -8.3309325e-04
  3.6280684e-03
  9.4110416e-03
  2.6144646e-03
  3.9182673e-03
  5.8970288e-03
 -5.8192215e-03
  2.4776566e-03
  1.6371963e-03
  8.8263350e-03
 -7.3885932e-03
 -1.0797863e-02
 -7.9216920e-02
 -3.6864258e-02
 -1.7339041e-03
  1.2608044e-02
 -1.2669886e-02
 -1.3288704e-02
 -2.3073009e-03
 -2.4567561e-02
  6.5293885e-03
 -4.2770691e-03
 -3.9603668e-03
  9.2079968e-04
 -1.4095017e-03
  2.8882409e-04
 -2.9293608e-03
  1.5632597e-03
  6.1911526e-03
 -7.2503248e-03
 -1.1983956e-03
 -6.1352906e-04
  9.4204377e-03
 -3.7140888e-03
 -7.1791839e-04
  4.2648915e-02
  4.3307585e-03
 -1.4004640e-03
  4.6402282e-01
 -1.8252442e-02
  4.5075919e-03
  4.2863605e-03
  6.3463743e-04
 -1.6465783e-04
 -2.1193165e-03
 -6.9577275e-03
 -1.4417584e-02
 -1.6456820e-02
 -7.5283460e-04
 -1.0531092e-02
 -2.5692491e-03
  8.0657788e-03
  1.9475054e-03
 -2.0631371e-02
 -1.7277423e-02
  1.2924322e-02
 -7.8995200e-04
  5.8346232e-03
  3.9361417e-03
 -1.6404284e-02
  2.4613957e-03
 -2.9414459e-03
 -2.9743137e-03
  3.8115531e-03
 -5.4379539e-03
  7.2513195e-03
 -2.0945402e-02
 -5.1129321e-03
 -9.2116073e-03
  1.6593261e-02
  7.6434243e-04
 -1.4209131e-03
  5.6903544e-03
  2.7244075e-03
 -2.0848892e-03
  6.2840991e-03
  1.5597962e-03
 -1.5431081e-02
 -2.3793359e-03
  2.4150040e-03
  2.1639208e-03
  1.6737100e-02
  4.7507554e-01
  1.6741108e-02
 -7.6571229e-04
 -1.5763991e-03
  2.6910640e-03
  1.6458113e-03
  7.9106847e-03
 -3.4501787e-02
 -6.7966310e-03
  2.4825721e-03
 -2.5772511e-03
  2.7681288e-04
 -2.8152703e-03
 -1.3061936e-04
 -2.2223478e-02
  1.6750518e-03
  8.0419686e-03
 -1.6183496e-02
 -2.6331397e-03
  7.0747151e-03
  2.1290937e-03
 -1.2233663e-02
  2.9323527e-03
  1.3540470e-05
  5.2255945e-04
 -2.5322125e-03
 -1.3616848e-02
 -2.6889021e-02
  5.3634393e-01
 -4.7325282e-03
 -6.1041922e-03
  2.7758449e-03
  8.5021276e-03
  4.2676092e-03
  9.1152556e-02
  4.6693627e-03
 -7.3762499e-03
  1.7988296e-04
  1.5452360e-03
 -7.4648685e-03
 -7.0104599e-02
  1.0402002e-03
  1.8353561e-01
 -4.1323919e-03
 -1.1168904e-02
 -1.5389984e-03
  7.6271906e-02
 -1.7997857e-02
 -3.8406637e-03
  1.3220753e-02
  6.0173427e-03
 -9.6559466e-04
  2.6222447e-02
 -1.5790327e-01
 -3.4902247e-03
 -6.5031513e-03
  5.9393444e-04
  2.2150581e-03
 -9.2583485e-03
  1.1574293e-02
  3.0395379e-02
  8.0116903e-03
 -8.6049726e-03
 -1.5819871e-03
 -6.1458714e-02
  1.0151523e-03
  5.7787251e-02
 -1.4813736e-02
  2.5168052e-03
 -4.1478877e-03
 -1.2790083e-03
 -4.9208984e-04
 -1.2883286e+00
 -2.0695232e-02
 -6.7270603e-03
 -5.5118181e-02
 -5.1919313e-04
  1.0006414e-03
  1.9822503e-03
 -1.5164359e-01
  4.3217037e-03
  1.1044539e-02
  7.4881474e-03
  1.7849961e-06
  1.8515630e-03
  5.6193117e-02
 -6.8675034e-02
 -5.2367765e-03
 -7.0421644e-02
 -4.3985904e-03
 -3.0279071e-03
  4.4749409e-04
  2.2864389e-01
 -2.3370789e-02
 -2.9900214e-03
  3.7292968e-02
 -6.5990891e-03
 -5.7790641e-02
 -4.1855881e-03
 -1.5823635e-01
  6.8401527e-01
  2.6480172e-02
  6.1620208e-03
 -6.4659476e-02
 -3.4652245e-01
  2.9202576e-03
 -2.0335427e-02
 -5.9157196e-03
 -3.4520611e-01
 -1.0062242e-05
 -2.3288526e-02
  4.1107214e-03
 -2.2216230e-03
  7.9656864e-05
 -1.1766201e-03
  8.1605306e-03
  1.4863348e-01
 -3.0764146e-02
  1.2440315e-02
 -7.5942453e-04
 -1.2196739e-02
 -1.1074488e-02
 -2.0035153e-02
  3.2045185e-03
  1.1316321e-03
 -3.2650284e-02
  1.2847054e-02
 -3.4551890e-04
 -2.0724274e-03
  6.5382095e-03
  1.2434688e-02
  6.0402122e-03
 -3.6917836e-04
  6.0497123e-01
  4.3953279e-01
 -6.3291617e-02
 -9.0314746e-02
  3.9461404e-01
 -4.6985117e-01
  1.4279102e-01
 -6.8482989e-01
  9.3779602e-04
  2.0093240e-02
  8.4550643e-01
  1.2254979e-02
  4.6143773e-01
  4.2149609e-01
  9.4742551e-02
  2.0636356e-01
  1.2534837e-03
 -5.9330851e-01
 -4.4636098e-01
  1.2728432e-01
  5.0097716e-01
  6.7494398e-01
  1.3908604e+00
  9.8905569e-01
  2.2848339e-01
 -3.9422849e-01
  3.5012656e-01
 -1.7275764e-02
  5.9591323e-01
  8.9516034e-03
  6.7207972e-03
  6.5581256e-01
  2.4107809e-01
 -6.5512061e-01
 -1.4624413e-02
 -1.0862895e+00
  7.4632041e-02
 -9.9449925e-02
 -2.7356366e-02
 -9.2005633e-02
 -4.4099938e-02
 -1.3636503e-01
 -3.7509301e-01
 -7.3468870e-01
 -3.9657307e-01
 -9.7001106e-01
  9.9346238e-01
 -1.7642498e-01
 -1.9105051e-01
  1.2664760e-02
  4.5287001e-01
 -6.8487577e-02
 -3.8589835e-02
  3.9678505e-01
 -2.0308036e-01
 -4.8224401e-01
 -8.8882273e-01
 -7.7336743e-02
  4.9086735e-03
  2.9381654e-01
 -2.6325244e-03
 -4.0460491e-01
  1.5624781e-01
  4.7403097e-01
 -3.1549755e-02
 -4.0506867e-01
  1.6751327e-01
 -2.2149524e-01
 -2.7328134e-01
 -1.0947295e+00
  6.6935396e-01
 -1.8911013e-01
  1.1795374e-01
 -2.4000375e+00
 -2.1270958e-01
  1.7266998e-01
  6.5090112e-02
  7.4794400e-01
 -6.6435534e-01
  1.0822023e+00
 -1.5607086e-01
 -1.5222068e-03
 -1.3486395e+00
  4.7107294e-01
  8.5062164e-01
 -3.2785067e-01
 -4.6958455e-01
  2.4787717e+00
 -1.1776596e+00
 -3.8847232e-01
  7.5289774e-01
  5.4684126e-01
  1.0269810e+00
  9.7741306e-01
  5.9760374e-01
  7.4340828e-02
  2.0454528e+00
 -1.1475657e+00
 -3.7914219e-01
 -1.6731644e-01
  6.1129254e-01
  2.6279951e-02
  1.8410320e+00
 -1.7769493e+00
  8.9224404e-01
  5.1485157e-01
 -3.8801163e-01
  1.3292699e+00
 -2.3013976e-01
  6.7533189e-01
  2.9949014e+00
 -1.0603157e+00
  1.2688770e+00
  9.8591596e-03
 -3.3918741e-01
 -2.9319106e-03
 -1.5631577e-03
  4.5939730e-03
 -8.4474479e-05
  6.8737268e-03
  1.3320725e-03
 -1.0977983e-02
  5.5797040e-03
 -1.3327249e-02
  5.6079675e-02
 -1.7435697e-03
  5.7142810e-04
  1.4702459e-03
  2.7532406e-02
  3.8106281e-03
  8.8568628e-03
  1.5785251e-02
  3.7651735e-03
 -3.4728406e-03
 -5.6415950e-03
 -1.1504244e-03
 -2.8471562e-01
  1.6546882e-04
 -1.5132700e-02
 -8.6802617e-03
 -2.0973035e-03
  3.5264067e-02
  6.4395848e-03
 -1.0886878e-01
  5.3030849e-03
 -3.1735770e-02
 -1.6698577e-02
 -6.0585118e-03
  4.3844455e-04
  1.2767075e-01
  2.0592345e-02
 -3.6579228e-03
 -5.0029191e-03
  2.4226920e-03
  1.5524990e-03
 -5.4552220e-03
  9.1291405e-03
  1.2817750e-03
 -2.3462892e-01
  1.2889590e-02
  1.8220483e-01
  5.6980685e-03
  1.0735793e-03
  2.0874229e-03
 -1.0187182e-03
 -2.4584113e-02
 -2.0700479e-02
  3.7397496e-02
 -2.7475581e-03
 -3.3135345e-04
  9.0179325e-04
  3.2006067e-04
 -2.9753745e-03
 -3.8385231e-03
  5.5292636e-01
  7.9239708e-01
 -2.3906326e-02
  3.7770033e-01
  1.0368948e+00
 -8.2922828e-01
  8.6371385e-02
 -4.7260368e-01
  2.6900694e-01
  8.8465549e-02
  9.1310847e-01
 -3.2495624e-01
 -8.2263477e-02
  1.1641955e-01
 -1.6783914e-02
  5.1212561e-01
  8.8564545e-01
 -3.3037868e-01
 -4.8520842e-01
  4.3990648e-01
  8.1692052e-01
 -2.5777289e-01
 -1.8073043e-01
  1.2412354e-01
 -7.4096721e-01
  2.7165085e-02
 -8.9807652e-02
  5.8051437e-01
  1.4889101e-02
 -9.5500642e-01
 -8.9998358e-01
  7.5106883e-01
 -3.6023015e-01
  9.9047333e-01
 -3.9019403e-03
 -1.6683409e-01
 -4.6742672e-01
  1.5451706e-02
  3.1862066e-03
 -2.6555978e-02
 -1.1322644e-01
 -8.5897580e-02
 -4.2596298e-01
  8.6534494e-01
  3.6380228e-01
  3.4543920e-01
 -6.1223912e-01
 -1.1360671e-01
  5.9743226e-01
 -8.3481985e-01
  1.0650238e+00
 -8.8167477e-01
  8.9525990e-03
  5.3155923e-01
 -1.2048326e+00
 -6.2093043e-01
  3.2908395e-01
 -8.8884991e-01
  1.8935721e-02
 -6.5736443e-02
  1.8574307e-03
 -8.1842374e-03
  1.4387051e-02
  1.1220757e-02
  1.9710673e-02
  6.3885762e-03
  2.4637076e-01
  1.5074323e-02
 -4.8874501e-02
  2.0678043e-03
  1.2224526e-02
  3.4169999e-01
  1.5375738e-03
  4.7418978e-03
 -4.1908766e-03
  1.8124302e-01
  1.2735672e-02
  1.1743744e-02
 -3.8823077e-01
  1.7250225e-01
  6.7854160e-04
  1.2521052e-01
  3.9254623e-03
 -9.4910103e-01
 -7.4622206e-02
  1.8868205e-03
  2.5131721e-03
  8.7787193e-01
 -7.1897446e-03
  5.2213728e-02
 -1.0292645e-03
  4.3822172e-01
 -8.3264887e-01
  8.6045833e-03
  5.7857251e-06
  7.7635545e-01
  5.3022169e-02
  4.3580635e-03
 -9.6419603e-02
 -8.5697299e-01
  3.1603064e-02
 -7.5244486e-02
 -6.0738572e-03
  3.0871040e-01
 -4.0033594e-01
 -2.9260144e-02
 -8.5519955e-02
 -1.7201858e-02
  1.1177139e-03
 -9.9258637e-04
 -5.4976511e-01
  3.0291686e-02
 -8.6019551e-03
 -3.9119966e-04
  2.7105450e-03
 -5.2230274e-03
  3.1574874e-03
 -6.3688064e-01
 -7.2178102e-01
  2.1236870e-01
  8.9507949e-01
 -1.9361840e-01
 -1.9590068e-01
 -7.1969801e-01
 -6.1206591e-01
  4.9739382e-01
 -5.7412887e-01
 -8.8024759e-01
 -1.4252303e+00
  4.0377855e-01
  2.2560752e-03
 -4.0228799e-01
  8.7434369e-01
  1.4042108e+00
  2.7072202e-02
 -9.7049391e-01
 -3.2622704e-01
  5.5210334e-01
  1.7543584e-02
  1.9554381e-04
  4.2509623e-02
  3.3456006e+00
 -1.2685238e+00
 -2.1970002e-03
 -8.7899178e-01
  4.4592163e-01
  1.8910292e-01
 -6.9030017e-02
 -2.7230197e-01
 -1.7721288e+00
  2.0157378e+00
  7.7747416e-01
 -5.0068998e-01
  6.7229110e-01
 -2.0028977e-01
 -6.3116813e-01
 -5.9552312e-01
 -6.4918500e-01
 -1.3046920e-01
 -2.9404500e-01
  3.1735841e-02
  9.1002655e-01
 -9.8195255e-02
 -3.6181358e-01
 -9.4217581e-01
 -4.7758045e-03
  6.6836047e-01
  2.0163555e-01
 -7.2842307e-02
  1.1439461e+00
  2.5465356e-02
 -3.3267903e-01
 -1.2597479e-01
  6.8262788e-03
 -2.3184603e-01
 -4.0442809e-01
  9.3942836e-02
  4.2103761e-01
 -2.2482297e-01
  7.5114733e-01
  2.6527488e-01
  2.6253447e-01
  9.3998909e-02
 -5.6137520e-01
 -7.0615637e-01
  1.1764389e-01
 -5.1202420e-02
 -5.0526905e-01
 -4.8437116e-01
 -1.9856589e+00
 -2.6417060e+00
 -1.6899518e+00
 -1.1569723e+00
 -4.4050223e-01
  2.8714557e+00
 -1.1035280e+00
 -5.5441248e-01
 -5.2917439e-01
  7.7272052e-01
  4.4543082e-01
 -1.3249930e+00
  1.6245785e+00
 -2.1476166e+00
  3.0514433e+00
 -8.2364500e-01
 -1.3380975e-01
  1.2421850e+00
  5.7093149e-01
 -3.8102068e-02
  6.7538226e-01
 -2.2922622e-01
 -4.3398467e-01
 -1.7333571e-03
 -5.4673570e-01
 -3.5220015e-01
  7.2924083e-01
 -1.4223504e+00
  1.9537931e-02
  7.5657630e-01
  7.7579552e-01
 -3.1605890e-01
  1.5557148e+00
 -1.0651205e+00
  1.7464565e-01
  4.9131427e-02
  1.8620018e+00
  1.6955819e+00
 -1.7679559e+00
  1.3153227e-01
  2.4300532e-01
 -1.2837183e+00
 -2.1107350e-01
 -9.3378555e-03
 -9.6724434e-03
 -1.8047309e-03
 -2.1392057e-02
 -1.4737073e-02
  6.2462509e-01
 -3.6171351e-03
 -5.1856134e-03
  6.9001932e-03
 -7.2629438e-03
  9.2807198e-03
  1.4667613e-03
  1.2912397e-02
 -9.9411630e-04
  2.1629157e-03
  6.6810260e-03
  7.4199529e-04
  3.0518293e-03
 -5.3985103e-04
 -3.0809487e-04
 -3.0988157e-03
  3.4364103e-03
 -4.1720732e-03
  1.4085574e-03
 -2.5617220e-03
 -3.0306606e-03
  4.6594902e-03
 -1.1434155e-02
 -8.0014346e-05
  6.6806641e-03
 -1.2283477e-02
  2.0060856e-02
  1.1729633e-03
 -4.1001076e-03
  3.4333128e-03
  1.2385234e-02
  1.0281539e-02
  1.5841728e-02
 -2.8411816e-03
  2.3601414e-03
 -8.3067520e-03
 -1.5007472e-03
  6.8743741e-03
 -2.1478262e-02
 -1.4034319e-03
 -3.2953026e-03
  5.2667939e-04
 -5.5970754e-03
  1.0282488e-01
 -3.1044122e-02
 -2.1588530e-02
 -4.5622089e-03
  1.7369350e-03
  3.6256625e-03
 -1.9611554e-02
 -7.2319228e-03
  2.7029077e-03
 -2.8503446e-03
  2.5253764e-01
 -4.4670707e-01
 -4.8944112e-02
 -9.8821056e-01
 -1.9858854e-01
  1.3018610e-02
 -3.3212653e-03
  7.5609219e-01
  1.3109351e-02
  1.1508640e+00
  1.1192849e+00
 -2.3494372e+00
 -1.3989852e-02
 -1.7675360e-01
  1.9118521e-02
  2.7103195e-01
  3.2789204e-01
 -1.3958393e+00
  7.9338312e-02
 -8.5207541e-03
  6.1227643e-01
  2.1440990e-02
 -4.2207369e-01
 -6.9149661e-01
  2.6998768e+00
 -4.4013622e-01
  1.0002871e+00
 -1.6182167e-03
  2.3950161e-01
  1.9415036e+00
 -2.6309240e-01
 -1.4763365e-02
 -1.6357366e+00
  6.6335648e-01
  1.9449880e-02
  3.9638075e-01
 -7.1632430e-02
 -5.5212164e-01
 -1.6174936e-01
 -3.9437927e-02
 -1.0031580e+00
 -9.1922823e-03
 -3.7718099e-01
  6.1959648e-01
 -3.7823129e-01
 -1.1904534e+00
 -2.7295644e-03
 -1.4327806e+00
 -1.4811869e-01
 -6.3401018e-04
 -1.0058490e-02
  2.7616906e-01
 -9.2133712e-03
 -3.9636233e-01
 -1.4051963e-02
  1.0972554e-02
 -1.2755166e+00
 -1.9858670e-03
  6.6731917e-03
  8.6052977e-03
  1.7909868e-02
  1.6892917e-02
 -2.0579889e-02
 -1.2136311e-02
  1.0335859e-03
 -3.7084059e-03
 -2.3685233e-03
  9.2165032e-04
 -1.1828354e-02
  4.8708739e-03
 -4.9000988e-03
  1.0378617e-02
 -1.3618125e-02
 -6.3079055e-03
  4.6327597e-01
 -9.7974176e-03
  8.3873924e-03
 -3.9502261e-03
  5.4969348e-04
 -3.2965565e-04
 -4.0925564e-03
  1.1700880e-03
  3.4477492e-03
 -4.2961333e-03
 -1.8077850e-03
  6.2456529e-04
 -5.2821762e-03
 -2.2197332e-02
  3.9752194e-04
 -7.3378808e-03
 -7.7526886e-03
 -1.6753968e-02
  6.4104088e-03
 -8.3745290e-03
  3.5355578e-03
 -1.4310409e-02
 -8.0962935e-03
 -1.3598039e-02
  4.5508891e-03
  1.7023907e-03
 -4.1358136e-03
 -1.0836868e-02
  9.0952618e-03
 -2.3167634e-03
 -8.5358918e-03
  4.4181650e-03
 -2.4466570e-03
 -1.9297857e-02
 -1.0090739e-02
 -5.1238206e-03
 -5.6584217e-03
  3.2691993e-03
  1.3730093e-03
  2.7861964e-02
  6.0232021e-03
 -1.2263181e-02
  5.1664691e-03
 -6.0515781e-04
 -2.6247196e-02
 -8.3724586e-03
 -4.7672227e-02
  6.6492581e-03
  1.2010019e-01
 -6.3360096e-03
  2.3212489e-02
 -2.4883759e-03
  4.5904413e-01
 -1.0458289e+00
  6.0769836e-03
 -3.4534138e-01
  1.0520841e-03
 -3.1022170e-01
 -3.8704678e-04
 -7.0822053e-02
 -4.4723889e-03
 -6.4258717e-02
  6.9940896e-03
 -2.7199446e-03
  1.3412352e-02
  2.3097042e-03
 -2.8872504e-03
  1.2895492e-01
 -3.3997607e-03
 -1.7903386e-04
  1.1689994e-02
 -3.9819960e-02
 -3.5206075e-03
 -1.7408924e-02
  9.3218917e-03
  1.2038910e-03
  4.5903411e-04
  2.4272813e-03
 -1.2388162e-01
 -5.2420223e-01
 -1.7684790e-03
  4.3818657e-03
  5.4853582e-01
 -2.1449394e-04
  4.3318024e-01
 -1.4880093e-02
 -5.0886995e-01
 -5.4210034e-04
  1.3815469e-02
  5.5993521e-01
 -8.1710406e-03
  1.3044213e-02
 -9.6698441e-03
  1.6933711e-02
 -1.8454299e-03
 -4.5349017e-02
  4.4434289e-03
  2.0486448e-05
 -1.7488873e-01
  1.1238451e-02
  7.1399873e-03
  3.3195654e-03
  1.5782874e-02
 -1.3443126e-02
  2.0661461e-04
 -6.5260837e-03
 -5.5755530e-03
  8.9680078e-03
  6.4803688e-03
 -1.1714160e-03
 -4.0126806e-03
 -3.6640216e-03
  5.4059044e-04
  5.5759312e-03
 -1.8974256e-03
  1.9927649e-02
 -2.8922243e-02
 -8.8010496e-03
 -5.4514809e-03
 -4.1739624e-03
 -4.9971319e-03
  3.6422580e-03
 -1.3758260e-02
  1.0702574e-02
 -7.9953084e-03
 -8.0287941e-03
 -1.0165003e-02
 -1.0892424e-03
  3.6033294e-03
  3.6178537e-02
  1.8667297e-02
 -6.0220039e-03
  2.7867807e-02
  1.7894858e-03
 -3.1982260e-03
 -2.1497682e-03
 -2.7570934e-03
  2.9285278e-03
 -3.9863656e-03
  1.8880241e-02
 -2.9020403e-03
 -4.1002501e-04
 -2.8255535e-04
 -4.5185583e-03
 -2.7233427e-02
 -8.0598416e-03
  4.8247799e-03
  2.4478924e-03
  5.1339171e-03
 -2.9210991e-03
  1.5792609e-03
  2.0431024e-03
 -2.3914292e-04
  1.2460366e-02
  2.2651959e-02
 -1.4050912e-02
  1.3601492e-04
  5.8789002e-03
 -5.6672804e-03
 -1.1467073e-02
 -1.1086218e-02
  1.7305104e-03
 -4.1735379e-04
 -1.1512384e-04
 -9.4023696e-04
  2.9699327e-03
  1.4702587e-02
 -8.2639471e-02
 -1.7101213e-02
 -2.8200299e-03
  8.9887325e-03
 -4.1381782e-04
  2.0711477e-01
  2.9084239e-02
 -3.2063136e-03
  1.5935441e-02
  2.1707229e-02
  1.4928025e-02
  5.1421769e-02
  1.3875180e-03
  7.2108591e-03
 -2.5984121e-04
 -9.8140084e-04
 -5.4534376e-02
 -1.9596994e-03
  4.6657246e-02
 -1.7447761e-05
  7.7840025e-03
  5.7490543e-04
  1.2235828e-03
 -1.1338877e-03
  3.5372949e-03
  1.2586345e-02
 -1.1949248e-02
  1.6736630e-03
  8.9028338e-03
 -5.7663571e-04
 -5.6770984e-03
 -6.4462528e-02
  1.5620450e-03
 -2.6351271e-02
 -3.7947292e-03
 -1.5259524e-03
  2.6628885e-03
 -2.2726008e-03
  3.8940713e-03
  7.5912592e-04
 -1.7503731e-02
  1.7849102e-03
  3.8465299e-04
  1.3672798e-02
 -1.6826194e-02
  2.1168519e-02
 -4.4091810e-03
  3.4327833e-03
  2.1857084e-03
  4.8430995e-03
 -7.7980384e-03
  3.6325234e-03
 -1.3903992e-03
 -2.0007179e-03
 -4.4855466e-03
 -1.4823913e-03
  3.2145439e-03
 -1.8684039e-02
 -9.0711331e-03
  4.6362877e-03
  3.8335945e-02
  1.4781153e-02
  2.1623308e-03
  4.2730728e-03
  1.5224067e-02
 -1.7191144e-02
 -1.3480140e-03
  3.2169838e-04
  1.2515702e-02
  9.2658503e-03
 -1.3020094e-02
 -5.3941002e-03
 -3.0464234e-03
  9.0563908e-04
 -7.0980587e-03
 -9.6773612e-05
  3.8660360e-03
  1.6933333e-02
  3.2498366e-03
  1.1623451e-02
 -6.2570698e-04
 -3.3683935e-04
 -6.9183931e-03
  4.6201283e-05
 -3.2246374e-03
 -1.1349098e-02
 -1.5932552e-03
 -1.4431627e-02
  7.0167645e-03
 -5.8673247e-04
 -8.2334625e-03
 -1.2994818e-02
  6.5084230e-03
 -2.8392766e-05
 -1.0504323e-03
 -2.4727273e-03
 -1.7275594e-03
  1.3423538e-03
  2.7469020e-02
  1.5635358e-04
  5.6783077e-03
 -4.2846627e-03
  1.4102736e-02
  1.3281564e-02
  3.9050998e-03
  5.1048947e-03
  9.3296506e-03
  2.1563372e-02
  4.5664680e-01
  1.7333312e-01
 -6.2547076e-01
  7.8325021e-01
 -4.1123021e-01
  1.1753902e-01
  1.3641990e-02
  6.5366022e-02
  2.4607255e-01
 -2.9715058e-01
  1.0985788e-01
 -4.2206120e-01
  7.4687958e-01
  3.1536750e-02
  7.1636277e-01
  3.2347372e-01
  4.0253717e-01
  2.6450656e-02
 -2.2413691e-03
  6.1654683e-02
  1.8337208e-01
 -4.8012474e-01
 -1.2175012e-03
  1.8504095e-01
  6.8462260e-02
  4.0568745e-01
  1.7421024e-01
  2.7334276e-01
  5.1854926e-01
 -2.6652491e-01
  5.1484495e-01
  5.4852748e-01
 -6.2936908e-01
 -1.3769680e-01
  7.0349406e-03
  1.0327165e-02
  2.8585579e-02
 -7.7454239e-01
 -5.3929754e-02
  2.6317090e-01
 -1.6692206e-02
 -9.7487932e-01
  1.4970805e-02
 -2.1741350e-01
 -4.2418439e-02
  6.4727777e-01
  4.3955442e-02
 -1.3718572e-01
  6.3305758e-02
 -8.2879472e-01
 -1.3996826e-02
  2.0524086e-01
 -1.8641192e-01
 -2.2579992e-02
 -4.2230386e-02
 -1.0040067e+00
 -2.5697060e-02
 -2.8640805e-03
  4.5913821e-03
  2.4266236e-03
  2.1730959e-02
  4.4892873e-03
  6.9016302e-03
  8.3249696e-03
  5.8024665e-03
 -1.4307678e-02
  1.5242381e-03
  5.3872266e-03
 -1.5981466e-02
  7.3179216e-03
 -8.4690927e-03
  4.7045844e-03
 -2.2363542e-03
  1.1612982e-02
 -2.6963940e-03
 -4.3346467e-03
 -3.4147473e-03
  1.2912995e-02
 -1.4441409e-02
  5.0691593e-02
 -2.0043653e-02
 -1.3385715e-02
  3.9128782e-03
 -3.7399186e-03
  1.5930672e-03
  8.3780510e-04
  1.8505260e-03
 -5.2780136e-03
  1.2949122e-01
 -1.1275138e-02
 -5.8795079e-03
  6.7923293e-03
 -6.4232773e-03
 -2.9348931e-03
 -5.5228844e-03
  8.7695615e-03
  3.6580409e-03
  3.3742022e-02
  7.9562813e-03
 -4.2867810e-03
  3.1712893e-03
  9.5180154e-04
 -8.4170001e-03
  6.9010681e-03
 -2.6411510e-03
  7.8580808e-03
  5.3300699e-03
 -1.2194479e-03
  5.8561042e-03
  1.0777304e-03
 -8.5611939e-03
 -6.3882140e-03
  7.1726083e-03
  3.0437682e-03
  6.0280133e-03
 -7.6588966e-02
  2.5694489e-01
  8.4350191e-02
  6.0956854e-02
  8.0148876e-04
  1.0429195e+00
  4.6448028e-03
  3.1324804e-01
  1.7393986e-02
 -4.8081738e-01
 -1.2760032e+00
  6.2021278e-02
  5.3436238e-01
  2.3519687e-02
 -1.8434437e-01
 -1.4886245e+00
  1.2911490e-01
  2.1554935e-01
 -1.4158168e-01
  1.7605795e-01
  1.4426675e+00
 -3.0718751e-02
 -5.5034809e-02
 -1.1695448e+00
  6.0419291e-01
  5.0962406e-01
 -3.6776967e-02
 -8.6081338e-01
 -1.2637891e-02
 -1.1584361e+00
 -3.6866985e-02
 -6.5317288e-02
  4.5863655e-01
  2.7380568e-01
  1.2242737e-03
 -1.0301642e-01
 -9.6235514e-02
 -6.5347976e-03
  5.5321497e-01
 -4.0614194e-01
 -4.9024993e-01
  3.6708361e-01
  1.4431291e+00
 -7.3820949e-03
 -2.8668398e-01
  6.2394723e-02
 -2.9216984e-01
  2.2581022e-02
 -5.2144773e-02
  9.9262176e-04
 -5.4297615e-02
  2.0790893e-01
 -1.9611196e-01
 -1.2730600e-01
  1.2806084e-03
  9.2228025e-02
 -6.4136524e-04
  1.8699478e-02
 -3.7690818e-03
  5.1157176e-01
 -1.7997460e-01
  4.0466496e-01
  1.5149734e+00
  7.6475990e-01
  1.3113480e+00
  4.9224579e-01
  1.4274122e+00
  9.2716211e-01
 -5.1498967e-01
  5.9876877e-01
  1.5091667e+00
  1.2637174e-01
  1.3660114e-02
 -3.9964902e-01
 -5.8976924e-01
  3.8669796e+00
  7.1284510e-03
  6.4317387e-01
 -7.7850753e-01
  1.6902720e+00
 -1.1378629e-02
 -8.3698295e-03
 -6.0093331e-01
 -2.3270090e-01
  3.5169229e-01
 -1.2810621e+00
 -3.0971626e-02
 -1.1095076e+00
  7.5597548e-01
  6.3038468e-01
 -1.2152083e+00
 -1.1205370e+00
 -1.3528414e-02
  4.5434990e+00
  1.1273567e-01
  1.6956094e-01
 -8.1171983e-01
  8.0689555e-01
  6.8145908e-02
  1.1500757e-01
 -2.1781573e+00
  1.1935881e-03
 -1.2592123e-02
 -6.2803701e-02
  1.0373483e-02
 -8.6582547e-01
  1.6257704e+00
 -2.7816059e-02
 -4.2330532e-04
  2.2541507e-01
  6.2027049e-01
 -1.7811285e-02
 -1.1195251e+00
 -2.1194974e-03
 -1.9050994e-03
  8.9573963e-03
 -1.1688658e-02
 -3.6945636e-03
 -1.3153354e-02
  6.6567631e-03
  3.8317719e-03
 -6.4973705e-03
  6.2342859e-03
  1.7979398e-03
  5.5731374e-01
 -2.3766537e-03
  9.2573138e-03
  9.9691954e-03
 -7.2338544e-03
 -1.9455347e-02
  1.1396102e-02
 -4.1507557e-04
  4.8120182e-02
 -4.5134709e-03
 -2.1204592e-03
  1.2581614e-02
 -1.8259882e-03
 -3.5729257e-03
 -2.3602815e-03
  3.3738788e-03
  7.5512612e-03
 -7.0821913e-04
  1.5650639e-02
  1.0013971e-02
 -4.8037129e-03
 -4.6882937e-03
  5.4360051e-03
 -4.5869509e-03
 -1.9421102e-03
 -4.8350189e-03
  2.0723316e-04
 -2.4088132e-03
 -9.3526300e-04
  5.4212464e-03
  3.2322067e-03
 -1.2476046e-03
 -2.4908257e-04
 -1.3849409e-03
  1.9575918e-02
 -8.2049519e-05
 -1.2255135e-03
  3.1056637e-02
  3.3014296e-03
 -8.4216874e-03
  8.0299824e-03
 -1.8926683e-03
 -1.9373458e-02
 -6.4174063e-03
  4.4733663e-03
 -5.8132662e-03
 -5.7865530e-03
  1.7430704e-02
  6.2553789e-03
 -1.1986095e-02
 -1.6289371e-03
  8.9367181e-03
 -2.4640169e-03
 -1.7086405e-03
 -5.5224514e-03
 -1.2048127e-02
 -2.7532652e-01
  2.2535853e-03
 -2.5806639e-03
  1.0818124e-03
 -7.4206339e-03
 -4.8561287e-03
 -9.6330568e-03
 -9.5156749e-04
  2.0494314e-03
  6.3095484e-03
 -5.1231924e-03
 -2.2874488e-03
 -2.4152796e-03
  8.1538502e-03
  6.5221603e-04
 -6.3758739e-03
 -1.2170840e-03
  1.4142168e-03
  1.3810103e-03
 -9.8167611e-03
 -1.1693444e-03
  4.8976699e-03
 -1.7980040e-03
  2.2162350e-03
  1.6815367e-03
 -2.9673574e-03
  5.7316977e-03
  1.0296809e-03
  1.3905242e-02
 -3.0349083e-03
  7.4558230e-03
 -6.2982645e-03
  3.2286856e-03
 -7.1693491e-03
  1.1409584e-02
 -1.7342553e-04
  5.0179330e-03
  6.7564650e-03
  8.1197079e-03
  5.6187771e-03
 -6.2096566e-03
  7.8984315e-04
  1.0080503e-02
  1.1071756e-02
 -4.8364028e-03
 -2.5014230e-03
 -7.1036215e-03
 -4.5722434e-03
  1.7217219e-02
 -6.5388912e-03
 -7.8547243e-03
  8.8576833e-03
  8.0937698e-02
  1.2944941e-01
 -9.6767950e-01
 -1.4037821e-01
  2.3863632e-02
  5.0703213e-02
 -1.1370275e-01
 -9.3583310e-01
 -1.2380762e-01
 -6.2053889e-01
 -7.8667479e-04
  7.5228196e-01
 -8.0754995e-01
 -7.9432223e-03
  2.8050456e-03
  4.1019252e-01
  3.0662531e-01
 -2.9141396e-01
  6.1136770e-01
  9.8413052e-03
 -7.2454172e-01
  2.3418906e-01
  1.1744022e+00
  2.8584433e+00
  7.2836965e-01
 -5.9150821e-01
 -4.1687056e-02
 -4.0597439e-01
  1.7157631e+00
  1.2841916e-01
  3.2442230e-01
  9.2289943e-01
  1.7167833e+00
 -2.5006673e+00
 -1.6329068e+00
 -6.1576647e-01
 -1.2342760e-01
  1.4601207e+00
 -4.2428470e+00
  7.2012120e-01
  1.3081801e+00
  5.4794878e-01
  7.0506173e-01
 -3.4983107e-01
 -4.9154320e-01
  3.5597873e-01
  3.8200942e-01
 -6.3960338e-01
  2.4166350e-01
  1.1415901e-02
  1.4017740e-01
  1.5977662e-02
 -8.2007164e-01
  6.2927634e-01
 -1.4075991e-03
 -4.5267373e-01
 -9.0645939e-01
 -1.3763853e-02
 -7.0094931e-01
 -1.6955743e+00
 -2.8217497e+00
 -3.9185025e-02
  7.2626337e-02
  6.4930928e-01
  3.9550680e-01
  2.8104416e-01
 -1.4998416e+00
  1.8644451e-01
 -8.7491691e-01
 -2.2469952e+00
 -1.1638443e+00
  2.7844238e-01
 -3.7009167e-03
 -3.2017667e+00
  3.7626228e-01
 -1.6905099e+00
 -1.4870286e+00
  7.9927258e-03
 -2.2306988e-02
 -1.0060111e-02
 -1.0343199e+00
 -3.0454633e-01
 -1.1880674e+00
  2.3396995e+00
 -1.4690543e+00
  2.7077287e-02
  1.4203067e-01
  4.0603739e-01
 -8.2188016e-01
  5.9658867e-01
  1.8166796e+00
  3.7087445e+00
  1.7997646e-01
 -3.1216237e-01
  1.2673008e+00
  1.6607420e+00
 -1.0165997e+00
 -1.6432637e-02
 -4.5279166e-01
 -6.3861288e-02
  1.1655192e+00
  8.4400582e-01
  2.7815652e-01
  1.6801503e+00
 -2.3799701e-02
  5.4777332e-02
 -1.0669021e-02
  1.7967947e-02
 -1.5342901e-02
 -2.6292834e-02
  4.5425007e-01
 -5.6541915e-04
  1.6331820e-01
 -4.3182187e-03
 -7.1474887e-02
  1.0457807e-03
 -4.7414619e-03
  1.2369405e-02
 -1.3905712e-02
  1.9382791e-03
 -2.1082496e-03
  4.8393565e-03
  2.8835509e-03
 -5.4097981e-03
 -1.1363463e-03
 -8.5223457e-03
  3.2727951e-03
  6.5115173e-03
 -3.0928152e-04
  1.1029837e-02
 -8.9594275e-03
  1.5239208e-03
 -9.9088717e-04
  4.9349554e-05
 -4.5332117e-03
  5.9337770e-03
  5.9162551e-03
  1.2655440e-03
  2.8038241e-03
  1.9323008e-04
  3.1393906e-03
  1.4736073e-02
  3.2991413e-03
  3.5741229e-03
  1.7245845e-03
  9.8710321e-03
 -2.3795608e-03
  6.9146072e-03
 -1.2178322e-02
  6.5643974e-03
 -2.7453140e-03
 -1.1520321e-02
 -4.1183955e-03
 -4.4031260e-03
 -1.9400264e-03
 -4.4703381e-03
 -2.0538415e-03
 -2.1516045e-03
 -5.7496740e-03
  8.6015789e-03
  1.1617973e-02
 -1.2950927e-02
 -8.5598454e-03
 -6.4473301e-03
 -6.3135000e-03
  5.4988312e-04
  2.8410372e-03
  7.2833258e-03
  1.8222700e-03
 -7.1991091e-03
  5.8296854e-03
 -1.8710246e-02
  1.6971257e-03
 -2.4084235e-05
  6.6383067e-03
  9.8191556e-03
 -4.1509360e-01
  4.9580475e-03
 -1.9988933e-01
  1.3748105e-01
 -3.6921618e-03
  8.1521301e-03
 -1.8899808e-02
 -9.2815226e-03
 -1.9549157e-02
 -2.3329442e-02
  8.9740669e-03
  2.8162920e-03
  1.6997909e-02
  1.4398171e-02
 -3.1517018e-02
 -2.5196938e-02
 -1.5306130e-02
  7.2274311e-04
 -1.8656705e-01
 -3.1512384e-03
 -1.7842168e-02
 -1.1479402e-03
  1.5135734e-02
  2.2685284e-02
 -4.7008293e-03
  8.1759887e-03
 -7.0351623e-03
 -1.1065075e-02
 -1.3372123e-03
 -1.6836355e-02
 -9.9872462e-03
 -1.9158423e-02
  2.6004832e-02
  3.6068476e-04
  3.1252955e-03
 -5.2786595e-04
 -1.1730741e-02
 -3.1307433e-04
  4.3743867e-03
  4.7048472e-04
  8.1726359e-03
  1.2134673e-02
 -9.0522403e-03
 -2.4625978e-01
 -9.5223472e-04
  4.6891733e-03
  3.3655604e-03
  2.1738838e-04
 -1.2194663e-02
  7.5174524e-03
  4.2327372e-03
  3.0448511e-03
  4.9052881e-03
  1.8738016e-03
 -9.2740739e-03
  1.4864778e-02
 -1.2203999e-02
 -6.4182216e-03
  2.4645417e-03
 -4.0660137e-03
 -8.0021028e-04
  2.1212962e-03
  7.8982022e-03
  8.1346631e-03
 -1.8236446e-03
 -4.5072058e-01
  1.3398345e-01
 -3.0147893e-02
  3.3157330e-04
  1.2464883e-03
 -7.4432865e-03
 -1.6887581e-02
  3.1762295e-03
  2.4786589e-01
  1.1143012e-02
  3.6952579e-03
  6.8399440e-03
 -1.7176092e-01
  9.1425818e-04
  6.0201911e-03
 -2.6416311e-01
  2.4938360e-01
 -2.7224193e-03
  9.0948213e-03
  2.8431031e-03
 -1.1888511e+00
  9.4188470e-03
 -2.5759977e-03
 -7.5723808e-03
  7.4243871e-06
  1.0290606e-03
  1.4529482e-02
  2.4906350e-03
 -2.3811137e-02
  4.5645321e-03
 -1.7968779e-02
  7.2689531e-03
 -4.9927491e-03
 -8.8144310e-02
 -9.5779456e-02
 -1.8286524e-02
  1.9759769e-04
 -5.2685668e-03
 -3.1158207e-03
  4.1183610e-03
 -1.2991531e-02
 -9.3164044e-03
 -1.0643590e-02
  6.6898309e-04
  5.4252949e-03
  7.2964001e-03
 -1.2438132e-03
  8.0074472e-03
 -9.1565907e-02
  2.5207061e-02
 -2.2007573e+00
 -2.1744791e-01
  7.3209202e-01
 -4.5572549e-02
 -1.2175033e+00
  3.2018501e-02
  1.0737326e+00
 -1.4789970e+00
  5.1840055e-01
 -5.7408851e-01
  1.9661864e+00
 -1.2351569e+00
  7.2767210e-01
 -2.3865714e-03
 -4.3962762e-01
  2.4344948e-01
 -7.1560705e-01
 -5.2372236e-03
 -1.0716230e-02
  1.5342315e-01
  8.9089543e-02
  1.1964229e-01
  2.2319482e-01
  9.2160746e-02
  6.1834401e-01
 -6.6883244e-02
  1.8449092e-02
  1.8758236e-01
  2.1964264e+00
  1.5352443e-01
  6.9834089e-01
  1.3882646e-01
 -1.6235913e+00
  4.8134369e-01
  6.3930646e-02
 -1.6428914e-03
  3.8897574e-01
 -9.1045603e-02
 -4.1257438e-01
  3.3439517e-01
  2.5743827e-02
 -1.1086467e-01
 -3.1043264e-01
  1.5308577e+00
 -2.7274953e-02
  1.0992374e+00
 -5.1461710e-03
  3.4016243e-01
 -2.0078355e-01
  8.8944901e-03
 -7.4449581e-01
 -3.3702043e-01
  2.0108514e-01
 -7.1563339e-03
  3.2581554e-03
 -1.5669698e+00
 -1.0045205e-03
 -2.1527426e-01
 -1.1854975e-01
  1.0518187e-01
 -4.7987995e-01
 -3.3483049e-01
  3.6190757e-01
  1.3455556e-02
  9.4026589e-01
  2.4079762e-01
  2.1435457e-01
  1.1731113e+00
 -7.5277847e-01
 -7.2094566e-01
 -4.1067961e-01
  2.0986492e-02
 -1.8462970e+00
  1.2396134e-03
 -4.9991795e-01
 -2.3150952e+00
  1.0022120e+00
 -5.6765229e-01
 -2.6581943e-01
 -5.9640640e-01
 -1.5044336e+00
 -7.7345073e-01
  4.3809026e-01
  1.0958076e+00
  1.9905621e+00
  9.7082764e-02
  2.7887544e-01
  3.6075267e-01
 -9.6581334e-01
  1.6772175e+00
 -6.5321654e-01
 -8.6910889e-02
  1.1698886e+00
 -4.5929134e-01
  8.6833954e-01
  5.1162547e-01
 -2.9568002e+00
 -5.7999307e-01
  2.7660212e-02
 -8.7006229e-01
  2.2206311e-01
  5.4740059e-01
 -2.1155100e-01
 -7.2154236e-01
  2.8591650e+00
 -2.6268229e-02
  7.9257894e-01
 -8.1750430e-02
  6.2255460e-01
  3.0705568e-01
 -1.5549935e-02
 -3.4339704e-02
  9.1441584e-01
 -5.9171742e-01
  8.4913140e-03
  1.8496424e-04
  1.0126833e-02
  6.8070069e-03
  1.1354374e-02
 -1.1518938e-02
 -3.8877155e-03
  1.8049104e-03
  8.8568274e-03
  3.5240662e-03
  2.4406719e-03
 -1.5818512e-03
 -5.9527140e-03
  1.1143065e-02
 -2.3465343e-03
 -4.3463390e-03
 -1.6254988e-02
 -4.0285676e-03
  4.2128260e-03
 -8.5193431e-03
  1.2822446e-02
  2.1960204e-03
  6.5007308e-03
 -5.4377760e-03
 -7.4295397e-03
 -2.4952178e-03
 -1.0454097e-03
 -9.0163415e-03
 -8.7911179e-03
  1.7787034e-03
 -1.2064190e-04
 -4.2114579e-03
 -1.3659932e-02
 -1.4480792e-02
  1.9702397e-02
 -6.4366921e-03
 -1.7466242e-03
 -9.8098703e-03
  6.3051353e-04
  2.4686737e-03
 -5.3075771e-04
  3.6067045e-03
 -9.7837541e-03
  8.8472886e-04
 -5.6321383e-05
 -1.3627708e-03
  1.7862795e-02
 -3.4534913e-03
 -3.4070110e-03
  2.1416796e-05
 -2.7135941e-03
 -4.7193347e-03
 -9.0502109e-03
  1.8078049e-03
 -4.7071897e-03
 -1.0688277e-03
 -1.0558981e-02
  3.4506980e-03
 -5.6465808e-03
  3.2329756e-01
 -2.1443187e-01
  6.5942095e-03
  2.0318370e-01
  1.1990290e+00
  1.4630218e-01
  4.9136177e-01
 -3.3456594e-01
 -8.6262310e-01
  3.0519815e-02
  4.5230854e-01
 -5.0485589e-02
 -2.6427573e-03
 -7.2770044e-02
 -1.7021994e-01
 -8.3442521e-01
  3.0252153e-01
  1.7274044e-01
 -8.9294797e-01
 -2.7026317e-01
  6.6535830e-02
 -5.3712595e-02
  2.0182204e-01
 -2.5611585e-01
 -1.7353214e+00
  2.9467845e-01
 -6.7873016e-02
  3.9822173e-01
 -2.5374084e+00
  6.0922384e-01
  1.8938549e-02
  4.3091041e-01
  3.5827664e-01
  4.7855547e-01
 -3.6318254e-02
  2.7328604e-01
 -1.2429662e-02
 -2.3193587e-01
  5.9156787e-01
  3.7819642e-01
  1.8840787e-01
 -5.1438129e-01
 -1.2914930e-01
  2.1956051e-02
  6.4835417e-01
 -8.0529457e-01
 -2.8693515e-01
 -4.9718197e-02
 -2.0944068e-02
  1.0441132e-02
 -2.7649531e-02
 -3.3122340e-01
  4.5580408e-01
 -2.2341609e-02
  4.0014029e-01
  3.9567488e-01
  2.9283485e-01
  3.7838612e-03
  2.9301521e-01
 -1.4494660e-01
 -3.7929513e-03
 -9.3779755e-01
  9.4425045e-03
 -5.6219562e-03
  4.0071730e-02
  2.5870371e-01
 -1.1431107e-01
  1.7876796e+00
  2.6262680e-01
  1.3290542e+00
 -2.5162727e-01
  1.6266223e+00
  1.0845220e-02
  2.0115291e-01
 -1.7246746e+00
  7.0551318e-01
 -1.2344640e-01
 -6.8568945e-02
 -1.1681470e-01
  6.2392163e-04
  9.1020024e-01
  8.2062936e-01
 -4.6030566e-02
  4.1911265e-01
  3.6556248e-02
 -5.7259650e-04
  7.3029768e-01
 -1.5371926e-01
 -1.5092171e-02
  1.6248196e+00
 -1.2539623e+00
  1.0732476e+00
  6.9473230e-04
  1.0495614e+00
 -3.8499078e-01
  9.1828692e-01
  1.1306129e-01
  1.4742081e-01
  3.9903846e-01
 -5.4403740e-01
  4.2756575e-01
  1.1333729e+00
  5.9579116e-01
  2.0095035e-03
 -4.0132374e-01
  2.1305616e+00
 -3.8434905e-03
 -1.0573598e-01
 -4.7875330e-04
  3.5373193e-01
 -4.0651527e-01
 -6.3299900e-01
  8.6050462e-03
 -4.0385050e-01
 -1.3650144e+00
 -8.5531706e-03
 -3.2363031e-03
  4.1475627e-04
 -2.2939094e-03
 -5.2616387e-03
 -6.8502724e-03
 -7.9501355e-03
 -1.0812266e-02
  6.1765919e-03
 -2.6426876e-03
 -4.5558801e-03
 -5.3360476e-03
  4.0483293e-03
 -4.3932991e-03
  7.6213088e-03
  2.8188026e-04
 -1.1103863e-03
  7.1233688e-03
 -1.8738303e-02
  2.4478468e-03
  1.3407572e-02
 -1.0736092e-02
 -2.1395391e-02
 -2.3360711e-03
 -1.2149237e-02
  4.1641588e-03
  1.0938041e-03
  1.0788966e-02
  2.5238008e-03
 -2.0908662e-03
  1.1392930e-02
 -8.1269443e-03
 -3.1480715e-03
 -3.4528049e-03
 -1.9251365e-02
  1.5820717e-03
 -1.2613451e-02
  7.7847217e-04
 -4.8712241e-03
 -1.4773054e-03
 -1.0043373e-02
  9.4273360e-03
  4.9222510e-02
  1.0387959e-02
 -2.0822468e-03
  1.6102870e-03
 -3.0563619e-02
 -8.9270147e-03
  3.3042235e-03
  9.2643527e-03
 -1.7285831e-02
  1.3595095e-03
  1.5768019e-02
  8.5376129e-03
 -1.1660206e-03
 -1.4391325e-03
 -2.7332334e-03
  8.2538382e-04
  6.8215812e-03
 -3.6667464e-03
  1.7517065e-03
  2.6291565e-04
 -1.4050609e-03
 -5.0441385e-03
 -1.6818477e-02
  1.4961478e-02
  3.3764704e-03
  3.0052396e-03
 -2.2859693e-01
 -5.6420136e-03
 -9.9898927e-05
  7.0045521e-03
 -3.9362949e-03
  9.1227237e-03
 -3.3719318e-03
  7.0396801e-03
 -1.1744052e-03
  5.1292558e-03
 -5.4393953e-04
 -2.1119914e-03
  1.0788163e-02
 -1.4515845e-03
  2.6810709e-03
 -2.7233246e-03
 -1.0488457e-03
 -2.1999839e-03
 -1.0374960e-02
  1.3255317e-02
  2.1673923e-02
  4.5166478e-01
  1.3504214e-02
 -6.8902876e-03
 -3.2695243e-07
 -2.8803800e-03
  1.5287994e-02
  1.5923318e-02
 -2.2978208e-03
 -4.8002298e-03
 -5.2082269e-03
 -3.4487450e-03
 -6.6482429e-03
  1.7525116e-03
 -1.0054000e-04
  1.0483013e-02
 -2.3330527e-03
 -7.0271208e-03
  1.2129042e-02
 -3.1200002e-03
 -1.0122234e-02
  8.2256756e-04
 -5.9428671e-03
 -2.1829270e-04
 -1.1111796e-03
 -6.9112051e-03
 -3.5879957e-03
  2.2402285e-03
  2.0320509e-02
  3.9299149e-03
  2.1414302e-02
  2.6071325e-03
  6.7734425e-03
  3.2047965e-03
 -6.0107061e-03
 -2.6810084e-02
  1.4342994e-02
 -4.3334393e-03
  3.2259095e-03
 -5.5593655e-02
  6.1662938e-02
 -6.2026203e-02
  1.1931213e-03
 -5.3817285e-03
  3.3875760e-02
  1.3778159e-02
 -1.3572806e-02
 -5.4716063e-04
 -1.0346603e-02
 -4.7979201e-03
 -1.9431738e-02
  5.2311225e-06
  6.5837681e-02
 -3.1179186e-02
 -1.7326848e-01
 -3.8869944e-03
 -1.0255441e-02
 -1.2247330e-03
  4.5766971e-01
 -4.7207293e-03
 -2.3452276e-03
  5.0105076e-02
  3.7956774e-02
  9.3607446e-03
  1.9115560e-03
  1.6493507e-01
 -4.7539435e-03
 -5.3874897e-03
  4.3175012e-02
  5.8344215e-02
  8.0068503e-03
  6.4855170e-01
 -3.6402354e-03
 -1.1148843e-02
  2.2376916e-01
  5.4679729e-02
  7.0291855e-03
  2.4906513e-03
 -5.2404270e-02
  2.4673859e-02
 -6.5828324e-03
  3.1321009e-03
  9.3895039e-03
 -5.2312422e-03
 -7.4396343e-03
 -1.8072988e-04
  1.0523894e-03
  1.9245397e-02
 -3.5322753e-03
  5.1356521e-03
  5.3756149e-04
  9.5368102e-03
 -2.1191034e-03
 -7.7370335e-03
 -2.4276294e-03
  8.4005442e-04
  5.9341593e-03
  3.4641055e-03
  3.6595486e-02
  3.9925142e-03
  2.8112424e-03
  3.0411828e-02
  9.5672002e-03
  8.8022707e-04
 -1.1753845e-01
  9.9938898e-04
 -5.1650782e-03
 -9.9899821e-02
 -4.6743127e-03
  1.9336819e-03
  2.2133000e-02
 -3.0157899e-02
 -1.8396040e-02
 -1.7712682e-02
 -8.2880829e-04
 -5.3294883e-03
  7.1789816e-02
 -4.3741763e-03
 -2.7683942e-02
 -3.5335188e-04
  2.5322160e-02
  2.9749051e-03
 -1.2900333e-03
  3.7316483e-02
  9.2550246e-03
 -9.3568512e-04
  9.2086224e-03
  5.4988461e-03
  1.2240519e-02
 -1.0512184e-03
 -2.3641506e-01
  2.3982325e-01
  1.1986769e-03
 -4.6479353e-03
  6.1234195e-02
  1.3827028e-02
  8.8664005e-05
  1.5106973e-02
 -2.6790787e-02
 -3.6982167e-01
 -3.4937896e-03
  5.8999832e-04
 -2.6065228e-04
  2.5085951e-03
  5.5597862e-03
  3.7931714e-03
 -1.1161906e-03
  3.4644892e-03
  3.2142731e-03
  6.7667542e-03
  8.0193579e-03
 -5.0688307e-03
 -3.4064315e-03
 -9.6225645e-03
 -3.6006365e-03
 -3.4493383e-03
  1.2475911e-03
 -7.2917920e-03
 -1.2602040e-03
 -1.4264768e-04
 -2.9500250e-03
  4.0913918e-03
  4.0061017e-03
  1.1738165e-03
  2.1259511e-02
 -4.4047125e-03
 -4.4512083e-03
  2.3186132e-03
 -4.4044959e-03
 -4.3823919e-03
 -6.5507232e-03
  5.1121525e-03
  7.4255923e-03
 -1.8370937e-03
 -2.8023741e-04
  1.1831336e-02
 -1.3011410e-02
 -7.4754534e-03
  2.8448862e-03
  1.9003000e-02
  5.8224276e-03
 -3.1500517e-03
 -8.5586533e-03
 -1.1454416e-02
 -1.1805118e-03
 -1.1643957e-01
  1.0225385e-03
 -1.3152657e-03
 -1.6176891e-02
 -5.0982489e-05
 -6.1142375e-05
  4.3944851e-04
 -9.2150993e-04
  5.4907938e-03
 -4.1197343e-03
  6.6993674e-03
 -1.5845623e-02
 -5.3547360e-03
 -5.5161053e-03
 -5.2549792e-03
 -6.3481443e-03
  3.6475025e-03
 -5.5285012e-03
  4.4518779e-03
  3.8964702e-03
  1.0391171e-03
  5.7430893e-02
 -3.2725870e-03
 -3.2023240e-02
 -7.6884534e-03
  1.6388560e-03
  1.1690927e-03
 -2.5831780e-03
 -2.5623287e-03
  7.5901165e-03
  6.6183088e-03
  1.2160539e-02
  1.9015960e-02
 -3.5503481e-03
 -3.6827938e-03
 -3.6284556e-03
 -8.6332085e-03
 -3.7053910e-03
  1.1515409e-02
 -7.9181486e-01
  9.6771074e-03
  4.6993652e-03
 -1.1533699e-03
  4.4144960e-03
 -1.9902497e-04
  2.7143399e-03
  9.9038240e-04
  2.0867839e-02
  2.7563858e-03
  1.3722475e-03
 -2.9751926e-03
 -6.6984724e-03
 -4.2075468e-03
 -1.8761493e-05
  3.2496144e-04
  3.1978399e-03
  1.4142599e-05
  1.2916673e-02
  1.1212196e-02
 -7.1419924e-03
 -3.7347784e-03
 -3.5600446e-05
  1.3859945e-02
  3.6883872e-04
  1.4462401e-02
  3.6462187e-04
 -1.8991442e-02
 -7.8950021e-03
 -2.3140898e-04
 -4.2181532e-03
  7.9440800e-03
  4.1202512e-03
 -8.9313081e-03
  9.7520826e-03
  1.2427222e-03
 -3.5273738e-03
  4.2547518e-03
  1.7701238e-02
  1.3577003e-02
  1.4396631e-02
 -3.4617120e-03
  8.9114672e-03
 -5.1631536e-03
 -3.1886932e-03
  6.3281343e-03
  7.1420600e-03
 -2.9725763e-03
  5.1966365e-03
  1.0657553e-02
 -3.0406313e-03
  9.0211956e-03
 -3.3905704e-03
 -2.3301789e-03
  1.1397671e-04
 -6.2284395e-03
  5.7925135e-03
 -1.0986059e-03
  1.1952837e-02
  9.2735689e-05
  1.0012902e-02
 -2.1457220e-03
  1.0473088e-02
  6.7919539e-03
  7.1699806e-03
 -1.8359133e-03
 -9.7718267e-03
  3.2994647e-03
 -1.5291845e-03
 -5.0578378e-03
 -1.6390894e-02
  2.7931698e-03
 -4.8050266e-03
  6.7398925e-03
  1.0590531e-02
 -2.1860685e-02
 -5.6007123e-03
  5.3184805e-05
 -7.9288846e-05
 -5.4901261e-03
 -2.7186889e-03
  2.6428301e-03
  9.3359295e-03
 -6.9743022e-05
  3.7872943e-03
  2.5499472e-03
  4.9803131e-03
  6.1906147e-04
  6.2005273e-03
 -1.0936016e-02
 -3.4766204e-03
 -1.8012908e-03
 -4.5186314e-03
 -2.7679938e-03
  4.8829075e-03
 -1.7131001e-01
 -2.2401460e-03
 -4.8844424e-01
  8.6175573e-01
 -2.7840023e-03
 -3.0097710e-03
  1.2423276e+00
 -1.0162766e-01
  1.9243046e+00
  1.1201166e-02
  1.1275456e-03
  6.4645225e-01
  2.2716783e-03
  3.7198988e-01
  1.1645794e-02
  9.5505780e-01
  1.1160253e-01
 -8.7724727e-01
  6.1375216e-02
  5.8203563e-04
 -9.9408931e-01
  4.2165588e-03
 -1.4248244e+00
 -6.1907191e-03
 -3.5160610e-01
 -2.0407131e-02
  5.9167939e-01
 -9.2285182e-03
  4.5774691e-03
 -4.7681369e-03
 -3.0521224e-03
  1.0772491e+00
 -6.7352159e-03
  1.3379718e+00
  2.8082860e-01
 -8.8339275e-01
  5.9348673e-01
 -2.5785692e-02
  1.7367554e-01
 -1.3610436e-02
 -5.7280944e-03
 -4.7128680e-03
 -1.8380029e-02
 -1.4622784e+00
  1.1002460e+00
 -2.0261366e-02
 -6.2357670e-01
  8.6363894e-01
  7.4065578e-01
 -1.6230911e+00
 -2.0788477e-03
  9.4950128e-01
 -3.3148909e-03
 -5.7853538e-01
 -3.0659925e-05
 -1.7599325e-03
 -4.2071184e-03
  1.7390610e+00
  6.6552805e-03
  7.7851349e-01
  1.6015327e+00
 -7.2364961e-03
  8.0236057e-03
 -8.9090651e-01
 -6.5083444e-01
  2.1027233e-03
 -7.2960132e-03
 -9.5758080e-01
  2.3567700e+00
  2.2955453e-01
 -1.8451128e-03
 -2.3541031e+00
  5.2912574e+00
  1.0914390e-04
  8.4048407e-03
  1.4387833e-01
  3.5330420e-04
  2.9009277e-02
 -1.3184993e-03
  8.6457971e-03
  3.1518272e-01
  1.5644945e-02
 -5.6647354e-01
 -6.6289783e-01
  2.9269889e-02
 -2.4232445e-03
  4.6347287e-01
  1.1671368e-01
 -2.1072911e-01
 -5.0820857e-02
 -2.2290610e-02
  2.6895636e-01
  1.5291750e-02
  1.7498498e-01
  2.0370325e-03
 -2.4185719e-01
  2.7800563e-01
 -1.5985872e-01
  1.2007827e-01
 -7.3504262e-03
 -3.1522441e-01
  8.5786479e-03
  9.8107499e-01
  6.5443188e-02
  5.1004297e-01
 -4.5719564e-02
 -2.2748400e-01
 -1.9232271e-03
 -1.0514054e-02
 -3.6932401e-02
 -1.9772410e-02
  4.6847343e-01
  4.4915476e-03
  2.7470222e-01
  9.1285400e-02
  1.9809477e-01
  2.0992348e-01
  1.7820582e-01
  4.9647294e-02
 -5.1590383e-02
  1.9474286e-03
 -9.1773391e-02
 -1.1861270e-01
  9.6479744e-01
 -2.6955390e-01
 -4.0787809e-02
  8.5258853e-01
  1.6608351e-01
  5.1919174e-01
 -7.4221212e-01
 -3.7976725e-03
 -1.9214998e-01
 -7.1185268e-03
 -1.0204874e-01
  3.9102767e-02
 -5.6729671e-02
 -5.7209567e-03
 -1.3254513e+00
 -2.4629960e-02
 -3.0949566e-01
  2.3186812e-01
  1.2770968e-03
  9.3900459e-03
  2.3172739e-01
 -2.3713960e-01
 -3.0465281e-02
 -8.3276585e-02
 -5.0552528e-02
  4.6809128e-01
 -3.2831323e-01
 -1.1936295e-02
 -1.3702592e+00
  1.5643032e+00
 -1.8253041e-02
  8.9250058e-03
  1.1857288e-01
  1.0550852e-01
  6.1130163e-04
  1.4893507e-03
 -1.5286301e-02
  4.3804460e+00
  1.0771537e-01
 -1.0960501e-01
 -1.0078765e-01
 -1.1997467e-01
  1.1777754e-01
  1.8835975e-01
  1.9269545e-01
  2.6572224e-01
  1.1649035e-01
 -9.9635988e-01
  1.0245796e+00
  1.0400933e-01
 -1.4645676e-01
  1.1021036e-01
  2.5782776e-01
  5.3138590e-01
  1.0073949e-01
  1.0370214e-01
 -1.0579260e-01
 -1.0945867e-01
  1.0461915e-01
  1.0145482e-01
  1.0108042e-01
  1.0919124e-01
  1.0327024e-01
 -1.0096458e-01
  1.0998884e-01
  1.0111433e-01
 -1.0383826e-01
 -1.0067146e-01
  1.0863467e-01
  1.4470343e-01
  1.0339602e-01
 -1.1079628e-01
 -1.0126886e-01
  1.0695617e-01
  1.1235748e-01
  1.0842781e-01
 -1.2460884e-01
 -1.0349271e-01
  1.0177856e-01
 -1.0045187e-01
  1.0884138e-01
 -1.0365701e-01
  1.0614721e-01
  1.0790323e-01
 -6.8226522e-01
 -1.5575068e-01
 -1.0533248e-01
  1.1863374e-01
 -1.0962059e-01
 -1.0729584e-01
  1.0296153e-01
 -1.0692199e-01
 -1.2282858e-01
  1.0375349e-01
  1.8926835e-01
  1.0486446e-01
  1.0156826e-01
 -1.9797972e-01
 -1.0546901e-01
 -1.4752588e-01
 -1.8117949e-01
  4.4326842e-01
 -1.1038138e-01
  1.0279685e-01
 -1.0304812e-01
 -1.0653739e-01
  1.0677032e-01
  1.4493825e-01
  1.0283935e-01
  1.0191329e-01
  1.0312840e-01
  2.5328922e-01
  1.2571208e-01
 -1.0908090e-01
 -1.0301235e-01
 -1.0045592e-01
  1.0009995e-01
  5.8025891e-01
  1.0596623e-01
 -1.2938814e-01
 -1.1207654e-01
  1.0093717e-01
  1.0082797e-01
 -1.0385114e-01
 -1.0649368e-01
  1.0901820e-01
  1.0182034e-01
  1.0823271e+00
 -2.4508700e+00
 -3.1269965e-01
 -1.0316901e-01
 -1.0037105e-01
 -1.2240906e+00
 -1.4797188e-01
  1.1087935e-01
 -1.0934383e-01
 -1.4171228e-01
 -1.0170848e-01
  1.4190203e-01
  1.0216047e-01
  4.0798861e-01
 -1.0887563e-01
 -1.2075713e-01
  1.0449528e+00
 -6.0402268e-01
  1.0425550e-01
  1.0928548e-01
  1.3282439e+00
 -1.0621346e-01
  1.0960140e+00
 -1.0058494e-01
 -1.0489503e-01
 -1.2754244e-01
 -1.9388220e-01
  1.0134108e-01
  1.4898863e-01
  1.1484024e-01
 -1.0693327e-01
  1.2547924e-01
  3.0438805e-01
  2.4959916e-01
 -1.0041631e-01
 -1.3119401e-01
  3.8252586e-01
 -1.0251010e-01
  1.8137412e-01
  1.0196950e-01
 -1.2992045e-01
 -1.1393066e-01
 -1.0743774e-01
  1.0137483e-01
 -1.0037069e-01
 -1.0263984e-01
 -1.0310458e-01
  1.8797866e-01
 -1.1119717e+00
  1.7936383e+00
 -2.9865965e-01
 -4.9947891e-01
  1.0771290e-01
 -3.3654147e-01
  1.0690841e-01
  1.0645211e-01
 -1.0388569e-01
 -1.0695691e-01
 -1.0937323e-01
  2.2190627e-01
 -1.0150971e-01
  1.0789347e-01
 -1.0038632e-01
 -1.5078652e-01
 -1.0037837e-01
 -3.2142615e-01
 -7.2915709e-01
  1.0193913e-01
 -2.7133646e+00
 -7.5482804e-01
  2.1560445e-01
  1.0147683e-01
  1.0302502e-01
 -1.1858369e-01
  1.0282998e-01
  1.0155216e-01
 -1.1252293e-01
  1.0361513e-01
 -1.0236537e-01
  1.2718348e-01
  1.5190172e-01
  2.4521092e-01
  7.9935610e-01
  1.0980581e-01
 -1.8683283e-01
 -1.1369261e+00
  1.0875213e-01
  1.0192670e-01
 -1.0717506e-01
  1.0119619e-01
 -1.0083852e-01
  1.6565782e-01
 -1.1770605e-01
  1.0032420e-01
  1.0169066e-01
 -1.0176285e-01
  8.5062402e-01
  1.0756528e-01
 -1.0046792e-01
 -1.5643619e-01
 -1.0707032e-01
  1.0174090e-01
  1.0093747e-01
  1.0114699e-01
 -1.0205989e-01
  1.0266946e-01
 -1.0197666e-01
  1.0150050e-01
 -1.0227319e-01
  3.2617328e-01
  1.0516413e-01
  1.0118501e-01
  1.4253953e-01
  1.0082266e-01
 -4.0069786e-01
 -1.0919438e-01
  1.3047025e-01
  6.0493445e-01
 -1.5325801e-01
  1.0614059e-01
 -1.0127900e-01
 -1.0337615e-01
 -1.0443082e-01
  1.8874282e-01
  1.1728007e-01
  2.4096386e+00
  1.1935982e-01
  1.0278826e-01
  2.0749339e-01
  1.9595338e-01
 -4.6938708e-01
  1.0720897e-01
  1.9364196e-01
 -1.0084268e-01
  2.7366492e-01
 -1.0587923e-01
  1.0365511e-01
 -1.0810885e-01
 -1.0447552e-01
 -1.0271534e-01
 -1.0167427e-01
  1.1273643e-01
  1.0616722e-01
  1.0373016e-01
 -1.1602581e-01
 -1.0466883e-01
  1.0076177e-01
  1.0220128e-01
  1.0228058e-01
 -1.5484476e-01
  1.0719883e-01
 -1.0764548e-01
 -1.0070864e-01
 -1.1507802e-01
 -1.0316648e-01
  1.0460705e-01
  1.1613457e-01
  1.0100991e-01
  1.5116450e-01
  1.0394953e-01
  2.6861066e-01
  4.5113510e-01
 -1.0209288e-01
 -1.0801082e-01
  1.1186714e-01
  1.0790104e-01
 -1.0013589e-01
 -1.0555430e-01
 -1.3515569e-01
 -1.1229020e-01
 -1.0779097e-01
  1.0529310e-01
 -1.1685004e-01
  4.5908406e-01
 -1.0054058e-01
  1.0430000e-01
 -7.6248723e-01
 -1.2122235e-01
  1.0203278e-01
  1.3457601e-01
  1.3104568e-01
  1.0854305e-01
  2.1370712e-01
 -1.1078759e-01
 -1.1476827e-01
 -1.0056370e-01
 -1.0558257e-01
 -1.1969738e-01
  1.0095012e-01
 -1.0084478e-01
  1.0486592e-01
 -1.0815032e-01
 -2.3605371e-01
 -1.0011367e-01
 -2.6674655e-01
 -1.1527150e-01
  1.0601027e-01
 -1.0057152e-01
  1.0987253e-01
  1.0231721e-01
 -1.0629278e-01
 -1.0394581e-01
 -1.1196077e-01
  1.0497981e-01
  1.8144956e-01
  1.0317601e-01
 -1.2615442e-01
  1.2898074e-01
 -6.9007969e-01
  1.9164579e+00
 -1.0037205e-01
 -1.0371382e-01
  1.1097650e-01
 -1.0184873e-01
 -1.0886358e-01
 -1.0515907e-01
 -1.6972929e-01
 -1.0264788e-01
 -1.2130871e-01
 -1.0171627e-01
  1.0490004e-01
  2.7619880e-01
  1.0544716e-01
 -1.1350737e-01
 -4.7783515e-01
 -1.8069226e-01
  1.6289265e-01
  1.3440517e-01
 -4.8602608e-01
 -1.0380586e-01
  7.2586387e-01
 -1.0319249e-01
 -1.0191488e-01
 -1.0117380e-01
 -1.0341685e-01
 -1.0513290e-01
 -1.1932667e-01
  1.1284920e+00
 -1.0055819e-01
  1.1758925e-01
 -4.0580809e-01
 -1.4617305e-01
 -3.0465505e-01
  1.2162516e-01
  1.0390627e-01
 -1.0052637e-01
  1.0005385e-01
 -1.0225002e-01
 -1.0560470e-01
 -1.0205306e-01
 -1.0442355e-01
  1.1116670e-01
  1.3502827e-01
  1.0166284e-01
 -1.2568676e-01
  1.0561415e-01
 -7.2736424e-01
  2.9475006e-01
  1.0315686e-01
 -1.5191361e-01
 -1.2390468e-01
 -1.0701989e-01
 -1.0901325e-01
 -1.0203581e-01
 -1.0539833e-01
 -1.0654692e-01
 -1.0126334e-01
 -1.0384626e-01
  1.1516047e-01
  1.0291299e-01
  1.0685480e-01
 -1.0237999e-01
  8.9699364e-01
 -1.1180391e-01
  1.0845934e-01
  1.0859374e-01
  1.0433151e-01
 -1.0027161e-01
  3.4748349e-01
 -1.0410114e-01
 -1.0317350e-01
 -1.0795328e-01
 -1.1221246e-01
 -1.0431262e-01
  1.0112678e-01
 -1.6382383e-01
  1.8779010e-01
  1.3448671e-01
  2.8268764e+00
 -2.0694867e-01
  1.6400603e+00
  1.0471916e-01
 -2.1626997e-01
  3.7319699e-01
 -1.0176054e-01
 -1.0499042e-01
 -1.1248127e-01
 -1.1326287e-01
 -1.1256015e-01
  1.0884826e-01
  3.8727725e-01
  1.0050494e-01
 -1.0165747e-01
  1.0017276e-01
 -2.1973690e-01
  4.6905285e-01
  1.4532278e+00
 -1.0042328e-01
 -1.0151226e-01
 -6.9249451e-01
  1.3494304e-01
  1.0720783e-01
 -1.0789429e-01
 -1.0668193e-01
 -1.0438332e-01
 -1.0482443e-01
  1.9582273e-01
  1.0575811e-01
 -1.0034952e-01
 -1.1572868e-01
 -1.3825370e+00
 -1.0216987e-01
 -2.2726595e-01
  1.0214385e-01
 -1.0052409e-01
  4.8249975e-01
 -1.0292190e-01
  1.0278428e-01
 -1.0470188e-01
 -1.0158641e-01
 -1.1431217e-01
  1.0787085e-01
  3.4302342e-01
 -1.0009900e-01
  1.2738633e-01
  2.2034870e-01
  1.1796604e-01
  2.6066157e-01
 -1.5119497e+00
  1.0531288e-01
 -1.6041889e+00
  5.3711498e-01
  2.8338709e-01
 -1.0957508e-01
  1.0338815e-01
  1.0113449e-01
  1.0463212e-01
 -1.0147352e-01
  1.0306679e-01
 -1.0345228e-01
  1.0326622e-01
  1.0143311e-01
 -1.0022278e-01
 -1.0330117e-01
 -1.0595438e-01
 -1.0667304e-01
  1.0155879e-01
  1.0078438e-01
  1.0091218e-01
  1.0132974e-01
 -1.0098802e-01
 -1.0536087e-01
 -1.0285645e-01
  2.9662031e-01
 -1.1026910e-01
  1.1450645e-01
  1.0079740e-01
 -1.0697623e-01
  1.0005596e-01
 -3.3094200e-01
  1.1243594e-01
 -1.0818868e-01
 -1.1017415e-01
 -1.0553879e-01
  1.1325914e-01
 -1.0554039e-01
 -1.0523134e-01
  1.0195795e-01
  1.0262889e-01
  1.0461931e-01
 -1.0152297e-01
 -1.0060635e-01
  1.0909963e-01
  3.3501321e-01
  9.7111124e-01
  1.0045292e-01
 -1.0197417e-01
  1.0357512e-01
  1.0092056e-01
 -1.0130780e-01
  7.8318238e-01
  1.0258251e-01
  1.0688145e-01
 -1.0415757e-01
 -1.1026458e-01
  1.0642990e-01
  1.1071141e-01
  1.0355597e-01
 -1.0056618e-01
  1.2561762e-01
 -1.9441043e-01
  1.4583072e-01
  1.0052187e-01
  1.0865845e-01
  2.2872132e-01
  1.1109209e-01
  3.5524815e-01
 -1.1225136e-01
 -1.0319926e-01
  1.0600410e-01
  1.1035407e-01
  1.0740718e-01
 -1.0107299e-01
  1.0574200e-01
  1.0970187e-01
 -1.1445624e-01
 -5.2779943e-01
 -1.3226439e+00
 -1.0431346e-01
 -1.0676267e-01
 -1.0251950e-01
 -1.0051714e-01
 -1.0278099e-01
  1.0741981e-01
 -1.0047726e-01
 -1.0855218e-01
  1.0030189e-01
  1.0375647e-01
 -1.2134703e-01
 -1.0368963e-01
  1.5140569e-01
  3.8628086e-01
 -5.6845218e-01
 -1.2574220e-01
  1.1337790e-01
  1.0086234e-01
  1.0497799e-01
 -1.2163061e-01
  4.8238331e-01
  1.0278275e-01
  1.0144385e-01
  1.0373005e-01
 -1.0516306e-01
  1.2038020e-01
 -1.0470487e-01
 -1.0281230e-01
 -1.0104395e-01
  7.3001659e-01
 -1.7892997e-01
  1.8645653e-01
 -1.0096967e-01
  1.1300499e-01
 -2.1634316e-01
 -1.0156127e-01
 -1.0164030e-01
  1.0436505e-01
 -1.0511027e-01
  1.0164898e-01
 -1.0613256e-01
  1.2608275e-01
  1.6067083e-01
  1.0920404e-01
  2.1445926e-01
 -4.5138952e-01
 -6.4698517e-01
  1.6334907e+00
 -1.2236650e+00
 -1.2510732e-01
  2.6243201e-01
  1.4910202e-01
 -1.2102892e+00
 -1.0746416e-01
 -1.1094650e-01
 -2.1475793e-01
  1.0612717e-01
  1.0218908e-01
  3.5973024e-01
 -3.1060305e-01
 -1.0153545e-01
  7.8947508e-01
  2.8053206e-01
 -1.4006980e-01
 -5.4835004e-01
  1.5525810e-01
 -1.0598339e-01
  1.9797038e+00
  3.9317998e-01
  1.0244648e-01
 -1.0107139e-01
 -1.0112973e-01
  1.0263152e-01
 -1.2427314e-01
 -1.0373326e-01
  2.9034498e-01
  1.3828558e-01
  6.5456235e-01
 -1.0373890e-01
 -6.0850859e-01
  2.0211027e+00
  1.0360511e-01
 -1.0122863e-01
  1.0130178e-01
  1.0253096e-01
  1.0021462e-01
 -1.0064735e-01
  1.0384189e-01
 -1.0498393e-01
  1.0685369e-01
 -1.1181046e-01
 -1.0043856e-01
 -1.2956643e-01
 -1.0490338e+00
 -1.8901008e-01
 -6.5718883e-01
  4.2148972e-01
 -1.1184546e-01
  2.2027758e-01
 -8.2746184e-01
  3.2987678e-01
 -1.1671347e-01
  1.1341264e-01
 -1.0250103e-01
 -1.0214842e-01
  1.0663994e-01
  1.0835204e-01
 -1.0257845e-01
  1.1927900e-01
  1.0420854e+00
 -7.6963365e-01
  1.0036775e-01
 -1.1898137e-01
  3.8268265e-01
  6.4986801e-01
 -1.0033944e-01
  1.0077891e-01
 -1.0049026e-01
 -1.0675865e-01
 -7.1129996e-01
 -1.1256503e-01
 -1.0320625e-01
 -1.1386912e-01
 -3.4680861e-01
 -1.0893964e-01
 -1.0261430e-01
 -8.4174764e-01
 -9.8276126e-01
  1.0122502e-01
  1.0538253e-01
 -3.3923736e-01
 -1.0057538e-01
  1.1987353e-01
 -1.0292070e-01
 -1.0159026e-01
 -1.0185302e-01
 -1.0180055e-01
 -1.0032191e-01
 -1.1149728e-01
 -1.0454623e-01
 -1.0305236e-01
 -1.0223695e-01
 -1.0620340e-01
  1.0455380e-01
 -9.3510270e-01
  1.0078145e-01
 -1.0277442e-01
  1.0193138e-01
  1.0067878e-01
  1.0162216e-01
 -1.2173259e-01
 -1.0145979e-01
 -1.1817992e-01
 -1.0197263e-01
 -1.0193291e-01
 -1.0539597e-01
 -1.0056476e-01
  1.0142511e-01
 -1.0440820e-01
 -1.0134101e-01
  1.0584189e-01
  1.0340600e-01
 -1.5104079e-01
  1.0287218e-01
  1.1737712e-01
  1.0761910e-01
 -1.1367317e-01
 -1.0097779e-01
 -1.1184550e-01
 -1.1331271e-01
 -1.0702088e-01
 -1.0139289e-01
 -1.0748219e-01
 -1.0167757e-01
 -2.8476399e-01
  1.0075520e-01
 -1.4491206e-01
  1.0478252e-01
 -1.0346514e-01
  9.8114747e-01
  1.0679293e-01
  1.0239986e-01
 -1.0566591e-01
 -1.0515984e-01
 -1.0206777e-01
  1.0100693e-01
 -1.0170524e-01
 -1.0559660e-01
 -1.0211022e-01
 -1.0611551e-01
  1.0323747e-01
  1.0110012e-01
 -1.0215527e-01
  1.0307379e-01
  1.1306635e-01
 -1.0072769e-01
  1.2097751e-01
  1.1553774e-01
 -1.0178544e-01
 -1.0671481e-01
 -1.1184600e-01
 -1.0188348e-01
  1.1036137e-01
 -1.4787625e-01
 -1.1003962e-01
  1.1043283e-01
  1.0085561e-01
  8.1446803e-01
  1.4515920e-01
  1.0982551e-01
 -1.0215255e-01
  2.1254691e-01
 -2.0690766e-01
  1.1202559e-01
 -1.0337717e-01
 -1.0556912e-01
  1.0461836e-01
 -1.3014294e-01
 -1.0155927e-01
 -1.2013075e-01
 -1.6072237e-01
 -1.2324800e-01
  2.8995457e-01
 -1.0167241e-01
 -6.3651162e-01
  1.0040684e-01
  1.8146783e-01
 -1.0276368e-01
  9.4069344e-01
 -1.0153991e-01
 -1.0597216e-01
 -1.0397342e-01
 -1.1421476e-01
  1.0581093e-01
 -1.0223959e-01
 -1.8978709e-01
 -1.0812872e-01
 -1.2530400e-01
 -1.3173993e+00
  1.0000417e-01
  1.4754251e-01
  1.0179786e-01
  5.8762574e-01
  1.3300958e-01
  1.1106497e-01
 -1.1910667e-01
 -1.0665370e-01
 -1.1224476e-01
 -1.1251710e-01
 -1.0188141e-01
 -1.1756694e-01
 -1.2707967e-01
 -1.0344297e-01
  2.8625798e-01
 -6.3357711e-01
  3.8124299e-01
  1.0165019e-01
  1.2337016e-01
  1.0056421e-01
  1.5338004e-01
 -1.8786989e-01
  1.1805014e-01
 -1.0189445e-01
 -1.0053957e-01
 -1.0169891e-01
 -1.0320330e-01
 -1.1287634e-01
 -1.0826350e-01
 -1.0036460e-01
 -3.1671420e-01
  1.1699836e-01
  1.0707902e-01
 -6.6608077e-01
 -1.0236088e-01
  1.3674635e-01
  1.0671356e-01
  6.5270388e-01
 -1.0182422e-01
 -1.0894310e-01
 -1.2242742e-01
 -1.0256035e-01
 -1.0518113e-01
 -1.1482482e-01
 -1.0196244e-01
 -1.0124575e-01
  1.0084154e-01
  1.5724514e+00
 -7.6511866e-01
  1.3302971e-01
  1.1434691e-01
  3.5478896e-01
  5.0899851e-01
  1.0185912e-01
 -1.1116009e-01
 -1.0184303e-01
 -1.0395247e-01
 -1.0185382e-01
 -1.1891229e-01
  1.0334031e-01
  1.0055742e-01
 -1.0232294e-01
  3.1162888e-01
  1.0061386e-01
 -1.0039543e-01
 -1.7701058e-01
  1.0405973e-01
  1.0515105e-01
 -1.0257016e-01
 -1.0022149e-01
  1.0056467e-01
 -1.1043809e-01
 -1.0202146e-01
 -1.0137663e-01
 -1.0648531e-01
 -1.9914705e-01
  1.0020576e-01
 -2.0645654e-01
 -1.8695548e-01
  1.0245984e-01
 -2.5462931e-01
 -4.5504174e-01
 -1.0028713e-01
 -3.3923182e-01
  1.0175413e-01
  2.3347759e-01
  1.0112269e-01
  1.1760743e-01
  1.0022228e-01
 -1.0101327e-01
  1.0071272e-01
 -1.0871087e-01
 -1.1449182e-01
 -1.0176291e-01
  1.1577256e-01
 -2.1713350e+00
 -3.9655846e-01
  1.8208745e-01
 -1.0205828e-01
 -4.1924894e-01
 -1.1842012e+00
  5.7555538e-01
 -1.0532039e-01
  1.4589816e-01
 -1.0413487e-01
 -1.0399117e-01
  1.0038537e-01
  1.0000858e-01
  1.0188267e-01
 -2.2849780e-01
  1.0353386e-01
 -1.3919607e-01
  1.0698612e-01
  1.0469058e-01
 -1.0741840e-01
 -1.0848482e-01
  3.6848703e-01
  1.6012979e-01
  1.1683267e-01
 -1.0446834e-01
 -1.0192515e-01
  1.0330145e-01
  1.0563140e-01
  1.0397009e-01
 -1.0315736e-01
 -1.0100958e-01
 -1.1754684e-01
  1.0729055e-01
  1.0020036e-01
  1.2906758e-01
  1.0140114e-01
  1.0252339e-01
 -1.1460372e-01
 -1.3163823e-01
  1.0132257e-01
 -1.1134180e-01
 -1.2270346e-01
  2.8421596e-01
  1.1530852e-01
 -1.1004609e-01
  1.0234860e-01
  3.9170188e-01
  1.1008316e-01
 -4.1382968e-01
 -1.0170495e-01
 -1.0041101e-01
 -1.1119138e-01
  5.3507477e-01
 -1.1035939e-01
  7.9275554e-01
  1.2905294e-01
  1.9354510e-01
 -1.0403442e-01
 -1.1605939e-01
  1.2074842e-01
 -1.1118466e-01
  1.2381760e-01
 -1.0211945e-01
  2.1074507e-01
  1.0080564e+00
 -2.0857191e-01
  1.0722604e-01
 -1.0083625e-01
  1.1088471e-01
  1.0192412e-01
  1.1428026e+00
  1.0065624e-01
 -1.0118657e-01
  3.3279318e-01
 -1.0207503e-01
 -2.7270862e-01
  1.0556915e-01
 -3.7885407e-01
  1.0456704e-01
 -1.0094282e-01
 -5.5636436e-01
  5.3639621e-01
  1.0817612e+00
  1.0105495e-01
  6.2497032e-01
 -1.7210196e+00
 -4.4404423e-01
  1.0100074e-01
 -1.0175045e-01
 -5.0930065e-01
  3.1051663e-01
  1.0753755e-01
  1.1873335e-01
  1.1149216e-01
 -1.0547822e-01
 -1.0149267e-01
 -4.0687951e-01
  1.1994908e+00
  1.0343137e-01
  1.0859530e-01
  1.0210589e-01
 -1.8489189e-01
  1.0972823e+00
  1.1060674e-01
  1.1287217e-01
  1.0282353e-01
 -1.4489600e-01
  1.0955369e-01
  1.1868362e-01
  1.0165109e-01
  1.0033983e-01
  8.6459059e-01
  4.4620705e-01
  3.5046536e-01
  4.4992593e-01
 -1.2948696e-01
 -3.0777609e-01
  1.0196310e-01
  6.9174659e-01
  1.1361300e-01
  1.3078304e-01
  1.6557334e-01
  1.1135018e-01
  1.1842867e-01
 -1.1179544e-01
 -1.6706793e-01
  1.2064186e-01
 -6.8090099e-01
  3.1572950e+00
 -8.2884264e-01
  2.4612753e+00
 -1.0028372e-01
 -2.8623393e-01
  3.1281888e-01
 -1.2192386e+00
  1.0970397e-01
 -1.0096978e-01
 -1.8034551e-01
  1.0026040e-01
  1.0006297e-01
 -1.0151915e-01
  1.5351382e-01
  1.0563564e-01
  1.0161923e-01
  3.7347651e-01
 -1.6373801e-01
 -9.0239739e-01
  1.1259488e-01
  4.4505244e-01
 -1.0660567e-01
  1.5596883e-01
  1.0316588e-01
  1.0330660e-01
 -1.7876604e-01
  3.9229307e-01
 -1.0308931e-01
 -2.6266357e-01
  1.0055639e-01
  1.0998457e-01
  2.6659039e-01
 -1.5651029e+00
  1.7096760e+00
  1.7385514e+00
  1.0110310e-01
  4.3842375e-01
 -4.2498094e-01
  6.9279009e-01
  1.0522884e-01
 -1.0467196e-01
  1.0158581e-01
 -6.4709842e-01
  2.3750108e-01
 -1.1420137e-01
  1.0024127e-01
 -1.0549542e-01
 -1.4288536e-01
 -8.9293772e-01
  8.4281993e-01
  6.4500558e-01
 -2.5254846e-01
  1.0044994e-01
  1.6449792e+00
  1.5475447e+00
  1.0715519e-01
 -1.0399003e-01
 -1.0425648e-01
 -1.9236684e-01
 -1.0639360e-01
 -1.0547651e-01
  6.6037130e-01
  2.6614738e-01
 -1.0270088e-01
 -1.0069481e-01
  1.0053544e-01
  9.6694040e-01
  1.0349626e-01
  1.1608990e-01
 -4.0804070e-01
  2.3785045e+00
 -1.0593767e-01
 -1.0177363e-01
 -1.0281863e-01
 -1.0658643e-01
 -1.2236225e-01
 -1.0174770e-01
 -1.0185668e-01
  1.0308766e-01
 -1.0342100e-01
 -1.1383574e+00
  1.4369209e+00
 -1.7211771e-01
  1.0156465e-01
  1.0270882e-01
  2.1091545e-01
 -2.4804470e-01
  1.0034544e-01
 -1.0110896e-01
  1.0376143e-01
  1.0512970e-01
 -1.1341439e-01
  1.0253797e-01
 -1.2217513e-01
 -1.0367884e-01
 -1.1536068e-01
 -2.5960165e-01
 -2.8229436e-01
 -1.0575868e-01
  1.2033577e-01
  1.1056609e-01
  2.5513530e-01
 -1.1798926e-01
 -1.1015500e-01
  4.1893440e-01
  2.3612428e-01
 -1.3011308e-01
 -1.0102724e-01
  1.6449654e-01
  1.0395200e-01
  1.1799569e-01
  1.0113580e-01
  5.3254503e-01
  6.0731798e-01
  1.0173524e-01
 -1.0099695e-01
  1.3353999e-01
  1.1581686e-01
  1.0417104e-01
  1.2283968e-01
 -1.0093953e-01
  3.0052391e-01
  1.0308279e-01
 -1.0372177e-01
  1.0088881e-01
  1.1148500e-01
 -1.0463645e-01
 -1.1872971e-01
 -1.3978215e+00
 -2.4987729e+00
  2.5906730e-01
  1.0643139e-01
  5.5484426e-01
 -3.6312228e-01
 -1.9203442e-01
 -1.2742937e-01
 -6.9482541e-01
  1.0023967e-01
  2.7554932e-01
  1.0354968e-01
  1.1502258e-01
 -1.1745800e-01
 -1.5850167e-01
 -4.8066938e-01
  1.7871010e-01
  1.0183875e-01
 -1.0031658e-01
  1.0364792e-01
  1.0071119e-01
  7.2215819e-01
 -4.7744945e-01
  1.0692257e-01
  2.4588203e-01
 -1.0447436e-01
  1.0027737e-01
 -1.0364995e-01
 -1.0278284e-01
  2.3503414e-01
  1.0163915e-01
 -1.1332646e-01
 -1.1250374e+00
  1.1440340e+00
  3.5954928e-01
  1.0551773e-01
  1.1075842e-01
  1.0673980e+00
  1.0028204e-01
 -1.1037698e-01
 -1.0304261e-01
  5.9671456e-01
 -1.0443754e-01
 -1.0080049e-01
  1.0192407e-01
 -4.0211168e-01
 -1.0032488e-01
  5.3331208e-01
  1.7630330e-01
  1.6743842e+00
 -1.0031712e-01
 -1.1334839e-01
  5.6093562e-01
 -1.0058780e-01
 -1.0550262e-01
  1.0962937e-01
 -1.3683283e-01
 -1.0059605e-01
  1.2378328e-01
  1.0077911e-01
  1.5522127e-01
 -1.0027997e-01
 -1.0153099e-01
 -2.8233102e-01
  4.5060521e-01
 -2.1546712e+00
 -1.2295909e+00
 -1.0526763e-01
  3.0473524e-01
 -9.0688461e-01
 -7.0887959e-01
 -1.0071800e-01
  1.4937480e-01
 -1.5897682e-01
  4.0646610e-01
 -3.0833572e-01
 -2.8972730e-01
  4.9243131e-01
  1.0192230e-01
  1.8131573e-01
  1.1826229e+00
  3.2334486e-01
 -1.0052352e-01
  6.7565519e-01
  1.0063934e-01
  1.0045820e-01
  1.0028834e-01
 -1.0104820e-01
  2.3530939e-01
  6.3654822e-01
 -1.1780528e-01
  1.0214198e-01
  2.2179864e-01
  5.0036812e-01
  1.0110829e-01
  5.1666975e-01
  2.9980338e-01
  2.8177729e+00
  1.4017079e+00
 -1.0658465e-01
 -7.5135404e-01
  8.3612686e-01
 -1.0533286e-01
 -1.0263705e-01
 -1.0635123e-01
  5.6544852e-01
 -1.7402700e-01
 -1.0076420e-01
 -1.4833958e-01
  1.2259168e-01
 -4.6394083e-01
 -2.0295987e+00
  5.1806313e-01
  3.1238234e+00
  1.0446392e-01
 -1.8255883e-01
 -1.0115452e-01
  5.1500940e-01
 -8.4052718e-01
 -1.0595059e-01
 -1.0399058e-01
 -1.0104018e+00
  7.4867427e-01
 -2.7796936e-01
  5.6027722e-01
 -1.0094538e-01
  1.9703341e-01
  3.3391047e-01
  1.3046823e-01
  1.0148601e-01
 -1.4538249e+00
  8.6533457e-01
 -2.1942759e-01
 -1.2287376e-01
 -2.6228464e-01
 -1.0570003e-01
 -1.0117918e-01
  2.5143284e-01
  1.6057882e-01
 -1.2117077e-01
 -1.0164268e-01
  7.5837225e-01
 -1.0588986e-01
  1.0526707e-01
 -1.9253665e-01
 -1.9440166e+00
 -1.0033673e-01
  1.0075088e-01
 -3.4300184e-01
 -1.1155179e-01
  1.3398314e+00
 -1.0594684e-01
 -1.1779460e-01
 -1.0962536e-01
 -1.1446938e-01
  1.0241727e-01
  1.0387254e-01
  1.6559780e-01
 -1.0530233e-01
 -1.2508622e-01
  1.3972089e+00
 -1.4013791e-01
 -1.2544415e+00
 -1.0673887e-01
 -2.4453611e+00
 -2.8170773e-01
  1.1131223e-01
 -1.0080136e-01
 -1.2098134e-01
 -1.0405625e-01
 -1.0318286e-01
  1.1442244e-01
  1.0183039e-01
  1.0340255e-01
 -1.0094482e-01
 -1.0350850e-01
  1.9985075e-01
  1.0422046e-01
  1.0149299e-01
 -1.0064848e-01
 -1.0516299e-01
 -1.1385143e-01
  1.0950290e-01
 -1.1913094e-01
 -1.0725516e-01
 -1.0560377e-01
 -1.0151449e-01
 -1.0603632e-01
  1.0499942e-01
  1.1339139e-01
  1.0048129e-01
 -1.0137024e-01
 -1.6310216e-01
 -1.0502265e-01
  1.0736743e-01
 -1.0203619e-01
 -1.0245789e-01
 -3.8238731e-01
 -1.1828110e-01
 -1.1337348e-01
 -1.0222050e-01
 -1.1029845e-01
 -1.0688154e-01
  1.0573282e-01
  1.0217450e-01
 -1.0836989e-01
 -1.2561771e-01
  1.0242231e-01
 -2.7962500e-01
 -2.5896305e-01
  1.0422371e-01
 -1.0582897e-01
  2.1616250e-01
 -1.0072262e-01
 -1.0001817e-01
  1.0095018e-01
 -1.0281347e-01
  1.0302891e-01
  1.0431740e-01
  1.0531347e-01
  1.0086237e-01
 -1.0050503e-01
 -1.0415192e-01
 -1.0198797e-01
  6.8531346e-01
 -1.0187801e-01
  1.3615124e-01
 -1.1436072e-01
 -1.0787366e-01
  2.1331844e-01
  1.0775290e-01
 -1.0866486e-01
  1.0087667e-01
 -1.0105328e-01
 -1.0339829e-01
 -1.0305319e-01
 -1.4621869e-01
  1.0277022e-01
  1.0528160e-01
 -1.8861657e-01
 -3.3258727e-01
  3.7324595e-01
  1.2788942e+00
  1.0207002e-01
  1.0275579e-01
 -3.8737911e-01
 -1.3533559e-01
 -1.0638223e-01
 -1.0959640e-01
 -1.1892016e-01
 -1.1471079e-01
  1.1172035e-01
  1.0555072e-01
  1.0730183e-01
  1.0023263e-01
 -1.0426717e-01
 -8.4763169e-01
 -1.4413437e-01
  1.0166267e-01
 -1.0296046e-01
  8.2824898e-01
  1.1108501e-01
  1.3193047e-01
  1.0229576e-01
 -1.0159520e-01
  1.0226326e-01
  1.0783496e-01
  1.0867783e-01
  1.1179283e-01
  1.0207266e-01
 -1.0163328e-01
 -1.0795474e-01
  1.1438954e+00
  1.6226017e-01
  1.0282808e-01
 -1.0135805e-01
  1.0154648e-01
  5.9355855e-01
  1.0086334e-01
 -1.0250887e-01
  1.0512931e-01
 -1.0922621e-01
  1.1529306e-01
 -1.0118139e-01
  4.5381975e-01
  1.0120738e-01
  1.0109383e-01
 -1.0381451e-01
  1.0984303e-01
 -4.3536896e-01
 -1.7004292e-01
 -1.0613692e-01
 -1.4801963e-01
 -1.0849433e-01
 -1.0327304e-01
 -1.0077766e-01
 -1.0309356e-01
  1.0091340e-01
 -1.3143067e-01
  1.0400093e-01
  1.0105772e-01
  1.1642757e-01
  1.1120962e-01
  1.0204776e-01
 -5.6811696e-01
 -1.0492678e-01
  2.9349554e-01
  1.0034791e-01
  1.0137970e-01
 -2.5153926e-01
  1.0627565e-01
 -1.0770858e-01
 -1.0095029e-01
  1.0824725e-01
 -1.0248510e-01
  1.0850400e-01
  1.0334989e-01
  1.0125452e-01
 -1.2561332e-01
 -1.8552895e-01
  2.8046173e-01
  1.1766383e-01
 -1.0192243e-01
 -1.2486836e-01
  1.0239047e-01
 -1.1608605e-01
 -1.0127561e-01
 -1.0764845e-01
  1.0687402e-01
 -1.2884021e-01
  1.0661872e-01
 -1.0198818e-01
 -1.0750103e-01
  1.0031547e-01
  1.0241459e-01
  1.0719728e-01
 -5.1753283e-01
 -1.0090095e-01
 -1.0658082e-01
 -1.0262748e-01
  1.9400337e-01
  1.3802014e-01
  1.1642035e-01
 -1.0748026e-01
  1.0206877e-01
 -1.0174531e-01
 -1.0362670e-01
