nep3 4 Cu H C O 
cutoff 6 4
n_max 12 8
basis_size 12 8
l_max 4 2 0
ANN 80 0
 -2.8102782e-01
 -1.1837890e-01
  2.3000703e-05
  4.6877721e-01
  2.3063434e-04
 -5.8803059e-02
 -3.9903763e-01
  6.3086100e-02
  2.5977730e-04
 -3.9786771e-01
 -7.6645009e-02
 -6.8738341e-02
  1.0936563e-01
  2.6863272e-05
 -5.6400344e-02
 -5.9544426e-01
  6.8119997e-03
  8.3830031e-03
  1.4514619e-03
  1.7783324e-01
  1.4866053e-03
 -3.3090208e-04
 -8.4561208e-04
  3.3503957e-02
  3.1662661e-05
  4.3480242e-05
 -1.1642760e-06
 -5.4155099e-01
 -3.5361905e-02
 -4.7845030e-03
 -7.1462843e-04
 -5.8038863e-03
 -1.4251995e-01
 -1.2905575e-06
  6.1920793e-05
  1.4884959e-04
 -8.6060375e-01
 -1.4106186e-04
 -5.1435851e-02
 -1.1619829e-04
 -1.3044244e-01
 -5.0274257e-02
 -9.3243527e-01
  4.8851645e-05
  5.4631854e-04
 -2.5255984e-01
 -6.1843257e-02
 -1.2943707e-01
 -4.9824628e-01
 -3.5314178e-01
  1.9628138e-05
 -3.3459738e-02
  1.4293263e-05
 -1.5398544e-02
  7.7829327e-07
 -8.3311979e-04
  1.7042825e-05
  1.5660480e-06
  2.2786859e-05
  2.0711350e-05
  2.2845899e-05
  3.4345692e-05
 -1.2462599e-05
  3.7821985e-05
 -1.6635217e-05
  8.9244932e-05
  2.8949496e-05
 -7.1893101e-06
 -6.5742688e-06
 -7.2284500e-05
  9.7478460e-07
  5.2982345e-05
 -9.4561357e-05
 -6.2513231e-05
  3.8753191e-05
 -2.9469971e-05
  7.9752863e-05
  2.0022484e-05
 -1.3465429e-05
  4.0469462e-05
  1.3214303e-05
  6.4482824e-06
 -1.6155400e-05
  6.7832734e-05
  4.4335877e-05
  2.6504797e-05
  7.0699957e-06
  4.1429437e-05
 -3.1826254e-05
 -7.0103088e-06
 -2.5458252e-05
  8.2812527e-05
  5.4096879e-05
  4.0157606e-06
 -2.3167056e-05
 -1.9898138e-05
  2.7057122e-05
  5.9439203e-06
 -1.2713514e-05
  1.6822070e-05
  4.4637414e-05
  1.9019926e-05
 -5.5917621e-06
  1.1714150e-05
 -3.7003010e-05
  2.4998601e-05
 -5.8996575e-06
  7.9347128e-06
  4.5515480e-06
 -1.8823837e-05
 -6.8414120e-06
  6.8422225e-05
 -7.1843501e-06
  3.6388115e-05
 -5.2649477e-05
 -1.9082461e-05
  1.7369413e-05
  5.6666431e-07
 -3.9888822e-05
  3.3866483e-05
 -7.6666493e-06
 -3.6987365e-06
 -3.3957194e-06
 -1.9577534e-05
 -2.9791234e-05
  6.7216838e-06
  3.2961620e-05
  2.2864395e-05
  1.9153580e-05
 -2.4662942e-05
 -6.8682489e-06
  4.2927273e-05
 -2.3222922e-06
 -3.8854114e-06
 -2.6263369e-05
  8.0240461e-06
  4.6038600e-05
 -9.3090904e-07
 -1.2502868e-05
 -1.7197375e-04
  3.0486173e-05
  1.0919271e-05
 -2.7270148e-06
  6.4969026e-06
  4.8550341e-05
 -3.6981437e-05
 -2.8856088e-05
  7.1260554e-05
 -3.1056206e-06
 -1.6784062e-06
 -1.0508957e-04
  9.1305410e-06
  1.2525825e-05
 -3.3652716e-05
 -5.5661243e-05
 -3.9442522e-05
  7.4876887e-05
 -1.3548852e-05
 -6.2308733e-05
 -4.3284199e-05
 -7.6914177e-05
  4.9994078e-06
  1.5553203e-05
 -9.7437742e-06
  1.9392963e-05
  6.4947985e-06
  2.5727026e-05
  1.7294711e-06
  1.8042441e-05
  4.9145310e-06
  1.7048747e-05
 -4.1898486e-05
 -1.5545325e-05
 -1.6448876e-05
 -4.8106140e-01
 -1.6501902e-02
  1.0837816e-01
  4.7621068e-01
  1.2544644e-01
 -5.0347626e-02
  1.6422616e+00
  3.1247330e-01
 -2.0790966e+00
 -2.0872457e-01
  7.9430044e-01
 -8.0239683e-01
  2.5824147e-01
  7.2002929e-01
  7.5085872e-01
 -2.3739100e-01
 -1.4052449e+00
  7.4013168e-01
  3.7927803e-01
  4.5523465e-02
 -9.2418104e-02
 -2.2733281e+00
  5.0350893e-01
  2.9422286e-01
 -1.7306406e+00
  4.5937875e-05
 -9.1205251e-01
 -2.8747988e+00
  7.8093398e-01
  8.0451548e-01
 -5.9091240e-01
  1.5780772e+00
 -1.6188618e-02
 -2.5386092e-01
 -1.2782462e+00
 -1.3335629e+00
  6.3673861e-02
 -2.9115787e+00
  2.6632223e-04
 -7.3553228e-01
  1.4613360e+00
  6.5606183e-01
 -3.6084464e-01
 -4.9850604e-01
 -1.1764789e+00
 -1.0080742e+00
 -2.0403826e+00
 -1.0404073e-01
 -3.3749846e-01
 -2.1534529e+00
 -1.3419168e-02
 -2.7970722e-01
 -5.7662955e-06
  6.0458264e-05
 -9.5818120e-01
  8.6578775e-06
  7.7108190e-05
  3.1257879e-02
 -1.1163377e-04
  2.0689906e-05
 -1.1352116e-05
  5.5527322e-05
 -1.2021140e-05
  4.7965423e-06
  4.9353621e-06
 -6.0760735e-06
  3.7492068e-06
 -2.5302923e-05
 -6.4173102e-05
  1.2902309e-04
 -7.5641615e-06
  3.8526254e-05
  8.8270617e-06
  6.9543064e-05
  3.4202787e-07
  1.2640455e-05
 -1.7556433e-05
  4.8802717e-06
 -2.4405066e-05
 -5.0118182e-05
  3.2601394e-05
  7.4363321e-05
  1.4244379e-05
  1.1016887e-05
 -1.9910551e-05
  6.1340281e-05
 -5.3926142e-06
 -4.2137359e-05
  4.1269568e-06
 -5.9625785e-05
 -5.5199751e-05
  1.9814353e-05
  9.0726207e-06
 -5.2272262e-05
 -6.3077632e-06
  2.2476541e-05
  5.5272139e-05
  2.0494441e-05
 -5.5033739e-05
  1.0354444e-05
 -1.6469827e-05
 -3.1574120e-05
  2.9673653e-05
  1.7243723e-05
 -4.6347213e-06
  1.8944987e-05
  1.2129612e-05
 -1.0054583e-05
 -5.7337998e-05
  1.3901035e-05
 -1.2791455e-05
  1.4864963e-05
  4.0000759e-06
 -6.0388916e-06
  2.1185851e-05
 -2.2272185e-05
 -3.4295242e-02
  3.0451277e-03
 -1.9420688e-05
  3.2963742e-06
  4.0820967e-03
 -2.6678194e-03
 -2.7602802e-03
 -3.8698435e-02
  9.4122730e-02
  2.9346499e-01
 -2.1306230e-01
  2.4408251e-03
 -1.5804623e-04
  1.7826426e-04
 -3.6693081e-02
 -2.4792037e-04
  6.4235223e-06
 -2.7857501e-02
  3.8843658e-02
 -8.6369373e-02
  4.7266565e-02
  2.7324796e-01
 -1.3251236e-01
 -6.6418734e-06
  4.8857862e-01
 -6.7309842e-02
 -1.8522979e-03
  8.3958967e-06
  1.3520936e-02
  5.0496805e-05
  1.9208992e-01
  2.4691054e-03
  1.6785839e-01
  4.1718395e-06
  2.2424173e-02
  4.1762207e-02
  1.4751593e-05
  6.4249465e-04
  2.7981329e-01
  8.1163882e-05
  6.0298592e-03
  1.0591857e-02
 -2.5956199e-04
 -7.1522016e-05
 -3.0857796e-02
 -2.4315666e-03
 -3.1051786e-06
 -2.2461598e-05
  1.8953766e-03
  1.8775243e-01
  1.1647543e-05
  1.2177414e-01
  6.0899070e-05
 -8.9342511e-06
  8.5240346e-05
 -9.2003080e-05
  1.0826668e-01
 -1.1671173e-05
 -5.4437041e-06
  1.8437608e-05
 -2.3953202e-05
  3.7739912e-05
 -2.3530616e-05
  3.3920100e-05
  1.1569362e-05
  1.3586227e-05
 -1.3566463e-05
  1.8624851e-06
  2.5238523e-05
 -1.4975935e-05
 -4.4967695e-05
  8.0540805e-05
 -1.2156534e-06
  7.9434312e-06
  2.9062361e-05
 -2.3127863e-05
 -5.1905521e-05
 -2.8232964e-05
  4.8589254e-06
 -3.5229805e-05
  3.2369509e-05
  3.2407053e-05
  5.8401638e-06
 -4.1337938e-05
 -2.7475127e-05
  2.4462885e-05
 -1.0640196e-04
  1.6198308e-05
  5.3552652e-05
 -2.8217917e-06
 -2.4803363e-05
  4.0538093e-06
 -1.5333423e-04
  9.7683973e-05
 -4.6125933e-06
  1.1417253e-05
  3.1934844e-05
 -4.1338562e-06
  1.0024866e-05
  9.6323392e-06
  8.8173629e-06
 -2.3326538e-05
  2.0461490e-05
 -8.7026920e-06
 -1.2881269e-05
  7.8169905e-06
  9.9005756e-06
  1.4272899e-05
  4.3395689e-06
  2.1383818e-05
 -8.4803301e-05
 -1.0940805e-05
  2.2524711e-05
  2.9106464e-05
  3.1613592e-05
 -4.6770772e-05
  2.9000789e-01
 -8.8930136e-01
  5.7957947e-01
 -2.8456630e-02
  1.4857800e+00
  3.5534415e-02
 -5.8996487e-01
 -2.6362655e+00
  4.6379107e-01
  7.3596901e-01
 -1.6821830e-03
  2.5779828e-01
  1.6773038e+00
 -5.6753010e-01
 -2.4531861e-01
 -4.7073182e-02
  1.9593124e-01
  1.8386811e-02
  5.6835002e-01
 -7.6708221e-01
 -1.3815898e+00
 -3.8587230e-01
 -2.5074454e-02
 -6.0327101e-01
  3.5808927e-05
 -1.9485295e-05
 -1.8715307e-01
  6.4541414e-02
 -7.6920211e-02
  9.3128314e-05
 -1.7486194e-05
  1.3436345e+00
 -7.5430654e-02
  6.3792634e-01
  3.9710757e-01
  5.8537606e-02
  9.9905831e-01
  2.4267778e-01
  1.3590294e-01
 -4.3243992e-01
  6.9347029e-03
 -1.6765006e-01
  3.7293082e-01
 -1.2835101e-04
 -6.1049733e-02
  1.1262405e-04
 -2.6606606e-02
  2.5413069e-04
 -5.8632776e-02
  1.9318622e-05
  7.7060809e-05
 -2.6109545e-05
 -1.6394872e-05
 -5.5742744e-06
  1.9235855e-05
 -4.4968176e-05
 -5.5208257e-05
  4.2757059e-05
  5.1275612e-05
 -3.3748245e-05
 -1.2660594e-05
  6.2292514e-05
  1.1625561e-04
  3.7932848e-05
  4.5692435e-05
  6.1710953e-06
  1.1696154e-05
 -1.4902540e-05
 -1.0675307e-05
  2.9371908e-05
  5.6455916e-05
  9.5815463e-05
  6.4828396e-07
 -2.1982103e-05
 -8.6511263e-06
 -5.3473150e-06
  4.0121231e-05
  7.2401301e-05
  2.3982235e-05
 -2.5997544e-05
 -6.4495875e-06
 -1.4454056e-05
 -5.0845938e-05
  1.4249404e-06
  5.9115405e-07
 -3.3428598e-05
  1.6173246e-05
 -2.8037653e-06
 -8.3168861e-06
  1.0134636e-05
 -1.0595686e-04
 -4.9514303e-05
  5.2231797e-05
 -1.7702676e-05
 -7.8209750e-06
 -1.0331370e-04
 -2.2510912e-06
 -1.0271772e-04
 -3.2898439e-05
 -1.2083928e-04
  5.8096932e-05
  9.2691917e-06
 -3.1397385e-06
 -4.6708366e-05
 -4.4128526e-05
  9.5948826e-07
 -1.9466388e-05
  2.5740960e-06
 -1.8174014e-05
 -1.9562531e-06
 -9.0701187e-06
  6.2735880e-06
 -5.8792491e-05
 -5.8293244e-05
 -4.3983062e-05
 -1.4859861e-05
 -7.6745576e-01
  3.4152570e-01
 -3.8681424e-05
  1.7865835e+00
  2.9415643e-01
 -6.7221299e-02
  9.4306505e-01
  2.9850507e-01
 -1.8506666e-01
 -1.3415318e+00
  7.3052019e-02
  6.0590118e-01
  3.2948709e-01
 -1.9572666e-01
  7.2973990e-01
 -3.7024659e-01
  9.2394583e-02
  1.1698127e+00
 -6.4786857e-01
 -1.2176445e-04
 -7.9317398e-02
  1.2617290e+00
  7.3318326e-05
 -3.2582992e-01
 -9.4076313e-06
  4.1963649e-06
  5.2250041e-05
 -3.9296788e-01
  2.4090866e-02
 -6.4011413e-01
  2.8357862e-03
  6.3149236e-02
  5.9250942e-03
 -4.5707002e-01
 -1.0943695e-05
 -3.8662916e-01
 -3.4778527e-06
 -1.1010382e-01
  2.2026073e-04
  5.5130466e-05
 -3.8061783e-01
 -1.6573575e+00
 -3.9615169e-01
 -6.8425663e-02
  1.0439363e-01
 -2.0039900e-01
 -2.9943889e-01
 -9.9670820e-02
  2.0413029e-03
 -9.5583454e-02
 -4.0629682e-05
 -1.2815220e-04
  2.7702577e-04
 -3.0203137e-05
  4.1277775e-01
 -7.6781114e-05
  5.4868442e-06
 -1.1240871e-05
 -3.3063312e-05
  7.1436548e-06
 -8.7990411e-06
  2.3381068e-05
  5.9350485e-05
  2.7998788e-06
 -4.2767160e-06
 -2.3615885e-06
  3.2871219e-06
  1.9007817e-05
  6.9653855e-05
  7.4139039e-05
 -1.0323777e-06
  1.6057636e-06
 -2.1974167e-05
 -5.3439588e-05
  1.4941404e-06
 -5.1125198e-06
 -6.5274926e-06
 -2.4657353e-05
 -5.0176124e-05
 -2.1599641e-05
 -3.2648139e-05
 -4.0801555e-05
 -4.4990440e-05
 -4.4895337e-06
 -2.4900988e-05
  8.4234271e-06
 -3.1616282e-06
  1.4385576e-05
 -8.0370173e-06
  5.5810888e-06
  1.2888377e-06
 -8.8992208e-05
 -9.4799681e-05
  2.0882246e-05
  1.1296139e-05
 -4.3922468e-05
  5.0959003e-05
 -2.2330427e-05
 -3.5219527e-05
 -1.2090948e-05
  5.9347271e-06
  1.5344174e-05
 -3.5909445e-05
 -2.3225197e-05
 -7.3981442e-05
 -1.1630636e-06
  1.2361372e-05
  1.2921621e-05
  6.5209183e-06
  6.1730447e-05
  3.3102726e-05
 -1.7832726e-05
  4.1565560e-05
  6.2656268e-02
 -4.3025943e-07
 -8.6735890e-06
 -8.4743668e-05
 -5.4654402e-07
 -1.4209927e-05
  2.7365519e-05
  5.9363738e-06
  1.8124645e-06
  1.7582479e-05
 -1.7089207e-05
 -1.9604800e-05
  3.8657836e-06
 -6.4877007e-05
  4.4998655e-05
  4.5764842e-05
 -5.7320362e-05
  1.6925502e-05
  3.0296762e-06
 -6.3075749e-06
 -3.0875599e-05
 -1.1939725e-05
  1.4184001e-05
 -8.8111465e-06
 -6.2167392e-06
 -1.6880872e-04
  4.6570731e-05
 -2.8345588e-05
  1.5124268e-05
 -8.5271577e-06
  5.7793652e-05
  2.1952816e-05
  4.0262057e-05
 -1.2229969e-05
 -2.2094846e-06
  2.6765363e-05
 -9.8054315e-06
 -2.7617738e-05
  4.2658594e-05
 -6.2335108e-05
 -3.9785817e-05
 -3.6665755e-05
  7.0302026e-06
 -3.5784833e-05
  7.9624715e-06
 -6.9011471e-06
  1.7573944e-05
  3.5838607e-06
 -5.1504176e-05
 -8.5455496e-05
 -2.4990210e-05
  2.2876764e-05
 -1.0371296e-04
 -1.2135433e-06
 -1.0227070e-05
 -9.9015949e-07
  1.4756733e-05
 -6.6473985e-06
  5.6342578e-06
 -3.5989924e-05
 -1.3039544e-05
 -1.5184700e-06
 -3.8778571e-06
  2.1099862e-05
 -1.2882735e-05
  2.2964998e-05
 -2.0325447e-06
 -7.7163013e-06
  1.8926579e-05
 -1.4398829e-05
 -4.1292791e-05
 -1.8605566e-05
  1.6423601e-06
 -3.2362277e-05
  2.7382557e-05
  9.4055096e-05
 -1.8949895e-05
 -1.4743988e-05
  7.7658449e-05
  1.1681697e-05
  2.3323781e-05
 -7.5729200e-05
 -3.0019883e-05
  4.7425230e-05
 -1.4211041e-06
  1.2127575e-05
 -2.5624333e-05
 -3.5089979e-05
 -9.4572722e-05
  4.7814181e-05
 -7.8326802e-06
  8.4997417e-05
  6.6583627e-05
  1.6503842e-05
  8.8291235e-06
 -7.8281380e-05
 -1.2011962e-05
  9.2858420e-05
  9.9918885e-05
  3.7165360e-06
 -4.1383933e-05
  1.3311541e-04
  1.3562679e-05
  3.5278132e-05
  5.9263557e-06
 -1.4575472e-05
 -1.1656097e-04
 -1.0948267e-05
  3.2057349e-05
 -1.0140511e-06
  6.5650852e-06
 -2.2868619e-05
 -1.8612289e-05
  2.4447496e-05
 -2.8244865e-05
 -7.5485856e-05
 -1.1583732e-05
 -2.7128501e-05
  1.0331757e-05
 -5.6983268e-01
 -8.3019906e-01
 -1.8977615e-01
  1.8431689e+00
 -2.2618156e-03
  3.3986523e+00
  8.5024202e-01
 -3.6673936e-01
  6.1934497e-02
  1.8790390e+00
  2.3650212e+00
  3.9050299e-01
 -1.0650812e-01
 -8.8774526e-01
  3.2492864e-04
 -3.0794358e-01
  7.5995249e-06
 -1.5164176e+00
  3.5850489e-01
  7.1364778e-01
  2.8600961e-01
  1.4239827e-01
  1.5550153e-02
 -6.1118574e-04
  8.7731732e-06
 -5.6985817e-05
 -8.5188305e-01
 -1.8743248e-01
  8.1593834e-02
  3.5073265e-02
 -4.7750553e-01
  1.5300113e+00
  1.3028255e-01
  2.7869681e-01
  7.1074930e-03
 -1.8044554e-01
  1.2355316e+00
 -8.1254959e-02
 -3.2577381e-01
  5.9138149e-01
 -3.2981724e-02
  1.1913002e-01
  2.5153786e-01
 -3.3143511e-01
  7.5696456e-01
  6.3732900e-02
 -5.8768339e-02
 -1.1257933e+00
 -2.1793080e-02
 -2.1679614e-05
  3.1587854e-02
 -1.0468927e-03
 -2.9960480e-05
 -2.2960360e-01
 -5.5759835e-01
 -7.8675663e-03
 -2.6120156e-01
 -2.8540333e-05
 -2.5608147e-06
  4.2604047e-06
 -2.3105753e-05
  2.2685679e-05
  1.5614349e-05
  5.7753496e-05
 -1.3282237e-05
 -3.2180782e-05
 -1.7996412e-05
  2.4945566e-05
 -7.7213081e-06
  6.8998219e-07
 -1.2022585e-05
  6.2598301e-05
  2.0141439e-05
  6.5155094e-05
  2.5842806e-05
 -5.4116922e-06
  2.0037502e-05
 -1.0604947e-05
 -5.8849364e-06
 -9.2586561e-07
  5.1087236e-06
  1.0799957e-05
 -4.1063827e-06
 -1.2125054e-04
 -8.6331675e-06
  1.0061309e-04
  4.0879946e-05
 -3.1437912e-06
  1.5391221e-05
 -6.9784233e-05
 -2.0634132e-05
  2.1209926e-06
  1.9795163e-05
 -2.2353443e-05
 -3.0995143e-06
 -7.5090029e-05
 -1.8314200e-05
 -3.9087683e-07
 -2.2223419e-05
 -1.5890565e-04
 -1.1003927e-05
 -4.6820514e-07
  2.1324602e-05
  1.8590013e-05
 -3.2448999e-05
  1.9769941e-04
  1.3960595e-05
  1.8612136e-05
 -3.9589611e-07
 -3.1232132e-05
  8.1245871e-06
 -1.5214856e-05
  1.3382533e-05
 -3.9626048e-05
 -1.5982965e-05
  6.3448679e-05
 -7.8539252e-03
 -7.8564680e-01
 -2.9197073e-01
 -1.7349703e+00
  1.4935282e+00
  6.8270820e-01
  1.0835748e+00
 -2.4160813e-01
  2.1388810e-02
 -6.7815441e-01
  1.6084132e+00
 -3.7704106e-02
 -3.0944216e-01
  1.7344847e+00
  6.8960911e-01
  3.4208286e-01
  1.5067692e+00
 -4.1102329e-01
 -7.7994239e-01
  6.4168192e-02
  9.6273321e-01
  2.4416780e+00
 -5.6985497e-01
  6.2723331e-02
 -3.2072305e-06
  1.4394830e-05
 -3.4546640e-05
  1.2080450e-01
  8.1570499e-02
 -5.8916910e-05
 -1.8099274e-02
 -1.3208814e+00
  3.9982799e-01
 -1.5628262e+00
  3.1854382e-01
  4.7593814e-01
 -2.4979852e-01
 -1.1526579e-01
  3.7622671e-05
  2.2840130e-01
 -7.0804657e-05
  2.7646424e-02
 -3.0413124e-05
  1.0380486e-04
  4.1895313e-05
 -5.8118099e-01
  8.7817103e-01
  3.6037451e-01
 -8.9329183e-02
  6.1130452e-01
  1.8641203e-05
 -1.7251470e-05
  5.3744254e-05
  3.8665767e-06
  1.0900445e-04
 -6.3319421e-01
  1.2308484e-05
  4.5862253e-04
  2.0095466e-05
  2.4969730e-05
 -8.4607991e-06
  7.3372532e-05
 -3.9560160e-05
  3.2131677e-05
  1.1613569e-05
 -2.3618466e-05
 -1.6053642e-05
 -4.9261507e-05
 -8.7097156e-05
 -3.0912354e-06
 -2.3898354e-05
 -6.0387838e-06
 -6.3501568e-05
 -1.0070712e-05
  1.2112007e-05
  1.5649914e-06
 -2.7065313e-05
  2.0204552e-05
 -1.2694129e-05
 -1.3412606e-05
  1.3845945e-05
  1.3869850e-05
  7.8737594e-06
  6.2642412e-06
 -6.4596416e-06
  3.1471995e-06
  7.3022429e-06
 -2.7379392e-06
  1.1525854e-05
  1.9360621e-06
  2.3316104e-05
  1.3942232e-05
  3.5405712e-05
  6.1488981e-06
 -6.8469242e-05
 -2.4713154e-05
 -1.3531353e-05
  5.3132593e-05
 -1.4287033e-05
 -4.3304749e-06
 -6.4465457e-06
 -3.8695089e-06
 -1.0330394e-05
 -7.8315861e-06
 -2.7141785e-05
  1.2793185e-05
  6.8438080e-06
  2.5839454e-05
 -1.6963529e-06
  5.3053569e-05
  4.8547945e-06
 -2.8228707e-05
 -1.5876194e-06
  2.3320947e-05
 -4.7109144e-05
  1.7874148e-05
  9.2804905e-05
 -1.5993966e-05
 -8.8789857e-05
  7.2627619e-05
 -2.5622476e-06
  2.0786933e-05
 -3.3433276e-05
 -1.1727915e-05
  9.0626701e-05
 -1.0229567e-05
  2.8271295e-05
  3.3767061e-05
  5.1806542e-06
  8.7348337e-05
  3.9235329e-05
  8.4818748e-06
 -2.1232352e-06
 -2.3006696e-05
  2.6348393e-06
 -2.6218055e-05
 -3.4515688e-05
 -9.6119984e-05
  1.9690371e-05
 -8.0693899e-05
  3.8546532e-06
 -4.7127596e-06
 -1.2122723e-06
  3.8854255e-06
  2.4081633e-06
 -1.7278489e-05
 -1.0483519e-05
  1.6927133e-05
 -6.4209031e-05
  4.2460120e-05
  2.1482227e-05
 -4.8177408e-06
 -4.0925355e-05
 -2.2870099e-05
 -1.8257921e-05
 -1.6419130e-04
 -5.5108878e-05
  4.1093746e-05
 -1.5912694e-04
 -1.1888510e-05
  2.4660433e-06
 -7.7818520e-05
  1.0950398e-05
 -8.4008505e-05
  3.0296064e-07
  1.8729905e-05
 -5.4172066e-05
  2.6957559e-05
  2.0515083e-05
 -9.2248479e-07
  5.3207052e-05
 -6.5316417e-05
  1.7891056e-05
 -1.2934570e-05
  1.9354977e-01
 -5.6003314e-01
  3.2684675e-01
  1.4081346e+00
  2.3599725e-05
  1.2366462e+00
  1.2392567e+00
 -1.2797116e+00
 -4.0369979e-01
  8.2579130e-01
  1.0354382e+00
 -8.7390155e-01
  1.1817306e-01
 -9.4513333e-01
  7.2600818e-01
 -1.3841726e+00
 -8.5918438e-01
  1.8218293e+00
  4.3764958e-01
 -1.1552904e-02
 -7.4361187e-01
  9.2180192e-02
  3.0434734e-01
 -5.4777890e-02
  1.2720381e-02
  9.1599111e-05
  1.6245823e-03
  4.5901850e-01
 -9.2534035e-01
  7.2001642e-01
 -8.8376401e-06
  1.3105632e+00
 -1.0853387e-02
  6.2365126e-02
 -7.5954681e-06
  6.4928275e-01
  1.0720712e+00
 -2.5191352e-01
 -2.5088516e-01
 -7.0388938e-05
  6.8373513e-01
 -5.8243382e-01
 -1.6371192e-01
 -2.4976417e-01
  4.1236001e-04
  3.6328953e-07
  9.7200072e-01
  8.3368987e-01
 -1.6688544e+00
 -1.0796108e+00
  1.6441041e-05
 -7.3269689e-06
 -6.4181018e-05
  1.2427055e-05
 -1.8196297e-01
 -1.2231216e-05
 -1.5364066e-01
 -1.4657395e-04
 -1.7341737e-05
 -8.5744341e-06
  2.2574626e-05
  5.0036665e-06
 -1.4222451e-05
 -8.2094457e-06
 -3.2130545e-05
  1.4645978e-05
 -1.5002433e-07
 -9.6980011e-06
 -8.4686599e-07
  2.6413578e-05
 -4.9023096e-05
 -1.1727489e-05
 -2.4007959e-05
  1.9076819e-05
  2.6146838e-05
 -4.1383519e-05
 -1.0553452e-05
 -4.3166547e-05
  2.3304161e-05
 -5.6184079e-05
  6.8750369e-06
  1.3841048e-05
 -2.0087627e-04
 -8.8571187e-06
  2.8719040e-05
  7.1311979e-07
 -6.5388565e-05
 -2.4564912e-05
 -1.1858487e-04
  4.5354020e-05
  4.5753128e-05
 -2.9527593e-05
 -2.3686816e-05
 -5.2884938e-05
  3.2503998e-05
  1.0822871e-04
  2.1069063e-05
  1.1400542e-05
 -4.5587465e-05
 -1.1359985e-04
  4.8085669e-05
 -2.8525301e-05
  1.4836345e-05
  1.1257799e-05
  2.1872445e-06
 -8.0196214e-06
 -9.9543351e-05
  1.5032310e-05
  7.1556788e-06
 -2.2377471e-05
 -2.1951564e-08
 -4.2976576e-06
  8.6789274e-05
 -1.1750309e-05
 -2.3483217e-06
  3.1356885e-06
 -2.4291983e-05
 -6.9126210e-05
 -3.8289171e-01
  1.2714328e-04
  1.4216809e-05
  2.9788029e-04
  7.7641474e-05
 -2.4048477e-05
 -5.6431913e-05
  3.7343070e-05
 -6.4690357e-05
 -2.8618406e-06
 -2.3472112e-05
 -3.5680590e-05
 -1.7762900e-04
  1.3652290e-05
 -3.2284086e-05
  4.3947450e-05
  2.2949256e-05
 -7.7866433e-05
 -1.7257153e-05
 -1.3118048e-05
 -1.9651199e-05
  4.0532188e-05
  2.9825989e-05
  3.7723697e-05
  1.1423090e-05
  1.4214382e-05
  3.9132356e-05
 -3.2179873e-05
  1.6863939e-06
 -2.5490135e-06
  1.4088648e-05
  1.4949600e-06
  1.9030533e-06
 -2.6001033e-05
  2.1987169e-05
 -2.6302647e-05
 -2.1649539e-05
 -1.8649589e-06
  1.0664974e-06
 -2.7138365e-05
  3.8691564e-05
  1.5151777e-04
 -1.0249328e-05
 -3.4539455e-05
 -6.7451756e-06
  6.8049289e-05
 -1.8365092e-05
 -7.1431159e-06
 -1.8963947e-05
  3.2582320e-05
  1.0422465e-05
  2.8034563e-05
 -3.4954614e-05
  5.5599121e-05
  3.2737535e-07
  7.5217511e-05
  1.4072916e-02
 -6.4284337e-01
  5.0718230e-01
  4.8562565e-01
  6.0632509e-01
  5.5976850e-01
 -3.5456982e-01
 -6.9954526e-01
 -1.7089278e-01
  1.8514378e-01
  5.1591212e-01
 -1.5394974e-01
  3.9471615e-05
  4.1859022e-01
  4.9706736e-01
  1.1589767e-01
  5.9234504e-02
 -2.4632428e-02
  3.0684045e-01
 -6.0350727e-02
 -1.6891238e-01
 -2.4156836e-01
 -5.6997734e-01
 -1.5310632e-01
  3.2247800e-01
  1.7042392e-05
 -1.3812352e-04
  1.1987358e-04
  6.6012877e-01
 -1.4111038e+00
 -4.9535395e-04
 -2.1998198e-01
 -1.7759444e-01
  2.0976260e-03
  6.7067840e-06
  1.9149707e-01
  6.3400839e-05
  2.4432044e-05
 -3.1908411e-01
 -2.1246135e-01
 -1.3039863e+00
  1.3219865e-04
  2.4972642e-02
  2.2294502e-04
 -1.8651194e-03
  7.9588693e-01
  4.9279609e-01
 -1.4893956e-01
  1.9280869e-01
  9.8928255e-01
  2.1471191e-05
  2.6831451e-05
  2.6090755e-05
  2.1084670e-05
  9.5482823e-03
 -1.5770004e-04
  8.6264268e-02
 -2.5193771e-05
 -3.7115478e-07
  2.7072560e-05
  2.7567005e-05
 -9.8916371e-06
  7.6968627e-06
  4.9731148e-05
 -1.5319565e-05
  5.4162694e-05
  3.5249024e-05
 -1.7879800e-05
  3.3502051e-06
 -3.4004137e-05
  5.5114371e-05
 -2.6613390e-05
  3.1708641e-06
  1.7198970e-05
  3.2564076e-05
  1.0123451e-05
  1.2843819e-05
 -4.9931559e-06
  2.3532157e-05
 -4.3758228e-06
  9.8365372e-06
  2.7968512e-05
 -3.5385350e-05
 -1.4205898e-05
  2.7877697e-05
  6.4578169e-05
 -2.9732348e-05
 -1.5687269e-04
 -1.2642000e-05
 -2.9491310e-05
 -1.9960247e-05
 -1.4321990e-05
  9.0474841e-06
  8.8302677e-06
 -2.1572250e-05
 -2.7448436e-02
 -1.4481549e-05
 -2.9319350e-05
 -3.7545313e-05
  4.6843150e-05
 -6.5863867e-07
  2.2111526e-06
  1.7150007e-05
  1.4029780e-05
  2.8918450e-05
 -2.6836553e-05
 -2.3871111e-05
  2.2938684e-05
  3.3866756e-05
  4.1922427e-05
 -9.0575932e-06
 -2.1322096e-05
  8.0378213e-06
 -7.8506586e-05
 -6.7537699e-06
  5.0748604e-06
 -6.6202945e-01
 -1.0505472e+00
 -1.6082350e-02
  2.6119155e-01
  1.1027076e+00
 -4.1710234e-01
  6.6585523e-01
 -1.2851994e-01
  6.1032563e-01
  3.8133875e-01
 -5.5243069e-01
  5.2469420e-01
 -7.3993486e-01
 -1.8207383e-01
 -5.6057274e-07
 -1.2823045e-01
 -1.9999000e-01
 -1.1226606e-02
 -6.5143552e-04
 -1.3105501e-01
 -3.4485677e-01
  2.7736270e+00
  7.5276536e-01
  2.2053406e-05
 -1.6442914e-02
 -9.9870094e-06
 -3.2913126e-06
 -3.9829403e-01
 -6.5473461e-05
 -7.0643662e-05
  1.5659769e-01
 -1.9948699e-01
 -1.6303733e-04
 -6.6613287e-01
 -2.6516223e-03
 -3.5126850e-05
  1.4092561e-02
 -1.1101209e-04
  2.3170169e-06
  1.4342431e+00
  7.7307618e-01
  1.0622741e-01
 -1.3927288e-05
 -7.7093840e-01
 -3.4395161e-01
  4.9849197e-01
  2.4813382e-05
 -4.2197919e-01
  3.0520484e+00
 -3.2715619e-02
 -6.3754636e-01
  2.6214047e-05
 -6.1610212e-05
  9.9943813e-05
 -7.2455682e-02
 -1.3439798e-05
  9.5651318e-05
 -1.0253717e-04
 -6.0391048e-06
 -6.7479683e-05
 -7.0353453e-05
 -1.7457139e-06
  9.3906028e-06
  1.5093907e-04
  5.2281765e-05
  5.2722398e-06
 -1.9426620e-06
 -4.9936571e-05
 -3.6364348e-05
  5.3080039e-06
  6.5348522e-06
  7.2520625e-06
  4.3341541e-05
 -7.2065473e-06
 -1.7618420e-05
  6.9406788e-06
 -2.7643257e-05
 -2.1060101e-05
 -2.1693317e-05
  3.3837394e-05
 -1.4616337e-05
 -2.2235403e-05
  1.1297215e-05
  1.0466732e-05
  1.8521283e-05
 -6.1248852e-06
 -3.2330732e-05
  4.6568239e-05
  1.8596957e-05
  1.8112614e-05
  1.2694823e-06
  2.3005397e-05
 -1.8174206e-04
 -4.8556649e-05
  8.1496255e-06
  9.2793625e-06
  2.3115155e-05
  3.6887937e-05
 -6.4210353e-06
  1.2354369e-06
  2.4303266e-05
 -3.2091436e-06
  5.3721333e-06
 -4.9823329e-06
  5.5025313e-05
 -2.4980332e-05
  5.2767242e-05
 -1.3771329e-04
  3.1528594e-05
 -1.0922338e-04
  6.2510417e-06
  9.1074799e-06
  2.9760380e-05
  5.7356068e-05
 -2.2172203e-06
  6.6542721e-06
  1.0843397e-01
 -4.6558613e-01
  8.1582330e-03
 -2.3758394e-05
  8.7645698e-01
 -1.9459116e+00
 -1.3943203e-01
  3.5148430e-01
  4.1145700e-01
 -1.7281464e+00
  7.1712621e-02
 -1.0637121e+00
 -1.0421022e-04
 -5.3824722e-03
 -9.0280086e-01
 -6.9129747e-01
  3.0105690e-05
  1.4494811e-01
  2.1167634e-02
  6.8469089e-01
 -1.3484216e-02
  1.0342809e-04
 -7.7726448e-01
  2.1638529e-05
  9.8062240e-02
  1.0916914e-04
 -2.4433556e-01
 -8.6071378e-01
 -1.5123752e-01
  1.5493603e-01
 -2.0209764e-04
 -5.5914108e-02
 -4.9624953e-01
  2.6577201e-01
 -7.0379610e-05
  2.9168155e-05
 -7.6391000e-01
  1.3574624e-01
 -2.1573401e-06
 -7.3651446e-04
  4.6197957e-01
 -9.5093089e-01
  1.2318117e-01
  2.4345742e-05
 -3.6589321e-02
 -1.2673782e-01
  1.1100628e-01
 -6.0992438e-01
 -1.5846729e-01
 -2.6621630e-05
  2.1718808e-02
 -1.2414325e-01
 -1.4304205e-05
 -5.1657992e-07
 -1.3667530e-04
  1.4031060e-05
  4.5456720e-05
 -4.0316745e-06
  3.8729554e-01
 -9.1099340e-01
 -2.1830322e-03
  1.6207872e-02
  2.9336404e-02
  6.0812211e-01
  2.7507195e-02
  5.7646525e-03
  1.8909229e-01
 -9.1906816e-01
 -5.0402880e-01
  2.5707045e-01
  2.5126255e-01
  1.8701598e-06
 -4.8144881e-02
 -1.3303565e-02
 -1.0973806e-02
  3.6464416e-04
 -4.2703558e-02
  4.6506363e-01
  1.1880465e-01
  6.1257970e-01
 -3.3138916e-01
 -1.1548989e-04
 -4.0913153e-05
 -8.2451115e-05
 -9.2450100e-06
 -1.8896993e-03
  1.5119738e-04
 -4.8643520e-01
  8.9837078e-05
  1.4389367e+00
  1.6565750e-04
  3.2937285e-01
 -5.8351990e-05
  7.3628020e-01
 -3.9020395e-01
  1.5698852e-03
  6.8883796e-04
  1.2217646e-03
 -1.1858968e-01
  6.1266113e-02
  4.4025670e-04
 -1.8530101e-05
 -2.0421937e-04
 -1.1444313e-01
 -2.5290836e-05
 -8.8195596e-04
 -1.8193348e-05
  5.8068868e-05
  6.4108615e-05
  3.1900463e-06
 -5.2882377e-05
  1.6974705e-05
  1.6323364e-04
 -1.3775849e-05
 -3.8758303e-06
  4.3771461e-06
  5.3008795e-01
  2.3039715e+00
  7.8337824e-01
 -1.1623083e+00
  3.0496818e-01
 -2.1119995e-01
  2.1850903e-01
  1.3141636e+00
 -4.9429628e-01
  1.4319636e+00
  1.6411565e-01
 -8.6336339e-01
  2.2813280e-01
 -1.7847277e-01
  1.7732856e-01
 -6.1058587e-01
  6.7091808e-02
  1.5307838e+00
 -1.8310651e-01
  4.2800820e-01
  1.8960260e-01
  1.2298254e+00
 -6.0194945e-01
 -3.7990773e-01
 -5.9248948e-01
 -1.5030622e-05
  1.0013686e+00
 -1.1007738e+00
  2.9028499e-01
  1.1410568e+00
 -4.9885052e-01
  1.6408876e-02
  1.2041712e-02
 -6.9231057e-01
  3.7904743e-02
  1.8955059e-02
 -2.3498283e-01
 -2.3261105e-01
  6.7766428e-02
  1.0052986e+00
 -4.6346694e-01
  4.1507995e-01
 -4.7870523e-01
 -8.5290337e-01
 -2.9241461e-01
  4.2004377e-02
  1.5827648e-02
  5.7996303e-01
  3.2394242e-01
 -6.3355409e-02
  6.8653411e-01
 -4.6205410e-04
  8.5771826e-05
 -9.4787420e-06
 -5.2116269e-01
  2.3684905e-05
  1.8080897e-05
 -3.1158021e-03
  5.1670493e-05
 -2.0717724e-05
  7.5313692e-05
  1.9257519e-05
 -9.4013940e-06
 -1.9003133e-01
 -1.6458807e-05
  8.7313740e-05
  8.9334731e-05
  4.0265018e-05
  1.1095210e-05
  4.4478875e-06
 -2.0719113e-05
 -2.7435435e-06
 -1.0530731e-04
 -1.7819588e-05
 -3.6344570e-06
 -1.9551676e-06
  7.8608566e-05
 -5.7034744e-05
 -2.4634778e-06
  1.2725475e-04
 -2.7798407e-05
 -2.2462989e-06
  2.4662528e-05
  3.5304627e-05
 -2.3897443e-05
  2.0942456e-05
  9.7069187e-06
  1.0712479e-04
  2.6800321e-06
 -2.7184973e-05
 -3.1175913e-04
  4.3935495e-05
 -6.3653293e-05
 -1.8739009e-05
  3.4783519e-05
 -1.6810343e-05
 -3.9386992e-05
 -5.4177599e-07
 -1.8997739e-06
  3.5441142e-05
  1.4596984e-05
 -3.2086773e-05
 -1.0249150e-04
 -2.7034688e-05
 -2.1118449e-05
  5.3160740e-05
 -1.9890665e-04
 -2.0108328e-06
 -1.9706429e-05
  3.1669857e-05
  1.3684934e-05
 -3.1958567e-05
  1.0630511e-05
 -1.1373095e-05
  4.4369292e-05
 -5.3940466e-06
 -1.5175654e-04
 -7.7251543e-06
  7.0014925e-05
 -2.5346037e-05
  6.2975072e-05
  4.3582597e-05
  5.4252403e-05
 -8.7146211e-05
 -4.3001528e-06
  4.5667666e-06
 -4.9944541e-05
  5.4716638e-05
  1.3399012e-05
  5.2394043e-06
 -3.6890164e-05
  8.6021073e-06
  3.9079418e-07
 -4.7544479e-05
  4.7136567e-05
 -1.9350655e-05
  3.7325190e-06
  5.1399588e-06
  3.9103124e-05
  5.1769577e-05
 -6.5634769e-05
 -1.3757293e-05
 -1.3279544e-05
  1.0813782e-05
  1.7236440e-05
 -2.1426451e-05
 -4.4887447e-06
 -4.5031164e-05
  5.8443817e-05
 -3.8694612e-05
 -4.8815433e-05
  3.8048500e-05
  1.2863652e-05
 -3.9788010e-06
  2.7210683e-05
  2.4473731e-05
  2.3047112e-05
  4.7568206e-05
 -7.2257601e-05
  1.2670136e-05
 -3.5108160e-06
 -4.5506299e-06
 -8.6552354e-06
  4.8277030e-05
  1.7346412e-05
  6.0910850e-07
 -1.9259873e-07
 -1.8875304e-05
 -4.9989172e-05
 -6.2400759e-05
 -3.3450116e-05
 -1.8872869e-04
  1.2396329e-05
  8.8398716e-05
  2.7792030e-05
 -5.9087397e-05
 -1.2371850e-05
 -3.6546775e-05
  1.9579529e-06
  5.8458295e-06
 -6.2055537e-05
  3.0898158e-05
 -2.2936872e-05
 -1.8035725e-04
  3.2531610e-05
  6.9387694e-05
 -6.5997934e-05
 -4.3358614e-07
 -2.9626706e-05
 -5.1008359e-05
 -9.2587943e-06
 -7.2001949e-06
 -9.4467847e-05
  5.9654711e-05
  2.4161069e-05
 -8.2867100e-06
 -8.6059990e-06
  2.4898820e-05
  5.0488643e-06
 -1.1167555e-05
 -2.0588110e-05
  3.6293859e-06
 -1.1655692e-05
  9.6338292e-05
 -3.7207246e-06
 -5.8120368e-05
  9.2129842e-05
  3.7377697e-05
  5.6082819e-05
  4.3441345e-05
 -8.6894806e-06
 -1.5613496e-05
  2.2085593e-05
  2.2140625e-06
 -9.6633539e-06
 -2.4679337e-05
 -2.6824862e-05
 -5.8558708e-06
 -2.9489758e-05
 -3.3941619e-06
 -1.5630305e-05
 -7.4396958e-05
 -4.0631214e-05
 -2.1093181e-05
 -3.1645857e-05
  5.8034937e-05
  7.2323101e-06
 -2.5125033e-05
  7.5247772e-06
 -7.8851394e-07
 -2.8800801e-05
 -2.0303154e-05
  9.2050104e-06
 -2.9045799e-05
  1.9147919e-06
 -2.5542704e-07
 -4.2069823e-05
  2.0563781e-05
  2.1175387e-05
  2.2618678e-06
  4.1596842e-05
  6.5249435e-05
 -6.8009549e-06
 -1.7435535e-05
 -8.9708083e-06
 -2.1749689e-05
  1.0511991e-05
 -2.3456150e-06
 -1.7225811e-05
 -4.9480244e-05
 -3.1583753e-05
  3.9034381e-05
 -2.7583194e-05
  4.1195781e-05
 -1.9940047e-05
 -7.1382776e-05
 -2.6657790e-06
  2.6820180e-06
  3.7611764e-05
  7.5473699e-06
  1.0637856e-05
 -3.3296077e-05
 -6.5280692e-05
 -1.3546589e-04
  2.7701401e-05
 -2.4199580e-05
  7.2659488e-05
  1.9044501e-05
  6.3199623e-06
  8.3246377e-05
  3.5453784e-05
 -1.1025273e-05
 -3.9223778e-08
  1.0116759e-05
 -3.1754512e-06
 -1.0363348e-05
  4.8709069e-05
  6.0475741e-06
 -3.8161706e-05
 -2.0006621e-06
  1.2018209e-05
  6.3870370e-06
 -4.3548076e-05
 -7.2274843e-06
 -1.7830169e-05
 -6.0204609e-05
  1.5859312e-05
  7.5998112e-05
 -1.1350587e-05
 -3.0658521e-06
 -1.1215759e-01
  5.0020283e-01
  2.4315889e+00
  2.1731234e+00
 -1.7821962e-01
  3.0509412e-01
  9.0962845e-01
 -7.0482475e-01
  2.4728434e-01
  7.1701087e-02
 -9.1013074e-01
  1.3556241e+00
 -1.3263500e+00
 -1.3492784e-05
 -3.1995097e-01
 -1.9759971e-04
 -6.1437400e-05
 -3.4027860e-02
  2.4675181e-05
  3.7682048e-04
  4.1788325e-01
 -4.0073704e-05
 -1.9376388e-01
  1.6879118e-03
  4.2874286e-05
  7.6408454e-05
 -1.2084076e-04
 -3.2536510e-01
  4.4410244e-02
  4.1118428e-02
 -2.7617956e-05
  2.2622657e-01
  1.9863471e-02
  2.3215469e-03
  6.7003828e-05
  3.4663266e-01
  1.6084402e+00
  2.9392049e-01
 -5.2510439e-03
 -1.5349710e-01
 -6.7840785e-01
  6.5069966e-02
 -1.6149970e+00
  6.6527260e-05
  1.9770892e-01
  2.6606762e-01
 -3.1006217e-05
 -6.7258923e-04
  1.1862937e+00
  1.6980931e-02
  6.1753977e-05
  1.0760151e-01
  3.4961402e-06
 -6.0540573e-05
 -3.0462923e-03
  1.0720595e-04
  7.1440332e-02
 -1.0540236e-05
 -3.2484011e-05
 -4.3235334e-05
  4.7336316e-06
 -4.9589926e-06
  1.1471235e-04
  3.7032343e-05
 -3.8304144e-05
 -1.8855178e-04
  1.3957426e-05
  8.7536129e-05
  1.0458078e-05
  6.4420828e-07
 -2.9747249e-05
 -9.9110439e-06
 -3.2310563e-05
 -1.0243350e-05
  1.2404958e-05
 -4.0838045e-06
  3.6979323e-05
  1.5156114e-05
  4.9043601e-06
  1.0941685e-05
 -2.5526311e-05
 -2.0760277e-05
  1.8177016e-06
 -1.2780762e-06
  1.1507425e-05
  8.2513398e-06
 -1.1116640e-05
  9.6590293e-06
  7.5591065e-06
  9.8289711e-06
 -2.6690702e-06
 -4.7156096e-05
  7.5808828e-05
  1.8482293e-05
 -6.0148141e-06
  8.5698281e-05
  1.2884298e-05
  1.0819050e-05
  5.9024122e-05
 -1.6507604e-05
  3.3252163e-05
  9.0672300e-05
  3.5440931e-05
  6.0610801e-06
 -4.0484254e-05
  5.4848501e-06
  5.6496217e-05
 -2.7043987e-05
 -2.5674875e-05
 -1.6514732e-05
 -2.3937679e-05
 -4.6941122e-06
 -1.2451532e-05
  8.3483592e-06
  3.4085402e-05
  8.2616989e-06
 -1.8130198e-06
 -4.1017422e-05
  2.3961851e-05
 -4.7265257e-06
  2.0894964e-05
  7.4338466e-05
 -3.5923147e-06
  2.6348214e-05
  2.3862699e-06
 -6.9227906e-05
 -2.1090284e-06
  1.4076335e-05
  1.0690970e-05
 -2.5175546e-05
  7.2445268e-06
  4.3714852e-05
  7.7033346e-06
  8.1419266e-06
 -7.5120282e-05
  2.9190789e-05
  1.0288931e-05
  8.7294202e-06
  6.4743537e-05
 -1.7925780e-05
  4.4739987e-05
 -5.0948187e-05
  1.9929396e-06
  1.7792249e-06
 -6.6568507e-05
 -3.7551057e-05
 -3.1126427e-05
 -4.7803715e-06
  1.2616019e-05
 -9.4872485e-05
  1.7093420e-05
  1.8844376e-05
 -1.2258804e-05
  5.9850486e-06
 -4.1162912e-05
  2.4869594e-05
  1.3595833e-05
 -5.3556345e-05
 -2.3153734e-06
  7.1511836e-06
  3.2493037e-05
 -1.9694598e-06
 -3.7332506e-05
 -9.4377319e-06
  8.8329820e-05
  1.2163058e-05
 -1.6260628e-05
  2.5757432e-05
 -8.0524424e-06
  7.1535585e-05
  5.3246886e-06
  7.6070573e-05
  2.3450888e-05
 -4.1394233e-06
 -8.6950201e-01
  8.9708306e-03
 -1.7344901e-05
  4.2281448e-05
 -8.4874509e-06
  2.8567714e-05
 -4.2388863e-05
 -1.4727429e-05
  1.4235370e-01
  1.6703210e+00
  1.0419308e-04
 -7.2717406e-03
  5.7893649e-05
  4.3262444e-05
  1.4078867e-05
  1.3122435e-03
 -3.9961858e-05
 -9.6167587e-02
 -7.0068127e-06
 -2.5330426e-05
  4.2824860e-05
  7.7921592e-05
 -7.7562202e-03
 -4.0858631e-05
  3.1588490e-05
 -1.6279215e-05
  1.0634616e-05
  1.1522094e-05
  7.6915130e-06
 -4.2159896e-05
 -1.0301225e-04
  8.3791798e-01
 -5.2824769e-05
 -1.3271774e-05
 -5.4001557e-06
  5.5777805e-06
  7.6363017e-07
  4.5362918e-05
 -6.3904022e-06
  2.1969379e-05
 -4.1083618e-05
 -1.2329979e-05
  2.4713680e-05
  2.4494146e-05
 -3.5599608e-06
  2.8742572e-05
  1.2368885e-05
 -6.5253305e-05
  1.2391916e-05
 -1.5395995e-04
  4.2802116e-05
 -1.2110543e-06
 -3.8774535e-05
  4.8969519e-06
 -1.5423486e-06
 -6.1434366e-06
  2.1849730e-05
  8.8135212e-06
 -3.5217159e-05
 -1.6060201e-06
  4.2402578e-05
  1.8811765e-05
  1.5648115e-05
  6.9678104e-06
  1.4978679e-04
 -1.5609172e-05
 -1.3290367e-05
  4.6353867e-05
 -8.5628562e-05
  8.2202469e-06
  1.5718886e-05
 -1.2768812e-05
  1.4517454e-05
  1.1150338e-05
 -1.6141696e-05
 -2.5381282e-06
 -8.5956977e-05
  1.0858053e-05
 -9.8539667e-06
  4.1083524e-05
  1.6175445e-04
 -9.2100403e-05
 -9.1838574e-06
  1.0165510e-04
 -2.9199497e-05
  2.3442233e-05
  5.5275101e-05
 -4.5893180e-06
 -1.8911280e-05
  2.7363944e-07
 -1.5278406e-04
 -3.0313490e-06
 -5.6313602e-06
  3.5966550e-06
  1.1521374e-05
  9.5224532e-06
 -7.9732463e-06
  1.1729286e-05
 -2.5714800e-05
  3.9294566e-05
 -1.0106131e-05
  3.3802979e-05
  2.4234123e-05
 -9.2741102e-06
 -1.2902924e-05
 -2.5522724e-05
  1.3083532e-05
  1.6703566e-06
 -2.2674067e-05
 -3.9258339e-05
  6.2698389e-05
  1.4320232e-05
  2.8807935e-06
 -4.6971567e-05
 -3.1853298e-05
 -3.8451319e-05
 -1.3049368e-05
  3.2224143e-05
 -5.6801360e-05
  8.7825574e-06
  2.9915054e-07
 -1.2501216e-05
 -9.1623751e-06
  4.5287667e-05
  5.4154780e-06
 -8.0820992e-06
  1.6210695e-05
  3.4269950e-05
 -3.0402758e-05
  7.8356370e-06
  6.5319209e-06
  1.0656248e-05
 -1.4503367e-04
  1.6422244e-04
  3.3338867e-05
  6.4940694e-05
  2.3171469e-06
  1.4792871e-05
  6.5196855e-07
 -7.4003037e-06
 -3.2672883e-06
  5.7268120e-05
 -1.6227812e-05
  5.2066021e-05
  7.0746687e-06
  7.0634786e-05
 -3.1550182e-05
  3.5755922e-05
 -3.6649215e-07
 -1.4272126e-05
 -4.7902658e-06
 -4.6446698e-05
 -2.9107543e-05
  9.2383270e-05
  6.9974791e-05
  2.3463872e-05
 -1.2544768e-05
 -8.4435087e-05
  6.4946016e-06
 -1.2085166e-05
  4.0843997e-06
 -2.5684535e-06
  2.4444444e-05
 -6.8782429e-06
 -1.1324953e-05
 -5.5290082e-05
  1.0596597e-05
 -6.0624943e-06
  1.6588208e-05
 -4.0389688e-05
  5.3547039e-05
 -2.8690045e-05
  2.4220226e-05
  3.4552180e-05
 -3.6059711e-05
 -5.5246674e-06
  4.0635510e-05
  9.1664106e-06
 -3.5052646e-05
 -2.2702907e-06
  9.1515649e-06
 -8.0017198e-06
 -1.8997265e-05
 -2.0652178e-05
 -1.4944012e-04
 -1.8509688e-04
  3.4181335e-06
  6.2757215e-05
 -3.7625476e-05
  1.0989806e-05
 -8.8211011e-05
  1.9277918e-06
  4.5470126e-05
  1.0854503e-05
 -6.4118147e-05
 -1.3855708e-05
  2.5874157e-05
 -6.6682449e-05
 -9.9683602e-05
  1.2981764e-07
 -3.3810578e-05
 -8.0121129e-07
 -2.4524466e-05
  3.0633008e-05
 -1.0900932e-04
  3.2395935e-06
 -2.2589333e-05
  2.1479234e-05
  3.7462682e-06
 -2.4174685e-06
 -7.0076589e-05
 -6.2077124e-05
  4.7845442e-05
  1.6850081e-05
  1.1454412e-04
  3.0013578e-05
 -2.3927369e-05
 -1.0117945e-04
  2.2448912e-05
 -1.3401419e-05
  3.6028930e-05
  9.2079526e-06
  2.7386093e-05
 -1.3424439e-04
  9.7738748e-06
  1.4770667e-05
  4.1620037e-06
  3.7024733e-05
 -4.3763652e-05
 -5.1120987e-05
 -2.4042805e-05
  3.1354366e-06
  6.4404094e-01
 -5.2767873e-01
  1.0897559e+00
 -4.4510117e-01
  2.0783336e+00
 -4.0641436e-01
  4.4611749e-01
 -8.1808156e-01
 -1.8754569e-04
 -9.7242582e-01
  4.5492035e-01
 -8.3434129e-01
 -8.5393913e-02
 -1.1904815e+00
  2.3741302e+00
 -5.0105218e-02
 -1.3015213e+00
 -1.6515627e+00
 -1.9197438e+00
 -5.9187047e-02
  1.1305188e-02
  9.2529619e-01
  1.8797538e+00
  8.8286310e-05
 -1.3738581e+00
 -1.9834110e-06
 -6.7355144e-01
  2.9589415e-01
 -9.9432897e-03
  3.0190501e-01
  1.0910894e-03
  1.3214680e+00
 -7.9848439e-01
 -7.8128360e-02
  6.9580622e-02
  6.2091440e-01
  1.3211385e+00
 -1.0400219e-01
 -5.9244014e-02
  8.8333863e-01
  1.0922658e-01
  8.1331976e-02
  2.1311124e-01
 -1.6283807e-01
  8.2721120e-01
 -8.9874434e-01
  3.8318583e-01
  1.2766181e-01
  7.7271408e-01
 -1.6612188e+00
 -1.7960567e-05
 -1.0573644e-04
 -3.7528574e-05
  2.3093644e-06
  2.5554882e-02
  3.3279908e+00
 -5.7060712e-05
  1.1987137e-04
 -3.4386948e-01
 -9.4114892e-02
  6.8498540e-01
  3.4887904e-01
  5.2533501e-01
  3.3207664e-01
  7.9850888e-01
 -2.6339498e-01
 -2.1258372e-01
  2.4932781e-01
  3.4946062e-02
  4.6963415e-01
 -2.4829873e-05
  2.0212086e-01
  6.2900579e-01
 -1.4177487e-03
  2.6090696e-01
  4.6687864e-04
  3.1930590e-01
 -1.4895640e-01
 -1.3060674e-01
  6.0619402e-01
 -4.3791717e-01
 -1.0225734e-02
  3.8947263e-01
 -7.2538264e-02
 -6.3403454e-03
  4.5460629e-01
  9.6556090e-02
 -2.7297702e-02
 -1.7340566e-01
 -1.7602870e-01
 -1.0436792e-01
  1.7362768e-02
 -6.2388473e-04
  3.3193078e-02
  6.0296714e-02
  7.3332042e-02
 -2.1051238e-01
  2.6078992e-06
 -1.5482436e-01
 -2.3976257e-01
 -1.3494294e-04
 -1.7336626e-02
 -4.5530174e-05
 -2.3499161e-01
  5.7739627e-02
 -8.4981054e-01
 -2.3563708e-01
  6.6610545e-02
 -8.1119419e-05
  4.1988078e-01
  3.1175423e-06
 -3.7635367e-05
 -6.6395532e-06
  9.2477067e-06
 -3.0189749e-05
 -2.3998200e-05
  2.7298065e-05
 -1.7020213e-05
  3.1086583e-05
 -4.5768029e-06
  9.3630828e-05
  8.7387025e-07
  4.4259796e-05
 -3.1740423e-05
  2.0538723e-01
 -2.3154698e-05
 -1.5389955e-05
 -6.8619447e-05
 -7.1591538e-05
 -9.3433091e-06
 -5.7285528e-05
  5.2195639e-05
 -9.5219675e-06
 -3.4238252e-05
  6.8637478e-06
 -3.1929994e-06
  5.7253932e-05
  1.5074877e-05
  6.9381662e-05
  6.6288180e-07
  8.5623651e-06
  6.4670225e-05
 -1.6015176e-05
  6.3621178e-07
 -2.7983075e-05
  7.1935370e-05
  2.1970696e-05
  7.6552315e-06
 -6.0023467e-06
 -3.3003158e-05
  3.7609778e-05
  9.5426811e-05
  1.2720388e-05
  1.8714372e-05
 -1.0322253e-07
 -4.3523155e-06
 -1.2938630e-05
  7.0098608e-06
 -1.8994268e-05
  9.2708933e-06
 -3.4129011e-05
 -3.0542960e-05
  7.2394214e-05
 -2.0037433e-04
  3.4521607e-05
 -4.4818713e-05
 -1.6733538e-05
  3.8697813e-06
 -3.2582477e-05
 -7.8313635e-05
 -1.7464768e-05
 -5.8204969e-05
 -4.8527669e-05
  6.0161433e-06
  4.8092079e-06
  8.2894956e-05
 -1.6383667e-05
 -1.1313959e-06
  5.1505678e-05
  3.3630797e-05
  2.2885661e-06
 -6.0054208e-06
 -6.4958200e-05
 -5.8352922e-05
  1.0473219e-05
  2.1706714e-04
  1.7736474e-04
 -8.1452981e-07
 -2.5953999e-05
 -2.0941388e-06
 -5.4516007e-05
 -4.3554746e-07
 -2.2948700e-05
  4.5812330e-06
 -1.2989442e-05
 -9.3135268e-06
  1.2433284e-06
  3.3500859e-05
  1.0808604e-05
 -8.8185188e-06
  7.2404218e-05
  2.3513920e-05
  8.2578685e-05
 -4.2030850e-05
  3.9087165e-05
  4.5300112e-05
  2.4261986e-05
  2.8684637e-05
 -3.9450915e-06
  5.6939043e-06
 -2.9527464e-06
  2.1477408e-05
 -5.2903933e-06
  4.4162771e-05
  6.1447783e-05
 -6.1019316e-05
  4.6463880e-05
 -3.3384360e-05
  3.2359945e-05
  9.0830281e-06
 -5.9912923e-05
 -1.4027228e-05
 -5.6361518e-05
 -4.0588009e-05
 -1.0851865e-05
  5.6640238e-06
 -5.6472950e-06
 -1.9679439e-05
  1.5705648e-06
 -3.4925164e-05
  6.2569976e-05
  9.2859718e-06
 -7.6197666e-01
  1.1080914e+00
 -4.5069262e-01
 -1.2317108e-02
 -7.2087944e-01
  8.7544757e-01
  2.3844893e-01
  4.1086870e-01
  6.2100027e-02
  5.4264343e-01
 -3.0171260e-01
 -2.2765076e-02
  2.3863883e-01
 -2.4194413e-01
  3.4793594e-01
 -3.8229981e-01
  1.5301920e-01
  7.4384433e-01
 -1.6294605e+00
 -4.3731391e-01
  1.2951382e+00
 -1.0630602e+00
  1.2480229e+00
  5.5474106e-02
  2.4357842e-02
  1.4714542e-01
 -5.3406465e-01
 -4.5059648e-01
 -1.2744097e+00
  7.1590090e-01
 -2.4557872e-01
  4.3117198e-01
 -1.3144894e-01
  1.3627980e+00
 -8.2848743e-02
 -2.0269265e+00
  2.4425828e-01
 -1.1946214e+00
  7.5848311e-01
 -3.6438981e-01
 -8.8192618e-01
  1.5086623e+00
 -1.5135843e-01
  1.0502394e-01
 -5.1932588e-02
  4.7835156e-01
  2.5220077e+00
  2.3824673e-02
 -1.0844740e+00
 -9.9571222e-01
 -8.9067258e-03
 -1.4984500e+00
 -3.8092585e-06
 -1.3440777e-05
 -3.2783812e-01
 -2.6633903e-05
 -5.1266891e-01
 -3.0638603e-10
 -7.5529431e-07
 -1.0429470e-05
 -3.6301979e-06
 -3.5286008e-05
 -5.8764195e-05
  7.9674210e-06
 -6.2184863e-06
  9.8484277e-05
 -2.7154401e-05
 -2.1290007e-06
  4.2360698e-06
 -2.1824764e-05
  1.9089695e-05
  3.2353102e-05
  3.7836995e-05
 -4.0518069e-07
  1.0355567e-05
  2.4173563e-05
  1.3689849e-05
  8.0400627e-05
 -1.2895553e-05
  1.6932561e-06
  3.7994600e-06
 -4.9556871e-05
  9.0583544e-06
  8.1165825e-05
  2.8407179e-05
  5.9115791e-05
 -3.1599075e-06
  6.6086031e-05
  2.8184919e-05
 -1.3444184e-05
  4.2872803e-06
  6.8456693e-06
  5.0446033e-05
 -6.6273797e-06
  1.1416666e-05
 -4.5068846e-05
 -1.2497881e-05
 -6.4324058e-06
  2.8115175e-05
 -5.9115857e-05
  7.2157363e-06
 -3.6939109e-06
 -7.3194519e-06
 -8.8353154e-05
  3.6352092e-05
 -2.5511581e-05
 -1.0330508e-05
 -2.5559628e-05
 -4.3596843e-05
  3.8505204e-05
  1.1732054e-05
  9.9365598e-06
  9.9904255e-06
  1.1218850e-04
 -2.7197875e-06
 -1.4949027e-05
 -7.0546931e-01
 -3.2353905e-01
 -4.7938469e-01
  1.4626060e-01
  6.8430960e-01
 -3.0253534e+00
 -2.1501267e-01
 -1.0522641e+00
 -3.6151513e-01
  7.0226473e-01
  7.0247597e-01
  4.5218405e-01
 -1.2146942e-03
  3.4467801e-01
 -3.0157098e-01
 -2.2895178e-01
 -1.5696865e+00
  9.8330784e-01
  6.7906868e-01
  6.8733358e-01
 -1.5822524e+00
  7.5166963e-02
  5.8923936e-01
 -8.4672594e-01
 -2.1658498e-01
 -2.7980629e-02
  1.5071246e-01
  8.2001567e-02
  1.3454084e+00
 -1.0863187e+00
  1.4855067e+00
 -4.4306058e-01
  2.9042932e-01
 -8.8620806e-01
 -1.1194751e-01
  8.7873560e-01
 -8.1153423e-01
  2.3406055e+00
 -5.9383059e-01
  3.5739502e-01
 -5.4863638e-01
  6.8118334e-01
 -2.2601016e-01
 -1.5298960e-03
  3.3869869e-01
  1.4586870e-02
  2.8127128e-01
  8.4946774e-02
  1.0691340e-01
 -1.8619604e-01
  3.0002132e-01
  1.1317570e+00
  9.2549599e-06
  7.4280101e-01
  1.2340435e-01
  2.7184892e-01
  9.6520828e-03
 -3.3004102e-01
 -3.0621046e-05
  2.8257871e-05
  6.8430572e-06
 -1.5128511e-05
  9.4102215e-06
  6.2834697e-05
  1.6909755e-05
 -2.5167696e-05
  4.1255753e-06
 -2.9784333e-06
 -5.4761033e-05
 -2.7175702e-05
 -2.8772803e-05
  6.7950365e-05
 -2.1446684e-05
 -1.4176358e-05
  8.3687853e-05
 -1.8705403e-05
  2.8371564e-05
  1.5427031e-05
 -2.6040602e-06
 -2.3210456e-05
 -3.1384450e-05
 -9.0586955e-06
  5.7687907e-06
 -3.9819415e-06
  2.3863493e-05
  1.1605969e-05
  1.7773605e-06
  1.1272984e-04
  7.6516817e-06
 -5.7295397e-06
  1.2827181e-05
  6.7416217e-06
 -2.8415452e-05
  3.8079841e-05
  4.5642055e-06
  6.2817016e-05
  2.9284116e-05
 -3.8997372e-05
 -1.4372345e-06
 -1.1490356e-05
  3.3220611e-05
 -3.5037672e-05
 -3.7667000e-05
  4.0107527e-05
  3.3330898e-06
  2.9040952e-05
 -4.0169158e-05
 -7.9091001e-07
 -4.7432197e-05
  1.2138701e-05
  2.4101773e-05
 -7.1881441e-06
  3.5646695e-05
 -1.9879533e-05
  5.2242052e-05
  2.6086365e-05
 -1.1023188e-05
 -1.7896080e-05
  2.8629709e-05
  3.1140371e-06
  3.8146907e-05
 -3.6324396e-05
 -1.4215104e-05
  6.3367906e-06
  4.5211773e-06
  1.1781263e-04
 -2.4319401e-05
  1.1656506e-04
 -5.0642648e-06
 -5.4496759e-06
 -3.9043865e-05
 -4.8109530e-05
  1.6213085e-05
  6.9694206e-06
 -2.3670784e-05
  1.3491960e-05
 -1.5981168e-05
  4.4846461e-06
 -1.5206935e-05
 -1.6611870e-04
  2.2062770e-05
 -3.9187817e-06
 -2.7877068e-05
 -6.6982517e-05
  4.7755886e-05
 -3.3973909e-05
 -2.4374909e-05
 -1.6093158e-04
 -1.2421299e-05
 -2.0308780e-05
  2.2869521e-05
  4.5537166e-05
  3.9572766e-05
 -1.0331796e-05
  3.7200903e-07
 -4.7141391e-05
 -2.4958310e-05
  2.9377165e-05
 -3.5709309e-05
 -3.7001380e-05
  1.6024952e-04
  7.8076911e-05
 -3.7944810e-06
  1.0297451e-05
 -5.1912069e-05
  1.0575278e-04
  1.5415326e-05
 -6.8594604e-06
  3.8899389e-06
 -5.9285285e-06
  3.6338373e-05
 -4.8962493e-06
 -3.9934203e-06
  3.1654647e-05
  7.8709818e-05
 -2.2661221e-05
 -3.5768629e-05
  9.8502969e-06
  3.3531993e-05
  6.8601585e-06
 -8.8006323e-05
 -2.2197630e-05
  1.8142076e-05
  9.5511150e-06
 -2.8463672e-05
 -1.0719518e-05
  8.1643419e-05
  8.4184248e-05
  2.0637288e-05
 -4.5320107e-06
 -8.2620223e-05
  6.5976324e-06
 -6.2770387e-06
 -4.0245901e-05
 -3.2307266e-06
 -9.1565175e-07
  3.9855295e-05
  5.0083188e-05
  1.8198988e-06
  6.7586960e-05
  4.8268430e-07
 -2.1778964e-05
  4.0424520e-06
 -6.6326291e-05
 -9.0574460e-05
  5.8666203e-05
 -2.2362301e-05
  9.8594255e-06
 -2.6777578e-05
 -1.2059427e-06
  4.8234462e-05
 -4.2512143e-05
  7.9020749e-05
 -9.9354424e-05
 -1.2320734e-05
 -3.3876604e-05
  1.0404331e-04
  1.9001045e-06
 -4.4542856e-05
 -1.2443943e-05
  8.1592170e-06
 -1.1592924e-05
  8.6142727e-06
 -8.0364807e-05
 -7.1126233e-06
 -2.1208378e-05
  2.3239618e-06
 -3.3540155e-06
  5.2970554e-05
 -1.2581964e-05
  1.3129265e-05
  6.4147462e-05
 -1.9785088e-05
 -8.2852557e-07
 -3.0583371e-05
  2.4368954e-05
  5.3784701e-05
  1.2386086e-05
  3.4747358e-05
 -1.4852827e-05
 -3.5988232e-06
 -4.2370495e-05
 -2.5072124e-05
 -1.2300941e-05
  2.4686542e-06
 -4.7149078e-06
 -3.6089389e-06
 -2.7991932e-06
  9.2496402e-06
 -2.3567705e-05
  4.5722431e-05
 -9.1308220e-06
 -1.1635176e-05
 -3.2338681e-05
 -5.9343720e-06
  6.6377994e-05
  2.6638438e-05
 -5.0058748e-05
  4.4816363e-05
  8.2854312e-06
  1.9852285e-05
 -1.3441982e-05
 -4.4256500e-05
 -6.2443614e-05
  4.5333785e-05
 -2.3468740e-05
 -6.4763633e-05
  7.5813099e-05
 -6.5412962e-05
 -3.5698351e-05
  6.3485604e-05
 -3.6478777e-05
 -7.6012379e-06
  4.4681477e-05
  9.0277055e-05
  1.0005391e-04
  9.7544416e-06
 -1.6915275e-05
 -6.6641966e-05
  1.2365152e-04
 -3.7571226e-05
  1.3045835e-05
 -2.3229733e-05
  8.3688565e-06
 -2.3023838e-05
  1.1916006e-05
 -1.3154330e-04
 -1.4892214e-05
 -4.6535337e-05
 -1.3230921e-04
 -1.5880264e+00
 -3.6485070e-01
  5.9990227e-02
  5.7891890e-02
  3.2949483e-06
 -4.5323838e-02
  3.6828876e-01
 -2.4280132e-01
  5.6231779e-01
 -7.3945022e-01
  4.4375200e-05
  3.6712459e-01
  2.4017377e-06
 -3.5436127e-01
  9.3359855e-04
 -3.8692933e-06
  8.3923078e-06
 -7.8097719e-07
 -3.2532507e-06
 -5.9824049e-02
  3.5220444e-05
  2.2501338e-01
  2.7294558e-02
 -6.7053378e-02
  7.0098336e-05
 -3.6402201e-04
 -2.0729332e-05
 -2.4609064e-05
  5.5011107e-05
  6.3197212e-03
 -1.4538522e-05
  1.1708528e+00
  6.0523406e-04
 -1.7294657e-01
 -2.5476970e-06
  4.2594653e-05
  6.1701473e-02
  8.2755799e-04
  3.4029028e-05
  1.5659038e-04
  8.0650125e-06
  1.1171135e-02
 -1.6430535e-04
 -2.8629625e-01
  3.0053699e-05
 -1.6781685e-01
  2.9673765e-07
 -2.1002716e-05
 -3.7517127e-01
  6.8777408e-06
 -9.2206556e-06
  9.1957518e-05
  3.2073963e-06
 -9.1470374e-06
 -1.3657886e-05
 -2.0003727e-05
  2.5528701e-05
  5.3645545e-05
  6.9367008e-05
  9.6259109e-06
 -4.7244284e-05
  1.0360686e-04
  2.7550013e-06
  1.0941674e-05
 -6.3501366e-06
 -3.4656354e-05
  4.0345831e-06
 -3.1990850e-05
 -2.9665724e-05
 -6.2573621e-05
  4.7976537e-06
 -2.6717833e-05
  6.0225807e-06
  1.0785407e-05
 -6.7443725e-05
 -4.6649091e-02
  6.4878514e-05
 -2.7552485e-05
  1.3903331e-05
 -1.8515737e-05
  5.5180804e-05
 -1.5858561e-05
  8.7927598e-05
  4.7178100e-06
 -1.4601443e-05
  1.0879258e-05
  2.2928160e-05
  1.0258332e-05
  7.8389039e-06
  2.7726974e-06
 -2.4918347e-05
 -1.7533164e-05
  4.4982808e-05
  2.2437864e-06
 -8.9706045e-06
 -3.7936334e-06
 -9.7308812e-06
 -1.3523022e-06
 -6.1056817e-05
 -2.2296404e-06
 -4.9609866e-06
  5.1189993e-05
  6.3297419e-05
 -7.4802367e-05
 -6.9194975e-05
 -1.3569241e-05
 -8.0435064e-05
 -5.4762368e-06
  4.7996673e-07
  5.5938806e-05
 -1.2832288e-05
 -1.8010327e-05
 -3.2023760e-05
 -2.0053223e-05
 -3.2780827e-07
  2.9443983e-05
 -6.6343212e-01
  2.2058742e-01
 -1.3302067e-01
 -5.5900115e-01
  2.8518064e+00
 -4.9281368e-01
 -1.9732557e-01
  6.1211932e-01
  5.2139390e-01
 -3.2571815e-02
 -1.5257168e-01
 -2.0969066e-01
 -2.0827356e-01
 -1.0330011e+00
  1.6072543e-01
 -2.9148940e-02
 -2.7739065e-05
  5.8917809e-01
  1.3373475e+00
  2.9450268e-01
  6.0439783e-01
  1.0868518e+00
  1.0271474e+00
 -9.7651297e-01
 -8.0487090e-01
  9.1398108e-01
 -7.7660757e-01
  1.1121271e+00
 -2.2885832e-01
 -5.7531422e-01
 -1.0083941e+00
  2.7077052e-01
  8.0542904e-01
 -2.4602556e-01
 -6.5400280e-05
 -5.0686461e-01
  5.2094167e-01
 -2.7972585e-01
  4.7624922e-01
 -9.7343439e-01
  4.8096031e-02
 -5.6709373e-01
  5.6405485e-01
 -1.6293341e-01
  7.3785350e-02
  2.1716803e-01
 -2.3912123e-01
 -2.6710457e-01
  4.5008364e-01
 -3.0673888e-01
  1.0346796e-01
  6.7522097e-01
 -3.0943349e-05
  2.0451628e-02
  6.5467536e-02
  8.5082000e-01
 -1.1812935e-01
 -1.8193301e-04
  2.6179086e-05
  3.7541882e-05
 -4.8436934e-05
  2.2770475e-05
 -2.7166989e-06
 -1.0437397e-05
 -1.0520972e-05
  7.4647278e-06
 -1.8227409e-05
  1.3020883e-05
 -8.1604685e-06
  1.1608941e-05
  7.4065179e-07
  2.6307747e-05
 -2.1207827e-05
 -5.3623407e-05
  1.6261449e-05
  3.2967733e-07
  1.2703473e-05
 -1.9145031e-05
  7.1732288e-06
 -5.0902960e-05
 -1.8095347e-05
 -6.4135370e-06
  3.9854520e-05
 -4.4316303e-06
 -1.6814251e-05
 -2.8867558e-05
 -2.0237247e-05
  5.8993946e-06
  3.1411437e-06
 -1.2757426e-05
 -3.2631397e-05
  5.0970633e-05
 -3.7272821e-06
  5.6824724e-06
  7.3734227e-06
 -1.6560831e-05
 -9.7832795e-05
  3.6298101e-05
  3.7080834e-05
 -2.4782386e-05
 -3.1682066e-05
 -1.3883447e-05
 -4.8133843e-05
  2.1072208e-06
  7.6155293e-06
 -1.1952397e-05
 -2.6459550e-04
  2.7200265e-05
 -5.1486652e-05
  3.8102229e-05
 -1.0184593e-05
  5.1545729e-05
 -1.4558995e-05
  3.6005378e-05
 -2.8082788e-05
  1.4580282e-05
  1.6317283e+00
  2.3996590e-01
 -3.3449789e-03
 -9.2399395e-01
  1.9440956e-02
 -1.6577075e+00
  1.9642788e+00
  1.2967746e-01
  8.2330421e-02
 -6.0437894e-01
  1.3468695e-01
  4.9227336e-01
 -2.9085338e-02
  2.0965417e-01
  5.8399506e-02
 -1.0544119e+00
  2.0647485e-05
  9.6620196e-01
  4.3863170e-02
 -1.1156603e-04
 -4.0279028e-01
  5.5621725e-01
  3.1949961e-01
 -2.2866558e-04
 -9.1170914e-06
 -3.0215488e-05
  1.1870390e-05
 -6.1220813e-01
  5.9280974e-01
 -1.8720572e-01
 -1.0899942e-05
  5.2011710e-01
 -3.0556072e-02
  6.5908188e-01
  3.5986926e-05
 -2.8605964e-05
  4.3903417e-03
 -6.2628549e-01
  3.1648079e-04
  3.9068714e-02
 -2.5004461e-01
 -7.0113599e-01
 -4.2549736e-04
  2.3481027e-07
 -6.0158539e-01
  7.7695318e-02
  6.6208756e-01
 -1.9735244e-01
 -8.4286064e-02
 -2.8099605e-01
 -7.3688097e-05
 -2.8152719e-05
 -1.0173574e-07
  1.2843913e-04
  1.6423768e-05
  1.6318701e-05
  2.0802652e-03
 -2.0499401e-06
 -5.9799772e-06
  4.8735052e-05
 -2.7331418e-05
  7.0280235e-05
  6.1842852e-06
 -3.3240485e-05
  3.0489295e-05
 -2.0631209e-05
  8.6069784e-05
 -5.2658092e-06
 -2.4334329e-05
  1.0248277e-04
  1.3930180e-05
  1.8362578e-05
  3.0057383e-05
  8.5609445e-06
  1.3865105e-05
  2.8391563e-05
  5.7502846e-05
 -2.4963440e-05
  1.7925451e-05
  5.8693549e-05
  3.0302759e-05
 -1.6694956e-05
  4.0382663e-05
  8.9683763e-06
 -1.0126917e-05
 -9.3716335e-07
  1.7166551e-06
  4.1183368e-05
 -2.8191016e-05
 -1.3244830e-04
 -2.7542861e-05
 -5.4560060e-05
  8.0633627e-06
 -7.3024908e-05
  4.2123833e-05
  4.6909499e-06
 -2.0005609e-06
  2.7561764e-05
  4.3640949e-07
 -9.5010451e-05
 -8.2169696e-05
  1.5412044e-05
 -1.4206865e-05
  4.1041796e-05
  1.7175995e-05
  4.1157444e-05
 -3.9537381e-06
  6.4475562e-06
  1.3106734e-05
 -3.1183579e-06
  1.7189555e-05
  6.1518251e-05
 -1.2356230e-05
 -1.6998794e-05
  4.9678452e-05
  2.8419843e-05
  1.4445108e+00
 -1.0056082e+00
 -2.0001557e+00
 -1.5442768e+00
  1.5541066e+00
 -1.1045114e+00
  1.6708305e-01
 -2.8979566e-05
  3.1421971e-01
  6.3320485e-06
 -4.0196109e-01
 -8.6365032e-01
  9.0827589e-06
 -1.1345249e-01
 -3.5087549e-04
  2.3149310e-02
 -6.9592327e-02
 -6.0642672e-01
 -1.7183292e-01
 -1.8634002e-01
  3.8304154e-02
  1.6403465e-01
  6.4101535e-01
 -5.8497812e-06
 -2.5492242e-05
 -4.3613465e-05
  7.5222590e-07
 -7.0014137e-01
 -6.9983018e-04
 -5.0936578e-05
 -2.0513155e-05
  1.3289765e+00
 -1.9711859e-05
 -8.4062886e-01
  3.2123349e-05
 -1.7050692e-01
 -3.0492819e-04
 -8.6949483e-05
 -8.5566862e-06
  5.4733038e-02
 -6.9399983e-02
 -1.7432769e-05
  9.7536205e-05
 -9.0363341e-05
 -5.2088547e-02
  9.9365090e-05
 -1.6121946e-01
  9.1253305e-06
 -5.7726538e-06
 -2.8623642e-02
 -1.0186480e-05
 -3.6569501e-04
 -4.4143078e-05
 -1.0364899e-05
  1.2514906e-06
  2.5426280e-05
  9.5561836e-06
  4.8367514e-05
  2.4719539e-01
  7.8367901e-01
 -7.5147712e-01
  3.3340013e-01
  9.9725779e-03
 -3.4748590e-01
  5.7506565e-02
  1.2429476e+00
  5.1778036e-01
 -5.2734942e-04
  2.1989761e-01
 -8.0161832e-02
 -4.5391354e-01
 -1.1374625e+00
  1.4439100e+00
 -7.1301526e-01
 -1.3510321e+00
 -1.7588842e+00
 -2.4001896e+00
  2.0221975e+00
 -2.8819370e-01
 -1.4161315e+00
  1.3583975e+00
  4.2434669e-01
 -2.4036791e+00
  4.1608188e-01
  2.0129199e+00
 -4.7321168e-01
 -7.2858107e-01
 -5.8060294e-01
  1.6049968e-01
  1.4827462e+00
  6.0486760e-05
 -9.7047073e-01
  5.8049949e-07
  5.3044945e-01
 -6.9619793e-01
 -5.6781006e-01
 -1.1225730e+00
  1.4084409e+00
 -8.1056112e-01
  1.3483697e+00
 -7.6926339e-01
  1.6796258e-01
  4.6151897e-01
  2.8591463e-01
  2.0206916e+00
 -2.7499521e-01
  1.2232579e+00
 -1.2398881e+00
 -4.6080616e-01
 -3.1390941e-01
 -9.4338702e-06
 -3.8794101e-06
 -6.3512921e-01
 -1.5718553e-05
  2.8427219e-05
  3.8446218e-04
 -1.1674252e+00
  1.5176535e+00
 -6.9626915e-01
 -9.2226721e-02
  4.6109408e-01
  3.9345643e-01
  5.8864027e-01
 -1.5163479e-02
 -3.2652844e-02
 -3.6940777e-01
  1.5522265e-01
 -2.1145168e-01
  8.3089525e-01
 -5.8586204e-01
  1.6029686e-01
 -3.2431420e-03
 -3.3717543e-02
  4.7227678e-01
 -1.0866802e-01
 -4.4191343e-01
  7.9405844e-02
 -1.8450291e+00
 -1.7130259e-01
 -3.5700715e-01
  1.2950507e+00
  8.3247753e-05
 -1.9319257e-01
  4.0387169e-01
 -2.5642784e+00
 -1.4368816e-04
  3.4989091e-05
  1.2667183e+00
 -6.8219531e-01
  1.5148462e-01
 -2.6108835e-05
 -4.9996686e-01
 -4.1966587e-01
 -1.4505241e+00
  3.9960596e-01
 -1.5378480e+00
 -2.6887253e-01
 -3.4619603e-02
  7.9233542e-02
 -9.7063096e-04
 -4.4714147e-01
 -2.3153390e-01
 -1.0767483e+00
  6.5527987e-01
 -1.0607421e+00
  1.0640422e+00
  5.2665193e-03
 -1.1019523e+00
  8.7246790e-06
  1.7360991e-05
  2.2464503e-05
 -4.7230655e-01
 -5.3600085e-01
  1.3147903e-04
 -3.0505472e-01
  1.1916506e-01
  1.7149676e-02
 -2.1197139e-01
  2.5258601e-01
  3.0910334e-01
 -7.9368544e-01
 -7.3201150e-02
  2.5149360e-01
  6.1493021e-01
 -2.8705066e-01
 -2.4508217e-01
  4.6559966e-01
 -1.0808083e-01
  2.7590808e-02
  4.9312431e-03
  1.8429083e+00
  6.3594347e-01
 -4.9190795e-01
  1.5153727e-01
  7.0306823e-02
  1.2933220e+00
 -2.3155057e+00
 -8.1804015e-02
  1.1943904e+00
  6.4191651e-01
 -8.4306359e-02
  5.0819343e-01
 -2.4577615e+00
 -1.1370826e+00
  1.7450598e+00
 -2.0270076e+00
  9.4209170e-01
  3.2063338e-01
  1.4014719e+00
  1.3230207e+00
 -6.2970513e-01
  2.0939023e+00
 -7.3684372e-02
  5.9119636e-01
 -1.6317540e-01
  2.3085631e-01
  1.8127474e-01
  1.0369623e+00
  5.5974519e-01
 -1.5554407e-01
  1.2003131e+00
  3.4419525e-01
 -7.2067797e-01
  3.6040008e+00
 -1.5825695e-01
 -2.4345845e-05
  2.7852868e-06
  1.4435272e-05
 -2.1704371e-01
 -1.0276060e-03
  4.5172736e-01
  7.6371267e-02
  2.4250492e-05
  2.1132650e-05
 -6.8872691e-06
  2.8337606e-06
 -2.6131840e-05
 -2.4993320e-05
 -5.7290645e-06
  8.5728869e-05
  7.0582687e-06
  1.4462959e-05
  1.9073788e-05
  2.2096161e-05
  2.0856476e-05
  9.1158843e-05
  9.1466654e-06
  8.6008404e-05
  3.1807001e-06
 -4.6722798e-05
 -5.7587262e-05
  1.1122705e-05
  1.2046677e-05
 -2.0023061e-05
 -1.9651588e-05
  1.6593409e-05
 -1.4221318e-05
  1.8660692e-05
  3.7939779e-05
  1.2263363e-05
  3.3640522e-06
  2.4071940e-06
 -6.3172069e-05
 -6.8314388e-05
 -1.2039653e-05
 -4.2145672e-05
  1.8167975e-05
  4.2264619e-05
 -9.1552094e-05
  1.2131367e-05
 -1.6113516e-05
 -1.0487356e-04
 -3.8177601e-05
 -2.9177743e-05
 -4.4015883e-07
 -2.0838004e-05
 -2.5878189e-05
 -2.8228851e-06
  8.3575127e-05
  7.0402806e-05
  3.6644487e-05
 -1.2395453e-05
  4.3087221e-06
  1.2890564e-06
  7.2790658e-06
  2.9148359e-06
 -1.8465240e-04
  5.7365345e-05
 -1.1930603e-05
 -8.0011068e-06
 -9.0898902e-05
 -1.1939099e-05
 -5.6342637e-05
 -2.4506262e-06
 -2.7148040e-05
  1.3865909e-05
 -1.6145335e-05
 -1.3185035e-01
  1.8311417e-05
  3.7552003e-05
 -1.5206639e-05
 -1.2687780e-05
  2.3970384e-05
  2.7185474e-06
 -5.4407468e-05
  1.1239557e-05
  5.0065988e-05
 -7.7701305e-05
  2.6716774e-05
  9.7282673e-06
  5.4197430e-05
 -1.7920645e-05
 -4.6113842e-06
 -1.9070652e-05
 -1.1351247e-05
  8.5232961e-05
 -1.9614074e-05
 -2.2108536e-05
  1.6916490e-05
  4.6123141e-06
 -8.9347350e-06
 -3.1186783e-01
 -2.2513272e-05
 -1.0078026e-04
  2.1966644e-06
  5.3293490e-05
  1.2424083e-05
 -2.4319403e-05
  7.4736963e-06
 -1.0353163e-07
  6.8346130e-06
  4.4215853e-06
 -2.1352877e-05
  1.9863603e-06
 -2.6754940e-05
  1.1610222e-05
 -7.2528087e-06
 -1.0881842e-05
 -7.9328791e-05
 -1.4211164e-05
 -1.9518175e-06
 -8.8159723e-05
 -1.7517390e-05
  1.7554665e-05
  1.1121438e-05
  7.1271133e-05
 -8.8534025e-06
  1.9303168e-05
 -2.0669401e-04
 -7.3493204e-05
 -2.0023261e-05
  1.7777638e-05
 -7.6753240e-06
 -6.6619032e-07
  1.7719340e-05
 -8.7874927e-05
 -1.1129745e-05
 -1.9554060e-05
  8.2145278e-05
  4.6100504e-06
  4.6881792e-06
 -5.3548119e-06
  1.5136934e-05
  1.0263012e-05
  1.7880819e-05
 -7.4546297e-05
  6.4267560e-06
 -8.6431919e-06
 -2.3978066e-05
 -6.9644237e-05
  4.9056020e-05
 -7.4927293e-06
  4.0086657e-06
 -6.3569951e-06
  2.2079901e-05
  7.6226024e-06
  6.1012597e-06
  4.3233289e-05
  7.9547819e-05
 -2.8490518e-05
 -1.7259443e-05
 -1.1611118e-06
  2.0893418e-05
 -5.4971206e-05
  2.2708612e-06
  1.2214469e-04
 -7.7661844e-06
 -8.4651540e-05
 -1.8940150e-06
  6.6348737e-05
  8.3608080e-05
 -2.4187268e-05
 -2.3530352e-05
  2.1331216e-05
  5.1126040e-07
  8.0363796e-05
  3.0484589e-05
  2.4170615e-05
 -1.8917492e-05
 -2.4720752e-05
  2.3335839e-05
  6.3742641e-06
  2.3768364e-06
  8.7198459e-05
  2.0584283e-05
 -1.6079523e-05
  6.8157156e-06
 -1.0051426e-06
 -2.3389020e-05
  1.3189664e-05
  2.6877769e-05
 -8.9532923e-06
  8.4378080e-05
  1.5601287e-05
 -3.0042300e-05
 -3.1352004e-06
  2.4382849e-05
 -8.6544842e-06
 -1.7026414e-05
 -1.1162389e-05
 -3.0372834e-05
  1.2091239e-04
 -2.5351736e-05
 -3.9192782e-05
 -1.4743587e-05
  7.6979690e-05
 -6.5914202e-05
  2.7672686e-06
  2.9840099e-05
  8.8078632e-06
  2.2987524e-05
 -1.8273540e-05
  2.0557267e-05
 -1.7326927e-05
  1.4932528e-05
 -1.5921602e-05
  1.5313864e-05
  2.4650533e-05
 -4.3501790e-05
  4.4291310e-06
  4.8563834e-05
  3.7781992e-06
  2.2527770e-06
  1.6507424e-06
  1.6869337e-05
 -5.7619081e-07
 -8.4145773e-05
 -1.0621079e-07
  1.6740027e-05
  8.2704762e-05
 -6.2241306e-05
  1.5183965e-05
  1.2673505e-05
  8.2798913e-05
 -1.8073037e-05
  8.0266807e-05
  1.4664423e-05
 -1.7027487e-06
  5.9531747e-05
 -6.9088928e-06
  3.0802763e-05
  8.6085738e-06
 -2.4201713e-06
 -3.8014390e-05
 -1.8890378e-05
  4.8785536e-05
 -1.9618428e-05
  8.9934792e-06
  7.8380283e-05
  7.0428359e-06
 -4.3088771e-06
  1.3842649e-05
  9.5792871e-07
  4.8676338e-07
 -1.9013633e-04
 -4.5142082e-05
 -6.7460278e-06
  1.7915629e-06
 -2.6945962e-05
 -3.8999275e-05
  1.4781496e-04
 -7.9872960e-05
  2.9119092e-05
 -6.3401065e-05
 -1.2328157e-05
  2.7221509e-05
  2.5136382e-05
  6.6532903e-07
  1.2146042e-05
  4.2684460e-05
 -9.1122756e-06
 -5.6109253e-05
 -1.9434927e-05
  1.2798124e-05
 -2.4966772e-05
  7.5932083e-05
 -4.4293702e-06
  1.4656293e-05
 -3.2266456e-05
 -7.5982721e-06
  4.3049640e-05
 -7.0606671e-05
 -1.9273402e-05
  2.3594181e-05
 -1.9914119e-06
  2.4586590e-05
 -3.0117040e-05
  6.2494320e-05
  2.4128291e-05
 -1.5366984e-05
  2.6285470e-05
 -1.8132489e-05
 -2.7028396e-05
  3.5458481e-06
 -1.3737465e-05
  2.3332697e-05
  9.2847022e-06
  2.6630801e-06
  2.5451309e-05
 -3.1314878e-05
 -5.4904303e-06
  2.3350591e-05
  1.3715005e+00
 -6.2542820e-01
 -1.1046973e+00
  5.9572315e-01
 -6.4471275e-01
  2.3957595e-01
 -2.1429977e-01
  6.4647055e-01
 -4.6695646e-02
 -2.1253219e+00
  1.8479729e-01
 -6.4341336e-01
 -1.4914488e+00
 -8.4642923e-01
 -1.3008668e-01
  6.8577772e-01
 -3.4730220e-01
 -1.5053304e-01
 -4.5153666e-01
  7.1587783e-01
 -1.2453447e-01
  1.3885787e-04
  5.0620300e-01
 -1.2702516e-01
 -7.8298259e-01
  8.4869753e-05
 -2.5171745e-01
 -3.2187764e-02
 -2.1442825e-01
 -9.2455313e-02
 -6.4537501e-01
 -5.5034977e-01
 -2.4452615e-01
 -2.7611494e-02
  8.6480752e-05
 -8.8056273e-05
 -2.7388421e-01
  1.4699574e-01
  1.0821854e-01
 -2.1396109e-01
  2.6412010e-01
 -2.2294087e-05
  7.5460196e-01
  8.5542226e-05
  2.5439152e-01
 -5.1190760e-02
  5.7091546e-01
 -7.1977931e-01
  6.3799773e-03
 -1.0707457e+00
 -1.1389739e-05
 -2.1098596e-05
  3.1311517e-06
 -6.5405302e-02
  5.4546867e-06
  4.6825087e-01
 -1.1815587e-01
  7.3088995e-05
  4.6855086e-05
 -1.3744591e-05
 -8.4591975e-06
  5.7879850e-05
 -5.2127634e-06
  8.8594708e-05
  1.1568245e-06
 -1.9369894e-05
 -7.1362032e-05
 -1.6039325e-05
  1.1533907e-04
  2.1456581e-06
 -2.0856736e-05
 -2.5722127e-05
  2.6841653e-05
  2.5600406e-05
 -1.2341485e-04
 -1.6047779e-05
  6.2478815e-05
 -6.2552324e-05
 -7.3815304e-06
  2.5297159e-05
  8.2641563e-05
 -2.1108455e-05
 -7.9370020e-06
 -3.6465281e-05
  2.1139378e-05
 -1.9032368e-05
 -1.2542282e-05
 -1.2022906e-06
 -1.7910384e-05
 -1.0145744e-04
 -1.3886057e-05
  2.8219352e-05
  1.5647242e-05
 -5.6247929e-05
 -8.0156169e-06
 -2.3877812e-05
 -7.6413744e-06
  5.9486312e-05
 -2.7122789e-05
 -2.4273048e-05
  6.4932523e-05
  2.7337239e-05
  1.5161687e-05
  1.3144857e-04
 -7.2593808e-05
 -5.8910778e-06
  1.9929892e-05
  3.7035130e-05
 -4.7138269e-07
  1.6553695e-05
  2.4772909e-05
 -6.5467971e-06
  1.6536858e-05
  2.4123086e-05
  3.1502947e-05
 -6.3855296e-06
  1.3993421e-01
  1.3735718e-01
 -7.8040071e-02
  1.0007863e-01
 -1.5003671e-01
 -2.6601306e-01
 -8.7122612e-02
  3.2588977e-01
  2.0477684e+00
 -2.8317669e-01
 -2.8462189e-01
 -5.9100479e-01
 -1.9309921e+00
  8.7829931e-03
 -3.7898085e-01
  9.2548645e-01
  3.7044165e-01
  6.7713263e-05
  4.6260924e-05
 -4.6559042e-01
 -1.3998839e-03
  1.1318740e-01
 -2.7868293e-05
 -1.4374918e+00
  2.2658436e-05
  1.8661358e-05
  1.0884446e-01
  1.1127070e-04
  6.6868514e-01
 -6.6712326e-01
  1.2888921e-05
 -7.1964197e-02
  9.6207492e-02
 -1.5965790e-05
  1.4803137e-02
 -8.2217004e-05
 -8.4619087e-06
 -3.5201740e-01
  2.1121219e-05
  8.8410042e-02
 -7.3333427e-02
 -1.4723002e+00
  4.0591776e-06
  1.2002997e-05
  3.6702764e-01
  1.4508193e-02
  6.5551239e-01
 -1.0834501e-01
  5.6575369e-02
  2.0920386e-05
 -6.4821375e-06
  2.6887808e-02
  7.8215280e-06
  9.8151846e-05
  7.1784104e-03
  3.2265070e-06
  8.3737068e-02
 -1.4156030e-04
 -3.4709454e-05
  2.1754407e-05
 -1.2031258e-05
 -1.5586982e-05
 -4.2520867e-05
 -7.3387810e-06
  1.7740813e-05
  7.6507013e-06
  2.2587965e-05
 -2.3042860e-05
  8.7899192e-05
  6.9738133e-05
 -1.1655311e-06
  5.6758167e-06
 -5.8883452e-06
 -2.3360228e-05
 -5.1216707e-06
 -2.3628825e-05
  1.8859255e-05
  7.2822775e-05
 -2.6112075e-05
  7.9507539e-05
 -7.7315199e-06
  1.1815020e-05
  2.1791097e-05
  1.2748627e-05
  1.3586344e-06
  2.9536248e-05
 -5.1492361e-06
  2.9113597e-05
  2.5874588e-05
  1.8188390e-05
 -4.6278707e-05
  6.7593410e-06
 -1.4608510e-05
 -2.1991369e-05
  2.4979707e-05
  6.5103204e-06
  4.6810197e-05
 -2.1652706e-05
 -1.1690892e-05
 -1.7454880e-05
  3.1563988e-05
  3.2899356e-05
  2.2675835e-05
 -2.4070637e-06
 -1.1494203e-05
  2.6039328e-05
  8.4466796e-05
  9.2445794e-07
  5.0274889e-06
  3.2415023e-06
  3.6751790e-05
  2.0395881e-05
  3.3610439e-05
 -2.9443814e-05
  1.2594937e-05
  1.3982647e-04
 -5.5256626e-04
  1.6304871e+00
  9.4259180e-05
  1.4976652e-04
  8.1642248e-02
  1.4598787e-01
 -2.9792780e-01
 -8.2088908e-04
 -1.4822122e-05
 -6.6495545e-02
  7.8023666e-05
  1.9983714e+00
 -4.9668760e-04
 -2.0355888e-06
 -7.7173489e-01
  2.9795039e-05
  1.1744894e+00
 -2.7744710e-01
  1.1322745e+00
 -2.0844444e-04
  2.6381695e-05
 -5.7198036e-01
 -1.6868862e+00
  7.5719881e-01
  2.4915975e-05
 -1.2501895e-01
  1.4130192e-04
  1.5520854e+00
  5.7139341e-06
 -7.4625212e-05
 -4.7710490e-01
 -2.7888772e+00
  2.2248548e-01
  5.4207630e-05
  2.3028514e-04
  2.4371224e-05
  2.4533214e-01
 -1.1215873e-04
 -1.1680724e-05
 -1.8036957e-01
 -1.0227450e+00
  7.2621900e-01
 -6.4123487e-01
  6.2431684e-03
  2.0021505e+00
  5.5048811e-01
 -7.5496155e-06
 -2.9252387e-05
  7.8011924e-01
  1.7976934e-01
  1.0383524e+00
 -1.5134785e-06
  7.6005408e-03
 -8.3861694e-02
  1.3447853e+00
  2.5226072e-05
 -6.1388368e-05
  3.2142824e-01
  1.4240099e-03
  5.2767186e-03
  1.4848790e-01
 -2.6228661e-03
  4.3105222e-02
 -2.8230047e-02
 -1.3190652e-01
  1.5563463e-03
 -1.2899509e-05
 -7.0637020e-06
  8.9239504e-05
  3.4861896e-02
  6.9176790e-04
 -3.5379788e-05
 -9.7487956e-02
 -9.4768580e-04
 -8.7929511e-06
  7.9755846e-05
  3.4747910e-01
  2.0048508e-04
  1.4154701e-02
  1.0728195e+00
 -1.1244596e-01
 -8.6273576e-05
  1.5808599e-01
 -1.7296651e-04
 -9.5081214e-06
 -3.1234566e-02
  8.0023547e-06
 -1.1372583e-01
  1.9481129e-05
  9.9455014e-02
  7.4362865e-04
  1.5864730e-01
  2.2466773e-05
  1.2775429e-01
 -4.5597199e-02
  1.9139284e-04
  3.3171597e-01
  8.3371779e-05
 -7.8891101e-04
  2.3633277e-01
  4.6965960e-04
  1.4528337e-05
 -3.5415567e-05
  4.3871896e-06
  1.5524625e-05
 -2.2561390e-04
  2.4557497e-05
  5.4088119e-05
  1.7061631e-05
  4.0040348e-05
  3.5030034e-06
 -1.4746091e-05
  4.4108008e-04
 -2.6431819e-05
 -1.1292052e-05
 -3.5259989e-05
  3.3181751e-04
  1.9192938e-05
  1.3216770e-04
  2.9762186e-05
 -2.8418544e-05
  3.1442974e-06
 -1.4910432e-04
 -6.8736867e-05
 -9.5780952e-06
  1.2351944e-04
  1.0592466e-05
 -4.8477254e-05
  1.2030141e-04
 -1.9089215e-05
 -1.9620133e-05
  2.7825530e-05
  1.2161140e-05
  3.7046868e-07
  7.5151820e-07
  2.4503022e-05
 -1.1506843e-05
  5.2484123e-05
  2.0065944e-04
  6.4566157e-05
 -1.0345373e-04
  8.4557752e-05
  8.1885719e-06
  3.2913629e-06
 -1.9070072e-05
 -1.4411921e-05
 -5.4679134e-05
 -7.0966576e-06
  1.9668271e-04
  6.5411024e-07
 -6.9727430e-05
 -2.8393264e-05
 -6.0556140e-06
 -2.8283441e-05
  1.8329172e-05
 -5.4576038e-05
  3.0780178e-05
 -8.9533496e-05
  4.3849950e-06
  1.4826044e-04
 -2.9849280e-05
  2.1131031e-05
  1.8351097e-05
 -1.3324197e-05
 -4.2944543e-05
 -2.1350752e-05
 -8.6943191e-06
 -2.8280105e-05
 -1.7845719e-05
 -8.5023355e-05
 -6.8857489e-06
  1.7287268e-05
 -2.6797399e-05
  6.1416307e-05
 -2.8287825e-05
 -9.1186484e-06
  8.5103995e-05
 -1.0605069e-05
 -6.5127952e-06
  9.3223089e-06
 -2.1495152e-06
 -9.1680631e-05
 -1.5442853e-05
 -1.9279356e-05
 -1.4852382e-05
 -2.4187304e-05
 -6.4773645e-05
  1.2589397e-05
 -1.8214952e-05
 -2.1736136e-05
  1.9256171e-05
 -2.0390498e-05
  1.4722564e-05
 -1.8395387e-05
 -1.9930860e-05
 -2.5172088e-05
 -2.9571091e-05
  9.1791066e-05
 -1.7019280e-05
  8.8013767e-06
 -2.6245345e-05
 -6.1666844e-07
  2.4732650e-05
  5.3467695e-05
  2.6051370e-05
  4.1289709e-06
  8.4364052e-05
  2.1609814e-05
  6.5001987e-05
  1.0197300e-05
 -2.6842758e-05
 -1.5785648e-05
 -1.8953531e-04
  2.5748852e-05
 -1.3045563e-05
 -4.0462794e-05
 -8.0537109e-05
  1.9385902e-07
  1.1837280e-04
 -7.0686954e-05
  7.1145978e-06
 -7.5031967e-05
 -9.2900082e-06
  4.7572507e-06
 -7.5882657e-05
  2.6794407e-05
 -4.5477180e-05
  1.9796955e-05
 -9.2157552e-07
  7.4216605e-06
  7.0222872e-05
 -1.5929183e-05
 -2.1144226e-01
 -1.0680189e+00
  1.7066154e-01
 -7.1604115e-01
  5.9501255e-01
 -1.5817380e+00
 -1.2966481e-01
  4.4541743e-02
  5.9442800e-01
 -7.4870150e-05
 -2.5659190e-05
 -7.0285168e-03
 -3.5671160e-01
  4.4448581e-02
  6.6220112e-02
  1.0556215e-05
  8.1450380e-05
 -1.0522911e-01
  5.2096140e-05
 -1.1203522e-02
  1.2418324e-04
  3.2684359e-01
 -1.9234605e-01
  3.7281829e-04
  1.8497249e-03
  4.3650948e-06
 -3.0126947e-03
 -4.0077846e-02
  1.6303373e-05
  5.2712435e-01
 -2.2839706e-05
  1.4172282e-02
  1.7954603e-01
  8.2849532e-02
  2.9944189e-05
  9.0934285e-05
  2.1456908e-05
  7.1802635e-05
 -3.9260049e-06
  3.2324402e-05
  1.9843982e+00
  1.9436978e-01
  7.7525681e-01
  6.2848223e-05
 -5.4394852e-02
 -5.5117453e-03
  2.2275619e-01
  2.2701763e-01
  3.0896443e-01
  8.8395542e-01
  1.2703176e-06
 -6.2020255e-05
  1.7773877e-05
  1.0292571e-05
  3.4885143e-05
 -2.1394746e-05
  1.6036587e-05
 -1.5210402e-04
 -1.7340930e-05
 -5.7479483e-06
 -6.7558390e-06
 -2.4710533e-05
 -3.1291274e-06
 -3.1244421e-05
  7.7271121e-05
 -2.0069292e-05
 -8.2780825e-06
  2.3707527e-05
  4.4968881e-05
  6.1118487e-07
  1.9387985e-06
  1.4860307e-04
  5.5040353e-05
  3.9713186e-06
 -1.9741186e-05
  5.4855267e-05
 -3.5179808e-05
 -5.6271142e-06
 -2.3073466e-05
  3.3935819e-06
 -4.6479972e-06
 -2.0201147e-05
  2.7707736e-05
 -1.3530462e-05
  8.7519104e-05
  1.7822178e-05
 -2.8487580e-06
 -5.1439665e-06
  3.3297816e-05
 -2.1846070e-05
  5.2069168e-05
 -3.0260202e-05
  8.4609586e-05
  2.4038338e-05
 -3.9315666e-05
  6.3834796e-06
  4.2479529e-05
  2.1282631e-05
  3.4786241e-05
 -6.0801314e-05
 -6.2973369e-05
 -1.2343176e-05
  2.1020330e-06
  7.7028970e-05
  4.1454481e-05
 -1.8064560e-05
  4.7253696e-05
 -7.5426337e-06
  9.1583781e-05
 -2.6524902e-05
  8.2908446e-06
  4.1117630e-05
  8.0644997e-05
 -9.2981951e-05
  1.0178246e-05
 -5.3545459e-06
 -6.0769515e-05
 -2.9256977e-05
  8.2912702e-06
  2.9987948e-05
  8.2862265e-05
 -6.0894763e-06
  1.3044235e-04
 -3.2027168e-05
  2.6861473e-05
  5.3703876e-05
 -6.9754722e-05
 -2.2631861e-05
 -1.5088401e-05
 -2.4626543e-05
 -7.5072792e-05
  8.9812920e-06
 -2.2354286e-06
  1.9957526e-05
 -2.5068512e-05
 -7.3388110e-05
 -1.4052822e-05
 -7.6228835e-06
 -2.7156659e-04
  1.3975888e-04
 -1.1139089e-05
 -5.0090181e-05
  2.2077909e-06
 -1.1255311e-04
 -2.0415875e-05
  2.1229209e-05
  1.9552508e-05
 -1.8202703e-05
  4.5007848e-05
 -8.7328073e-05
  3.7795402e-05
 -1.9157689e-05
  3.2979362e-05
 -5.6984813e-05
 -7.6005344e-05
  3.0154342e-06
  2.6158099e-05
 -5.8399296e-06
  8.8499655e-06
 -2.7089234e-05
 -3.7606125e-05
  1.1190086e-05
 -2.2934420e-05
 -2.1121001e-05
  7.1271966e-06
  1.1932803e-05
 -1.0680920e-05
 -1.1449934e-05
  5.9987424e-06
 -8.6769760e-06
  1.5762779e-06
 -2.1810301e-05
  2.7128894e-05
 -5.6385466e-06
  2.8938587e-06
 -1.6821734e-05
 -2.8482733e-05
 -1.7373943e-05
  2.3279270e-05
  5.5352972e-05
 -2.6413409e-05
 -5.9057973e-05
 -2.2842853e-05
  7.5759963e-06
 -2.5109564e-05
 -8.7819091e-05
  2.4453107e-07
 -2.2315653e-05
  5.5835762e-06
 -1.9694517e-05
 -2.7812854e-05
  1.6080463e-05
  2.7097474e-05
 -4.5378273e-04
 -4.2524814e-05
 -7.7829427e-06
 -2.6016187e-05
  1.5785961e-05
  2.0065618e-05
  2.3107143e-05
 -1.6993341e-05
  3.9006095e-06
 -2.1036640e-05
 -2.8229773e-05
  3.5597674e-05
 -2.1969689e-05
  1.4103188e-05
 -2.9892835e-05
 -8.5761392e-05
  1.9505153e-05
  2.0324698e-05
 -1.4159824e-05
 -1.6679536e-05
 -8.5254760e-05
 -1.5490734e-05
  2.2913687e-06
  1.2529510e-05
  1.9785821e-05
 -3.3375763e-05
 -2.0916634e-05
 -1.6190177e-05
 -1.3702322e-05
  2.6777123e-05
 -5.2511964e-06
 -1.8205677e-05
  3.9915931e-06
 -1.7477472e-05
  5.2890078e-05
 -1.5885924e-05
 -2.6278445e-05
 -3.1993743e-05
 -4.7110134e-06
  1.8495234e-02
 -2.5297436e-03
 -4.7820818e-02
  1.0911724e-02
 -5.2863400e-02
  7.5896853e-04
  1.7287064e-03
  5.3045209e-02
 -1.2190660e-02
 -1.7686440e-02
  9.7161448e-03
  1.2168513e-02
 -4.9594988e-04
 -6.3970342e-04
  1.7772902e-02
  7.0614950e-03
 -1.4600235e-04
  2.3924973e-02
 -3.7686490e-02
  3.9945491e-02
 -1.0801473e-01
 -7.0117600e-02
  4.1777872e-02
  1.1054422e-03
 -2.7679807e-01
  1.9874318e-01
  3.1453830e-03
  3.5032013e-03
 -2.6620844e-02
 -1.2838776e-03
 -2.1504578e-01
 -2.8644893e-03
 -7.8354038e-02
 -1.5223224e-02
 -1.0589951e-01
 -7.1377859e-02
  7.9371571e-04
 -9.0648308e-03
 -1.5503131e-01
 -3.3234220e-03
 -8.8368068e-03
 -1.5713887e-02
 -8.5354656e-02
 -5.5638091e-03
  2.5173517e-02
 -7.8320014e-04
 -3.4317620e-02
 -9.1062300e-03
 -1.2472755e-02
 -8.0177456e-02
 -2.7366851e-03
 -1.4065125e+00
 -2.9697238e-05
 -5.9587562e-01
 -2.6907548e-02
  1.0152231e-01
 -2.7742708e-01
  1.0125381e-01
  3.5754656e-05
 -2.2775916e-04
  1.3945736e-05
 -1.9334737e-05
  2.8300237e-05
  3.7378719e-05
  1.1189505e-05
 -8.3691877e-05
 -1.2704025e-05
  2.0594664e-04
  4.1712279e-05
  6.2031295e-06
  7.2880997e-05
 -8.8911125e-05
 -1.5113612e-05
 -7.0286616e-05
 -7.3553361e-05
  1.4567267e-05
 -1.0959060e-04
 -1.5539676e-05
 -5.9672379e-07
 -6.8384783e-05
  1.7506532e-05
 -1.9705680e-05
  2.3966237e-07
 -1.3488581e-04
  1.7162049e-06
 -3.6395930e-05
  1.1378926e-05
 -6.0713296e-06
 -7.9561833e-06
  2.9235527e-05
  1.9855777e-05
 -1.5029358e-05
  2.4822883e-05
 -5.6137746e-05
  2.0795157e-04
  1.5887090e-05
  1.1362704e-06
 -2.4489866e-06
  8.0446938e-05
 -7.8116009e-06
 -2.8467102e-05
  1.7362345e-05
 -2.6779657e-05
 -6.0346324e-06
 -7.9138917e-05
 -5.1587294e-06
 -1.6129925e-05
  7.9488309e-05
 -2.5562473e-05
  1.1857072e-05
 -2.9189341e-06
  1.4890914e-05
 -1.7132206e-05
 -3.5443816e-05
  1.0185124e-05
  9.9191527e-07
  2.6143272e-04
  1.4189590e-04
  3.1427298e-02
 -4.0261412e-01
 -2.1331448e-02
  6.1113054e-01
 -2.9426895e-03
 -4.3633676e-01
 -3.3325119e-05
  1.6474202e+00
  4.3152254e-06
 -2.5198725e-01
 -1.6374868e-05
  3.8376585e-01
  4.6389736e-04
  5.2782506e-01
  2.8876151e-05
 -8.8211564e-06
 -1.3090787e-05
  8.1932427e-05
  5.0614840e-01
  4.8572761e-01
  2.7246799e-05
  1.3563970e-05
  2.2065602e-05
 -1.6336895e-05
  2.2626740e-05
  7.9483441e-05
  2.6991058e-04
  1.7371789e-02
 -1.0216336e-04
 -2.4282140e-01
  4.2136028e-04
 -2.0742366e-01
 -2.3063915e-03
  1.6959550e-05
 -1.4165789e-02
  2.0984353e-01
  1.3609428e-04
 -1.4276191e-04
 -5.5624056e-01
 -2.7374703e-05
  2.1553837e-01
 -1.7486573e-07
 -7.8424520e-05
  1.4812402e-05
 -4.0505272e-03
  2.9924214e-01
 -4.6981149e-05
  6.1261882e-05
  1.4961976e-05
  5.6963181e-04
 -2.0490083e-05
  2.5371437e-05
  1.1504656e-05
  2.6906779e-05
 -6.2197454e-05
  2.8546499e-05
 -2.3136767e-04
 -1.1329814e-05
 -1.2097144e-05
 -5.2967095e-01
 -1.1306009e-05
  2.8822004e-04
 -5.6764362e-05
 -6.6086066e-01
 -2.2290978e-05
 -9.9829787e-01
 -1.5311256e-05
  2.0727724e-05
 -4.7947069e-05
 -1.2365497e+00
  1.6670849e-05
  4.6492666e-01
 -1.3447298e-05
  2.2508186e-05
  3.2148317e-01
  2.5059297e-05
 -6.8743125e-06
  2.2182894e-01
  6.9213024e-06
  2.0874326e+00
  2.1860897e-05
 -9.3515269e-02
 -6.5569735e-01
 -1.4895660e-02
  1.5710146e-05
  2.2857250e-06
  3.2947508e-05
  1.1116433e-05
  4.1512650e-02
  3.0709953e-07
  6.1272240e-06
  1.3684545e+00
  1.1532517e-05
 -1.7088711e-05
  3.8739789e-01
  1.3376933e+00
  1.0616986e-01
 -1.1338252e-05
  9.0748217e-06
 -4.9554378e-01
 -9.2415812e-06
  1.6182088e+00
 -2.1083320e-05
 -5.5702189e-05
  2.1633239e-05
 -1.6038704e-05
  1.6459528e-01
 -1.5538582e-05
  7.3824221e-01
  1.1683001e-06
  9.3452585e-01
  5.4488826e-04
 -5.0135010e-01
  4.7861072e-01
 -2.4662642e+00
  1.1399326e+00
  1.0361705e-06
 -1.5994847e-05
 -1.0948791e-05
 -3.5582798e-05
  2.3888783e-06
 -1.3271679e+00
 -2.3398105e-05
 -2.8645378e-01
  1.4287501e-05
  3.1694207e+00
 -1.7541632e-02
 -1.9119494e-04
 -1.7197730e-05
  3.7768777e-02
  1.4010246e-04
  3.0011604e-05
 -7.7203942e-05
 -1.0522412e-05
 -1.5342806e-05
  2.3034608e-01
 -4.5080215e-01
  8.6509954e-06
  1.6876282e-05
 -4.1350403e-01
 -8.0055557e-05
  4.8481297e-01
 -2.6297565e-05
  7.3618037e-01
 -7.6247677e-02
 -3.0136573e-01
  1.1023760e-04
  3.3163818e-05
  4.1811951e-02
 -1.0132580e+00
  3.3501823e-05
  3.4420776e-01
  1.3178638e-05
  1.5802239e-04
 -3.3947480e-01
  1.8715002e-02
 -3.8342562e-02
  3.7766951e-01
 -1.3626807e-05
  1.1326196e+00
 -2.1354053e-02
 -2.2636771e-01
  3.3304259e-01
 -1.0898898e+00
  9.4498564e-06
 -6.6154134e-06
 -4.7978294e-05
  8.1577127e-06
  2.6631135e-01
 -1.0006328e-05
 -6.8952320e-03
 -8.2581960e-02
 -8.2228609e-05
  2.4835497e-05
 -6.4123191e-02
 -5.2011245e-01
  4.5764327e-01
 -2.9272416e-05
 -1.8211402e-05
 -5.9581065e-01
  2.6218298e-05
  1.4174370e+00
  2.3287466e-02
 -1.8568831e-02
  1.6297799e-05
 -2.9750512e-05
  3.3780029e-01
  5.6269233e-05
 -6.6663861e-01
  7.1774397e-05
 -2.2900175e-01
  3.8232096e-04
 -2.0237730e-01
 -4.0774307e-01
 -4.9493536e-01
  1.5386842e+00
 -4.7677446e-02
 -6.3195333e-02
  1.0948179e-02
  2.4077681e-05
  5.8913906e-06
 -4.0526921e-01
  6.8160341e-05
  3.3101046e-01
 -1.2398034e-05
 -1.2458472e+00
  2.3397832e-01
  3.8940329e-04
 -7.9138044e-05
  2.6614195e-01
 -5.5404569e-05
 -7.9647283e-04
  2.3022646e-02
 -1.7782520e+00
 -4.8516374e-03
  1.9370738e-01
  3.0087948e+00
 -1.0000180e-01
  1.0000382e-01
  1.0001100e-01
 -1.0001152e-01
 -1.0022964e-01
 -1.0018606e-01
  1.0005048e-01
  1.0000020e-01
  2.4098003e-01
  3.7123498e-01
  2.0706078e-01
  4.3847132e-01
  1.0012405e-01
  1.0001989e-01
  1.1302519e+00
 -1.0000021e-01
 -1.0005352e-01
 -1.0000839e-01
 -1.0000006e-01
 -1.0000575e-01
 -1.0003246e-01
 -1.0000040e-01
  1.0000193e-01
  1.0000342e-01
  1.0003825e-01
  1.0002740e-01
  1.8848181e-01
 -1.0004067e-01
  1.0005642e-01
  1.0006375e-01
  1.0000568e-01
  1.0000241e-01
  1.0000505e-01
 -1.0000015e-01
  1.0030979e-01
  1.0011305e-01
 -1.0000268e-01
  1.0000096e-01
 -1.0006915e-01
 -1.0040880e-01
  1.0000315e-01
  1.0018875e-01
 -1.0000140e-01
  1.0000451e-01
 -1.0000560e-01
  1.0001168e-01
  1.0016958e-01
 -1.0000489e-01
  1.0003916e-01
 -1.0000077e-01
 -1.0001194e-01
  1.0000489e-01
 -1.0000059e-01
 -1.0001402e-01
 -1.0000104e-01
  1.0000025e-01
  1.1624730e-01
  1.0203925e-01
 -6.0054153e-01
  1.0008955e-01
  1.0000072e-01
  1.0108919e-01
  1.0003871e-01
  1.0001078e-01
 -1.1817213e-01
 -1.0000017e-01
  1.0000365e-01
 -1.0009772e-01
  1.0000280e-01
  1.0000470e-01
 -1.0001891e-01
  1.0000490e-01
  1.0000336e-01
  1.0000252e-01
 -1.0000521e-01
  1.0000414e-01
 -1.0000262e-01
  1.0000160e-01
  1.0193837e-01
  1.0000616e-01
 -1.0002822e-01
  1.0011439e-01
 -1.0000233e-01
 -1.0000087e-01
 -1.0000198e-01
 -1.0000021e-01
 -2.0000289e-01
  1.0000040e-01
  1.0000196e-01
  1.0000030e-01
  1.1340947e+00
  3.0176336e-01
  1.0000162e-01
 -1.0000321e-01
  3.5182437e-01
 -1.0000388e-01
  1.0012484e-01
 -1.0000025e-01
  1.0001305e-01
  2.8908360e-01
 -1.0000478e-01
 -1.0000412e-01
 -1.0000166e-01
 -1.0000043e-01
  1.0000363e-01
  5.4144108e-01
  1.0930103e+00
  1.0000349e-01
  1.0046633e-01
  1.0002498e-01
  1.0000865e-01
  1.0000138e-01
 -1.0000084e-01
 -1.0000032e-01
  1.0017842e-01
 -1.5743929e-01
  1.0000733e-01
  1.0009987e-01
  1.0000531e-01
  1.0000119e-01
 -1.0000442e-01
  1.0012489e-01
  1.9003975e+00
 -1.0000453e-01
 -1.0009075e-01
  1.0012171e-01
 -1.0000470e-01
  2.1809813e-01
 -1.0000034e-01
  1.0003603e-01
 -1.1117111e-01
  1.0000096e-01
 -1.0001191e-01
 -1.0000013e-01
 -1.0113320e-01
  1.0042782e-01
  1.0000400e-01
  1.0002596e-01
  9.0085614e-01
  1.0023581e-01
 -1.0001904e-01
  1.0000091e-01
  1.0080444e-01
  1.0019000e-01
  1.0000607e-01
 -1.0000325e-01
 -1.0012256e-01
 -1.0001781e-01
  1.0006542e-01
 -1.0000448e-01
 -2.4870613e-01
 -1.0000013e-01
 -1.0000230e-01
 -1.0003267e-01
  5.1452082e-01
  2.3200032e-01
  4.0581217e-01
  1.0000189e-01
  1.0000569e-01
 -1.0006227e-01
 -1.0000112e-01
  1.0016076e-01
  4.0400618e-01
 -1.0593274e-01
 -1.0000475e-01
 -1.0000023e-01
 -1.0000131e-01
  1.0001261e-01
  1.8853237e-01
  4.1528231e-01
  4.1231641e-01
  7.6229256e-01
 -1.0000267e-01
  1.0018190e-01
 -1.0000189e-01
  1.0002151e-01
 -1.0000406e-01
 -1.0000260e-01
 -1.0000455e-01
 -1.0000157e-01
 -1.0000457e-01
  1.0004354e-01
 -3.7483221e-01
  1.0946088e-01
 -1.0000022e-01
  4.7056156e-01
  1.0048658e-01
  1.0000531e-01
 -1.0009614e-01
 -1.0000098e-01
  3.4374565e-01
  4.2410335e-01
  1.0016827e-01
 -1.0015301e-01
  1.0003468e-01
 -1.0000215e-01
  1.0000500e-01
 -1.0000074e-01
 -1.6817686e-01
  1.0000911e-01
 -1.0000519e-01
  4.8181888e-01
  1.0000417e-01
  1.0000529e-01
  1.0006168e-01
  1.0797304e-01
 -1.0009529e-01
 -1.0510995e-01
  1.0009629e-01
 -3.1476051e-01
  1.3923610e+00
 -1.7085660e-01
  1.0000342e-01
  1.0176814e-01
  1.9660866e-01
 -1.0000364e-01
 -3.6233491e-01
 -1.6005615e+00
  3.7120647e+00
  5.9590340e-01
  8.0799395e-01
 -1.0000113e-01
 -1.2828715e-01
 -1.0000163e-01
 -1.0000120e-01
 -1.0005016e-01
 -1.0004780e-01
  1.3135485e-01
 -1.0018867e-01
  1.0002973e-01
  1.0001292e-01
 -1.0010915e-01
 -1.0001377e-01
  1.0000069e-01
  1.6850469e+00
  1.0000008e-01
  1.6371539e-01
  1.0003573e-01
 -1.0570686e-01
  1.0002775e-01
  1.0010796e-01
  1.0012747e-01
  5.9725070e-01
 -1.0000442e-01
  1.0039165e-01
  1.1568891e-01
 -2.4686086e-01
 -5.3000206e-01
 -1.0015954e-01
  1.0001285e-01
  1.0037654e-01
 -1.0000183e-01
 -1.0028821e-01
 -1.4735560e-01
  7.2973448e-01
  1.0009069e-01
  1.0005051e-01
 -1.8016899e-01
 -7.5272167e-01
  1.0000052e-01
 -1.0000572e-01
 -1.0004656e-01
  1.0000145e-01
 -1.0000277e-01
  1.0000094e-01
 -1.0024425e-01
  6.0421163e-01
  1.1727566e+00
  4.1458830e-01
 -1.0000202e-01
  6.0240602e-01
  1.0000469e-01
 -3.5859045e-01
  1.0001402e-01
 -1.2656309e-01
  1.0003686e+00
  1.0003046e-01
 -1.0000128e-01
  1.1253545e-01
 -1.0000440e-01
 -3.9662474e-01
  1.0005967e-01
 -3.1941929e+00
  3.6538684e-01
  1.1921685e+00
  2.9494137e-01
  3.5301629e-01
 -5.0689244e-01
 -1.0010219e-01
 -2.0870690e-01
  1.0000106e-01
  5.1582682e-01
 -1.0000654e-01
 -1.0000002e-01
 -1.9683042e-01
  1.0000008e-01
  1.0018021e-01
  1.0000192e-01
  2.3092195e-01
  1.0000002e-01
  1.0000200e-01
  1.0000523e-01
 -6.3765359e-01
 -1.0000257e-01
 -1.0000747e-01
  1.0000263e-01
 -9.1102725e-01
 -1.0003972e-01
  1.0006501e-01
 -1.0001194e-01
  4.5827273e-01
 -1.0000084e-01
 -1.0002435e-01
 -8.5390300e-01
  1.8935651e+00
  1.4738852e-01
 -1.0000480e-01
  1.1067390e-01
  8.2531750e-01
  2.6130801e-01
  1.0010312e-01
  1.1529937e-01
  1.0000255e-01
  1.0000122e-01
 -1.0000443e-01
 -1.0000186e-01
  1.0000709e-01
 -1.0000375e-01
 -1.7573310e-01
  1.3683639e+00
  5.3413469e-01
 -1.1347884e-01
  8.5785270e-01
 -1.0183176e-01
 -1.0000601e-01
 -2.4896312e-01
 -2.7897999e-01
  1.0000357e-01
  1.0001122e-01
  5.1086795e-01
  1.0004760e-01
  1.0000136e-01
  1.6438493e-01
 -1.1004187e-01
  1.0000264e-01
 -1.6725598e-01
 -1.0000413e-01
 -4.8437741e-01
  1.1229405e+00
  1.0000178e-01
 -3.3535415e-01
  1.4025769e+00
  4.4200951e-01
 -1.0000505e-01
 -1.7505768e-01
 -6.0206676e-01
  1.0047081e-01
 -1.0000032e-01
  1.5005282e-01
 -2.3233131e-01
  1.0001854e-01
  1.0000012e-01
 -6.2251949e-01
  1.0694183e-01
 -1.2697552e-01
  2.1597379e-01
  1.0018814e-01
  1.0001159e-01
 -1.0000027e-01
 -1.8360054e-01
 -1.7598288e-01
  6.6964197e-01
  1.0000470e-01
 -1.0512388e-01
 -5.4744589e-01
  5.6258422e-01
 -2.8176534e-01
 -2.0532957e-01
 -1.1965932e+00
  1.4155543e+00
 -1.0000145e-01
  4.1034737e-01
 -3.8726342e-01
  1.0175722e-01
 -4.0559429e-01
  1.0023866e-01
 -5.3791970e-01
 -4.8477823e-01
 -1.0000460e-01
  1.0001014e-01
  1.1507101e-01
 -1.0000151e-01
 -1.0041294e-01
 -1.9995092e+00
  1.0000113e-01
 -1.0012797e-01
  1.3879476e+00
 -2.4304906e-01
  1.3734813e+00
 -2.3217199e+00
 -3.4783292e-01
  1.0003281e-01
 -3.9017969e-01
  4.3508461e-01
 -1.3001336e-01
  1.0016480e-01
 -1.0000006e-01
 -1.0000300e-01
 -1.0000128e-01
  1.0000213e-01
 -1.0451932e+00
 -1.0000148e-01
  1.1764994e+00
  1.0000099e-01
  1.0000435e-01
  4.1170245e-01
 -1.0001238e-01
 -1.0006682e-01
  4.1097033e-01
 -1.2579261e-01
  1.0000407e-01
 -1.0000499e-01
 -1.0007466e-01
 -1.0000168e-01
 -1.9629103e-01
 -1.0003497e-01
 -5.8526403e-01
 -1.0010962e-01
 -1.0012801e-01
 -1.0000528e-01
  1.0005056e-01
 -2.4109784e-01
 -1.0000053e-01
 -1.0000066e-01
  1.0000469e-01
 -1.0009404e-01
  1.0015804e-01
  1.0004211e-01
 -1.0005617e-01
 -1.0000095e-01
 -1.0000375e-01
  1.0000134e-01
  2.4537146e-01
 -1.0000316e-01
 -1.0004194e-01
 -1.0003220e-01
 -1.0000212e-01
 -1.0009822e-01
  1.0008452e-01
  1.0000175e-01
  1.0000078e-01
 -1.0000148e-01
 -1.0000069e-01
 -1.0000009e-01
  1.0000050e-01
  1.0014586e-01
  1.0000125e-01
  1.0000437e-01
 -5.1135051e-01
 -2.3921341e-01
  1.0004953e-01
  1.0000452e-01
 -1.5192901e-01
 -1.0000352e-01
  1.0000613e-01
 -1.0000330e-01
 -1.0001021e-01
 -1.0216132e-01
  1.0000041e-01
  1.0000414e-01
 -1.0009691e-01
 -1.0079011e-01
  1.0005704e-01
 -1.0000043e-01
 -5.2272230e-01
 -1.0000590e-01
  1.0000041e-01
 -1.0006420e-01
  1.0000038e-01
 -1.5845403e-01
  1.0000397e-01
  1.0002953e-01
  1.0000210e-01
 -1.0016941e-01
 -1.0000261e-01
 -1.0005371e-01
 -1.0001237e-01
 -1.0000530e-01
 -1.0000005e-01
  1.0000296e-01
  3.1306496e+00
 -1.0359983e-01
 -2.3046798e-01
 -1.0012596e-01
 -1.0000037e-01
  1.0000418e-01
  1.0000309e-01
 -1.0005374e-01
 -1.0951043e-01
 -1.0006824e-01
 -1.0000304e-01
 -1.0000146e-01
  1.0000275e-01
 -1.0000560e-01
  1.0009743e-01
  1.0000332e-01
 -1.0000768e-01
 -2.8194758e-01
 -2.9662111e-01
  1.0000557e-01
 -1.0035753e-01
 -1.0006060e-01
  1.0003353e-01
 -1.0000023e-01
  1.0000467e-01
  1.0000250e-01
  1.0000074e-01
 -1.0000109e-01
 -1.0101561e-01
 -1.1796395e-01
  1.0035550e-01
 -1.0000031e-01
  1.0000103e-01
 -1.0003416e-01
  1.0017431e-01
  1.0000252e-01
 -1.0000109e-01
 -1.0000013e-01
 -1.0016043e-01
 -1.0000262e-01
  1.0000410e-01
  1.0005583e-01
 -1.0000045e-01
 -1.0023095e-01
 -1.0003668e-01
  1.0000308e-01
 -4.4051331e-01
 -4.5340398e-01
  1.0908229e+00
 -3.5453394e-01
  1.0012843e-01
 -1.0014100e-01
 -1.1278147e-01
  1.0000064e-01
  1.0016312e-01
 -1.0000299e-01
 -1.0000014e-01
 -1.0006226e-01
  1.0000592e-01
 -1.0000042e-01
 -1.0000161e-01
 -1.0000264e-01
  1.0006216e-01
  1.0000047e-01
  2.9629651e-01
  1.0003655e-01
 -8.6103994e-01
 -2.4243259e-01
 -2.7303389e-01
 -1.0001113e-01
  1.0014815e-01
  1.0000522e-01
 -1.0008997e-01
  1.0000150e-01
 -1.0000107e-01
 -1.0049007e-01
  1.0005222e-01
 -1.0000070e-01
 -1.0000806e-01
  1.3160652e-01
  1.5206807e+00
  3.2146433e-01
 -1.0000499e-01
 -1.0000141e-01
 -1.0004906e-01
  1.0000205e-01
 -1.0013201e-01
 -1.0000499e-01
  1.0010059e-01
  1.0000107e-01
  1.0000528e-01
 -1.0000538e-01
 -2.9918125e-01
 -1.0000152e-01
 -9.0734035e-01
  1.7355500e-01
  1.0000465e-01
  2.0101948e-01
  1.0000066e-01
  1.0018124e-01
 -1.0010155e-01
 -4.6864387e-01
  1.0064410e-01
  1.0000029e-01
 -1.0049539e-01
 -1.0000308e-01
  1.0000526e-01
  1.0008257e-01
 -1.0000113e-01
 -1.0009927e-01
  1.0001345e-01
  1.5599875e+00
 -1.1690192e-01
  1.0000002e-01
  1.0029885e-01
 -3.1873930e-01
 -1.0000088e-01
 -1.0006230e-01
  1.0005376e-01
 -1.0004637e-01
 -1.0002307e-01
  1.0000752e-01
  1.0000128e-01
  1.0000509e-01
  1.0000023e-01
  1.0004604e-01
  1.0000354e-01
  1.0001136e-01
 -1.7298144e-01
  9.2875201e-01
 -1.3742431e-01
 -1.0000280e-01
 -1.0002106e-01
  1.2152564e-01
  1.0005307e-01
  1.0004936e-01
  1.0022516e-01
  1.0000583e-01
 -1.0000046e-01
 -1.0034049e-01
  1.0022089e-01
 -1.0000014e-01
 -1.2163751e+00
  6.1574239e-01
 -1.5402169e+00
  1.0000311e-01
 -1.0006001e-01
 -1.0000191e-01
  3.8779563e-01
  1.0005427e-01
  1.0000201e-01
  1.0012506e-01
 -1.0002891e-01
 -1.0000177e-01
  1.0018029e-01
 -1.0003057e-01
  1.0000047e-01
 -1.0000454e-01
 -1.0045206e-01
  1.0015233e-01
  1.0011298e-01
  1.0000069e-01
 -1.0014564e-01
 -1.0002977e-01
 -1.0000256e-01
 -1.0000984e-01
 -1.0000465e-01
  1.0009924e-01
  1.0017966e-01
 -1.0000171e-01
 -1.0001908e-01
 -1.0006066e-01
 -1.0002720e-01
  1.0000403e-01
  1.0003217e-01
 -1.0005169e-01
  1.0004262e-01
 -1.0017905e-01
  1.0001158e-01
 -1.0003497e-01
  1.0000391e-01
 -1.0000321e-01
  1.0000049e-01
  1.0000060e-01
  1.0000015e-01
  4.6564430e-01
 -1.0012209e-01
 -1.0000224e-01
  1.0000366e-01
 -1.0000394e-01
 -1.3168591e-01
  1.0004158e-01
  5.9926450e-01
  4.2589027e-01
 -1.0140891e-01
  1.0000347e-01
 -1.0000265e-01
 -1.0001760e-01
  1.0000796e-01
  1.0000052e-01
 -2.4293134e-01
  3.7214616e-01
 -1.0000004e-01
 -1.0012341e-01
  1.0018014e-01
  1.0000526e-01
 -4.2156142e-01
 -1.0019360e-01
 -1.6091487e+00
 -1.0000040e-01
 -1.0000414e-01
 -1.0000329e-01
 -2.6184395e-01
 -1.2507391e-01
 -1.0000569e-01
  1.0000412e-01
  4.9120495e-01
 -1.0048027e-01
  1.0000290e-01
 -1.0011053e-01
  1.0010691e-01
  1.0000212e-01
  1.0000011e-01
  6.4414340e-01
 -8.4108961e-01
  1.0001162e-01
  1.0000028e-01
 -1.0000070e-01
 -1.0002714e-01
  1.0000198e-01
 -1.0002266e-01
  1.0001571e-01
  1.0017876e-01
  1.0003138e-01
  1.0003050e-01
 -1.0006506e-01
  2.5470617e-01
  1.0016087e-01
 -1.0000706e-01
 -1.0000506e-01
  1.1701275e-01
  9.1049838e-01
 -1.0003290e-01
  1.0000397e-01
  2.7550733e-01
  3.9579412e-01
  1.0004705e-01
  1.0000254e-01
 -1.0014033e-01
 -1.0000145e-01
 -1.0006357e-01
 -1.0005043e-01
  1.0000107e-01
 -1.0005222e-01
 -1.0229342e+00
  1.0000057e-01
 -1.0011173e-01
  5.7537967e-01
  1.0000178e-01
 -1.7484421e-01
 -1.4888196e-01
  1.0001196e-01
  1.0000110e-01
  1.0000248e-01
  1.5902486e-01
 -1.0000121e-01
 -1.0016716e-01
 -1.0001957e-01
  1.0000063e-01
  1.0016953e-01
  1.0000081e-01
  4.8578817e-01
  1.6650110e-01
 -9.8258126e-01
 -1.0000542e-01
  3.5173208e-01
 -5.8223957e-01
 -1.0002610e-01
 -1.0003687e-01
  1.0011365e-01
 -1.0000008e-01
  1.0000967e-01
 -1.0000044e-01
 -1.0088412e-01
  3.0524588e-01
  1.0000223e-01
 -1.0000499e-01
 -5.8521032e-01
 -1.0715554e+00
  3.9362592e-01
 -3.0708244e-01
 -1.0038336e-01
 -1.0000559e-01
  1.4307415e-01
  1.0000012e-01
 -1.0049324e-01
 -2.2481315e-01
  1.0966783e-01
 -1.0000514e-01
  1.0015381e-01
 -3.2731354e-01
 -1.0000426e-01
 -1.3598387e+00
 -1.0000064e-01
 -1.0000439e-01
 -4.0019935e-01
  1.0012110e-01
 -1.0005930e-01
  1.0000205e-01
  1.0001592e-01
  1.0080268e-01
  1.0013048e-01
  1.0004932e-01
 -1.0000543e-01
  1.0000135e-01
 -1.0002284e-01
  3.0331573e-01
 -1.0000841e-01
  1.0000329e-01
  5.8657807e-01
  1.2524037e+00
 -1.0000053e-01
 -1.0000337e-01
  2.1838756e-01
 -1.7332709e-01
  6.5342039e-01
 -1.0004316e-01
  1.0000850e-01
  1.0006347e-01
 -1.0000226e-01
  1.0000079e-01
  1.0000652e-01
  7.2939664e-01
  1.0000185e-01
 -1.0000419e-01
  6.3728333e-01
 -3.1018779e-01
 -2.7870795e-01
  1.0000105e-01
 -1.0000131e-01
  1.0072909e-01
  4.9319676e-01
 -1.0000218e-01
 -1.0225832e-01
 -1.3312921e-01
 -6.7211950e-01
 -1.0006097e-01
  1.0000531e-01
 -2.8477877e-01
 -1.0000388e-01
  1.0012505e-01
  1.0000153e-01
 -2.2814837e+00
 -1.7207261e+00
 -1.5051609e-01
 -1.0017103e-01
 -4.6168196e-01
 -9.0957010e-01
  1.0001264e-01
  1.0000074e-01
 -1.0000322e-01
  1.0000087e-01
 -1.0005895e-01
 -1.0000011e-01
 -1.0018092e-01
 -1.0031587e-01
 -1.0000052e-01
 -1.0007230e-01
  1.0000496e-01
  1.0011800e-01
 -1.0000056e-01
 -1.0000204e-01
 -1.0000185e-01
 -1.0000221e-01
 -1.0000377e-01
 -1.0000294e-01
 -1.4114918e-01
 -1.0001029e-01
 -1.0001224e-01
  1.0000087e-01
  1.0000080e-01
 -1.0000458e-01
  1.0000348e-01
  1.0000401e-01
  8.5504198e-01
  1.0011438e-01
  1.0004553e-01
  1.0000274e-01
  1.0000516e-01
 -1.0000855e-01
 -1.0000149e-01
 -1.0001693e-01
  1.0000071e-01
 -4.9964270e-01
 -1.0000467e-01
  1.0005920e-01
  1.0000080e-01
 -3.5837153e-01
  1.0000189e-01
  1.0004143e-01
  1.4646688e+00
 -1.0000109e-01
 -1.0111006e-01
  1.0000705e-01
  3.1313476e-01
 -1.1575495e-01
  1.0000305e-01
 -1.0018106e-01
  1.0010851e-01
  1.0000378e-01
 -1.0007606e-01
  1.0000402e-01
 -1.0643359e+00
 -1.0066829e-01
  1.0048783e-01
  2.9200050e-01
  3.1825268e-01
  9.7669429e-01
 -4.9007472e-01
 -1.0009186e-01
 -8.5225046e-01
  1.0000045e-01
  1.0000862e-01
 -1.0000254e-01
  1.0012029e-01
 -1.0036883e-01
 -1.0041922e-01
 -1.0010773e-01
  2.3799276e-01
  1.0109733e-01
 -1.0005105e-01
 -2.3854366e-01
  7.2819954e-01
  1.0009864e-01
 -1.0000227e-01
  1.0000063e-01
 -9.7468477e-01
  1.0000515e-01
 -1.0030508e-01
  1.0001184e-01
 -1.8635094e-01
 -5.8581293e-01
  1.0000010e-01
 -1.0000028e-01
  1.0000024e-01
 -1.3267280e-01
  1.0000157e-01
  1.0008191e-01
 -1.0004472e-01
 -2.5083780e+00
  1.0000184e-01
 -1.0581030e-01
  1.0000011e-01
 -8.6596334e-01
  1.0000561e-01
 -1.0012083e-01
  1.0001224e-01
 -1.0000519e-01
 -1.0073985e-01
 -1.0005938e-01
 -3.6853373e-01
 -1.0006480e-01
  1.0175299e-01
  1.5162915e-01
 -1.1260397e-01
  1.4944319e+00
 -1.0720101e-01
 -1.0000423e-01
 -2.1491078e-01
 -1.0017773e-01
 -1.0000525e-01
  1.0005414e-01
 -1.0003138e-01
 -1.6864216e-01
 -1.0029566e-01
 -1.0000060e-01
 -1.0000351e-01
 -1.0000510e-01
 -5.8704072e-01
 -1.0000500e-01
  1.1660830e+00
  1.3124493e+00
 -3.2716665e-01
  1.0003474e-01
  1.0000031e-01
 -1.0000172e-01
 -1.0000045e-01
 -1.0000136e-01
  1.0000173e-01
 -7.4516809e-01
 -1.0000161e-01
  1.0003338e-01
 -5.1497954e-01
 -2.1140254e-01
  2.4919224e-01
 -5.4649389e-01
 -1.6944347e-01
 -2.1509776e-01
 -1.0003363e-01
 -1.0002159e-01
 -1.0011083e-01
 -2.8591725e-01
  1.0002384e-01
 -1.0004386e-01
  1.0010838e-01
  1.9397041e-01
 -1.0000027e-01
  1.0000039e-01
 -4.4312173e-01
  1.0000890e-01
  1.0000516e-01
 -1.0000300e-01
 -1.0782937e-01
 -1.1227020e+00
  1.0000163e-01
  1.0000406e-01
  1.0004890e-01
  1.0000387e-01
  1.0000397e-01
 -1.0001808e-01
  1.1134464e-01
 -5.7019728e-01
 -1.0000006e-01
  1.0001497e-01
 -9.3290746e-01
 -1.0000049e-01
 -1.0000082e-01
  1.0000499e-01
  6.7335176e-01
 -3.4613952e-01
  1.0000027e-01
  1.0000128e-01
 -9.8411226e-01
  9.7916639e-01
  1.0000414e-01
 -1.0005687e-01
 -6.2363815e-01
 -4.5947435e-01
 -1.0000125e-01
  1.0000058e-01
 -1.1228794e+00
  1.0000076e-01
  1.0005439e-01
  1.5169913e-01
  8.7367910e-01
  3.7171784e-01
 -1.0015811e-01
  1.0000525e-01
  3.4802547e-01
  1.0002051e-01
 -1.0000427e-01
  1.0013018e-01
  1.0000371e-01
  7.7480495e-01
  1.0000230e-01
  1.0024629e-01
  1.0000539e-01
 -1.0000032e-01
 -2.5234759e-01
  1.1765792e+00
  6.6892493e-01
  1.0694826e-01
  1.0000464e-01
  1.0002732e-01
 -1.5647447e+00
 -9.7384906e-01
 -2.5440192e-01
 -1.0000078e-01
 -2.3971581e-01
  1.3404347e-01
  1.0005107e-01
  1.0000651e-01
 -1.0018376e-01
  1.0000508e-01
  1.0000042e-01
 -1.0000499e-01
 -2.7541857e+00
  5.7888222e-01
  1.0000420e-01
 -1.0002658e-01
 -1.8113089e-01
 -1.0000268e-01
 -1.0000284e-01
 -1.0000539e-01
  1.0001142e-01
 -1.0000453e-01
  1.0015104e-01
 -1.0000236e-01
  1.0000153e-01
  1.0024404e-01
 -3.4911388e-01
  1.0007823e-01
 -4.6847728e-01
 -5.9607047e-01
 -1.0006074e-01
 -1.0000531e-01
  1.0001042e-01
 -1.3632527e-01
 -1.0000024e-01
 -1.6590782e-01
 -7.5121611e-01
  1.0885204e+00
  1.0000040e-01
  1.0000005e-01
  1.0000083e-01
 -1.0000071e-01
 -1.0000072e-01
  1.0010373e-01
 -2.5127029e+00
 -1.9183159e-01
 -5.6256777e-01
 -1.0000253e-01
 -4.8324934e-01
 -6.5215647e-01
 -1.0000149e-01
  1.0000262e-01
 -4.8153600e-01
  1.1835046e-01
  1.0004515e-01
  1.0000271e-01
  1.6692193e-01
  1.4501999e-01
  1.0000491e-01
 -1.2799783e+00
  1.3322259e+00
  3.7197563e-01
 -1.0001114e-01
 -1.0000350e-01
 -3.4990975e-01
 -2.0937872e-01
  1.0000529e-01
  1.0006665e-01
 -1.0000009e-01
 -8.4676200e-01
  1.0004041e-01
  1.0000117e-01
 -1.0000366e-01
  1.0000339e-01
 -6.5728831e-01
  6.1749929e-01
 -3.6312038e-01
  1.5405768e+00
  2.8265309e-01
 -3.0044720e-01
 -3.6404032e-01
 -4.0737820e-01
 -1.0000012e-01
 -1.0000341e-01
  1.0000548e-01
  3.9076510e-01
  1.0000089e-01
  1.0000565e-01
  1.0007661e-01
  1.0001503e-01
  1.0002609e-01
 -2.8560504e-01
 -1.9689405e+00
  1.9535302e+00
 -2.2050206e-01
 -1.0002410e-01
  2.8797734e-01
 -4.6039790e-01
  1.0013163e-01
  1.0082425e-01
 -9.2922819e-01
  4.8000363e-01
  1.0000470e-01
 -1.0000422e-01
  1.0000436e-01
  2.6988000e-01
 -3.9406514e-01
 -1.6642718e+00
 -1.0856819e+00
 -4.7474733e-01
 -7.4250335e-01
 -1.0000578e-01
 -1.0197905e-01
  1.0000202e-01
  1.0000356e-01
  1.0000011e-01
 -1.2243991e-01
 -9.4553781e-01
 -1.0003407e-01
 -1.0000511e-01
  1.0029321e-01
  1.0059808e-01
 -2.6188895e-01
 -1.0000408e-01
 -2.9963571e-01
 -6.6413218e-01
  2.5821510e-01
  1.0000338e-01
 -1.9246620e-01
  1.0000006e-01
 -4.0645880e-01
 -1.0000747e-01
  1.7378813e-01
 -1.9993971e-01
  1.0000264e-01
  1.0000089e-01
  1.0002404e-01
  1.0000375e-01
  1.0000351e-01
  1.0001212e-01
 -1.2486187e+00
 -1.0000027e-01
  1.0005409e-01
 -1.0003451e-01
  2.0229584e-01
  1.0000405e-01
 -2.7424529e-01
 -1.2930022e-01
 -1.9051448e-01
 -3.3356348e-01
  1.0000040e-01
 -1.0000089e-01
  3.8167417e-01
  2.2509933e-01
 -7.5924218e-01
  1.0000819e-01
  7.6260918e-01
  9.1157967e-01
 -5.6808978e-01
  1.0000053e-01
  1.0001029e-01
 -5.2506715e-01
 -1.0010596e-01
  1.0012655e-01
 -5.5024445e-01
 -8.1944913e-01
  1.0000227e-01
  1.0001847e-01
 -1.0018381e-01
  6.1048764e-01
 -1.1341447e-01
 -1.0000526e-01
  1.3760340e+00
  2.0690341e+00
  1.0000034e-01
 -3.4362718e-01
 -1.0734776e-01
  1.0000032e-01
 -1.7793053e-01
 -1.0030883e-01
 -6.8421191e-01
 -5.6489623e-01
  1.0002251e-01
 -1.0000259e-01
 -1.7122173e-01
 -1.0121804e-01
  1.0000310e-01
 -1.0000421e-01
  1.2249603e+00
  9.1048616e-01
  1.6103491e-01
  1.0000024e-01
 -5.9095794e-01
 -1.0000302e-01
 -1.0002346e-01
 -1.0006865e-01
  1.0002091e-01
  1.0682180e-01
 -1.0000342e-01
 -1.0000081e-01
  1.0000453e-01
 -1.1213822e-01
  1.0002333e-01
  1.1415535e+00
 -1.6213967e+00
  1.4483837e+00
  1.0404298e-01
 -1.5789065e-01
 -3.6768472e-01
 -1.0001547e-01
 -1.0000234e-01
  1.0000671e-01
 -1.0006563e-01
  1.0001314e-01
 -1.0001420e-01
 -1.0003933e-01
  1.0001800e-01
  1.0027222e-01
 -1.0002953e-01
  1.0000109e-01
 -1.9125115e+00
  1.0001676e-01
  1.0033982e-01
  1.0007329e-01
 -1.0441200e-01
  1.0000108e-01
  1.0002387e-01
  1.0003559e-01
  1.0007679e-01
 -1.0002168e-01
 -1.0001251e-01
  1.0002491e-01
  1.3896331e-01
 -1.0062245e-01
 -1.0001615e-01
 -1.0000905e-01
  1.0941727e-01
  1.0000436e-01
 -1.0001817e-01
 -1.0292076e-01
  3.1853521e-01
  1.0000532e-01
  1.0149273e-01
  1.0003553e-01
 -1.0001674e-01
 -1.0015447e-01
 -1.0000804e-01
 -1.0001272e-01
  1.0014682e-01
 -1.0000330e-01
 -1.0000391e-01
 -1.0026439e-01
  1.7416610e+00
  2.6356873e-01
  2.1460843e-01
 -1.0003484e-01
 -1.3480672e+00
 -2.8396177e-01
 -1.0001127e-01
 -1.0015284e-01
 -4.4122154e-01
 -1.0002904e-01
  1.0000081e-01
 -1.0000025e-01
 -1.0093168e-01
  1.1013613e-01
  1.0003639e-01
  3.0767533e-01
 -1.4989029e+00
  2.0586769e-01
  2.6202685e-01
  5.1841933e-01
 -4.5518464e-01
 -1.3311580e-01
 -1.0000796e-01
 -1.0013180e-01
  1.8548563e-01
  1.4098404e-01
 -1.0002812e-01
  1.0000908e-01
  1.0000551e-01
  1.0000440e-01
  1.0000091e-01
 -5.0102824e-01
 -2.5423338e+00
 -1.1027688e+00
 -1.0014539e-01
  1.0000300e-01
  1.0000287e-01
  1.0001470e-01
  1.0015663e-01
  1.0000484e-01
  1.0001016e-01
 -1.0000146e-01
 -1.0000021e-01
 -1.0015821e-01
  2.3022705e-01
 -1.0000018e-01
  1.0002979e-01
 -6.3773113e-01
 -1.0003128e-01
 -7.6235157e-01
  1.1455192e-01
 -1.0000100e-01
 -1.5705563e+00
  1.3417366e-01
 -1.0127363e-01
 -1.0000093e-01
 -4.1034070e-01
 -1.0042335e-01
  1.0000027e-01
 -1.0000740e-01
 -1.0074133e-01
  1.0006785e-01
 -1.0000446e-01
 -6.2303132e-01
  1.1720562e+00
 -1.0003550e-01
 -1.0001235e-01
 -3.7370542e-01
 -1.3063678e+00
  2.4053138e-01
  1.0000813e-01
  1.0025818e-01
 -1.0001399e-01
 -1.0366965e-01
 -1.0027436e-01
  1.0000379e-01
  1.0000090e-01
  1.0000180e-01
 -1.0023580e-01
 -2.5919759e-01
  1.1545657e+00
 -1.2397376e+00
 -1.0000750e-01
  1.0001818e-01
 -1.9184583e+00
 -1.0087270e-01
 -1.0000017e-01
 -1.0051721e-01
  1.1016583e-01
  1.0001206e-01
  1.0000625e-01
 -1.0000663e-01
  1.0002453e-01
  1.0000060e-01
  2.3649597e-01
  1.0127622e-01
  1.0000778e-01
 -1.0000121e-01
 -1.4628370e-01
  1.0007560e-01
 -1.0540123e+00
 -1.0001159e-01
 -1.0000250e-01
  1.0000784e-01
 -7.5657654e-01
 -1.0000312e-01
 -1.0000231e-01
  1.0000180e-01
  1.0012248e-01
  1.0000049e-01
 -1.0000207e-01
  7.7145284e-01
  8.7732667e-01
  6.3595217e-01
  1.0028754e-01
  4.4153360e-01
 -1.0001718e-01
 -1.6800361e+00
  1.0002113e-01
 -1.0000081e-01
 -1.0003204e-01
 -1.0021675e-01
 -1.0002454e-01
 -1.0000239e-01
  2.6126081e-01
 -1.0000743e-01
  1.0003370e-01
  8.1125510e-01
 -5.6803274e-01
 -1.1422985e+00
  1.7996793e+00
  1.0001668e-01
  1.9816619e+00
 -7.7602202e-01
  1.0003364e-01
 -1.0183853e-01
  4.5292443e-01
 -3.4453431e-01
