nep3 1 C 
cutoff 4.2 3.7
n_max 10 8
basis_size 10 8
l_max 4 2 0
ANN 50 0
  1.6311117e+00
 -2.2988596e+00
 -3.1426775e-01
  1.3713478e+00
 -2.3202732e+00
  5.1642585e-01
  1.3872133e+00
  2.3312204e+00
  1.1368186e+00
 -1.1614159e+00
  8.3931649e-01
 -1.3803138e+00
 -4.3275365e-01
  4.0192139e-01
 -1.9828925e-01
  8.6392338e-06
 -1.1967057e-02
 -2.6381263e-06
  8.4681940e-01
 -1.0292704e+00
 -8.5947347e-01
  6.3238400e-01
 -9.6568233e-01
 -1.1961570e-01
 -4.8662212e-01
  6.6610193e-01
  6.5503299e-01
 -3.8078535e-01
 -4.9406158e-06
  3.5309002e-01
 -1.1489491e-01
  1.0437734e-01
  1.5050540e+00
 -2.5937042e-01
 -1.3445716e+00
 -1.0620619e-01
  3.2617262e-01
  6.7277539e-01
  4.3484077e-02
 -4.8908117e-01
  5.7572758e-01
 -1.9320088e-02
  2.1199194e-01
  1.3391553e-01
 -1.9322842e-01
  2.1272388e-05
 -1.5970123e-01
  2.5399464e-01
  7.7184814e-01
 -6.5506749e-05
  3.2293481e-01
 -3.3907232e-01
 -3.1269717e-01
 -5.7183107e-04
 -2.1635415e-03
 -1.9479508e-02
  8.9225006e-01
  5.9597522e-01
 -1.8523286e-01
  1.3795624e+00
  2.8116630e-02
 -7.6969087e-01
 -2.8826401e-01
  8.2767971e-02
 -8.8187796e-01
 -9.0679067e-01
 -1.6677276e+00
 -4.4315699e-03
 -1.3426303e+00
  7.2128063e-01
 -6.3587886e-01
 -1.1901273e+00
 -8.5561061e-01
  1.2486100e-05
 -1.1592501e-01
  1.4728478e+00
 -7.6315111e-01
  3.1545398e-01
  4.6331668e-01
  2.1503034e+00
 -8.3977371e-02
 -1.2965744e+00
  7.3145159e-02
 -8.7713248e-01
 -3.5692376e-01
 -3.7882742e-02
  4.4909731e-01
  4.8294470e-01
  9.9309975e-01
 -2.4452682e-01
  1.1335691e+00
  1.6278878e-05
  5.3680480e-01
 -3.3212750e+00
  3.0108567e-02
  4.0414369e-01
 -4.6062222e-01
 -9.9515522e-01
  1.3059415e-01
  1.0960903e-01
  7.1204412e-01
  1.5871462e+00
 -1.8724519e-01
 -4.0845102e-01
 -7.3561889e-05
 -2.5525455e-06
  5.2507496e-01
 -1.0263005e+00
 -8.7007457e-01
 -5.2901494e-05
 -2.6326099e-01
  7.6832372e-01
  1.5709513e-05
 -4.6187311e-06
  4.0180576e-06
 -7.9017245e-06
  5.6627964e-06
 -1.4390089e-05
  5.0570170e-06
 -5.9115055e-06
  1.6275597e-05
 -2.5080064e-05
 -3.6919166e-05
  1.9713072e-05
 -6.5994213e-06
  2.3912286e-05
 -1.1274463e-05
  3.2042612e-05
 -5.0816225e-06
 -7.0702845e-06
 -8.8291781e-06
 -4.4615368e-05
  2.1795031e-05
 -2.4559966e-05
 -1.6155514e-05
  6.0156672e-06
  2.3410630e-05
  2.0056217e-05
  8.4782469e-06
  1.6642489e-05
  2.4217477e-05
 -3.3585802e-05
 -3.9328497e-05
  8.2995548e-06
 -5.4425018e-06
 -3.7534723e-05
 -9.6257127e-06
 -2.2189955e-05
  4.4466549e-07
  1.3088276e-05
  2.6708342e-06
 -3.8376533e-05
  1.8406376e-05
 -5.5769618e-05
  8.0698783e-06
  8.6903659e-05
 -8.5754364e-05
  4.3868298e-05
 -2.3946877e-06
  1.9868736e-05
 -1.7633125e-05
 -1.3162506e-05
 -3.1279233e-05
  1.1583904e-04
  2.3415982e-06
  5.0022099e-06
  4.2326508e-05
 -1.8912644e-05
  2.2477178e-04
  3.5675725e-01
  9.3023247e-01
  6.0153645e-02
 -8.6792978e-05
 -1.4113647e-01
 -1.2315129e-01
  5.9343038e-05
 -1.8185495e-01
  4.0496859e-01
 -4.6873587e-01
  2.0751268e-02
  5.9504098e-01
 -7.1678354e-05
  1.7962174e-01
  2.3691362e-05
  1.2507130e+00
  1.0869407e-05
  4.0202978e-01
 -7.0825149e-06
 -2.4338412e-01
  4.4351900e-01
 -5.1179945e-06
  1.0011533e+00
 -7.6996207e-01
  1.5521370e-01
  5.7711974e-02
  6.0788572e-01
 -2.4548146e-01
 -2.7411737e-02
 -2.9538767e-05
 -5.9944923e-06
  2.4827070e-05
  1.4350413e+00
 -1.5565280e+00
  1.9498061e-06
 -3.4918225e-01
  1.8249552e-01
 -1.8696441e-01
 -1.9353340e+00
 -3.1475711e-01
 -5.8901846e-01
  3.1063306e-01
 -1.0303737e+00
  4.7793415e-05
 -2.9252878e-05
  1.0210997e-01
 -2.2319584e-04
 -1.4802494e-05
 -3.0740525e-06
  2.0583373e-01
 -6.1410421e-05
 -2.1647068e-06
 -4.9030368e-05
 -9.4611905e-06
 -8.5499487e-06
  1.2223905e+00
  1.7359549e-02
 -7.0295417e-01
  3.0437699e-05
 -8.6673364e-02
  9.6705032e-04
 -2.5506652e-05
  1.3501246e-02
 -4.3366272e-02
  1.2970382e+00
 -3.8703033e-06
 -9.9961753e-06
  8.4740534e-02
  4.8182112e-01
  3.5667264e-01
  9.8408906e-05
  6.1740641e-02
 -2.3206310e-05
  6.7432557e-05
 -1.2206612e-03
 -1.9156071e-06
  2.2166719e-01
  1.7817131e-04
  6.6489351e-01
 -1.4454409e-01
 -2.9825783e-01
  1.0936381e-04
  5.3885505e-02
 -1.2931114e-05
  7.3758797e-06
  4.7360918e-05
 -6.7043506e-02
 -7.6830566e-02
  4.4072066e-02
 -1.1680981e+00
  1.0665722e-05
  8.3505083e-06
 -1.3877155e-01
 -1.5425032e-05
 -5.0760114e-01
 -1.5336461e-01
 -3.2923683e-05
 -1.1682241e+00
 -2.3846011e-01
 -8.1932058e-07
 -2.6601253e-03
 -1.3340205e-05
 -6.2364867e-05
 -2.0154729e-02
  3.6147296e-05
  9.0271091e-01
 -2.4371163e-04
 -9.5584699e-05
 -9.2482778e-06
  2.6291487e-01
  1.8373759e-05
 -1.2752954e-05
  9.2959053e-06
  6.6150341e-07
  1.9319647e-05
 -2.0252413e-05
 -2.3283908e-05
  4.1133821e-06
 -7.6716833e-06
  1.0400297e-04
  6.8877980e-06
 -2.2004526e-05
  6.9438456e-06
 -1.8269926e-06
 -2.7498219e-05
 -3.1055681e-06
  1.2783855e-05
  1.3863975e-05
  9.1465818e-06
 -5.6055210e-06
 -3.9802371e-06
  1.0005728e-05
 -1.6574629e-04
  2.3886563e-05
 -2.5249796e-05
  2.6200565e-05
 -2.8168654e-06
 -2.3534672e-05
  8.7451122e-07
 -1.4685813e-05
  3.9527015e-04
 -8.4261337e-06
  1.2923898e-04
  5.6469937e-05
  2.5489508e-05
  2.5510322e-05
  9.2571434e-05
 -2.3934459e-05
  1.0729453e-08
  1.6147785e-06
  8.8741654e-06
  7.3620926e-05
  3.1891363e-05
  2.6413965e-05
 -2.0357094e-05
  7.7773853e-05
 -6.1370570e-06
  1.4850141e-05
 -6.9027033e-06
  7.6646793e-06
 -1.4239614e-05
  5.8042524e-06
  4.2773540e-06
  1.0688806e-05
 -3.0037513e-06
 -3.2538421e-05
  4.0726813e-06
  4.4924459e-01
 -1.9407446e+00
 -1.5954553e+00
  9.2569989e-01
 -2.4520478e+00
 -2.1867788e+00
  2.6916569e-01
  1.3750087e+00
  3.3033161e+00
  2.3976691e+00
 -3.7533438e-01
 -7.6464069e-01
  1.8059043e+00
 -1.9772124e-02
  3.1536338e+00
  3.7078032e-01
 -5.8640730e-01
 -1.8453512e-04
 -8.4423244e-01
 -1.3306344e+00
  4.8140516e+00
  2.6846390e+00
 -2.9557173e+00
 -1.9015786e-01
 -1.0436949e+00
 -2.0290737e+00
 -4.3788305e-06
  1.9016911e+00
  3.9580107e-05
 -1.3350632e+00
  2.0880246e+00
 -1.6105567e-01
 -5.7070024e-02
 -9.6690315e-01
 -1.2045375e+00
  1.6410084e-03
  6.7359045e-02
  1.5423548e+00
 -2.2412157e-06
  1.7383610e-01
  5.5575538e-01
 -6.7521477e-01
  2.0824139e+00
  1.1265024e+00
 -1.5944856e-01
 -8.4082216e-01
 -8.8472146e-01
 -1.2212987e+00
 -6.5733307e-06
  3.8329999e-06
 -3.3351731e-01
 -5.1703852e-01
  5.0068802e-01
 -3.2041513e-05
 -4.1224042e-01
  9.3935233e-01
 -2.8632548e-05
 -6.2236453e-05
 -2.2607350e-05
  7.5018584e-06
 -6.4863289e-06
 -1.4191503e-02
  3.4451969e-05
  4.6329558e-05
  1.6444799e-04
 -5.0158930e-01
  1.6956503e-05
 -4.4783698e-07
 -6.8051202e-05
 -1.8566898e-05
 -8.8999430e-03
 -4.7669349e-05
  6.2627660e-06
 -2.3728318e-05
 -3.6910304e-03
  4.9256641e-02
  8.9244486e-06
  1.9065335e-05
  4.0501083e-05
 -5.5416891e-05
  1.2906059e-04
 -9.1383175e-05
 -1.5247542e-05
 -1.6515101e-04
 -3.2396533e-06
  2.5988117e-01
  1.3495254e-02
  1.3288397e-01
 -5.6784252e-06
  3.5473196e-05
  1.8823236e-01
 -3.1363375e-05
 -1.0490864e-04
 -6.6236234e-06
 -7.5221337e-06
 -4.9187793e-06
  3.2909721e-02
 -8.8345678e-06
 -1.5902636e-04
  1.0015705e-05
  5.1608982e-05
 -7.1353192e-05
  2.2282162e-01
  2.9704265e-06
  5.0335901e-05
 -1.2084923e-05
 -1.1981383e-06
  2.8052014e-05
  8.0483642e-06
  2.1054460e-05
  5.0719820e-05
 -1.1186939e-06
  6.3306320e-01
 -5.1733825e-02
  1.2909944e-05
 -9.8070270e-01
 -1.6155194e+00
  8.2008088e-01
 -3.1442973e-01
  6.7618370e-02
 -9.4516540e-01
  7.5280678e-01
  3.7062466e-05
 -7.4481165e-01
 -5.6366080e-01
  2.0122167e-01
 -1.3322219e+00
  5.9320027e-01
 -6.2410679e-02
  1.7031942e-05
 -2.2436464e-01
 -3.8689300e-01
 -2.1409590e-03
 -3.8327560e-01
 -1.2230147e+00
 -5.7362854e-02
  1.1645617e-01
  8.4620630e-03
 -8.5926567e-06
 -1.7828718e-02
  1.0149088e+00
 -4.7666490e-02
  5.1125753e-01
  2.8212616e-01
  2.4530718e-02
 -1.6887099e-01
  4.0234536e-01
  2.1359134e-05
  1.0641564e-01
 -1.9854089e-05
  4.3346598e-03
  1.6192955e-01
  1.1509877e-01
 -1.3414034e+00
  7.8357625e-01
 -1.2424868e-01
  1.4771845e-05
  3.4669179e-02
 -1.8861588e-02
 -4.5376354e-01
 -2.5902969e-01
 -4.0011710e-05
 -2.3020026e-01
  4.6965197e-05
  1.8973472e-02
 -6.8341551e-06
  6.0191405e-06
 -3.4777167e-05
 -2.1053931e-05
  7.7933692e-06
 -1.9864581e-05
  2.7176546e-04
 -3.0888339e-05
 -6.5893087e-06
 -1.8693141e-05
 -9.7866894e-07
 -4.9898728e-07
 -5.4796208e-05
  4.8529703e-02
 -1.8378158e-05
 -3.5143290e-05
 -5.0526369e-06
  2.0990648e-05
 -2.8106126e-05
  5.8325793e-05
  1.9221108e-05
 -1.2222938e-04
  3.9213512e-05
  5.5409622e-05
 -3.4913890e-06
  1.9733608e-05
  8.4675507e-05
  1.9521560e-06
 -2.2050925e-05
  6.8103063e-06
 -3.5523932e-05
  7.6283693e-05
  1.2745381e-04
  7.6464466e-06
  6.9197144e-05
 -4.8790433e-05
  1.9930880e-05
  6.8394795e-02
  2.1380121e-04
 -1.8420678e-05
 -6.7306450e-05
  4.6978272e-05
 -1.9193517e-06
  2.7153819e-05
  4.0249655e-05
 -2.2989303e-01
  5.1223400e-05
  4.2410444e-05
  1.2129568e-06
  1.4235836e-04
 -1.4497305e-05
  8.1282833e-06
  8.8142433e-06
 -5.5452902e-06
 -4.2637462e-06
 -3.0458228e-05
  1.7917793e-05
  2.2341932e-05
  2.5979645e-05
  3.4260817e-02
  1.3826565e-01
  2.9732137e+00
 -1.9181231e+00
  9.4939280e-01
  1.2744517e+00
  3.2440419e+00
 -1.8893364e-01
 -9.5273054e-01
  1.9744867e-01
 -9.8750418e-01
 -1.3322480e+00
 -1.0510521e-01
 -1.4354606e-01
 -5.6957394e-01
  6.4166576e-01
 -1.1994467e-01
  3.9445159e-01
  1.3680267e+00
 -7.6547003e-01
 -4.7396457e-01
  6.9269824e-01
  1.8088552e+00
 -5.0469023e-01
 -3.4635633e-01
 -2.3934603e+00
  1.0295391e+00
  2.2105935e+00
  1.4756421e-03
 -3.7405884e-01
 -2.4512552e-02
 -1.7267045e+00
 -1.7805569e+00
  2.5949426e+00
  3.9535549e+00
 -3.0091000e-01
 -1.3656940e+00
  3.2198247e-01
 -3.4574088e-01
 -1.5729347e-01
 -4.7042993e-01
  3.4270328e-01
  8.2099533e-01
  3.8379773e-01
 -6.0041040e-01
  5.7268876e-01
 -7.5306797e-01
 -1.8178695e-03
 -9.0205616e-01
 -4.2237557e-02
 -6.0588652e-01
  2.0281126e-05
  7.1074057e-01
  2.1994774e-05
 -1.2331901e-01
  1.4214398e-04
 -1.1305669e-04
 -3.2711607e-06
 -9.5013947e-06
  3.1199900e-04
  5.6373756e-05
 -1.9980962e-05
  9.5780724e-06
 -7.6413617e-06
 -3.4587189e-05
 -1.7406313e-05
  3.6670287e-06
 -2.0746767e-05
 -2.1225354e-05
 -6.1619075e-06
 -6.3356005e-05
 -1.4207457e-05
 -2.0699390e-05
 -1.8625939e-05
 -7.9575504e-05
  8.3847186e-07
 -4.1691105e-06
 -7.9339804e-07
 -1.8916295e-05
  1.5477908e-05
 -3.9566796e-05
 -6.3718394e-06
 -1.9701154e-05
 -1.3334584e-07
 -6.8496236e-05
  3.9991600e-04
 -2.0990447e-05
  7.9234142e-06
  5.9127410e-06
  1.2939085e-05
 -6.8370660e-05
 -7.2928406e-06
 -5.2161131e-06
  1.9763064e-04
  6.5054810e-06
 -3.4030523e-05
  2.8319701e-06
 -5.2378650e-06
  4.3674804e-06
 -9.8040555e-06
  6.1614170e-05
  3.0481047e-05
  3.6992712e-06
  5.4909424e-06
 -5.6366298e-06
 -7.4591067e-06
  3.8214398e-06
  1.1942597e-05
 -7.7996548e-05
  6.5588785e-07
 -1.6002001e-05
 -4.8661474e-05
 -5.2909408e-02
 -1.5614699e+00
  1.6909659e-01
  1.2548794e+00
  9.8599333e-01
  6.1069366e-02
 -1.3576920e+00
 -2.2357760e-01
  4.2822796e-01
  1.3972327e+00
  1.1863621e-01
  1.8079681e-05
  8.9889979e-01
 -6.0413160e-05
 -7.1683007e-01
  1.6292900e-01
 -4.0546337e-01
  2.0599668e-05
  7.2248721e-01
  1.7023467e-01
  4.7028524e-01
  1.2366205e+00
  1.5426466e-01
 -2.7584234e-01
 -2.9338333e-01
  3.4727409e-01
 -3.5145193e-01
 -4.6536636e-02
  8.1872292e-02
 -1.7217402e-01
 -1.3647972e+00
 -5.7963926e-01
  1.0336576e+00
  6.9779068e-01
  6.1388940e-01
  1.0793617e+00
 -9.1161364e-01
 -2.2162333e+00
 -1.2184806e+00
 -4.6837395e-01
 -8.7772846e-02
  1.3403679e-01
 -3.1564966e-01
 -2.6047686e-01
 -2.4665279e-02
  2.3837698e-01
  4.7155517e-01
  2.0351952e-06
  3.7415633e-01
  3.5916400e-01
 -2.2956599e-01
  9.9826562e-01
  1.2863562e+00
  2.4089595e-05
  4.0998142e-02
 -3.5575381e-01
  3.1783181e-06
 -1.9217357e-05
 -6.8594777e-06
  1.9934099e-05
  5.4091590e-05
 -2.5193577e-04
  4.1408501e-05
  1.2029212e-05
  4.5574699e-05
  1.2221455e-05
  1.1161555e-05
 -3.9088773e-05
  2.1341213e-05
  5.7276934e-06
 -3.6674926e-05
  8.5676829e-06
 -2.1982985e-06
 -9.6018340e-08
 -9.5719814e-05
  4.3264508e-06
 -3.4092266e-06
 -3.2407734e-05
  6.6490816e-06
  1.5704079e-05
 -7.7687690e-07
  1.0417218e-04
 -8.9405703e-06
 -2.9369965e-05
 -1.1084678e-06
  5.0090515e-05
  1.3311722e-05
  5.1161619e-06
 -5.0529590e-05
  2.0685591e-05
 -4.8585553e-06
  3.4741304e-06
 -1.6320442e-05
  3.9151037e-05
  1.1927396e-05
  3.7152015e-06
 -3.3881792e-05
  4.5565812e-06
  1.9384628e-05
 -2.5923850e-05
 -1.7102888e-05
  6.6187669e-05
  3.4876397e-05
 -2.9988762e-05
 -8.0776321e-05
  2.2983741e-06
 -3.4584991e-05
 -1.8510982e-05
 -7.0926390e-06
 -1.2132939e-05
  1.2430497e-05
  9.6076292e-05
  6.7884027e-04
 -1.5504369e-02
  4.0882052e-05
  6.7058229e-03
 -2.0493877e+00
 -8.0658710e-01
  2.7698874e-01
 -3.2312754e-01
  3.7364140e-01
  3.0237794e-01
 -6.6173926e-02
 -4.2707658e-01
 -3.5843495e-01
  4.6869054e-01
  2.4344690e-01
 -5.9919808e-02
  9.4141763e-01
  1.6714894e-05
 -1.4535002e-01
 -1.7436151e-01
 -3.0859622e-01
 -6.3330692e-01
  1.2867648e-02
  9.4706005e-01
  1.4313682e-05
  3.4311485e-01
 -7.6237360e-05
 -1.2320650e-01
  5.2160390e-02
  1.1593380e-05
 -6.7581904e-01
  1.6194572e+00
  2.0699596e+00
  1.4046505e-02
  4.1895887e-01
  7.5979572e-04
 -9.5463838e-05
  8.2986906e-02
  3.3045068e-01
 -1.0668739e+00
  1.7770191e-01
  1.2888192e+00
  2.0483705e-01
  7.1683955e-01
  2.7671356e-03
 -6.0132094e-02
  3.1533554e-01
 -2.3977296e-05
 -2.0582612e-04
 -4.2520151e-06
  4.6359096e-02
  1.3725285e-05
  2.7276860e-03
  9.8904920e-06
  5.8285781e-04
  3.0696253e-06
  2.1731818e+00
 -1.0707408e+00
 -2.5591335e+00
 -8.8311720e-01
  5.8895242e-01
 -4.0698728e-01
  1.2359338e+00
 -6.9602776e-01
  8.2563311e-01
 -4.3624304e-02
  2.0005774e+00
 -2.1567805e-01
 -8.0916554e-01
 -9.0118825e-01
  4.3374863e-02
 -3.4790400e-01
 -1.5314500e-01
 -2.5918366e-02
 -7.7917826e-01
  7.4918651e-05
  3.1103423e-02
 -2.6962307e-01
 -1.1643266e-01
 -1.1965927e+00
 -3.9479449e-01
 -1.2330253e-01
 -6.5290058e-01
 -4.9670219e-01
  2.0285906e-01
  2.2779973e+00
 -7.6445198e-01
 -1.3583437e+00
  1.1714294e+00
  1.5722207e+00
  2.7603140e+00
  4.1719285e-01
 -9.0221423e-01
 -1.8077879e+00
  9.3449259e-01
 -8.6012997e-02
 -3.3356237e-01
  1.6562381e-01
 -1.1623429e+00
  2.1781918e-01
  9.7407395e-01
 -2.4420610e-01
  5.8149481e-01
  3.9452378e-04
 -6.2420435e-02
  2.1443637e-03
 -1.7651078e+00
  7.0848078e-01
 -1.5977587e+00
  1.1403002e-01
 -8.2191013e-02
 -5.0344568e-04
  7.5733537e-06
  3.9804378e-05
 -4.2707143e-05
  1.0964130e-06
 -2.4912391e-05
 -1.1377024e-05
 -1.1630564e-05
  1.4599868e-05
 -2.5652380e-05
 -4.5317407e-05
  1.0673990e-05
  4.3121949e-05
  1.2943679e-05
 -5.1041818e-05
 -4.3936334e-06
 -6.3540842e-06
 -5.8658648e-06
 -8.0572914e-05
  1.4085039e-05
 -2.4587134e-05
  6.0680441e-06
  2.0599998e-06
  1.3205142e-05
  1.0770907e-05
 -4.2393083e-05
 -8.0269808e-07
  1.0824014e-05
 -1.1789323e-05
  3.3222448e-05
 -7.2371331e-05
  6.9357702e-06
 -1.9649608e-05
 -9.5466303e-06
 -3.3291033e-06
  3.0951114e-06
  2.9853540e-05
  1.3939607e-05
  4.3049087e-05
  9.3889194e-06
 -1.9063335e-05
 -3.9154625e-06
  1.2619695e-05
  1.1732622e-05
 -3.6412537e-05
  4.3344698e-05
  5.4917848e-05
  7.0090420e-05
 -2.1309444e-05
  6.9793650e-06
 -3.5142286e-06
 -4.1413034e-05
  3.6749894e-05
  2.7776359e-05
 -2.8289694e-06
 -1.3109265e-05
 -9.5976829e-06
  1.6396810e-01
 -3.7051144e-01
 -6.2039292e-01
 -3.6342567e-01
  1.1415032e-01
 -1.7021840e-02
  1.3659961e+00
 -2.0403779e-01
  2.2003214e-01
  7.6406634e-01
  5.4783064e-01
  4.1308067e-05
  3.6239647e-03
 -1.0856705e+00
 -2.0360219e+00
  5.1575983e-01
 -1.5940599e-01
 -3.0341982e-06
 -1.1812547e+00
  5.4673618e-01
  7.7019031e-03
  1.8045706e-01
  9.7495690e-02
  1.5369089e+00
  2.5591788e-01
 -1.6981721e-01
 -2.8670063e-02
  1.6729994e-01
  1.8858778e-05
  3.8925964e-01
 -1.0155538e-03
  3.4485808e-01
 -4.2877913e-02
 -1.1356653e-01
 -3.6278933e-01
 -2.4088415e-05
 -1.6245143e-01
  2.1953782e-01
 -2.5341362e-03
  3.2837281e-01
 -2.0158963e-02
 -7.1861602e-02
 -5.1770574e-01
  1.3246059e+00
  4.7176036e-06
  3.8728389e-01
 -1.7917696e-02
  1.9211977e-05
 -1.3911659e-06
  9.9943543e-05
  5.1463693e-01
 -1.1045795e-02
 -3.8539553e-03
  3.3987326e-05
  4.4565573e-01
  1.5694966e-05
 -1.4167813e+00
 -3.0799482e-02
  3.7753519e-03
 -8.0666089e-01
 -1.4418693e+00
  3.5865929e-02
 -1.1476496e+00
  9.7567052e-01
 -8.1190485e-01
  1.5872184e+00
 -3.6131732e-02
  1.3384478e+00
  5.6408203e-01
 -1.4319683e-06
  3.7927648e-01
 -1.4251701e+00
  5.9475404e-01
  5.1987785e-01
  3.2297638e-01
  1.2935540e-05
  1.0849499e+00
  1.0015702e+00
  1.1529690e+00
  8.2954276e-01
 -8.5226595e-01
 -8.4844398e-01
 -1.9391112e+00
 -1.5407825e+00
  2.3751222e-02
 -2.3758567e-03
 -3.4562720e-04
 -3.8086668e-01
 -8.1353933e-01
  1.5814152e-01
 -4.2984077e-01
 -1.4868378e-05
  1.0018954e-01
 -3.7919316e-01
  2.7421242e-01
  4.3097562e-01
  5.6274569e-01
 -1.5251454e+00
 -3.5184216e-01
  1.5025758e+00
 -7.2100449e-01
  2.2675838e-01
 -6.8692261e-01
  1.0528833e-03
 -5.0285816e-01
 -6.6490193e-06
 -2.1771986e+00
  1.1776844e+00
 -4.0686357e-01
  1.9177495e-04
 -5.9919849e-02
 -5.7493567e-01
 -1.2174322e-01
  5.9605371e-03
  1.3923806e-01
  8.4900461e-02
  2.6638341e-01
 -2.1677647e+00
 -3.9667830e-01
 -2.2117060e-06
  9.0202940e-01
  8.8963091e-01
 -7.5906432e-01
  1.5801875e-01
  8.2721061e-07
  5.8213037e-01
  3.2856507e-05
 -8.0765349e-06
 -4.1785446e-01
 -1.5390347e-04
 -1.3594901e-02
 -1.2785592e-04
 -8.9522786e-02
 -8.0608851e-01
 -1.2295041e-04
  1.3174221e-02
 -7.5148366e-02
 -1.3760796e+00
  1.7301096e-01
  1.0509117e+00
  3.3063196e-05
 -3.5278472e-01
 -2.4191375e-05
  1.3300109e-05
  1.8601815e-04
  1.2756799e+00
 -1.3171842e+00
  1.7935801e-05
 -4.0159084e-06
  6.1405051e-01
  1.0780917e-02
  5.1770484e-01
 -8.1558689e-02
  1.3177993e+00
  1.8191138e-02
 -6.5084375e-02
 -1.4128051e-04
 -1.8475337e-05
  1.0487355e+00
 -9.7443080e-06
 -3.8567830e-02
 -7.0167835e-06
  1.2238139e-05
 -9.5832929e-02
  6.9606118e-05
 -4.2683976e-05
  3.8686143e-05
 -8.7281012e-07
 -9.6668264e-06
 -1.0429324e-06
 -2.1304323e-04
  6.8278501e-07
  4.0017921e-06
 -1.2761063e-04
  3.1246756e-05
 -1.1021370e-05
  1.0796960e-05
 -1.4312511e-05
  4.1243933e-05
 -2.8149347e-05
  8.8693341e-06
 -1.4226202e-05
 -4.2634551e-06
  2.5968013e-05
 -1.4978709e-05
 -4.6272286e-05
  8.4527619e-06
 -3.1848776e-05
 -2.8933007e-05
  9.9417075e-06
  8.7786543e-07
 -2.0774301e-04
 -7.4509571e-06
 -2.9792842e-05
 -3.3694425e-05
 -2.0868411e-04
 -4.0167415e-05
  9.0956564e-06
 -1.3110282e-05
  1.4157671e-05
  1.2257925e-05
  3.1914515e-05
  2.7863965e-05
  1.3030643e-04
 -5.2854493e-06
 -1.2664452e-05
  2.2217755e-06
 -1.0655468e-05
  7.3275660e-06
 -6.8978989e-05
  7.0441088e-06
 -2.5455109e-04
  9.2554692e-05
 -6.5141789e-06
 -2.1709766e-06
  2.9983717e-06
 -2.5277543e-05
  3.8918761e-06
  1.9638814e-05
  2.1845073e-05
  2.2997531e-07
  1.4483583e-05
 -2.5435213e-05
  8.7002772e-06
 -1.8378487e-06
 -3.1192609e-05
 -4.4263579e-05
  7.7936282e-05
 -9.0160565e-06
 -3.9542745e-05
 -3.6971708e-06
  1.8612462e-06
 -4.1566738e-05
 -1.4973841e-05
 -8.9979858e-06
 -4.0005212e-05
  1.3531901e-05
  1.4308319e-05
 -8.6081054e-06
 -3.6675137e-06
  6.8124127e-06
 -6.7599681e-06
  1.1493551e-05
 -1.2240326e-05
 -5.9344798e-06
  2.4780573e-07
 -1.0244807e-05
  9.3184835e-06
 -2.5275700e-05
 -1.4776635e-05
 -9.1028969e-06
  2.0699856e-05
  4.1624338e-05
 -3.2622804e-06
 -1.3916788e-05
 -4.8957685e-05
 -1.1160088e-05
  8.1744929e-06
 -7.9904321e-06
  1.2884727e-04
  1.7087710e-05
 -5.8770497e-06
  3.7400652e-05
  2.5385874e-05
 -7.1450144e-05
  6.8928725e-06
 -7.2399394e-07
 -1.2762551e-05
 -1.4005804e-05
  1.1281112e-05
 -2.5131569e-05
 -5.1775689e-05
 -1.1809334e-05
  2.5831534e-06
  2.9109184e-05
 -3.4833985e-05
 -4.6297405e-06
  1.5226310e-06
  1.1518203e-05
 -1.4883122e-05
 -1.5313668e-05
 -3.3200768e-06
  7.2620685e-05
 -7.4418349e-05
 -4.2075884e-05
 -6.4908476e-05
 -1.8982968e-04
  1.1556459e-05
  2.0928774e-05
  4.7186080e-05
  5.8691239e-05
 -5.0047933e-05
 -2.0129670e-04
  1.9950685e-05
 -4.1341750e-06
 -1.2152573e-05
 -2.9068367e-05
 -6.5466570e-06
 -1.3137120e-05
  7.2496177e-06
  2.8117292e-05
 -2.2434686e-05
 -3.9114500e-05
 -2.3054647e-04
 -3.6337402e-05
 -1.1727738e-05
  4.4045180e-05
 -1.5923063e-06
  1.5143325e-05
 -4.1478568e-05
 -1.1845054e-07
 -1.1775726e-04
 -1.2957779e-04
 -7.4913289e-05
 -2.8597706e-06
  1.9035715e-05
 -8.1248972e-06
 -2.1407235e-04
 -1.5512236e-05
 -5.1549741e-06
 -4.5472058e-05
 -1.6450364e-04
  4.8795187e-07
 -1.3371960e-05
 -6.8342073e-05
 -7.1384660e-05
 -1.7619469e-04
  9.6711065e-06
  7.5812291e-06
  4.6026994e-06
 -2.6379221e-05
  3.3932629e-05
 -1.8104567e-05
  1.3037275e-05
 -6.4371970e-06
 -1.9652894e-06
 -3.0600026e+00
 -5.1498324e-01
  5.7869804e-01
  6.6984242e-01
  3.3093041e-01
  5.5400747e-01
  3.4270135e-01
  1.2344150e-02
  1.2384963e-01
 -2.7169702e+00
  4.6806362e-01
  1.9495076e-01
 -2.9483261e-02
  7.9872680e-01
 -5.3280294e-01
 -5.0057727e-01
  3.8394412e-01
 -1.0745378e+00
 -1.4462580e-03
 -2.0837991e-01
 -1.4049011e-01
  1.0638205e+00
 -3.9081419e-01
 -1.9882867e+00
 -6.5365314e-01
  1.4896750e-01
 -1.0413383e-03
 -1.4294863e+00
  6.2573773e-01
  2.1005943e-02
 -1.7263505e-01
 -9.8799014e-01
 -1.3073264e+00
 -1.5660813e-04
 -5.8883935e-01
 -7.6719463e-01
 -2.4263865e-01
 -1.2011882e+00
  1.1086291e-01
  6.2373087e-02
  3.6956444e-01
 -3.9825881e-01
 -3.9792296e-01
 -5.5690683e-02
  1.0721437e-03
  1.2360775e-01
 -1.9587523e-01
  8.2056404e-06
 -6.4237095e-02
  9.1226821e-06
 -8.9583702e-02
 -1.3139015e+00
  2.8709337e-01
  6.7223409e-05
  3.1910905e-01
  6.1956320e-02
 -1.0406558e-05
 -2.6438084e-01
 -1.2096328e-01
  6.1875824e-02
 -8.6504281e-01
  9.6818008e-02
  3.6393631e-05
  1.6910659e-01
  3.7053337e-03
 -7.7234201e-02
  5.3266119e-02
  3.0491751e-02
  3.7128997e-05
 -3.1373728e-04
  1.2148234e+00
 -1.0569489e-01
 -4.9266905e-01
 -1.1775190e-01
 -4.4765040e-02
  9.9848777e-01
 -3.5684694e-02
 -3.1199733e-02
 -1.4650469e-01
  5.8871513e-04
  7.7215564e-06
 -7.6151830e-01
 -3.6472741e-01
  4.9164131e-01
 -7.9566765e-01
  8.5629625e-03
  6.8463605e-06
 -8.9857006e-01
  1.0737300e+00
  1.3805261e+00
  5.3835261e-01
  4.3633050e-01
  1.5913059e-04
  2.2173028e+00
  5.7734783e-06
  3.2267690e-01
  5.9515566e-01
  5.8108819e-01
  6.1091465e-01
  1.2265404e-01
 -1.1561115e-06
 -4.1602616e-05
 -3.0667880e-03
  7.9814090e-06
 -2.9636481e-06
  7.6604432e-05
 -1.4239432e-01
  4.6536003e-05
  6.2071934e-04
  1.1610919e-05
  4.2072274e-06
 -2.6868545e-06
 -1.0379625e-01
 -5.8495975e-01
  8.9383893e-06
 -6.0212702e-01
  1.3653224e+00
  1.4750798e+00
 -1.3311800e+00
 -7.6783466e-01
 -1.0200140e+00
  2.1890688e+00
 -8.6466765e-01
  2.5084784e-04
 -4.6192098e-01
  5.8309197e-01
  1.6028268e+00
 -1.1867157e+00
 -4.5107758e-05
 -6.2369293e-01
 -4.3787870e-01
  8.6015089e-06
  1.1967639e+00
  1.6756526e+00
 -4.1480948e-06
  1.2252942e+00
  1.5711720e-01
 -7.0230909e-02
  1.4480542e-05
 -9.6818238e-01
  4.2751309e-01
 -5.0025368e-01
 -3.7327610e-04
 -1.7749503e-01
 -1.8080884e+00
 -7.6774795e-06
 -1.4798141e+00
  2.9131096e-02
  8.1010306e-01
 -1.4592339e+00
 -7.3368651e-01
  1.1835662e+00
 -4.7111291e-01
 -3.4499130e-06
  5.3602481e-01
 -1.0087126e+00
  1.3734088e-05
  7.8531665e-01
 -4.0519612e-05
 -3.4277143e-03
 -5.0922018e-02
  1.2519309e-05
 -5.0449912e-06
  3.6189715e-05
  1.6171109e-02
  3.2272641e-05
  1.2839590e-05
 -4.2473024e-05
 -6.9846469e-01
  3.3090982e-01
  3.9337954e-01
 -9.0882438e-01
  4.6727791e-01
 -4.2963099e-01
  4.7610843e-01
 -7.3538977e-01
 -2.3934041e-01
 -1.5050483e+00
 -4.9091473e-01
  1.4044305e-05
 -6.3546258e-01
 -4.0455621e-01
  2.6683518e-01
  1.0331558e-01
 -8.1659220e-03
  5.0880142e-02
 -1.6783495e-02
  2.8902323e-06
 -1.5596360e-01
  2.6570215e+00
  8.4012789e-01
  3.4525561e-01
  6.6668403e-01
 -6.4477247e-01
  3.8386129e-06
  6.9367230e-01
 -8.6176586e-01
 -5.5241189e-04
 -1.5369080e+00
 -2.5660064e+00
 -1.0343188e+00
 -2.9009221e+00
  3.8993132e-01
  3.6371771e-01
  8.2262203e-02
 -8.7619328e-01
  7.3792946e-01
 -2.9257730e-01
  1.2832271e+00
  2.5203416e-01
 -1.0134812e-01
  1.1929715e+00
 -2.0266718e-05
  7.0997427e-05
 -5.0440556e-01
  2.0837438e-01
 -1.2348610e-01
  2.5560195e-04
  1.5653501e-01
  2.2802906e-04
  8.6319511e-04
 -3.7284040e-05
  2.6875187e-02
 -2.2470664e-04
 -3.0711704e-01
  1.5057365e+00
 -5.7030678e-01
 -1.2529870e+00
  1.3505447e-01
  2.7423200e-01
  1.1490326e+00
  1.5723293e+00
 -8.5247092e-02
  3.7421632e-01
 -9.2090362e-01
  6.2335772e-03
 -2.1109250e+00
 -1.1292226e+00
 -4.5452997e-01
  1.1127441e+00
 -6.9699579e-01
  5.5171727e-06
  2.8198156e-01
 -8.5699465e-03
 -1.3547959e+00
 -1.5422903e+00
  6.9292730e-01
 -1.5106938e+00
  8.9971030e-01
 -7.0370488e-02
  7.7918506e-01
  1.0993736e+00
  4.0516019e-01
 -1.6229178e+00
 -1.4453202e+00
 -5.5442160e-01
  1.8652745e+00
  6.4345312e-01
  1.7912586e-01
 -1.3033664e-01
  1.2804241e+00
  2.0032918e+00
 -8.1773862e-07
 -3.7102982e-01
 -6.1730992e-02
  7.6077265e-01
 -3.6498943e-01
  1.4405808e+00
 -1.7898116e+00
  4.8562494e-01
  1.2782909e-01
  1.7607639e-02
  9.8257196e-06
 -1.7817274e-05
 -1.4948480e-01
 -2.1103368e-05
 -9.6782023e-01
 -4.6686861e-03
  1.5739608e+00
  8.2259727e-01
 -2.2201442e-05
 -1.4110356e-04
 -2.4777288e-05
 -8.5710875e-05
 -8.1292579e-05
 -1.0946239e-04
  1.9702527e-05
 -7.9157790e-06
  8.2772094e-05
 -2.5858821e-05
  2.6242780e-05
  2.7608179e-05
 -1.7265720e-05
  2.8520917e-05
 -8.6149950e-05
  3.0472693e-05
 -2.0513346e-05
 -8.2621351e-05
 -1.1790829e-05
  2.8556349e-05
 -2.0158439e-05
 -2.6535801e-05
 -2.8936844e-05
  5.2444448e-05
  2.8398226e-05
 -2.5662413e-05
 -1.4355303e-04
  1.2074826e-06
  1.7086313e-05
  4.5715313e-04
  8.9090026e-05
  1.9895509e-05
  2.3972189e-05
 -1.6968271e-04
 -8.6517837e-05
 -9.3572889e-06
 -3.0454597e-05
  2.4783880e-05
  8.1539743e-05
 -1.4742091e-05
  2.2417156e-05
 -8.8386205e-06
 -3.0343992e-05
 -1.0207479e-05
  1.2700510e-05
  1.1210368e-05
  8.4176208e-05
  6.7205241e-05
 -2.9132212e-05
 -9.2588707e-06
  2.4968682e-05
  1.4190013e-06
 -1.7501465e-06
 -3.0438177e-05
  1.1561655e-05
 -8.1317863e-05
  2.3709690e-05
  8.2352608e-06
  2.8431828e-05
  3.0822674e-05
  2.2421520e-05
 -2.3347904e-05
  2.8917029e-05
  1.1403365e-05
 -2.1447917e-05
  1.2015377e-05
  9.0635593e-05
 -9.4964300e-05
  4.4450735e-05
 -5.3299013e-06
 -9.0922251e-05
 -5.7773788e-05
 -8.7800399e-05
  2.9618932e-05
  1.3541135e-05
 -2.0594560e-05
 -1.2615930e-05
  2.5414993e-05
  2.8101105e-05
  2.0011610e-05
  1.8023768e-05
  1.6195116e-07
  2.4657349e-05
 -2.6249701e-05
  8.7238423e-06
 -5.4094662e-06
  2.4010253e-05
  2.8515384e-05
 -2.3773944e-05
 -1.4298107e-05
 -3.2306212e-05
 -2.1366588e-05
  9.8116686e-07
 -2.9704370e-05
  2.9602985e-05
  1.8028983e-05
  6.4887508e-06
 -4.8199663e-06
  2.9490366e-05
  8.8956738e-05
 -6.9613052e-06
  4.3833488e-06
 -2.6375199e-05
  7.0431070e-06
 -2.8664641e-05
 -6.4026906e-05
  2.8291477e-05
 -2.6667003e-05
  1.0345713e-05
 -1.5697849e-05
 -9.0508884e-06
 -1.1084332e-05
  4.5302054e-01
  1.2364438e+00
  1.2853652e-01
  5.0615960e-01
 -9.5779926e-02
 -1.8111207e-01
 -2.4679928e+00
 -2.2321390e-01
  4.1360097e-04
 -4.4342132e+00
 -8.3365136e-01
  1.7452471e-01
 -2.3094787e-04
  8.5314328e-05
 -3.7947729e-01
  2.5784072e-02
 -1.0013187e+00
  5.8669895e-01
  7.5814527e-01
  1.0809013e+00
  5.1570290e-01
 -4.9877796e-02
 -1.9707141e-02
 -1.1115320e+00
 -8.1673384e-01
 -1.5795900e+00
 -8.4017777e-01
  5.5431023e-02
 -5.1644552e-01
 -6.1364803e-03
 -3.5151893e-01
 -1.3498118e+00
  7.2963011e-01
  3.0979004e-02
  6.4178908e-01
  7.1093913e-05
 -1.8519928e-01
 -2.3488889e+00
  1.2330627e+00
 -1.5191804e+00
 -1.5489711e+00
 -9.2568052e-01
  2.9752409e-02
 -2.1330690e-01
  1.9613646e-01
 -8.2391226e-01
  4.9170905e-01
  2.2663609e-03
  2.2003169e-01
  8.8667090e-05
 -7.1132821e-01
  2.0955563e-01
 -9.0427583e-01
  1.4228182e-05
  1.1886896e-05
 -2.9079281e-04
  5.8858353e-01
 -8.0360585e-01
  1.6171262e-01
 -5.6544906e-01
  8.5304058e-01
 -5.4642603e-02
 -5.7753611e-01
 -1.9191294e+00
 -3.9066099e-02
 -5.6935310e-01
 -1.8617115e+00
 -6.5501702e-01
  6.8513519e-01
  3.5176089e-01
 -5.3730202e-01
 -2.6022279e-01
 -8.0856317e-01
  2.3952371e-02
  1.2975657e-01
 -9.0732530e-05
  8.3938944e-01
  1.1193194e+00
 -6.9918448e-01
  6.7764640e-01
 -3.7813464e-01
 -5.5102140e-02
  1.2667637e-01
 -3.7646058e+00
 -3.7599224e-01
 -3.6194828e-01
 -3.5255626e-01
 -7.5771171e-01
  7.2109860e-01
  1.0063622e+00
 -7.2619714e-02
  1.2241568e-03
  3.8079929e-01
  2.8750939e-02
 -1.7793033e-01
 -5.9948963e-01
 -3.1567772e-03
 -1.1980284e+00
 -1.1744956e+00
  4.8960183e-02
 -1.9116783e-04
 -1.1306943e+00
  3.4644276e-01
  3.5612724e-05
  1.0907658e+00
 -2.5291953e-03
  1.4540806e-04
 -2.3134588e-01
  9.5894063e-01
 -2.9282173e-05
  5.8356029e-01
  9.1363443e-05
  1.0509336e+00
  1.1892289e-01
 -4.4338440e-04
 -1.2693675e+00
 -6.7309541e-01
  1.1678322e-01
  1.1026249e+00
  1.2754717e-01
  4.9285691e-02
  7.9573876e-01
  1.0902587e+00
  1.5035866e-01
 -3.9831838e-01
 -1.5776671e+00
  2.3452611e-01
  8.0329806e-02
  3.4785184e-01
  1.7114231e-05
  7.5605363e-05
  5.8433321e-05
  1.5047991e-01
  1.3876075e-01
 -3.0519433e-05
  2.1747341e+00
 -7.0443535e-01
 -3.9041135e-01
 -1.5168008e-06
 -4.3211234e-01
 -6.1602336e-01
  1.7765712e-02
 -2.0433905e+00
  2.1239297e+00
  2.8596315e+00
 -1.2862002e+00
  5.4379827e-01
 -8.9133017e-02
 -3.0150488e-01
 -1.8008115e+00
  9.3110681e-01
 -5.3835255e-01
 -5.7303436e-02
 -4.2224035e-01
 -2.5311285e-01
 -2.5583278e-02
 -3.1007203e-01
  8.0370461e-04
  4.3940410e-01
  1.1684938e-02
  5.4777986e-01
 -3.0727941e-05
  6.8808222e-01
 -2.8183958e-05
 -5.1172692e-03
 -4.3203831e-06
  2.2890934e-01
  6.0719252e-03
 -7.0443720e-01
 -2.3714006e-01
 -1.8654752e-01
 -8.4820443e-01
  2.0228066e+00
  6.5301865e-01
 -1.5135193e+00
  8.0478494e-05
  3.7503468e-03
 -4.4716620e-01
  4.2233273e-01
  4.2451953e-05
  9.5553142e-01
  9.4451904e-02
 -2.1945187e-01
 -1.1644936e-01
 -1.8453529e-03
 -2.7998336e-05
  7.6323974e-01
 -2.4078311e-02
  3.3440354e-04
 -2.0977488e-01
  1.1797588e+00
 -2.1673954e-01
 -1.2973325e+00
  6.3732125e-02
 -1.0279350e-02
  2.1254054e-04
 -2.9134303e-01
  2.3079221e-03
  1.5362170e-01
  4.1841501e-01
 -1.4707208e+00
  5.5640125e-01
 -3.0632164e+00
 -2.9895626e-05
 -4.9807346e-01
 -1.7016790e-03
  9.0903231e-05
 -1.2135178e+00
  7.0195063e-04
 -1.0766282e+00
 -1.8044595e-01
 -4.9789256e-01
  5.0721977e-05
  7.2022712e-01
  4.6109229e-02
 -6.9338977e-01
  3.3126619e-01
  2.8951379e-05
  1.3583454e+00
  3.6770352e-06
 -1.2603937e+00
 -2.5257794e-05
 -2.8016178e-05
  5.7007553e-04
 -9.5831382e-01
 -4.6748035e-03
 -7.7180934e-01
  2.9915884e-05
  3.9596940e-04
  1.5881850e-01
 -3.6888620e-01
 -1.4860467e-04
  6.9244377e-02
 -2.1079638e+00
  3.4097034e-01
  2.5944619e-05
 -1.6855526e-01
 -1.1574455e-01
 -1.2374891e+00
  5.7561046e-01
  1.7477113e-01
  9.8466939e-01
 -1.6891044e+00
 -2.9157305e-05
 -6.7348346e-02
 -7.6496315e-01
 -1.4336258e-03
  2.6509374e-02
 -1.4748822e-01
  8.8018298e-01
  4.8814518e-06
 -9.9900293e-01
 -1.2966196e-04
  1.8936339e-01
 -1.1097531e+00
  8.0599481e-01
  5.0161201e-01
  1.4388095e-01
 -1.0326961e+00
  5.2877750e-02
  1.7952846e-01
 -1.7357619e+00
  1.5030789e+00
  1.2168504e+00
 -1.9659801e+00
 -8.0225599e-01
 -9.4586420e-01
  9.6879715e-01
  3.1497565e-01
 -6.2178528e-01
  9.3463689e-02
 -2.9717974e-05
  1.2035578e-05
  2.4768129e-05
 -3.4224737e-01
  2.1359251e-01
  1.8556102e-05
 -1.5054709e-04
 -1.3934500e+00
 -9.0983194e-05
 -1.9107132e-05
  2.4198274e-05
 -1.4176586e-04
  1.6850046e-05
 -2.6393232e-05
 -6.9610542e-07
  2.6312633e-05
  2.6143227e-05
 -3.1448066e-01
 -2.8687422e-05
  3.0464686e-05
 -7.8503683e-05
  3.0528365e-05
  2.6271891e-05
 -2.2078015e-05
 -1.3290823e-05
 -1.1338944e-06
 -6.0191678e-06
 -1.6344911e-05
  1.9026586e-05
 -2.8613316e-05
 -7.1175446e-06
 -3.2278149e-05
 -2.2832550e-05
 -2.9335422e-05
 -1.3895659e-04
  1.8125838e-05
 -1.7440632e-05
 -1.9535898e-06
  2.6786642e-05
  3.0259955e-05
  6.0552061e-06
 -8.2085922e-04
  2.3392846e-05
 -1.6151142e-05
  8.3449022e-06
 -2.1226866e-05
 -7.2221906e-06
  2.7845352e-05
  4.7157035e-05
  2.2402598e-04
  2.8894772e-06
 -2.9586983e-05
  1.7495278e-05
 -3.0375841e-05
  1.4383289e-05
 -8.2745624e-05
 -4.8004476e-06
 -2.2178670e-05
 -8.9315930e-05
  1.6703672e-05
  2.5696007e-05
 -3.0431365e-05
  1.3523987e-05
 -1.0571640e-05
 -2.5631180e-05
  3.1905991e-01
 -1.0368637e+00
  1.6574748e-01
 -1.5456703e-01
 -9.1004032e-01
  9.3172264e-01
  5.0193779e-02
 -1.1303374e+00
 -1.9052764e+00
  4.2103893e-01
  5.3464711e-02
  1.1066868e+00
  1.2740935e-01
 -1.1176870e+00
  1.7533966e+00
  1.4077543e-01
 -1.1175216e+00
  7.1970332e-01
 -2.9485542e-01
  1.0558101e-03
  1.0034577e-01
  5.7261590e-02
 -1.6590077e-04
  1.0299473e-01
 -3.0470392e-01
 -1.1092182e+00
 -6.9673479e-05
 -1.7338895e+00
  1.5511468e-01
  1.2654814e-01
 -3.1853294e-01
  2.4683122e-01
 -2.0702413e-01
  5.0545275e-01
  1.4071058e+00
  2.1254210e-04
 -1.8637761e+00
 -2.8269789e-01
  9.6729314e-03
 -1.7189658e-01
  4.9036714e-01
  3.5427775e-02
  1.2677350e+00
 -9.5117843e-01
  1.4211181e-01
 -5.8590591e-01
 -1.7780318e+00
  2.4155054e-06
 -2.6565301e-01
 -3.0505771e-05
  1.2275974e-01
  3.8443855e-04
 -6.8595517e-01
  2.3188584e-05
 -6.6511059e-01
 -1.7158811e-01
 -2.0882257e-05
 -3.0517362e-05
  7.3656383e-06
 -6.8835730e-06
 -2.2117232e-05
 -2.5819914e-05
 -2.0003488e-05
  9.0728454e-06
 -3.0173867e-05
  1.8835808e-05
  9.9013314e-06
 -2.2004551e-05
 -2.0704987e-05
 -2.9504325e-05
 -1.3704531e-05
 -1.3862198e-06
  1.1456989e-07
 -1.1224442e-05
  3.0069872e-05
  3.9487923e-06
 -1.5502272e-05
 -2.9813582e-05
 -2.6736565e-05
  1.7013175e-05
 -2.1990094e-05
 -2.9925455e-05
  9.0057503e-05
  1.6589311e-05
  4.0687676e-04
 -1.0816657e-05
  1.3785819e-05
 -6.0940638e-06
 -1.2675178e-05
 -2.5399911e-05
 -9.0549056e-06
  2.0089630e-05
 -2.2387341e-05
 -2.8334543e-05
  2.2668202e-05
  2.5350788e-05
 -1.4170327e-05
 -6.5566724e-06
  2.3029690e-05
  2.8214228e-05
 -3.7149912e-05
  3.0345593e-05
 -7.2871575e-05
  2.5646188e-05
 -1.3709781e-06
 -2.0449711e-06
 -2.4536181e-05
  6.4830907e-05
  2.1211192e-04
  9.9970330e-06
  2.8086472e-05
 -3.0486286e-05
 -3.0819538e-01
 -2.4664207e-01
 -1.6207407e+00
  6.7886919e-02
 -9.9209920e-02
 -7.6310689e-06
 -1.2469567e+00
 -7.0064831e-01
 -1.8395992e-01
  9.3203688e-01
  4.4839445e-01
  1.1848681e-01
 -1.1318548e+00
 -2.9324321e-02
  1.0839539e+00
  6.4410195e-02
  1.3019536e-02
  1.4903210e-04
 -2.7696872e-01
  5.0161707e-01
  2.2341275e-01
 -9.6169099e-02
 -5.8577454e-01
  3.0005619e-01
  2.4383040e-01
 -1.5735896e-01
 -2.3532094e-01
  7.9252034e-02
  6.4911580e-01
  1.9948244e-01
 -1.9334190e+00
  3.5969028e-01
 -1.2351494e-02
 -3.7300763e-01
 -1.6823106e+00
 -1.4139395e-06
  1.1663713e+00
 -3.4417276e+00
 -9.3871725e-01
 -9.0938598e-01
  7.0394892e-01
 -5.1932771e-02
  1.9275682e+00
 -1.0603669e-01
  4.1146344e-01
  3.6764693e-01
 -7.0460451e-01
  4.3917985e-06
  7.8817633e-05
  3.5184115e-02
 -7.8626914e-07
  2.9411552e-02
  3.1008583e-01
  1.3207548e-04
  7.1107888e-01
  7.5244398e-06
 -8.5807794e-01
 -1.8007430e-01
  5.1033095e-02
 -9.8915309e-01
  5.0965335e-02
 -7.1762464e-05
 -2.7245636e+00
  1.5405891e-05
 -8.4674686e-02
 -5.4569411e-01
 -1.4303863e+00
  1.5139914e-04
 -1.2803423e+00
  1.9525620e-05
 -2.7660730e-05
  2.2535120e-05
 -9.9342507e-01
  3.1611047e-04
  2.0864718e-01
  3.0371377e-05
 -1.9268742e-01
 -4.8683271e-01
 -3.8282514e-01
 -9.9652356e-01
  3.0803838e-01
 -1.2524093e+00
  2.1457015e-05
  4.6139359e-01
 -3.8137627e-01
 -1.7380075e-03
  2.1157190e-01
  2.5715306e-02
  9.3196207e-01
  6.3312584e-01
 -1.8635514e-04
  2.7090391e-05
  1.9607444e-01
  6.1064895e-02
  9.1903466e-01
  2.8474915e-01
 -3.4314987e-01
  7.0182866e-01
 -2.6199885e-02
  1.0421667e-01
 -1.5071108e-05
 -1.7482692e-02
  2.6683079e-05
 -1.6737857e-05
 -1.3762462e-04
 -3.5326990e-05
 -9.9090569e-02
 -1.8179036e-05
 -3.0544412e-05
  8.0481455e-05
 -1.8477724e-05
 -3.1523876e-02
  1.8654623e+00
  9.0225214e-01
 -1.4023018e-01
  9.9512494e-01
 -1.2789352e-01
 -1.8709250e-01
 -7.7950829e-01
  3.2444692e+00
  1.3309888e-02
  1.5022824e+00
  3.4921256e-01
  2.5908129e-02
 -9.0128332e-02
  3.4918758e-01
  4.5245525e-04
  8.4388693e-04
  1.5378805e+00
 -2.7900513e-05
  5.5827969e-01
 -7.8407686e-07
 -6.0784829e-01
 -2.1621727e-03
  2.0421315e-03
 -1.3121560e+00
 -1.1298716e+00
 -1.9113135e-01
 -2.8479621e-01
 -1.0108907e+00
  7.5399733e-01
  3.6784425e-01
  8.0549560e-02
  1.8102314e-01
 -4.0765185e-02
 -9.2797452e-01
 -7.3196423e-01
 -1.1104021e-06
 -6.1308946e-02
 -4.9124646e-01
  9.8330063e-01
 -7.5717157e-01
 -1.0592924e+00
  4.5339224e-01
 -2.6723888e+00
 -4.7771373e-01
  4.8724055e-02
 -5.7037249e-02
 -8.1138447e-02
  2.4433219e-05
 -4.0923710e-06
  2.7578133e-05
  7.4185157e-01
 -1.2023583e-01
 -3.6793205e-01
 -1.3086128e-05
  1.6058241e-03
 -8.3419756e-05
  7.6007287e-05
  1.7752869e-05
  2.0085356e-05
 -3.0451674e-05
 -2.6315327e-05
  2.1476922e-05
  4.8799950e-05
 -2.8872650e-05
 -3.0202609e-05
  2.2087850e-05
  3.7822297e-06
 -2.4992056e-05
 -1.7618127e-05
 -2.4697285e-05
 -1.6653898e-05
 -1.4085195e-05
  2.9154722e-05
 -1.5611948e-05
 -3.3163058e-04
  1.9610028e-05
  7.6978046e-07
 -1.5144439e-06
 -1.5823813e-05
  2.6689893e-05
  1.8000952e-05
  2.7142150e-05
 -2.9364090e-05
  2.4782805e-05
  2.0559595e-05
 -1.7130224e-05
 -2.3406117e-05
 -2.8027403e-06
 -2.9395780e-05
 -2.1419057e-05
 -3.4565767e-06
 -2.8676441e-05
 -2.8450359e-05
  1.4335875e-05
 -2.2090073e-05
 -3.1802407e-05
 -2.5138354e-05
  8.7847198e-05
  1.3180914e-05
  2.5336592e-05
  2.8714499e-05
  2.6521020e-05
  8.6871214e-06
  2.3987264e-05
  8.8928799e-05
 -2.1031839e-05
 -1.9485985e-06
 -2.5921679e-05
  2.5629210e-05
  3.4331631e-06
  2.5604784e-05
 -2.9098597e-05
  3.0518273e-01
 -3.4190488e-01
 -2.1970780e+00
  1.0348815e+00
 -5.7091419e-02
 -1.9626459e-01
  2.3955852e-02
  4.1085044e-01
  1.3186473e+00
 -1.1573426e+00
  4.3714148e-01
 -5.6289351e-01
 -2.4369536e-02
 -2.9240417e-05
 -5.3319265e-03
  1.2791567e+00
  4.9193940e-01
  9.8075822e-02
  1.4865067e+00
  2.7459775e-04
 -6.9985241e-01
  1.9978715e-01
 -1.0867791e-05
  5.6182873e-01
  7.1776885e-01
 -5.7847387e-01
  1.4264678e-05
  1.5928351e+00
  2.1128087e+00
  1.8569720e-01
 -6.2286586e-01
  6.2990379e-01
  1.6789966e+00
  9.3997180e-01
 -3.2866889e-04
  2.8732118e-01
  1.4110923e+00
 -4.7822019e-01
 -3.3817910e-06
 -5.9431005e-01
  4.0230808e-01
  5.0604898e-01
 -3.2885882e-01
  7.0852655e-01
  3.2040969e-01
 -7.5336471e-02
  2.0126314e-01
  1.3873794e-05
 -1.8055888e-01
  1.5145412e-03
 -3.4029670e-02
  3.6780707e-06
  2.3391385e-02
  2.4589113e-05
  3.9096080e-06
 -3.0127028e-05
 -2.0536729e-05
  7.6282318e-05
 -3.5702870e-03
  8.0067832e-05
 -1.0645313e-02
 -2.5124455e-04
  3.3402093e-02
  1.1286648e-03
  1.9874848e-05
  1.9968950e+00
  4.3853396e-01
  2.6773825e-05
  9.7561139e-01
 -4.8101992e-05
  8.9965332e-03
  3.2705229e-02
  1.0924371e+00
 -1.9296676e-04
  2.1970846e-01
 -1.5244004e-04
  2.0132821e-04
 -4.4877011e-02
 -8.1964899e-03
 -3.4046225e-02
 -3.3566085e-04
 -2.0223470e-02
  4.2436212e-02
 -6.0903163e-05
 -1.3685765e-04
 -1.7163298e-05
 -4.2259753e-02
 -8.2300574e-02
 -1.9579363e-04
 -8.3876159e-03
 -4.4638140e-04
 -7.5354998e-05
 -8.9304602e-05
 -1.2606229e-01
 -9.3680474e-06
  2.7568990e-06
  2.8646323e-01
 -2.6380485e-01
  8.9230733e-03
 -2.5829769e-04
 -2.9802070e-05
  2.5832707e-02
 -1.2568490e-01
 -2.6708241e-05
  2.4792027e-05
 -9.0366237e-05
 -7.1320892e-06
 -2.8010529e-01
  3.0048104e-05
 -4.2088986e-06
 -7.0700276e-05
  8.8541914e-05
  8.6496810e-05
 -2.9107005e-05
  8.7759854e-06
  7.7808227e-06
  2.6893473e-05
  1.6438504e-05
  6.1892692e-06
 -2.8009756e-05
 -2.7530006e-05
  2.0492485e-05
  1.7629203e-05
  1.7912444e-05
 -3.2215419e-01
 -1.8384504e-06
  6.7020019e-06
 -3.5060995e-05
  4.0759155e-06
 -1.0431238e-04
  2.1631533e-07
 -4.0502066e-08
  3.1270997e-06
  3.6418039e-06
 -2.4959734e-05
 -9.8949431e-06
 -8.7606513e-06
 -1.0569518e-05
 -2.7609431e-05
  1.9234631e-05
 -9.0070127e-05
  1.7881741e-05
  2.7293396e-05
 -1.0659656e-04
  1.8863046e-05
  5.9916474e-06
  9.6658359e-06
  5.3616905e-06
 -7.8447383e-06
  5.6554732e-06
 -2.6613454e-05
  9.0672933e-07
 -2.9834095e-05
 -2.4970248e-06
 -6.8029226e-06
  2.4533472e-05
 -1.0656292e-06
 -1.0266340e-05
 -2.9331417e-05
 -1.4418171e-05
 -1.3594296e-04
  3.0498833e-05
  1.7524864e-05
 -2.6829604e-05
 -5.1859856e-06
 -2.7511443e-05
  2.4211959e-05
  5.8150763e-06
  2.1889606e-05
 -9.1075570e-05
 -2.8923072e-05
 -4.4408166e-06
  4.1150301e-07
  2.1080688e-05
 -1.0524745e-05
 -1.2943329e-05
  1.1524148e-04
  1.8681834e-05
 -5.4004002e-05
 -1.5549369e-05
  2.7489130e-05
 -2.4696950e-05
 -2.8601979e-05
 -2.9960747e-05
 -1.2382580e-04
  2.4136718e-05
  3.8764239e-05
 -4.2909011e-05
  2.1683465e-05
 -1.1450427e-05
  2.6459818e-05
  2.5540769e-05
 -2.9699089e-05
 -1.6950606e-05
  9.1891652e-06
  8.9955895e-05
  2.2873168e-05
 -8.7164108e-06
  2.5447169e-05
  2.9186309e-05
 -2.3613529e-05
  1.0005065e-05
 -3.0012261e-05
  1.5202971e-04
 -7.0618044e-05
 -4.2263368e-06
 -1.8220690e-05
  1.7642204e-05
 -1.1603200e-05
 -1.2320057e-05
  1.9608009e-05
  2.0640611e-05
 -2.7861801e-05
 -3.0203832e-05
  2.3173883e-05
 -1.6457067e-05
  1.6797479e-05
  2.6419608e-05
  2.9444211e-06
  1.4304273e-05
 -2.2409802e-05
  4.0782215e-06
  2.9664885e-05
 -1.6052059e-05
  8.5732037e-01
  3.3622915e-01
 -8.0642617e-01
  1.6029334e+00
 -1.8893000e+00
  2.0295807e-05
 -2.3341599e+00
  1.4537193e+00
  1.6939795e+00
 -2.3714073e+00
  5.1694208e-01
  8.8231474e-01
  9.2598039e-01
  6.7420840e-01
  1.7630394e-01
  7.6944016e-02
  7.8972405e-01
  1.4393942e-05
 -1.9996420e-02
  1.3599128e-01
  7.1852817e-05
 -5.3603840e-01
  1.2343410e+00
 -3.7526865e-03
  1.3907422e-05
  1.0584999e+00
 -1.2292508e-05
 -1.4822029e-01
  4.4686170e-03
 -9.6412569e-02
 -2.9610856e-02
  9.0176202e-02
  1.0410402e+00
  1.1610834e-01
 -2.9864295e+00
 -3.0125195e-05
 -1.8800920e-01
  9.9381141e-02
 -1.7104797e-01
 -8.6184686e-01
  1.6452637e+00
  2.4577376e-02
 -1.8760240e-01
 -8.3840686e-01
  6.9501252e-06
  1.2603270e-02
  3.6438080e-04
 -4.9346479e-05
 -6.9723505e-01
 -2.0574094e-05
  3.9661647e-04
 -7.7529901e-01
  3.7879980e-01
 -2.6461497e-05
  1.4952646e-03
  2.9810790e-05
 -1.9035295e-01
  5.8489484e-01
  4.2296831e-02
 -4.2740181e-01
 -1.6085956e+00
  1.1566457e+00
 -8.5926038e-01
 -5.7563025e-01
 -7.7722706e-02
  4.1438736e-02
 -5.9304035e-01
  2.4010313e+00
 -4.2754641e-01
  3.1416398e-03
 -9.3329990e-01
 -4.4028208e-01
 -4.3072516e-01
  1.2447241e-01
 -1.7362297e+00
 -1.3338317e+00
  1.7543261e+00
 -4.4883749e-01
 -4.1631404e-01
  5.9321368e-01
 -1.6390686e+00
 -1.5388438e+00
 -4.1856288e-06
  1.1809753e+00
  1.8333989e+00
 -2.6884764e-01
 -9.8823059e-01
  3.4298432e-01
  2.4674134e+00
 -4.0061510e-01
 -4.6643883e-01
 -8.6998172e-02
  3.7440535e-01
 -4.2269272e-01
  2.3088705e-02
 -1.3619171e+00
 -1.6420470e+00
 -7.7037764e-01
  5.4155953e-02
  2.3957343e+00
 -6.6733479e-01
  1.4983091e+00
  1.4517295e+00
 -3.0546205e-05
  1.2868844e-01
  2.9121707e-05
 -9.6460283e-01
  2.7471342e-05
 -8.9773554e-01
  9.1087466e-05
 -2.3672476e-01
 -1.1548826e+00
 -2.5099766e-01
 -1.8618673e-01
 -5.8983076e-02
  2.4096755e-05
  2.2418857e+00
  1.4390488e+00
 -4.0871748e-01
 -2.6897629e-05
 -3.0464339e-01
 -3.1122670e-01
  7.9131454e-02
  3.3384315e-06
 -1.4925659e-01
  2.4043742e-04
  8.2652926e-01
 -1.3347946e+00
 -1.1570678e+00
 -4.5192927e-01
  1.0401880e+00
  6.0639620e-01
  1.1441245e+00
  5.0600535e-01
  7.4551098e-02
 -9.9128202e-02
 -6.1523980e-01
 -2.1072365e-02
 -1.3711128e-01
 -1.2488519e+00
  1.7787066e-01
 -1.5991069e-01
  6.4361024e-01
  1.1074419e-01
 -1.2209738e+00
  1.0037376e-02
  1.4923831e+00
 -1.1129531e-05
 -6.0277534e-01
 -9.5792001e-01
  2.8278148e-05
  4.7922400e-01
 -9.3779284e-01
  1.7201165e+00
  5.3572506e-01
  4.2454305e-01
  4.2366669e-06
 -1.9690791e-01
 -5.5014026e-01
 -4.7321919e-01
 -2.9509997e-01
 -5.7660855e-05
 -2.3417799e-05
 -8.6255241e-05
  8.8404316e-01
  7.8671561e-05
  3.3601891e-06
 -5.5861543e-04
  7.7888450e-05
 -3.0149613e-05
  1.5086784e-05
 -2.0776059e-05
  2.6479482e-05
 -2.3852144e-05
 -2.9239505e-05
 -8.7934706e-05
  2.7616714e-05
  5.0590283e-05
  1.9463383e-05
  6.7456031e-06
  2.8889990e-05
 -1.4602952e-05
  8.2455817e-06
  1.3972086e-05
  1.5888952e-05
 -2.7579506e-05
 -2.1968324e-05
 -2.6358033e-05
 -1.6097129e-05
 -2.9428604e-05
 -2.8247805e-05
  1.4247994e-05
 -2.7058835e-05
 -2.6356052e-05
  2.6457232e-05
 -1.6739785e-05
 -1.7922092e-05
  1.6578648e-05
  9.7650391e-06
 -2.2365797e-05
 -1.5247399e-04
  1.0892985e-05
  1.5444364e-05
 -2.2042959e-05
  1.1745593e-05
 -2.7546857e-05
  2.7305779e-05
  1.2586328e-05
 -3.0462932e-05
 -2.6439418e-05
  2.6512898e-05
  7.1527706e-05
  8.6022674e-06
  1.0937580e-05
  2.9094992e-05
  2.3401593e-05
 -7.6298202e-06
 -1.6690134e-05
  1.8517638e-05
  2.8987775e-05
  2.6101266e-05
  2.5728450e-05
  2.8653541e-05
  6.6400407e-06
  1.7214875e-01
  1.4964814e+00
  6.8844565e-06
  2.5841990e-02
 -1.8995540e-01
  2.4786659e-05
  1.4680151e+00
  2.1338805e-04
 -2.9798613e+00
 -1.9128298e-05
 -4.1568077e-01
 -1.9778610e-05
  3.1336215e-01
 -2.6585344e-06
  1.6259763e+00
  1.4411315e+00
 -3.3018834e-05
  1.4598436e+00
 -1.1347185e+00
 -2.4520741e-01
  1.1699777e-04
  6.7102633e-06
  2.8862083e-05
 -6.3098770e-01
  1.7356722e-01
 -3.0613706e+00
 -8.6308599e-01
 -1.7046744e+00
  9.8271066e-06
  2.9887820e-05
  6.3804729e-04
  3.5586706e-01
  1.5114806e+00
 -1.5198615e+00
 -1.3107274e-01
 -6.0664925e-06
  1.9236462e-01
 -2.9689882e-05
 -8.9199060e-01
  1.7660265e-01
 -3.3753135e+00
  7.7236815e-05
  3.2346485e+00
 -2.9952008e-01
 -2.7099245e-06
  8.4145264e-05
 -6.2201226e-01
  6.6000104e-01
  2.1286302e+00
  1.8444389e-05
 -1.4523896e+00
  1.8003193e+00
 -3.0369991e-05
 -3.7025231e-01
 -4.5803538e-01
  1.4589688e-01
 -1.4534385e+00
  4.6027163e-01
  1.1818869e+00
  1.7494869e-01
 -7.5637364e-01
  7.7951953e-02
  2.0325561e+00
  2.7610495e-06
  8.1710809e-01
  7.7328485e-01
 -2.4856925e-05
  1.0251060e+00
  1.9574795e+00
 -5.2194518e-01
  1.3135837e-01
 -1.6529428e-05
 -5.0840285e-03
 -1.2918049e+00
  6.8798715e-01
  5.1992750e-01
  1.2469330e+00
 -7.0468026e-01
  1.3428096e-01
 -3.0127838e-05
  8.1028086e-01
 -5.2836257e-01
 -2.1953192e+00
  4.9429068e-01
  5.1414239e-01
  2.5369620e-02
  1.2359809e+00
 -3.8821910e-02
  6.0984957e-01
 -5.8863956e-01
  4.4131878e-01
  3.0179670e-05
  6.8038756e-01
 -5.4971051e-01
 -1.8339301e-02
  6.3792704e-06
  1.1861061e+00
 -1.1755412e+00
  1.1805896e+00
 -5.9414535e-05
  7.2361288e+00
  1.2074964e+00
  1.2536833e-01
 -2.0379834e+00
 -1.1401778e-01
  1.4594229e+00
 -1.2128192e+00
  6.4437729e-01
  1.0000461e-01
  4.6235761e-01
 -2.5501385e-01
 -1.5934582e+00
  2.2636817e+00
 -1.0033719e-01
  2.1711581e+00
 -8.2070512e-01
 -1.7799787e-01
 -2.5100493e+00
 -3.3915157e+00
 -1.4262122e-01
 -1.3933944e+00
  1.7131224e+00
  7.5783843e-01
  1.5853669e-01
 -9.6441507e-01
  1.7688886e+00
  1.4403182e+00
 -1.0542465e+00
 -1.0853717e+00
 -1.4343730e+00
  2.2251539e+00
 -3.0348170e-01
 -1.4518619e+00
 -1.8657413e+00
  6.6459268e-01
  1.5164905e+00
 -1.0015258e+00
  2.5065951e+00
 -8.6187226e-01
  1.0000001e-01
 -1.0183326e+00
  8.9737475e-01
 -2.9041135e+00
  1.0000007e-01
  6.0125500e-01
  7.5811666e-01
  8.5420817e-01
  1.6878682e+00
  9.3118501e-01
 -1.7090453e+00
 -5.5262256e-01
 -1.2758795e+00
  1.5381873e+00
 -1.1532607e-01
  1.7974801e-01
  1.0150061e-01
 -1.1304723e-01
  1.9767097e-01
  1.0125046e+00
 -1.0904399e-01
 -6.8126595e-01
  6.0124969e-01
  3.7359619e-01
 -6.8949461e-01
 -1.0172434e+00
  1.8025475e+00
 -5.5364990e-01
  6.0431719e-01
  1.1014516e+00
  6.2919790e-01
  5.5755496e-01
  8.9459062e-01
 -2.4747374e+00
 -1.7527336e-01
  3.7852347e-01
 -1.0003055e-01
  2.9254067e-01
  1.5490506e+00
  1.6457309e+00
 -1.0015243e-01
 -1.0770721e+00
  7.0725751e-01
 -1.6202981e+00
 -1.9629595e+00
 -1.5641174e+00
 -1.6387205e-01
 -9.5033526e-01
  9.7968620e-01
 -1.0000912e-01
 -1.8336021e+00
 -4.4725189e-01
 -1.7982776e+00
  1.8335983e+00
 -2.4688113e-01
  9.5155478e-01
 -5.9830421e-01
  1.9414942e+00
  6.2884516e-01
 -2.0623028e-01
  1.1940306e+00
 -1.0287285e+00
 -7.7939790e-01
 -1.1508789e+00
  3.0875331e-01
 -1.0576780e+00
 -1.1847439e+00
 -2.5863585e+00
 -1.7766696e+00
 -2.8337851e-01
  1.2474252e+00
  7.4586368e-01
  3.0925459e-01
  1.3346058e+00
 -6.5545505e-01
  1.9816202e+00
 -1.9403031e+00
 -1.4648501e+00
  1.0681762e+00
 -2.0280433e-01
 -1.4612279e+00
  1.1593627e+00
  1.4790628e+00
 -4.0466937e-01
  1.0000830e-01
  1.3764793e+00
 -2.1494749e+00
 -1.3187820e+00
 -7.2966319e-01
 -2.4251096e+00
  1.3218845e+00
  6.9167221e-01
  1.4572982e+00
 -8.5137361e-01
 -5.3884423e-01
  2.8938596e+00
 -4.1999359e+00
  1.7366691e+00
 -4.2015800e-01
  1.2554320e+00
  6.5399164e-01
 -1.4328468e+00
  2.5936887e+00
 -5.3400192e+00
  1.7610451e+00
  8.0413043e-01
 -1.9580687e+00
  3.0637302e+00
 -1.0000365e-01
  4.7272298e-01
  9.1668689e-01
 -2.2501571e+00
  2.7487168e+00
 -5.7789272e-01
  2.6311646e+00
  7.7655381e-01
  1.0690306e+00
  1.5668727e+00
 -5.1497006e-01
 -8.3782852e-01
  2.1914272e+00
 -2.2166135e+00
  1.0000046e-01
  1.7016366e+00
 -2.9517708e+00
 -2.7354124e+00
  1.8017704e+00
  7.6207173e-01
 -1.1710116e+00
 -1.9976798e-01
 -1.9591584e+00
 -2.2478194e+00
  2.7715081e-01
 -2.2234077e+00
 -1.5613596e+00
  1.0000001e-01
  2.9298050e+00
 -1.0002633e-01
  1.9935904e+00
 -9.2156982e-01
 -2.0020142e+00
  2.8157766e+00
  1.0000060e-01
  1.0000281e-01
  3.9471021e-01
  5.4852122e-01
  2.2728581e+00
 -1.0772094e+00
  2.2954707e+00
  4.2581573e-01
  3.6216428e+00
  1.6603382e+00
 -4.1619253e+00
 -1.4724367e+00
 -5.9385753e-01
  2.5871712e-01
 -1.8733827e+00
  2.8495481e+00
 -1.1669294e+00
 -1.1482924e+00
  7.8696823e-01
 -7.4383032e-01
 -1.5916505e+00
  5.0409144e-01
  3.2747202e-02
  3.2747202e-02
  3.2747202e-02
  3.2747202e-02
  3.2747202e-02
  3.2747202e-02
  3.2747202e-02
  3.2747202e-02
  3.2747202e-02
  3.2747202e-02
  3.2747202e-02
  5.7079595e-02
  5.7079595e-02
  5.7079595e-02
  5.7079595e-02
  5.7079595e-02
  5.7079595e-02
  5.7079595e-02
  5.7079595e-02
  5.7079595e-02
  2.3829302e-02
  2.3829302e-02
  2.3829302e-02
  2.3829302e-02
  2.3829302e-02
  2.3829302e-02
  2.3829302e-02
  2.3829302e-02
  2.3829302e-02
  1.1378043e-02
  1.1378043e-02
  1.1378043e-02
  1.1378043e-02
  1.1378043e-02
  1.1378043e-02
  1.1378043e-02
  1.1378043e-02
  1.1378043e-02
  1.6105510e-02
  1.6105510e-02
  1.6105510e-02
  1.6105510e-02
  1.6105510e-02
  1.6105510e-02
  1.6105510e-02
  1.6105510e-02
  1.6105510e-02
  8.9295218e-03
  8.9295218e-03
  8.9295218e-03
  8.9295218e-03
  8.9295218e-03
  8.9295218e-03
  8.9295218e-03
  8.9295218e-03
  8.9295218e-03
